solver_type L2R_L2LOSS_SVC_DUAL
nr_class 2
label 1 2
nr_feature 91774
bias -1
w
0 
0 
-0.2402423525913684 
0.03663418088845433 
0 
-0.04735050727030844 
0.1924628955497837 
0 
0.6247237530597436 
0.3238541079405953 
0.448292213830859 
0 
-0.03454360597374911 
0.3400371571770067 
0 
-0.07431209143898294 
0 
0 
0 
0.07229072317264727 
0.06143838316855225 
0.07303660991196617 
0.06143838316855225 
0.2553975170666917 
0.06143838316855225 
0.06143838316855225 
0.06143838316855225 
0.06143838316855225 
0.06143838316855225 
-0.2183722614037232 
0.06143838316855225 
0.06143838316855225 
0.06143838316855225 
0.06143838316855225 
0.03437025614307787 
0.08024943797330576 
0.06143838316855225 
-0.03579963415684503 
0.02348609760221502 
0.02348609760221502 
0.02314289548717975 
0.02348609760221502 
0.02348609760221502 
0.02348609760221502 
0.02348609760221502 
0.399670072222834 
0.2780859607274127 
0.02348609760221502 
-0.09530238623581003 
0.1761433555932528 
0.02348609760221502 
-0.04130939829936582 
0.02348609760221502 
0.02348609760221502 
0.02348609760221502 
0.04266436810197241 
0.04266436810197241 
0.04266436810197241 
-0.1172210429421769 
0.3220884545073005 
0.04266436810197241 
-0.0660903507019112 
0.04266436810197241 
-0.0104067168875073 
0.2041347571616881 
0.04266436810197241 
0.04266436810197241 
0.04266436810197241 
0.04266436810197241 
-0.03178351117634029 
0.1601257709672682 
-0.1243941225315453 
0.064109786230014 
0.04266436810197241 
0.04266436810197241 
0.04266436810197241 
0.04266436810197241 
0.04266436810197241 
-0.03185602377865458 
0.0188110548047535 
0.0188110548047535 
0.1945685379207583 
0.1543510578255725 
0.0188110548047535 
0.141056027392793 
0.0188110548047535 
0.0188110548047535 
0.1093669699857285 
0.0188110548047535 
0.0188110548047535 
-0.02799464323510367 
0.0188110548047535 
0.1348099615596378 
0.1104786550327256 
-0.03493500098480515 
0.0188110548047535 
0.1415850004061456 
0.07364263398652154 
0.07364263398652154 
0.07364263398652154 
0.07364263398652154 
0.1367948559871074 
0.07364263398652154 
0.172742342699909 
0.1451004224793573 
0.0249987235531717 
0.07364263398652154 
-0.001917617581034438 
-0.01368111860231949 
0.07364263398652154 
0.01083104979096998 
0.2534103736611998 
0 
0 
0 
0 
0.08768139073902492 
0 
0 
0.2456634227882987 
0.3118729883177757 
0.0007703508225196189 
0.07068227851601579 
-0.05580818654947875 
0 
0 
0 
0 
0 
0 
0.2203723768739881 
0.2580365706988134 
0.08768139073902492 
0.1683179695190452 
0.1951022106890737 
0 
0 
-0.1662084397219288 
0 
0.3894897891847928 
0 
0 
0.02523873877268231 
0 
0.3894897891847928 
-0.02131141226903441 
0.2752412673793271 
0 
0.2775323483958436 
0.2022307952991017 
0 
0.1023097029168363 
0.3702116375470826 
0 
-0.02905536352675146 
0 
0 
0.02722484447502817 
0 
0.1201213583457406 
0 
0 
0 
0.03330940227284221 
0 
0.4963045873074383 
0 
0.2024619215345174 
0 
0 
0.05065174658688524 
0 
-0.1323794568064316 
-0.09417766936234183 
0 
-0.007356357280090603 
0.004344824741871484 
0.01142696048169688 
0 
-0.04819244644179065 
0 
0.006834407745289698 
0 
0.4997888333865633 
0 
0.3378891887073549 
0 
0.388824143970335 
0.06964092117344449 
0.2646457948721226 
0 
0.009881774945589677 
0.2961282495047825 
0 
0 
0.009437050578603825 
0.01001757098520921 
0 
0.07000125023835645 
0.05654559271098244 
0.1146770341281964 
0 
0 
0 
0.1998509481946056 
0.3510416392164783 
0.0006445717340646924 
-0.1602964466132536 
0.1012660885025494 
0 
0.1632647263146435 
0.225127537610984 
0.0006445717340646959 
0.1012660885025494 
0.01670718810557677 
0.01670718810557677 
0.01670718810557677 
0.01670718810557677 
0.0408194792915121 
0.06416357042385779 
-0.002148392859937355 
0.01670718810557677 
0.01670718810557677 
0.01670718810557677 
0.08696024116325919 
0.01670718810557677 
0.03082252482384837 
0.01670718810557677 
0.1969710237332984 
0.01670718810557677 
0.1760271976607529 
0.01670718810557677 
0.01670718810557677 
0.01670718810557677 
0.1978618153315848 
0.1689985118884675 
0.007124608781936665 
0.1867501388236996 
0 
0 
0 
0 
0 
0.01907892559476637 
0 
0 
-0.1096900663146876 
0.2710481312427934 
0 
0.04952095302075987 
-0.3551426013427336 
0.3702851545795873 
0.06472527421914591 
0 
0 
0 
0.1413603868603793 
0 
-0.09541031629359878 
0 
0 
0 
0 
0.02304778658078823 
0 
0.004288634596881892 
0 
0 
0 
0 
0 
0.113834741635397 
0 
0.2327032443662094 
0 
0 
-0.07894745057115315 
0 
0.03801059609960627 
0 
0 
0.4523547633667793 
0 
0.03435664550921602 
0.006409649459412345 
0.07395603483688012 
0.175572357660863 
0 
0.419510695439069 
0 
0 
0 
0.05141866862901426 
0 
0 
0 
0.02630969452383197 
0.1718443791244271 
0.1817344440499557 
0.02630969452383197 
0.1302953211352201 
0.01719448283021108 
0.01719448283021108 
0.01719448283021108 
-0.1222645192737347 
0.03054923400114984 
0.1565351050525841 
0.2368340301469819 
0.01719448283021108 
0.1783643392906544 
0.01719448283021108 
0.01719448283021108 
0.01719448283021108 
0.1258109343072973 
0.01719448283021108 
-0.3578228552455283 
0.06831426372588283 
0.01719448283021108 
0.01719448283021108 
0.01719448283021108 
0.01719448283021108 
0.01719448283021108 
-0.1945647545148766 
0.01719448283021108 
0.01719448283021108 
0.06385672016093126 
0.01719448283021108 
0.0878131181566973 
0.07177538335838965 
0.07177538335838965 
-0.3519091104237742 
0.07177538335838965 
-0.01493791060086245 
0.07177538335838965 
0.07177538335838965 
0.07177538335838965 
0 
0.1793003824849992 
0 
0.2967666475098878 
0.1863236465608082 
0 
0 
0.1664105272868911 
0 
0 
0.0885417206290174 
0.3206116323039831 
0.1759496373476078 
0.001653273234392988 
0.001653273234392988 
0.2892243916113264 
0.001653273234392988 
0.13120787448608 
0.001653273234392988 
0.001653273234392988 
0.001653273234392988 
0.001653273234392988 
0.01347209170824947 
0.001653273234392988 
0.02608676024952995 
0.0658304196152026 
0.02608676024952995 
0.02608676024952995 
0.02608676024952995 
0.02608676024952995 
0.02608676024952995 
-0.01366943947819209 
0.3582359822336602 
0.02608676024952995 
0.02608676024952995 
-0.21874915350909 
0.02608676024952995 
-0.227670943854073 
0.02608676024952995 
0.02608676024952995 
0.02608676024952995 
0.02608676024952995 
0.02608676024952995 
0.08319150979147595 
0.02608676024952995 
0.02608676024952995 
0.02608676024952995 
0.02608676024952995 
0.04026940848277216 
0.01355159861525002 
0.0248425104504518 
0.1400080980774464 
0.01355159861525002 
0.01355159861525002 
0.1851195181723886 
0.01355159861525002 
0.01355159861525002 
0.01355159861525002 
-0.07382289935483986 
0.0248425104504518 
0 
0 
0.07025094218298455 
0 
0.1206832343468797 
0 
0 
0 
0 
0 
0.1759456399865146 
0.1717143540581253 
0.07002982755579787 
0 
-0.07684515274216311 
0.1013926474337416 
-0.08379555409395624 
0 
0.1805978464192013 
0.0655738375956687 
0.1417865099273665 
0 
0 
0 
0.2854086700941114 
0 
-0.1015236421498055 
0 
0.03069342456856849 
0 
0 
0 
0 
-0.1213239973232001 
0 
0 
0 
0 
0 
-0.1450748692204733 
0.1960037280311598 
0.04857294135023671 
0 
0 
0.1561807342463096 
0 
0.03575113290633293 
0.03575113290633293 
0.03575113290633293 
0.09536033049892435 
0.03575113290633293 
0.03575113290633293 
0.03575113290633293 
-0.01928318258270991 
0.06878096369049923 
0.03575113290633293 
0.03575113290633293 
0.03575113290633293 
0.05622555167015496 
0.05306324055041818 
0 
0 
-0.05775416534455655 
0 
0 
0.1007866144664051 
0 
0.1823963261068121 
0 
0.09257432321814417 
0 
0.3502208282504254 
0 
0.1102687373814456 
0.08426842766733897 
0.2168916313335642 
0 
0 
-0.1349661183091974 
0.04155700993916199 
0 
0.1844559256347858 
0.4085849341816438 
0.08401636252262146 
0.1844143280538776 
0.08401636252262146 
0.2344433239087934 
0.01807384830780999 
0.01807384830780999 
0.04219994467090158 
0.04219994467090158 
0.04219994467090158 
0.04219994467090158 
0.04219994467090158 
0.002220359808593763 
0.1508525653331348 
0.5676393044615953 
0.06605926293090716 
-0.004040561438249353 
0.1759898332301477 
0.02869033897780595 
0 
0 
-0.09350097997099488 
0 
0.02869033897780595 
0.0633389249933555 
0.1969706095493189 
0.3329090535093882 
-0.04385405562460563 
0.08726552588459854 
0 
0 
0 
0.03752140236889764 
0.1772880741774167 
0.2585527619781623 
0.04386257408450868 
0.02976634774216448 
0.02976634774216448 
0.08776604622501197 
0.02976634774216448 
0.04543859429736681 
-0.02732877027065129 
0.02976634774216448 
0.2692548651225067 
-0.01268148784467185 
0.08273946068750285 
0 
0.06808826580058519 
0 
0 
0 
0.1631592183313079 
0 
0.1084207006955286 
0 
0 
0.3214719112250728 
0 
0 
0.06808826580058519 
0 
0.5477786358067489 
0.09479612492346658 
0.04646730760952815 
0.04646730760952815 
-0.07430483111630976 
0.3174446978848661 
0.04646730760952815 
0.05724412971114643 
0.04646730760952815 
-0.08018120349902531 
0.04646730760952815 
0.04646730760952815 
0.01916876530706089 
0.1050842851611471 
0.1050842851611471 
0.1050842851611471 
0.1050842851611471 
0.1050842851611471 
0.0168775027279499 
0.04656198534517322 
0.09456551433755328 
0.1050842851611471 
0.2358971789423556 
-0.03028393318227695 
0.1050842851611471 
0.1050842851611471 
0.1143816507025917 
0.2515133502490184 
0.01618398848096354 
-0.02976645121826619 
0.01618398848096354 
0.05687475012095396 
-0.1721553889753241 
0.1287402799233927 
0.01618398848096354 
0.01618398848096354 
0.01618398848096354 
0.2543070081225586 
0.1395592672672856 
0.01618398848096354 
0.01618398848096354 
0.01618398848096354 
0.01618398848096354 
0.01618398848096354 
0.0655019572947684 
0.0655019572947684 
0.0655019572947684 
0.0655019572947684 
0.141371010661543 
0.0655019572947684 
0.1322629444069413 
0.09745367268686222 
0.0655019572947684 
0.0655019572947684 
0.1816821919902918 
0.1101634455369637 
0.08491257055375648 
0.02292440689134864 
0.03400274623763545 
0.02292440689134864 
0.02292440689134864 
0.01918779527795092 
0.02292440689134864 
0.02292440689134864 
0.02292440689134864 
0.02292440689134864 
0.2728474912282208 
0.09218581904799446 
0.2217320490419682 
0.02292440689134864 
0.002482123216079694 
0 
0.0004537857687739407 
0 
0.08557998102228494 
-0.2409366267053691 
0 
0.4009749439617991 
0.4624971105962398 
0.2711539939934255 
0.08245517085974681 
0 
0 
-0.04800410851826716 
0 
0.0004537857687739407 
0 
-0.04741383102309656 
0 
0 
0 
0.08557998102228494 
0.08557998102228494 
0.1393440304486924 
0.3153174320808223 
0.09970019267968805 
0.3409007888981602 
0.09970019267968805 
0 
0 
0.05365395774083533 
0 
0 
0 
0 
0 
0 
0.1630085829901711 
0 
0.158286214458698 
-6.938893903907228e-18 
0 
0 
0.008766674238972363 
0.1821696951335229 
0.1408425299273222 
4.143609557642021e-05 
0 
0 
0.0561728585623437 
0 
0.2207553490743992 
0 
0.02922844516018613 
0 
0 
0.0146349080449549 
0 
0 
0 
0 
0 
0 
0.2498849085535154 
0.08754918086760016 
0.04386622061296882 
0.02970701621969993 
0 
0 
0 
0.1258999558545936 
0.0525742157855827 
0 
0 
0 
0.05664578490892899 
0.01323115588346428 
0.08297072315896797 
0.1064518469271422 
0 
0 
0.01719285442635468 
0 
0 
0.1236214243147754 
0 
-0.1005536940731053 
8.673617379884035e-19 
0.1407411249190994 
0 
0 
0 
0 
0 
-0.0358162347317429 
0 
0 
0 
0 
0 
0 
0 
-0.03067887636341687 
0.01047042854124012 
0 
0.1794274703511126 
0 
0 
0 
0 
0 
0 
0.08012704293084973 
0.06852227482048939 
0.09423537571224472 
0.1903962518403966 
0 
0 
0 
0 
0.05885750040627937 
0 
-0.01484335999508753 
0.04464324165970542 
0.04573413907292509 
0.2746160760981998 
0 
0 
0 
0 
0 
0 
0 
0.3733265620497124 
0 
0 
0.01066116862157255 
0 
0 
0 
0 
0.008221352421940054 
0.1415427188994675 
0 
0 
0 
0.1802799435989453 
0.01066116862157255 
0 
0 
-1.951563910473908e-18 
0.02066251561115915 
0.07714567487488659 
0.07714567487488659 
0.09892062406276844 
0.07714567487488659 
0.1337375756615546 
0 
0.2559738540139446 
0 
0 
0.01686783480102139 
0 
0 
0.001235223675080284 
0.2773024360192227 
0.05720541377653994 
0.0087187025596788 
0.03542167469724383 
0.2962339253558312 
0 
0 
0 
0.2219302215037354 
0.1747065942836378 
-0.04153985064212184 
0 
0 
0.0397034201659 
0.002222947799363991 
0 
0.02045798018616836 
0 
0.09271546387037337 
0.2147853477779042 
0 
0.1490704023558789 
0 
-0.02516342745573145 
0 
0 
0 
0 
0.0008302989867757014 
-0.003834864732494114 
0 
0.3711195410868831 
0.1388704229395631 
-0.09686853474611136 
0.0008302989867757014 
0 
0.3525770031183675 
0.3525770031183675 
0 
-0.03890385416405253 
0.1498677922453257 
0 
0 
0 
0 
0 
0 
0.03427869464946492 
0 
0.001212122642826184 
0 
0 
0 
0 
0.03427869464946492 
0.05805436653472291 
0 
-0.006344092988370598 
0 
0 
0.1192729439017761 
0 
0 
0.032692627661055 
0 
0 
0.03269262766105501 
0 
0 
0.03017634199487433 
0.08871856553738405 
-0.09559845054548308 
0.03017634199487434 
0.03017634199487434 
0.0532085173224575 
0.03017634199487434 
0.1829437063277063 
0.003030097321029481 
0.005353384948703232 
0.005353384948703232 
0.005353384948703232 
0.005353384948703232 
0.005353384948703232 
0.03757968724241623 
0.005353384948703232 
0.005353384948703232 
0 
0.2285543707690356 
0 
0 
0.1585527236549359 
0 
0 
0.3233017667289664 
0.01649415126287117 
0 
0 
0 
0 
0 
0.377479309556516 
0 
0.03011048562904842 
0.006089968933187834 
-0.0291105055252097 
0 
0.09871969071055449 
-0.1301526347466003 
0.09871969071055449 
0.09871969071055449 
0.09871969071055449 
0.1160317983546397 
0.1918893030421202 
0.09871969071055449 
0.03685585258479469 
0.03685585258479469 
0.03685585258479469 
0.03685585258479469 
0.03685585258479469 
0.01966433127667467 
0.03685585258479469 
-0.02898562683427724 
-0.04751270990126986 
0.1000390629263449 
0.03685585258479469 
0.03685585258479469 
0.02918770417054763 
0.02918770417054763 
0.2198768265389268 
0.06279636218975135 
0.2198768265389268 
0.02918770417054763 
0.1009560708426372 
0.2198768265389268 
0.02918770417054763 
0.02918770417054763 
0.02918770417054763 
0.07339507763129433 
0.1244449532696066 
-0.01617400574172002 
0.006022851898965267 
0.006022851898965268 
0.006022851898965266 
0.006022851898965268 
0.07339507763129433 
0.006022851898965268 
0.006022851898965268 
0.006022851898965267 
0.05251807773684718 
0.006022851898965268 
0.006022851898965268 
-0.01977457424325316 
0.0827569317115506 
0 
0.5731902498826029 
0.4546829455027273 
0 
0 
0.06927423680750076 
-0.3129755924022717 
0.06927423680750076 
0.06927423680750076 
0.06927423680750076 
0.06927423680750076 
0.06927423680750076 
0.06927423680750076 
-0.2030916668574317 
0.383572602705549 
0 
0.02017113070688212 
0.0554633898737695 
0.08616702488392135 
0.1793805370445731 
0.08055746434175591 
0.08055746434175591 
0.08055746434175591 
0.08055746434175591 
-0.1958730533495528 
0.08055746434175591 
0.08055746434175591 
0 
0 
0.03268937897910316 
0 
0 
0 
0.08978862912251463 
0 
0 
0.2950854290361213 
0 
0 
0.03268937897910316 
0.2237788702240952 
0.2781294051250673 
0 
0.1096610488596347 
0 
0 
0 
0.1863006628245612 
0 
0.09104229485379386 
0 
0.2809660859057367 
0 
0.01227233344092543 
0 
0 
0 
0 
0 
0.0116046527608343 
0 
0 
0 
0 
0 
0.09891396552253306 
0 
0 
0.1147729200749085 
0.1461850515774942 
0 
0 
0 
-0.1664486964431356 
0 
0 
0 
0.0227368225326203 
0 
0 
0 
0 
0 
0.3194787162236806 
0 
0.02017113070688212 
-0.008855310339522953 
0.02017113070688212 
-0.004008588848268854 
0.1493231422931093 
0.1493231422931093 
0.1493231422931093 
0 
0 
0.05808536156107203 
0.137995238908842 
0 
0.1306959331922864 
0 
0.1448707826854657 
0.4565945636778277 
0 
0 
0.03059672432120009 
0.05605770984562057 
0.02733924271235177 
0.02733924271235177 
0.1693740933375366 
0.03059672432120009 
0.02733924271235177 
0.02733924271235177 
0.02733924271235177 
0.02733924271235177 
0.02733924271235177 
0.08660887280522346 
0.03059672432120009 
0.04736356425164763 
0.004270104504015727 
0.04736356425164763 
0.04736356425164763 
-0.1545836656926424 
0.04736356425164763 
-0.03598516504547794 
0.04736356425164763 
0.04736356425164763 
0.04736356425164763 
0.04736356425164763 
0.04736356425164763 
-0.01813065481808588 
0.04736356425164763 
0.06637723126360923 
0.09010578360885546 
0.04736356425164763 
0.09134835584468894 
0 
0 
0 
0.000593474352653961 
0 
0.00379643364432156 
0 
0 
0 
0.2191408961819541 
-0.03103405894387 
0.007592677513174775 
-0.007375643071366617 
0 
0.3042669625639455 
0.3042669625639455 
0.376562305235173 
0.1225965839944023 
0.01563493345868155 
0.0711948314998621 
0.01563493345868155 
0.01563493345868155 
0.01563493345868155 
0.01563493345868155 
0.01563493345868155 
0.02549763909178698 
0.3116460221646212 
0 
0 
-0.2050631971929652 
0 
0 
0.09682555867255603 
0.3046112186514645 
0 
0 
0.05677577125312366 
0.04134193499173688 
0 
0 
0.1141796670302813 
0.1141796670302813 
0.1141796670302813 
0.1720213296323888 
0.1141796670302813 
0.1141796670302813 
0 
0 
0.4641546498025548 
0 
0.07339832150147678 
0 
0 
0 
0 
0.1318372990420441 
0.05700191679121522 
-0.02077236107317296 
0.05700191679121522 
0.08552961448793893 
0.05700191679121522 
0.0877728402970314 
-0.1158565832345839 
0.1009506679915256 
0.09819431414178791 
0.05700191679121522 
0.05700191679121522 
0.05700191679121522 
0.1613896144744258 
0 
-0.02766504215169012 
0 
0 
0 
-0.1069744144819776 
0 
0 
0 
0 
0 
0.1355726234783569 
0 
0 
0 
0.2510206606576629 
0.03821585709205136 
0 
0 
-0.01936234317404156 
0 
0.1879551051845101 
0.003585881317507303 
0 
0 
0 
0 
0 
0.1853874559325354 
0 
0.1201919980111178 
0 
0 
0.1321697674634239 
0.5235039680539668 
0 
4.336808689942018e-19 
0.3341846735823225 
0.01417484949317925 
-0.05869302625310107 
0.01417484949317925 
0.01417484949317925 
0.01417484949317925 
-0.07081218685378335 
0.03590738510918102 
0.1655537795614617 
0.01417484949317925 
0.01417484949317925 
0.01417484949317925 
0.1512533738374471 
-0.168324817584272 
0.01417484949317925 
0.01417484949317925 
-0.1365736990690888 
0.01417484949317925 
0.08617969521812364 
0.01417484949317925 
0 
0.08769027972527096 
0 
0 
0.1596483768610819 
0 
0.08769027972527096 
0 
0 
0 
0 
0 
0.004117059878330479 
0.01524840846980383 
0.009396709476138508 
0.009396709476138508 
0.009396709476138508 
0.01524840846980383 
0.0527032969869753 
0.009396709476138508 
0.01907331418210404 
0.009396709476138508 
0.009396709476138508 
0.009396709476138508 
0.02964148672095691 
-0.2026096428585661 
0.0008813711795757074 
0.02080644561448303 
0.1143046712352798 
0 
0.02117595647236818 
0.0008813711795757074 
0.04289017111903513 
0 
0 
0.06315316292072512 
0 
0.483301382365999 
0 
0 
0 
0 
0.06063030283032882 
0.04578298298750337 
0 
0 
0.02725646338085101 
0.02369981711637368 
0.2105948873135817 
0 
0.08026101151600072 
0 
0.0008813711795757089 
0.1129318875353659 
0.1313546069744737 
0 
0.06245172018936913 
0.08769027972527096 
0.08769027972527096 
0.1185422984070045 
0 
0 
0.2143330325470482 
0.0869856345135497 
0.4901649960099547 
-0.1771710139408283 
0 
0 
0 
0 
0.01754745243636991 
-0.09301280027960236 
0 
0.001759878111048411 
-0.2839434548401535 
0 
0 
0 
0 
0 
0.07151465863727172 
0 
0.08508356904360215 
0 
0.1300700161800662 
0 
0 
0 
0.2316061780353569 
0.05634067606151406 
0.08073741824591761 
0 
0.0171960241150184 
0 
0 
0 
0 
0 
0.08809507320795598 
0 
0 
0 
0.1006571910895998 
0.09017004844936591 
0 
0 
0.2632557160711888 
0 
0 
0.02439232693199033 
0 
0.06792218663123017 
0 
0 
0 
0 
0 
0 
0.3818728630687573 
0 
0 
0.09017004844936591 
0 
-0.04811978770512461 
0.08786203091943708 
0 
0.07287029779527809 
0 
0 
0 
0 
0 
0 
0 
0 
0.4144119121039257 
-0.1376787358163301 
-0.06282635613975662 
0.05442884435315491 
0 
0 
0 
0 
0.273083912172258 
0.2091195376464206 
0.2091195376464206 
0.2091195376464206 
0.2091195376464206 
-0.02475252433090596 
-0.07273062214178787 
0 
0 
0 
0 
0 
0.01998126574816373 
0 
-0.003581016757985026 
0 
0 
0.04797590442789201 
0.04623070884564955 
0 
0 
0 
0 
-0.02300130093196676 
0 
0 
0 
0.03214482883297486 
0.03214482883297486 
0.03214482883297486 
0.03214482883297486 
-0.1424862243909447 
0 
0 
0 
0 
0 
0.6650726735691407 
-0.02877529839356401 
0 
0 
0 
0 
0 
0 
0.03452771957374139 
0 
0.02830298978994204 
0 
0 
0 
0 
0.01407326764554449 
0 
0.01554992425724918 
0.01048714264023389 
0 
0 
0.00417062218257482 
0 
0.0524697654873621 
0.0524697654873621 
0.0524697654873621 
-0.08371735967488241 
0.09104025081312801 
0.0524697654873621 
0.2939981210770074 
0.0524697654873621 
0.0524697654873621 
0.0524697654873621 
0.0524697654873621 
0.0524697654873621 
0.0524697654873621 
-0.09437265784710627 
0.0700946223005374 
0.1212892030146764 
0.0700946223005374 
0.0700946223005374 
0.187668591463494 
0.239550169493379 
0.09009914738065751 
0.2280896590747836 
0 
0.04248677328815669 
0.1148501128182842 
0 
0.0425836201790927 
0 
0.04248677328815669 
0 
0 
0 
0 
0 
0 
0.006244393055055649 
0 
0 
0 
0.08013493376420616 
0.08013493376420616 
0.08013493376420616 
0.08013493376420616 
0.08013493376420616 
0.08013493376420616 
0.08013493376420616 
0.1614703890597156 
0.08013493376420616 
0.08908893635682968 
0.007415589862911107 
0.2411264957111428 
0.007415589862911107 
0.007415589862911107 
0.007415589862911107 
0.007415589862911107 
0.007415589862911107 
0.007415589862911107 
0.02831236491011191 
0.007415589862911107 
0.240130035459609 
0.240130035459609 
0.01028214172049145 
0.240130035459609 
0.2573310153374097 
0.1766227190653077 
0.06644828870719681 
0 
0.02143463566655963 
0.06644828870719681 
0.06644828870719681 
0 
0 
0 
0 
0.06644828870719681 
0 
0 
0.001059012861064987 
0.009031748876854578 
0.1867418212252834 
0.001059012861064987 
0.1195907484916544 
0.001059012861064987 
0.001059012861064987 
0.001059012861064987 
0.001059012861064987 
0.001059012861064987 
0.06358070223772722 
-0.2527828625327975 
0.001059012861064987 
-0.005794136275526962 
0.001059012861064987 
0.03303464564344374 
0.1298884271596364 
0.2081641468258295 
0.2081641468258295 
0.02327909901877577 
0.2035299205227895 
-0.08616699284688671 
0.2081641468258295 
0.1252542008565965 
0.1298884271596364 
0.02048214615400634 
0.2081641468258295 
0.2035299205227895 
-0.5930903039202805 
-0.01314288016492758 
0.03351018746170561 
0.02466746204341586 
0.01383361812716447 
0.01383361812716447 
0.01383361812716447 
0.01383361812716447 
0.01383361812716447 
0.01383361812716447 
-0.09369925687141563 
0.01383361812716447 
0.03442123901847775 
-0.03706041329066423 
0.01383361812716447 
0.01383361812716447 
0.01383361812716447 
0.01383361812716447 
0.01383361812716447 
0.08926605288225917 
0.08750602613896934 
0.08750602613896934 
0.04262806050527631 
0.08750602613896934 
0.08750602613896934 
0.08750602613896934 
0.08750602613896934 
0.08750602613896934 
0.08750602613896934 
0.08750602613896934 
0.07939434251784018 
0.1318841122191414 
-0.004691190603986413 
0.009179604956928348 
0.0686862076965299 
0.009179604956928348 
0.009179604956928348 
0.009179604956928348 
0.009179604956928348 
0.009179604956928348 
0.009179604956928348 
0.0292684627681743 
0.009179604956928348 
0.009179604956928348 
0.02902461854218751 
0.009179604956928348 
-0.151553915757142 
0.1298839560053167 
0.1298839560053167 
0.06616723299291548 
0.1912023095112804 
0.1298839560053167 
-0.05755891569614252 
0 
0 
0 
0 
0 
0.1120175000759677 
0 
0 
0 
0 
0.2009560257434076 
0.07034918717088556 
0.0678848521653518 
0.06730635580785768 
0.1594511197105261 
0 
0 
0.05510849672294862 
0.05510849672294862 
0.05510849672294862 
0.04506917100626165 
0.05510849672294862 
0.05510849672294862 
0 
0.005052093439729825 
0.005052093439729825 
0.01040331601304123 
0 
0 
0 
0 
0 
0 
0.08289373262790972 
-0.1536286811484915 
0.1683952822356211 
0 
0.01798145806453324 
0.1650989622926405 
0.005052093439729825 
0 
0 
0.4609796452401803 
-0.1207298701736353 
0.008179736462929653 
0.2057611608811147 
0 
0.008203207323462679 
0.0761672137975289 
0 
-0.1130412279009577 
0.1115733465956503 
0 
0 
0.261690501442464 
0 
0 
0.08367206152678044 
0 
0 
0.08367206152678044 
0 
0 
0.08367206152678044 
0 
0 
0.09639661414323306 
-0.08445602302985611 
0 
0.06192147747072139 
0 
0 
0 
0 
0.01200629490419216 
0.01200629490419216 
0.01200629490419216 
0.04331800369044236 
0.01200629490419216 
0.01200629490419216 
0.01200629490419216 
0.01200629490419216 
0.3861000541961113 
0.2535848900256916 
0.01200629490419216 
0.01200629490419216 
0.01200629490419216 
0.01200629490419216 
-0.05200077127102169 
-0.04524281492385672 
0.03614619041380129 
0.117160945725048 
0.03614619041380129 
0.03614619041380129 
0.03614619041380129 
0.03614619041380129 
0.0361461904138013 
0.03614619041380129 
-0.1504110224296413 
-0.04529766269393069 
0.215989603132701 
0.03614619041380129 
0.03614619041380129 
0.03614619041380129 
0.03614619041380129 
-0.05841752615026537 
0.03614619041380129 
0.03614619041380129 
-0.01301915375658582 
0.03614619041380129 
0.05152748816609778 
0.03614619041380129 
0.03614619041380129 
0.03614619041380129 
0.03614619041380129 
0.03614619041380129 
0.03614619041380129 
0.1036358722070507 
0.04716131942822381 
0.03430030236080085 
0 
0 
0.2404146809071754 
0.03867229812017558 
-0.03402253971723226 
0 
0.04412362849224204 
0.01221370228079127 
0 
0 
0.03941490636189112 
0.04538182392810775 
-0.004143601111305351 
0 
0.1387105707738811 
0 
0.01221370228079127 
0 
0 
0.006713415487064977 
0.02612174860121992 
0.02612174860121992 
-0.03433595893453606 
0.02612174860121992 
0.02612174860121992 
0.02612174860121992 
0.02612174860121992 
0.02612174860121992 
0.02612174860121992 
0.02612174860121992 
0.02612174860121992 
0.04462885812876141 
0.02612174860121992 
0.02612174860121992 
0.02612174860121992 
0.0525742157855827 
0.01878053182258528 
0.01878053182258529 
0.01878053182258529 
0.01878053182258529 
0.08670511069067298 
-0.1214829072842059 
0.01878053182258529 
0.01878053182258528 
0.122602002223382 
0.01878053182258528 
-0.06631025887590124 
0.1762747342875553 
0 
0 
0 
0 
0.07532829247317921 
0 
0 
0 
0.07668536549013853 
-0.0805650262636447 
0.07532829247317921 
0 
0 
0 
0.02389109047860591 
0.07532829247317921 
0 
0.07668536549013853 
0 
0 
0 
0.04780712012638588 
0 
0.02184502097867213 
0 
0 
0 
0 
0 
0 
0 
0 
0 
0 
0 
0 
0.08512111562853776 
0 
0 
0 
0.0003368472381643843 
0.0003368472381643843 
0.0003368472381643843 
0.005876340764669539 
0.0003368472381643843 
0.0003368472381643843 
0.0003368472381643843 
0.0003368472381643843 
0.0003368472381643843 
0.0003368472381643843 
-0.02412164720612517 
0.134071705498175 
0.0003368472381643843 
0.0003368472381643843 
0.0003368472381643843 
0.0003368472381643843 
0.03845801530380637 
0 
0 
0.003139293301272647 
0.0856248752936426 
0 
0 
0 
0 
0 
0.0552759725477063 
0.0375018658402474 
0 
-0.01641655465926614 
-0.2734779506741247 
0 
0 
-0.06604926067535659 
0 
0 
0.01221370228079127 
-0.1372737026101488 
0 
0 
0 
0 
0 
0 
0.008538464072893831 
0.1084255693602913 
0.02010372631308113 
0.1518420403992901 
0.09879871653332274 
0.02010372631308114 
0.02010372631308114 
0.02803107349316091 
0.02290176501744148 
0.02290176501744148 
0.02010372631308114 
-0.2125012832699964 
-0.2524757636512882 
0.02010372631308114 
0.02010372631308114 
0.02290176501744148 
0.02803107349316091 
-0.003220288505838385 
0.02010372631308114 
0.02010372631308114 
-0.08835700322241655 
0.02010372631308114 
0.04833769240711008 
0.02618667374370919 
0.02618667374370919 
-0.002183423567479833 
0.03401439421634979 
0.02618667374370919 
0.02618667374370919 
0.02618667374370919 
0.02618667374370919 
0.02618667374370919 
0.03401439421634979 
0.02618667374370919 
0.1128686259778272 
0.0347417087018559 
0.02618667374370919 
0.04632498918191916 
0.02618667374370919 
-0.04562146486706089 
0.046248915765604 
0.02825602493190481 
0.02825602493190481 
0.02825602493190481 
0.02825602493190481 
0.02825602493190481 
-0.08426568743510486 
0.02825602493190481 
-0.01072883999820909 
0.02825602493190481 
0.02825602493190481 
-0.02271719751345188 
0.0423292925774493 
0.02825602493190481 
0.02825602493190481 
0.06324035294105074 
0.06324035294105074 
0.06324035294105074 
0.2024684839228172 
0.06324035294105074 
0.06324035294105074 
0.06324035294105074 
0.06324035294105074 
0.06324035294105074 
0.06324035294105074 
0 
0 
0 
0.001266636660920432 
0 
0.03271619919763058 
0 
0 
0.260132265863013 
0.008221352421940054 
-0.02463066184156951 
0 
0 
0.2000390036019228 
0.161696734499918 
0 
0 
0 
0 
0 
0 
0.1391064293288204 
0 
0.1272150441918418 
0 
0 
0 
0 
0.06433075131822225 
-0.02787957777835379 
0.0581488050887875 
0.1272150441918419 
0 
0.02483654033750617 
0 
0 
0 
0.1838647240679299 
0 
0 
0 
0 
-0.1063629030304138 
0 
0 
0 
0 
0 
-0.04091705154518811 
0.1311812296049352 
-0.06430793545386475 
0 
0 
0 
0 
0.02183518792967047 
0.003748265112212061 
0 
0 
0 
0.09574484545196771 
0 
0 
0 
0.003748265112212061 
0.08289373262790972 
0.08289373262790972 
-0.03596910991766693 
0.08289373262790972 
0.08289373262790972 
0.05454003327723612 
0.08289373262790972 
0.08289373262790972 
0.09604315829628915 
0.08289373262790972 
0.08289373262790972 
0.08289373262790972 
0.08289373262790972 
0.1028680057579432 
0 
0.3394854728963028 
0 
-1.734723475976807e-18 
0 
-3.469446951953614e-18 
0.03149043390880248 
0.3015012406398159 
0 
0.09717713603668741 
0 
0 
0 
0.3333007154166369 
-0.1765375076581715 
0 
0 
0.01034574653291053 
0 
0 
-0.01269931095485493 
0 
0.5414324780861978 
0 
0 
0.06143131032624393 
-0.06695903747068982 
0.06143131032624393 
-0.0847024982008413 
0.06143131032624393 
0.06143131032624393 
0.06143131032624393 
0.1042255936609606 
0.06143131032624393 
-0.03721350206470374 
0.06143131032624393 
0.06143131032624393 
0.06143131032624393 
0.06143131032624393 
0.06143131032624393 
0.06143131032624393 
0.06143131032624393 
0 
0 
0 
0 
0 
0 
0 
0 
0 
0 
0 
0 
0 
-0.1831308238481613 
0.04443151695128316 
0.04443151695128316 
0.04443151695128316 
-0.210748356532597 
0.04443151695128316 
0.04443151695128316 
0.04443151695128316 
-0.07868696124940505 
0.04443151695128316 
0.04443151695128316 
0.04443151695128316 
0.04443151695128316 
0.04443151695128316 
-0.01397962087482635 
0.04443151695128316 
0.04443151695128316 
0.04443151695128316 
0.04443151695128316 
0.04443151695128316 
0.01374673951605277 
0.2953533583265682 
0.01374673951605277 
0.07433223197193882 
0.01374673951605277 
0.01374673951605277 
0.01374673951605277 
0.01374673951605277 
0.01374673951605277 
0.01374673951605277 
0.01374673951605277 
0.01374673951605277 
0.2142133196161156 
0.01374673951605277 
0.01379209561569142 
0.01374673951605277 
0.003931179355956215 
0.009713939089123186 
0.009713939089123186 
0.009713939089123186 
0.1329767873859061 
-0.001122737516136244 
0.009713939089123186 
0.009713939089123186 
0.009713939089123186 
0.009713939089123186 
0.009713939089123186 
-0.08457268947980991 
0.009713939089123186 
-0.0325494844293221 
0.009713939089123186 
0.009713939089123186 
0.009713939089123186 
0.009713939089123186 
0.07894187726405894 
0.04458523175484295 
0.04458523175484295 
0.2504979179933049 
-0.2219893519988542 
0.1598934623448196 
0.082309193756057 
-0.03360523586621487 
0.04458523175484295 
0.04442609656743642 
0.04458523175484295 
0.04458523175484295 
0.1407412756770264 
0.04458523175484295 
0.04458523175484295 
0.04458523175484295 
0.1407412756770264 
0.08888287864229236 
0 
0 
0 
0.1900496802960751 
0.1730088055587032 
0.08888287864229236 
0 
0 
0.0080634547129428 
0 
0 
0 
0.08888287864229236 
0 
0.04330566436271305 
0.1103388777018765 
0.04330566436271305 
0.04330566436271305 
0.2568238288013676 
0.04330566436271305 
0.04330566436271305 
-0.0895929491820007 
0.04330566436271305 
0.04330566436271305 
0.04330566436271305 
0.04330566436271305 
0.009603649587186807 
0.04822316036348696 
-0.03208576497776645 
0.009603649587186807 
0.009603649587186807 
0.009603649587186807 
0.04543604886860702 
0.009603649587186807 
0.009603649587186807 
0.009603649587186807 
0.009603649587186807 
0.009603649587186807 
-0.1294436654529979 
0.2078224527603384 
0.04543604886860702 
0.009603649587186807 
0.009603649587186805 
0.034879113916912 
0.06988990217381499 
0.009603649587186807 
0.1132442436235384 
0.001616511558040051 
0.05176193699277069 
-0.02592164187482124 
0.1130348942900686 
0.05176193699277069 
0.05176193699277069 
0.05176193699277069 
-0.1926419047974116 
0.05176193699277069 
0.05176193699277069 
0.05176193699277069 
0.05176193699277069 
0.2305058485272842 
0.05176193699277069 
0.05176193699277069 
0.07577968861486362 
0 
0 
0 
0 
0 
0.08599766888109373 
0 
0 
0.06617465106831973 
0 
-0.0003090944732822285 
0.006361680881174487 
0 
0 
0 
0 
0 
0 
0 
0.06050374015104974 
0 
0 
0 
0 
-0.0273032775360804 
0 
0.08794325325411738 
0.1386567106251251 
0.03971110782129707 
0.03971110782129707 
0.03971110782129707 
0.03971110782129707 
0.03971110782129707 
0.03971110782129707 
0.03971110782129707 
0.03971110782129707 
0 
0 
-0.06045860074524854 
0 
0.1753320008435185 
0.03314842524819917 
0 
0 
-0.1739449471108155 
0 
0 
0 
0.05782904494297654 
0.2593218702249111 
0 
0 
0 
0.03998237633199962 
0.07558448673752605 
0.1098252496550647 
0.1231831996875214 
0.07558448673752605 
0 
0 
0.03998237633199962 
0 
0 
0 
0.02535233951839328 
0.02535233951839328 
0.02535233951839328 
0.02535233951839328 
0.02479085925627231 
0.02535233951839328 
0.02535233951839328 
-0.1032638846187714 
0.02535233951839328 
0.02535233951839328 
0.02535233951839328 
0.02535233951839328 
0.02535233951839328 
0 
0.01816277602672259 
0 
0 
0 
0 
0 
0 
0 
-0.0456358860911465 
0.07364302419491983 
0 
0 
0 
0.04751838968650675 
0 
0 
0 
-0.1312760492666291 
0 
0 
0 
0 
0 
0.1654592325029615 
0.08406002238928541 
0.1994564559171138 
0.1272199279340905 
0.1272199279340905 
0.1272199279340905 
0.1272199279340905 
-0.2215101838370459 
0.1272199279340905 
0 
0 
0 
0 
0.2737412914253439 
0 
-0.408902714027611 
0.1741673904963225 
0 
0.1090603269210023 
0.1090603269210023 
0 
0 
-0.04037015560984506 
0 
0.0080567397636024 
0 
0 
0 
-0.02680756734185407 
0 
0 
0 
0 
0 
0 
0 
0 
0.007216250481394268 
0.2428864935003189 
0.0196951405732387 
0.007216250481394268 
0.01711675263414114 
0.007216250481394268 
0.007216250481394268 
0.01101060009689445 
0.007216250481394268 
0.007216250481394268 
0.09135021895704425 
0.007216250481394268 
0 
0 
0.206746405415219 
0 
0.02767305634539264 
0.1279862656666691 
0 
0 
0 
0 
0 
0.08821268882484072 
0 
0.03277973092009551 
0.05337680118479936 
0 
-0.1472958952472961 
0 
0.03196337733009479 
0 
0.001520647609061967 
0 
0.03109113325338029 
0 
0 
0.04282109402861442 
0 
0 
0 
0 
0.06792873013792303 
0.001272738407981823 
0.001272738407981823 
0.01712036343026969 
0.001272738407981823 
0.001272738407981823 
0.2080934103828669 
0.2332295494308217 
0.001272738407981823 
0.001272738407981823 
-0.04155749596974964 
0.001272738407981823 
0.001272738407981823 
0.001272738407981823 
0.002705676418790839 
0.002705676418790839 
0.002705676418790839 
0.002705676418790839 
0.002705676418790839 
0.002705676418790839 
0.002705676418790839 
0.002705676418790839 
0.177526613843294 
0.002705676418790839 
0.08309962098178021 
0.1522891819556092 
0.08309962098178021 
0.08309962098178021 
0.08309962098178021 
0.08309962098178021 
0.08309962098178021 
0.08309962098178021 
0.08309962098178021 
-0.001777976691035271 
0.04209840694274146 
0.04209840694274146 
0.04209840694274146 
0.04209840694274146 
0.04209840694274146 
0.04209840694274146 
0.0512396060481082 
0.04209840694274146 
0.2315965560277986 
0 
0 
0 
0.03437520553053185 
0 
0 
0 
0 
0 
0 
0.03639889594325715 
0 
0 
0 
0 
0.009264004894814338 
0.009264004894814338 
0.009264004894814338 
0.009264004894814338 
0.009264004894814338 
0.1350738126106675 
0.009264004894814338 
0.009264004894814338 
0.009264004894814338 
0.01958870789563614 
-0.006694978036132805 
0.9523809523809523 
0.2090311307049818 
0.2090311307049818 
0.5715165894208949 
0.0003600600575170047 
0.0003600600575170048 
0.0003600600575170047 
0.0003600600575170047 
0.0003600600575170047 
0.0003600600575170047 
0.0003600600575170047 
0.0003600600575170047 
0.0003600600575170047 
0.0154208325935792 
0.04193920182881571 
0.0003600600575170047 
0.005570006615941695 
0.0003600600575170047 
0.0003600600575170047 
0.0003600600575170047 
0.0003600600575170047 
0.1588695666589049 
0.1588695666589049 
0.03882610538122592 
0.1588695666589049 
0.1588695666589049 
0.1588695666589049 
0.1588695666589049 
0.02040257434509679 
0 
0.06584982611391295 
0 
0 
0 
0 
0.06276208807979641 
0 
0 
0 
0 
0 
-0.002925675262222826 
-0.02295688904700314 
0 
0 
0.09635267333527696 
0 
0.2763138836161562 
0.2763138836161562 
0.4333886923235161 
0.3034804949675663 
0.3397604519875206 
0.3397604519875206 
0.07884780037713715 
0.07884780037713715 
0.07884780037713715 
0.07884780037713715 
0.2760613969207255 
0.07884780037713715 
0.2090162978434659 
0.2090162978434659 
0.9523809523809523 
0.5161720351740877 
0.2360788428450102 
0.2360788428450102 
0.2468285972886838 
0 
0 
0 
0 
0 
0 
0.001792305873666446 
0.09808759091970759 
0 
0 
0 
0.08538421067012231 
0.1705120673974964 
0.1238241899662989 
0.1238241899662989 
0 
0 
0.07727851868313904 
-0.1239153096867726 
0 
0 
0 
0 
0 
0.2431167669885556 
0 
0 
0 
0 
0.3479127082368904 
0 
-0.11666585199866 
0 
0 
-0.0290790021724268 
0 
0 
0 
0 
0 
0.03158988188990829 
0 
0 
0 
0.02668093720306201 
0 
0 
0 
0.01204113209650436 
0.2571449610044244 
-0.2062467691556264 
0 
0 
0 
0 
-0.1589096474255642 
0 
0 
-0.1839660447405964 
0.181910794359856 
0 
0 
-0.1269258002140972 
0 
0 
0 
0 
0 
0 
0 
-0.03175180422097978 
0.09834841568708577 
0 
0 
0.01754745243636991 
0 
0 
0.2245062666405944 
0 
0 
0 
0 
0 
0.01141291086962595 
0.02336075412534742 
0.02336075412534742 
0.04070921283831526 
0.02336075412534742 
0.02336075412534742 
-0.02920227979757248 
0.02336075412534742 
-0.5023770706814654 
0.2724856091491082 
0.02336075412534742 
0.02336075412534742 
0.02336075412534742 
0.03564745069207648 
0.03126204230343493 
0.02336075412534742 
0.02336075412534742 
0.01297884449048113 
0.3281905499065014 
0 
0 
0 
0 
0 
0.01860555402534016 
0 
0 
0 
0 
0.000811202741759403 
-0.07624256765857898 
0.1247106987246834 
0 
0 
0 
0 
0 
0 
0 
0 
0 
0.005689563506924677 
0 
0.06137782208951358 
0.0686595737356005 
0.1013827562819214 
0.1277601766384233 
0.1172482898692905 
0.0686595737356005 
0.0686595737356005 
0.0686595737356005 
0.0686595737356005 
0.0686595737356005 
0.0686595737356005 
-0.3342016415715695 
0.0686595737356005 
0.0686595737356005 
0.0006445717340646959 
0 
0 
0.05654559271098243 
0.08230641636243344 
0.01992501997278803 
0.2331693111112247 
0 
0 
0 
0.03752277418510424 
0.3740711610999472 
0 
0 
0 
0.00858046376656185 
0.00858046376656185 
0.00858046376656185 
0.02957351830273882 
0.02957351830273882 
0.00858046376656185 
0.00858046376656185 
0.00858046376656185 
0.00858046376656185 
0.00858046376656185 
0.00858046376656185 
0.3344948187012127 
0.00858046376656185 
0.00858046376656185 
0.05996627828277518 
-0.04602107460592487 
0.02957351830273882 
0 
0 
0 
0 
-0.1235651810250394 
0.0153775103766114 
0 
0 
0.03679121605905831 
0 
0 
0 
0 
0 
0.04745638231828102 
0 
-0.04037505605167978 
0.01281399291620103 
0.1133065410419574 
0.03679121605905831 
0 
0 
0 
0 
0 
0 
0 
0 
0.02151303026565417 
0 
0 
0 
0 
-0.01669404166424284 
0.02469349455550463 
0.007529213379408634 
0.04612475962007497 
0.3138441871953501 
0.2931555798080386 
-0.04229088367782999 
0.07869499022024161 
0 
0 
0 
0 
0 
0 
0 
0 
-0.1239926121323538 
0 
0.04790715609976091 
0 
0 
0 
0 
0 
0.01461698523265932 
0 
-0.02246873477709743 
0 
0 
0 
0 
0 
0 
0 
0 
0 
0 
0 
0.158849551520018 
0 
0.09772140814044071 
0 
0.004101115838161837 
0 
0 
0 
0.01403033616332005 
0 
0 
0 
0.1250391348938897 
0 
0 
0 
0.1389887857952544 
0 
0 
0.02856958296057234 
0 
0 
0 
0 
0 
0 
0.08866142968405917 
-0.09736614812635568 
0 
0 
0.004299022630183468 
0 
0 
0.03616203620958773 
0.03616203620958773 
0.03616203620958773 
0.03616203620958773 
0.03616203620958773 
0.03616203620958773 
0.03616203620958773 
0.06919186699375403 
0.03616203620958773 
0.1465278417585812 
0.1095396065251773 
0.03616203620958773 
0.103919132320718 
0.06919186699375403 
0.1550873050785676 
-0.03305318217578276 
0.006741970814438109 
0 
0 
0 
0 
-0.06966519797413341 
0 
0 
0 
0 
0 
0 
0 
0 
0 
0 
0 
0 
0.04988919416919817 
0 
0 
0 
0 
0 
0 
0 
0 
0 
-0.1451108648397986 
0.08227376380195621 
0.08227376380195621 
0.08227376380195621 
0.08227376380195621 
0.1794152277185578 
-0.1455613050429911 
0.08227376380195621 
0.08227376380195621 
0.08227376380195621 
0.08227376380195621 
0.08227376380195621 
0.08227376380195621 
0.08227376380195621 
0.08227376380195621 
-0.05555881783708068 
0 
0 
0 
0 
0 
0.4335616374190885 
0 
0 
0 
0 
-0.2513648457883216 
0 
0 
0 
0 
0 
0 
0 
0 
0 
0.01927699639622497 
0.01927699639622497 
0.01927699639622497 
0.01927699639622497 
0.01927699639622497 
-0.2011722686078571 
0.08623925430806474 
0.01927699639622497 
-0.003601598088490479 
0.01927699639622497 
0.01927699639622497 
0.03531160012252502 
0.02584086368939757 
0.02584086368939757 
0.02584086368939757 
0.02584086368939757 
0.02584086368939757 
0.02584086368939757 
0.02584086368939757 
0.04799002510653391 
0.02584086368939757 
0.02584086368939757 
0.02584086368939757 
-0.005709326166960671 
0.02584086368939757 
0.02584086368939757 
0.02584086368939757 
0.02584086368939757 
0.02584086368939757 
0.02584086368939757 
0.03654601162975542 
-0.07079407804477711 
0.02584086368939757 
0.07491517575645937 
0.07491517575645937 
0.135675092920442 
0.07491517575645937 
-0.1198271885438409 
0.07491517575645937 
0.07491517575645937 
0.07491517575645937 
0.07563294600555269 
0.07491517575645937 
0.07491517575645937 
0.07491517575645937 
0.07491517575645937 
0.07491517575645937 
0.07491517575645937 
0.02444611283674766 
0.07491517575645937 
0.01184880514046301 
0.01184880514046301 
0.01184880514046301 
0.01184880514046301 
0.01184880514046301 
0.05446418184408992 
0.01184880514046301 
0.0483810350845193 
0.01184880514046301 
0.01184880514046301 
0.01184880514046301 
0.01184880514046301 
0.01184880514046301 
0.01184880514046301 
0.01184880514046301 
0.01184880514046301 
0.01184880514046301 
0.01184880514046301 
0.2468656861983105 
0.01184880514046301 
0.01184880514046301 
-0.08434660378262213 
0.004428931713546265 
-0.07143986914505679 
0.1299476120663418 
0.004428931713546265 
0.004428931713546265 
0.007803936513228962 
0.004428931713546265 
0.004428931713546265 
0.004428931713546265 
0.004428931713546265 
0.004428931713546265 
0.05784748605931287 
0.02828824997355185 
0.004428931713546265 
0.004428931713546265 
0.004428931713546265 
0.004428931713546265 
0.004428931713546265 
0.004428931713546265 
0.004428931713546265 
0.004428931713546265 
0.004428931713546265 
-0.06208897431760742 
0.07223652798302337 
-0.2116661030998941 
0.07223652798302337 
0.07223652798302337 
0.2632998767747288 
-0.06135276782365662 
0.07223652798302337 
0.07223652798302337 
0.07223652798302337 
0.07223652798302337 
0.07223652798302337 
0.03714557468359988 
0 
0 
0 
0 
0 
0.0080567397636024 
0.0080567397636024 
0.0080567397636024 
0.0080567397636024 
0.0080567397636024 
-0.07228272979686183 
0.0080567397636024 
0.0080567397636024 
0.0080567397636024 
0.0080567397636024 
0.1691707146443251 
0.01805277319539583 
0.01805277319539583 
0.01805277319539583 
0.01805277319539583 
0.01805277319539583 
0.01805277319539583 
0.01805277319539583 
0.09168129273235266 
0.01805277319539583 
0.01805277319539583 
0.01805277319539583 
0.01805277319539583 
0.01805277319539583 
0.1971282848040443 
0.01805277319539583 
0.01805277319539583 
0.01805277319539583 
0.01805277319539583 
0.01195431681282971 
0.01195431681282971 
0.01195431681282971 
0.01195431681282971 
0.01195431681282971 
0.01195431681282971 
0.01195431681282971 
0.01481568855559507 
0.03572761720409855 
-0.09260277853677734 
0.01195431681282971 
-0.06145391026714691 
0.01195431681282971 
0.01195431681282971 
-0.0439087372594394 
0.2749935394723204 
0.01195431681282971 
0.01195431681282971 
-0.01441916131162855 
0.06638316065992873 
0.05449356801429446 
0.06638316065992873 
0.06638316065992873 
0.06638316065992873 
0.06638316065992873 
0.06638316065992873 
0.06638316065992873 
0 
0.07847345289532083 
0 
0 
0 
-0.2477300934089367 
0 
0 
0 
0 
0 
0 
0 
0.04866300648297892 
-0.0337527908384423 
0.04866300648297892 
0.04866300648297892 
0.04866300648297892 
0.04866300648297892 
0.04866300648297892 
0.04866300648297892 
0.04866300648297892 
0.04866300648297892 
0.04866300648297892 
0.04866300648297892 
0.009682927492808602 
0.04866300648297892 
0.04866300648297892 
0.04866300648297892 
0.09778288542554602 
0.04866300648297892 
-0.07262115047374877 
0 
0.03615626015418762 
0 
0 
0.1311281881679379 
0 
0 
0 
0 
0 
0 
0 
0 
0 
0 
0 
0 
0 
0.09925806003952962 
0.09026474439065356 
0 
0.02068990941441688 
0.1346385740945548 
0.06248786058713158 
0.007121775546705219 
0.07231910190619961 
0 
0 
-0.07494739485867592 
0 
0 
0.07231910190619961 
0.09925806003952962 
0 
0 
0.0198531776330018 
0.0198531776330018 
0.0198531776330018 
0.0198531776330018 
0.0198531776330018 
-0.1349106427082664 
0.0198531776330018 
0.0198531776330018 
0.0198531776330018 
0.05101070718820188 
0.0198531776330018 
0.03081686564173893 
0.02796252942974099 
0.0198531776330018 
0.0198531776330018 
0.0198531776330018 
0.0198531776330018 
0.0198531776330018 
0.0456524836352701 
0.0456524836352701 
0.0456524836352701 
0.0456524836352701 
0.0456524836352701 
-0.0358147988067413 
0.3493835846426843 
0.0456524836352701 
0.0456524836352701 
0.0456524836352701 
0.0456524836352701 
0.0456524836352701 
0.0456524836352701 
0.003848293339445954 
0.05495498547742043 
0.02132033004988169 
0.05495498547742043 
0.05495498547742043 
0.05495498547742043 
0.05495498547742043 
0.1151325476440034 
0.05495498547742043 
0.05495498547742043 
0.05495498547742043 
0.05495498547742043 
0.05495498547742043 
0.05495498547742043 
0.05495498547742043 
0.002645106509460999 
0.1934695244691856 
0 
0 
0 
0.07559712276867964 
0 
0 
0 
0 
0 
0 
0 
0.05664430812277595 
0.05664430812277595 
0.05664430812277595 
0.05664430812277595 
0.05664430812277595 
0.05664430812277595 
0.05664430812277595 
-0.1493898074235974 
-0.1475929403188203 
-0.09108908933619815 
0.05664430812277595 
0.2063664619998358 
0.05664430812277595 
0.0166752121439744 
0.0166752121439744 
0.0166752121439744 
0.1327039888964887 
0.0166752121439744 
0.0166752121439744 
0.0166752121439744 
0.0166752121439744 
0.0166752121439744 
0.0166752121439744 
0.0166752121439744 
0.0166752121439744 
0.0166752121439744 
-0.004094235475556888 
-0.0862993307315475 
0.0166752121439744 
0.1988425239019184 
0.0166752121439744 
0.0166752121439744 
0.0166752121439744 
0.01226824105090981 
0.01226824105090981 
0.01226824105090981 
0.01226824105090981 
0.01226824105090981 
0.01226824105090981 
0.01226824105090981 
0.01226824105090981 
0.01226824105090981 
0.01226824105090981 
0.01226824105090981 
0.0449914235972307 
0.01226824105090981 
0.01226824105090981 
0.08394138975766444 
0.01226824105090981 
0.01226824105090981 
0.01226824105090981 
0.01226824105090981 
0.03653222994405628 
0.03653222994405628 
-0.0995984236231261 
0.03653222994405628 
0.06655146860404423 
0.03653222994405628 
0.03653222994405628 
-0.1527475595444261 
0.03653222994405628 
0.03653222994405628 
0.2219800947527932 
0.03653222994405628 
0.03653222994405628 
0.03653222994405628 
0.03653222994405628 
0.03653222994405628 
0.03653222994405628 
0.03653222994405628 
0.03653222994405628 
0.03653222994405628 
0 
0.06842312262764738 
0 
0 
-0.02455480355719889 
0 
0 
0 
0 
0.01145666480762294 
-0.04360331116897141 
0.09140348001995478 
0 
-0.07797909813618463 
0 
-0.03690434888853636 
0.1272038373275749 
0.07559712276867964 
0.07559712276867964 
0.07559712276867964 
0.07559712276867964 
-0.2985862971903729 
0.07559712276867964 
0.07559712276867964 
0.07559712276867964 
0.07559712276867964 
0.07559712276867964 
0.07559712276867964 
0.07559712276867964 
-0.24345226349969 
0.04401232060540713 
0.06379106548200085 
0 
0 
0 
0 
0 
0 
0 
0 
0 
0 
0.08658571778432611 
0 
0.02443796036197989 
0.02443796036197989 
0.02443796036197989 
0.02443796036197989 
0.02443796036197989 
0.02443796036197989 
0.01365094800425702 
0.2059676514866943 
0.02443796036197989 
0.02443796036197989 
0.0178970010338448 
0.02443796036197989 
0.02443796036197989 
0.02443796036197989 
0.3098531351760166 
0.02443796036197989 
0.3274611338236692 
0.02443796036197989 
0.02443796036197989 
0.02443796036197989 
0 
0 
0 
0.06216614304468032 
0 
0.007827720472640609 
0 
0 
0 
0 
0 
0 
0.0799851490838183 
0.008380389261181221 
0.008380389261181221 
0.008380389261181221 
0.008380389261181221 
0.2870455713236291 
0.008380389261181221 
0.008380389261181221 
0.06706502902655051 
0.008380389261181221 
0.008380389261181221 
0.008380389261181221 
-0.2036752898698347 
0.008380389261181221 
0 
-0.02722459686393878 
0 
0 
0 
0 
-0.001363176111233527 
0 
0 
0.005784242041768914 
0.03006294600912505 
0 
-0.04034039774118316 
0 
0 
0 
0 
0 
0 
0.006473672478976321 
0 
0 
0 
-0.04153132438136346 
0 
0.3211932225099511 
0 
0.2176115293485766 
0 
0 
0.02484720897319798 
0 
0 
0 
0 
0 
0 
0 
0 
0 
0 
0 
0 
0 
0 
0 
0 
-0.1301470437877587 
0.1280842861947429 
0 
0.001210038627501582 
0.120543320145906 
0 
0 
0 
-0.1257779066591311 
0 
0.03471106388161423 
0.1281780015945436 
0.03471106388161423 
0.03471106388161423 
0.03471106388161423 
-0.459275293058073 
0.03332532479460878 
0.03471106388161423 
0.03471106388161423 
0.1160187551658029 
0.03471106388161423 
0.04360015528168625 
0.03471106388161423 
0.1160187551658029 
0.03471106388161423 
0.06340244768945412 
0.03471106388161423 
0.1971595082660358 
0.1459967944176932 
0.1971595082660358 
0.1971595082660358 
0.07987695856689293 
0.1971595082660358 
0.06708351306317725 
0.01055347927648687 
0.01055347927648687 
0.01055347927648687 
0.01055347927648687 
0.01055347927648687 
0.01055347927648687 
0.01055347927648687 
0.01055347927648687 
0.01055347927648687 
0.07975751515580411 
0.008974325455548361 
0.008974325455548361 
0.008974325455548361 
0.008974325455548361 
0.008974325455548361 
0.008974325455548361 
-0.1057909356622547 
0.008974325455548361 
0.02040257434509679 
0.008974325455548361 
0.008974325455548361 
0.008974325455548361 
0.008974325455548361 
0.02903656747744319 
0.01095762775831259 
-0.06461581662141187 
0.008974325455548361 
0.008974325455548361 
0.01838793503287982 
0.03803402020688797 
0.03803402020688797 
0.03803402020688797 
0.02800973699842912 
0.03803402020688797 
0.03803402020688797 
0.03803402020688797 
0.03803402020688797 
0.03803402020688797 
-0.1496721142619636 
0.1100976575048433 
0.03803402020688797 
0 
0 
0.5288473213317417 
0.02895060384568903 
0 
0.02033451045093373 
0 
0 
0.03545428824472632 
0.01782222153968454 
0 
0 
0 
0 
0.01625618153862956 
0.02470957176833321 
0 
0 
0 
0 
0 
0.02470957176833321 
0 
0 
0 
0 
0 
0 
0 
0.02102438452171197 
0 
0 
0 
0 
0 
0 
0.01171783439866381 
0 
0 
0 
0.006571685535065706 
0 
0.1450117201003714 
0.07540010301262311 
0 
0 
0 
0 
0 
0.02304505748776546 
0.02304505748776546 
0.02304505748776546 
-0.2053746136269555 
0.1073704584066179 
0.02304505748776546 
0.02304505748776546 
0.1680727925118894 
0.02304505748776546 
0.02304505748776546 
0.002787111494879933 
0 
0 
0.04507335834985349 
0 
0 
0 
0 
0 
0 
0 
0.0550419334480966 
0 
0 
0 
0 
0 
0 
0 
-0.03175297805286312 
0 
0 
0 
0 
0 
0 
0 
0.01071551418596941 
0 
0.02866313516102827 
0 
0 
0 
0 
0 
0 
0 
0 
0 
0.08768139073902492 
0.08768139073902492 
0.08768139073902492 
0.08768139073902492 
-0.2017403943055529 
0.08768139073902492 
0.08768139073902492 
0.08768139073902492 
-0.08076831697151081 
0.08768139073902492 
0.08768139073902492 
0.1029952833164321 
-0.4424305712045996 
0 
0 
0 
0 
0 
-0.007203158027386729 
0 
0 
0 
0 
0.06962657461327779 
0 
-0.05626923225920536 
0 
0 
0 
-0.08332414902461016 
0 
0 
0 
0 
0 
0 
0 
-0.04527780159201271 
0 
0 
0 
0 
0 
0.03662370368740435 
0 
0.008500128407499962 
0 
0 
0 
0.01761877732323619 
0.01761877732323619 
0.1133091993938935 
0.01761877732323619 
-0.1744071413128636 
0.01761877732323619 
0.01761877732323619 
-0.1146784341347353 
0.01761877732323619 
0.01761877732323619 
0.01761877732323619 
0.01761877732323619 
0.01761877732323619 
0.01761877732323619 
0.01761877732323619 
0.01761877732323619 
0.01761877732323619 
0.01239105916667075 
-0.08700040843537753 
0 
0 
0 
0 
0 
0 
0 
0 
0 
0 
0.00698703133187633 
0 
0.05056153770897585 
0 
0 
0 
0 
0 
0 
0 
0.1055468246155887 
0 
0 
0 
-0.3348755033705461 
0 
0 
0 
0 
0 
0 
0 
0 
0.3965715720666277 
0 
0 
0.08018732831521519 
0 
0 
0 
0 
0 
0.002787111494879933 
-0.02598818689868407 
0.002787111494879933 
0.002787111494879933 
0.002787111494879933 
0.002787111494879933 
0.1381389107221866 
0.002787111494879933 
0.002787111494879933 
0.002787111494879933 
0.02100073345306396 
0.002787111494879933 
0.01610088688249063 
0.002787111494879933 
0.002787111494879933 
0.002787111494879933 
-0.02804971924463548 
0.01244522160267288 
0.01244522160267288 
0.01821362195818402 
0.01244522160267288 
0.03563984383806981 
0.01244522160267288 
0 
0.004274730876661255 
0.06513260020160598 
0.01234883946829566 
0.06266385781303545 
0.004274730876661255 
0.004274730876661255 
0.004274730876661255 
0 
0 
0 
0 
0.02319462223539692 
0.02319462223539692 
0.02319462223539692 
0.02319462223539692 
0.02319462223539692 
0.02319462223539692 
0.02319462223539692 
0.02319462223539692 
0.04412362849224204 
0.1265630840571775 
0.04412362849224204 
0.03466149896177771 
0.04412362849224204 
0.04412362849224204 
0.04412362849224204 
0.04412362849224204 
0.0007703508225196189 
0.0007703508225196189 
0.0007703508225196189 
0.0007703508225196189 
0.0007703508225196189 
-0.08350965978584901 
0.01798207750585631 
-0.06795930786784966 
0.0007703508225196189 
0.0007703508225196189 
0.0007703508225196189 
0.0007703508225196189 
0.0007703508225196189 
0.0104395752596901 
0.0104395752596901 
0.0104395752596901 
0.0104395752596901 
0.0104395752596901 
0.0104395752596901 
0.0104395752596901 
0.0104395752596901 
0.0104395752596901 
0.003238390717499513 
0.1861855555366343 
0.04360415546789766 
0.003238390717499513 
0.003238390717499513 
0.003238390717499513 
0.3087636307761051 
0.003238390717499513 
0.003238390717499515 
-0.3264012778306997 
0.003238390717499513 
0.003238390717499513 
0.003238390717499513 
0.003238390717499513 
0.003238390717499513 
0.003238390717499513 
0.02440136006550676 
0.02440136006550676 
0.04046651049910635 
0.02440136006550676 
0.02440136006550676 
0.02440136006550676 
0.02440136006550676 
0.02440136006550676 
-0.3049215325739789 
0.02440136006550676 
-0.06592656665578329 
0.07073708189838947 
0.02440136006550676 
0.05883122558580179 
0.05883122558580179 
0.05883122558580179 
0.05883122558580179 
0.05883122558580179 
-0.1937430415836519 
-0.1492637033292476 
0.05883122558580179 
0.05883122558580179 
0.05883122558580179 
0.05883122558580179 
0.05883122558580179 
0.0001885396519196359 
0.05883122558580179 
0.05883122558580179 
0.05883122558580179 
0.05883122558580179 
0.05883122558580179 
0.06075991716398254 
0.1601605702382596 
0.06075991716398254 
0.06075991716398254 
0.06075991716398254 
0.06075991716398254 
0.06075991716398254 
0.06075991716398254 
0.06075991716398254 
0 
0.05342022828724951 
0 
0 
0 
0.3266275349573128 
0 
0.02586730057679825 
0 
0 
0 
0 
0 
0 
0.1413603868603793 
-0.2429895028825096 
-0.01313745130443898 
0.006090146734562008 
0.1936702099669518 
-0.01313745130443898 
-0.08590350654443644 
0.006090146734562008 
0.006090146734562008 
0.006090146734562008 
0.006090146734562008 
0.08133918301138095 
0.006090146734562008 
0.006090146734562008 
0.006090146734562008 
0.006090146734562008 
0.0446633165370648 
0.006090146734562008 
0.006090146734562008 
0.006090146734562008 
0.006090146734562008 
-0.008289682358024544 
0.03514099123144838 
0.006090146734562008 
0.07344065961801133 
0 
0.1308635027488424 
-0.01105875805407364 
0 
0 
0 
0 
0 
0.03647704335519383 
0 
0.08126705320260989 
0.07295111257434568 
0.2346816203546928 
0.2101515440127543 
0 
0.08126705320260985 
0 
0 
0 
0 
0 
0.004391433674890874 
0.1238715121452258 
0.004391433674890874 
0.07603133666842093 
-0.1602503363311869 
0.03939263783461463 
0.004391433674890874 
0.004391433674890874 
0.004391433674890874 
-0.09504457975381177 
0.004391433674890874 
0.004391433674890874 
0.004391433674890874 
0.01757992603269655 
0.004391433674890874 
0.004391433674890874 
0.4991810137728188 
0.004391433674890874 
0.06171868549980385 
0.04832826423522494 
0.434704377944698 
0.04832826423522494 
0.04832826423522494 
0.04832826423522494 
0.1429322646458637 
-0.08995161995986999 
0.01313395649879454 
0.04832826423522494 
0.04832826423522494 
0.04832826423522494 
0.01331585652438066 
0.04832826423522494 
0.04832826423522494 
0.04832826423522494 
0.02269035673083884 
0.02269035673083884 
0.02269035673083884 
0.02269035673083884 
0.02269035673083884 
0.02269035673083884 
0.02269035673083884 
-0.0906630278288742 
0.02269035673083884 
0.02269035673083884 
0.02269035673083884 
0.07737120428837944 
0.05197740083348275 
0.02424032262344225 
-0.008305073038860926 
0.3245020942732336 
0.1026435630739285 
0.09617440469359079 
0.05197740083348275 
-0.0757808055194672 
-0.07237956463144234 
-0.0970967037496431 
0.05197740083348275 
0.1026435630739285 
0.05197740083348275 
0.05197740083348275 
0.05197740083348275 
0.05197740083348275 
0.02569584432910023 
0.02569584432910023 
0 
0 
0 
0 
0 
0 
0 
0 
0 
0 
0.1736627910845877 
0.01747078316498343 
0.01747078316498343 
0.01747078316498343 
0.01747078316498343 
0.01747078316498344 
0.01747078316498343 
0.01747078316498343 
-0.06673072890802458 
-0.3978655093902113 
0.3778538880547989 
0.0845517111446776 
0.01747078316498343 
0.3176397812252144 
0.01747078316498343 
0.01747078316498343 
0.01747078316498343 
0.01747078316498343 
0.01747078316498343 
0.01747078316498344 
0.01747078316498343 
0.01747078316498343 
0 
0 
3.469446951953614e-18 
0 
0 
0.09377018258904976 
0 
0 
0 
-0.1059518968005538 
0 
0.001991276456850611 
-0.007403338389722658 
-0.1021124235795927 
0.001991276456850611 
0.001991276456850611 
0.05908364117119098 
0.001991276456850611 
0.04494518035275061 
0.09292108478064262 
-0.09304178107465719 
0.04494518035275061 
0.04494518035275061 
0.04494518035275061 
0.04494518035275061 
0.04494518035275061 
0.04494518035275061 
0.0747388553003174 
0.04494518035275061 
0 
0 
0 
0 
0 
0 
0 
0 
0 
0 
-0.01855816522982656 
0 
0 
0 
0 
0 
-0.1070957638711116 
0.0128002918053102 
0.0128002918053102 
0.0128002918053102 
0.04806838931488462 
0.04806838931488462 
0.04806838931488462 
0.04806838931488462 
0.04806838931488462 
0.04806838931488462 
0 
0.1602662990737371 
0 
0 
0 
0 
0 
0 
0.09542999069982713 
0 
-0.04921923266690371 
0 
0.1804565747871066 
0 
0 
0.18952483860059 
0 
0 
0 
0 
0 
-0.009402208529636429 
0.0008007911787715435 
0.0008007911787715435 
0.0008007911787715435 
0.0008007911787715435 
0.0008007911787715435 
0.0008007911787715435 
0.0008007911787715435 
0.0008007911787715435 
0.0008007911787715435 
0.0008007911787715435 
0.0008007911787715435 
0.0008007911787715435 
0.0008007911787715435 
0.0008007911787715435 
0.0008007911787715435 
0.0008007911787715435 
0.0008007911787715435 
0.0008007911787715435 
0.001210038627501582 
0 
0 
0 
0 
0.006310405467656315 
0.006310405467656315 
0.006310405467656315 
0.006310405467656315 
0.006310405467656315 
0.006310405467656315 
0.006310405467656315 
0.01106351528548021 
0.03327392518355751 
0 
0 
-0.1260074412455868 
0 
0 
0 
0.0667609871121729 
0.0667609871121729 
0.03283297999075163 
0.0667609871121729 
0.0595638927431579 
0.0667609871121729 
0.07995716157678566 
0.2166481737650705 
0.02958700251561562 
0.01902290733061456 
0.01902290733061456 
0.01902290733061456 
0.01902290733061456 
0.1663421006378912 
0.01902290733061456 
0.0466876106570264 
0.01902290733061456 
0.01902290733061456 
0.01902290733061456 
0.01902290733061455 
0.01902290733061456 
0.01902290733061456 
0.01902290733061456 
0 
0.1315128195082974 
0 
0.1735302609932785 
0 
0 
0 
0 
0 
0 
0 
0 
0 
0 
0.1382379723986192 
0.02938046673458809 
0.0586089118947742 
0.02938046673458809 
0.02938046673458809 
0.02938046673458809 
0.1102785696235332 
0.1102785696235332 
0.1102785696235332 
0.1102785696235332 
0.1102785696235332 
0.1102785696235332 
0.2380843958187402 
-0.03731901046599978 
0 
0.1586657284705594 
0 
-0.03473876778279499 
3.363196468063122e-05 
0 
0 
0 
0.02869033897780595 
0 
0.000263427981972459 
0.02869033897780595 
0 
0 
0 
-0.01032782228635792 
0 
0.003879407057102589 
0 
0 
0 
0 
0 
-0.07449067093888805 
0 
0 
0 
-0.003070884268651127 
0.1088769120943982 
0 
0.005280451113586431 
0.005280451113586431 
0.02684648808581688 
0.005280451113586431 
0.005280451113586431 
0.1025070455143885 
0.005280451113586431 
0.01041373600792541 
0.005280451113586431 
0.005280451113586431 
0.04623070884564955 
0.005280451113586431 
0.005280451113586431 
0.06307292269567212 
0.06307292269567212 
0.06307292269567211 
0.04453485818620818 
0.09148104302174323 
0.06307292269567212 
0.06307292269567212 
0.06307292269567212 
0.0344601581153505 
0.0220192412771755 
0.06307292269567212 
0.06307292269567212 
0.06307292269567212 
0.2072835930958045 
0.002247851393005278 
0.09813294277439225 
0.002247851393005278 
0.002247851393005278 
0.002247851393005278 
0.002247851393005278 
0.002247851393005278 
0.002247851393005278 
0.002247851393005278 
0.002247851393005278 
0 
0 
0 
0.02718208452668941 
0.1469311907557272 
0 
0.01019641123548127 
0.02718208452668941 
-0.0209770250072649 
0 
0 
0.02718208452668941 
0 
0 
0 
0 
0 
0 
-0.009138865603266917 
0 
0 
0 
0 
0 
0 
0.000622808225551372 
0 
0 
0 
-0.09779133811191226 
0 
0.0971338716915856 
0.03352018548563727 
-0.07405878940511101 
0 
0 
0.000622808225551372 
0 
0 
0 
0 
0.01618944305734454 
0.000622808225551372 
0.000622808225551372 
0 
0.04841196537877073 
0.04841196537877073 
0.04841196537877073 
0.0517689439563653 
0.04841196537877073 
-0.01969370431736821 
0.04841196537877073 
0.04841196537877073 
0.04841196537877073 
0.06119136429568528 
0.04841196537877073 
0.04841196537877073 
-0.2933602694285158 
0.04841196537877073 
0.04841196537877073 
0.04841196537877073 
0.01487811874208942 
0.04841196537877073 
0.1957439732284277 
-0.05048659707142941 
0.04841196537877073 
0.08104403773238884 
0.236958277831409 
0.02869033897780595 
0.02869033897780595 
0.02869033897780595 
0.3278688524590164 
0.3278688524590164 
0.3278688524590164 
0 
-0.01519223608733448 
0 
0 
0 
0.06608399333718409 
-0.1329122534872482 
0 
0 
0 
0 
0 
0 
0 
0 
0.354257880140059 
0.1306959331922864 
0.1306959331922864 
0.1413603868603793 
0.01112724996490275 
0 
0.03538279504336973 
0 
0.03538279504336973 
0 
0 
0 
0 
0.002462019306054863 
0.002462019306054863 
0.002462019306054863 
0 
0 
0 
0 
0.0188508276155015 
0.0188508276155015 
0.0188508276155015 
0.0188508276155015 
0.03978554119637837 
0.0188508276155015 
-0.1288181860385683 
0.0188508276155015 
0.0188508276155015 
0.04307462795900868 
0.0188508276155015 
0.0188508276155015 
0.0188508276155015 
0.04065305748593793 
0.0188508276155015 
0.0188508276155015 
0.4142334478750193 
0 
0 
-0.1123310802175245 
0 
0 
0 
0 
-0.06663645623108728 
0 
0 
0.008419675666490418 
-0.005396548175064832 
0 
0 
0.1559980761010527 
0.001471631813658379 
0.001471631813658379 
0.001471631813658377 
0.001471631813658379 
0.03881768020431499 
-0.106636537544774 
0.001471631813658379 
0.001471631813658379 
0 
0 
0 
0 
0 
0 
0.3468915595886446 
0.007635557115443061 
0 
0 
0 
0 
0 
0 
-0.003848607474567229 
0 
0 
0 
0 
0.1829263681355494 
0 
0 
-0.08103075429762401 
0 
0.09870921576521935 
0 
0.1924165392556176 
0.05867966441557673 
0 
0 
0 
0 
0 
0 
0 
0 
0 
0.0143232981907603 
0.0143232981907603 
0.0143232981907603 
0.0143232981907603 
0.0143232981907603 
0.0143232981907603 
0.0143232981907603 
0.0143232981907603 
0.0143232981907603 
0.0143232981907603 
-0.01134139440227612 
0.0143232981907603 
0.0143232981907603 
0.0143232981907603 
0.03513908603589053 
0.03513908603589053 
0.03513908603589053 
0.2201537906512159 
0.2201537906512159 
0.03513908603589053 
0.03513908603589053 
0.1850147046153254 
0.1850147046153254 
0.0323091194580515 
0.008286236658694832 
0 
0 
0 
0 
0 
0.02916588461129066 
-0.04417753188043926 
0 
0.01769474768241078 
0 
0 
0 
0 
0.9523809523809523 
0 
0 
0.03078225560600631 
0 
0.01827025309442616 
0.01811668351504335 
0 
0 
0 
0 
0 
0 
0 
0 
0 
0 
0 
0.02668093720306201 
-0.01200432857602249 
-0.01247814583640328 
0 
0 
0 
0 
0 
0 
0.01979448048742082 
0.01808309744578835 
0 
0 
0 
0 
0 
0 
0 
0 
-0.02229264108569704 
0.04294074636861271 
0.04294074636861271 
0.04294074636861271 
0.04294074636861271 
0.04294074636861271 
0.04294074636861271 
0.04294074636861271 
0.04294074636861271 
0.04294074636861271 
0.04294074636861271 
0 
0 
0 
0.2226638339159664 
0 
0 
0 
0 
0.01392595931059231 
0.01142824888954843 
0.01142824888954843 
0.009471941780672207 
0.06910164209153372 
0.01142824888954843 
0.01142824888954843 
0.01142824888954843 
0.01142824888954843 
0.01142824888954843 
0.01798145806453324 
0.05857341639198629 
0.02654069599726208 
-0.01029295012793456 
0.1215088017124046 
0.07431136721386175 
0.07431136721386175 
0.07431136721386175 
0.07431136721386175 
0.07431136721386175 
0.0004863020016951699 
-0.05575721734128167 
-0.177573863265366 
0.0004863020016951699 
0.0004863020016951699 
0.0004863020016951699 
0.0004863020016951699 
0.0004863020016951699 
0.0004863020016951699 
0.0004863020016951699 
0.1544443074642926 
0.024866107650363 
0.0004863020016951699 
0.0004863020016951699 
0.0004863020016951699 
0.01476231096780672 
0.0004863020016951699 
0.0004863020016951699 
0.01458518545956953 
0.01458518545956953 
0.01458518545956953 
0.09771142365592148 
0.01458518545956953 
0.01458518545956953 
0.02828244801810744 
0.01458518545956953 
0.02828244801810744 
0 
0 
0 
0 
0 
0.01101030166071773 
0.01101030166071773 
0.01101030166071773 
-0.1520620887813093 
0.01101030166071773 
0.01101030166071773 
0.01101030166071773 
0.01101030166071773 
0.01101030166071773 
0.06946985478674303 
0 
0 
0.1889695893473778 
-3.469446951953614e-18 
0.0126387568201066 
0.05838128388988795 
0.0005393398646346804 
0.2504255800080564 
0.0005393398646346804 
0.0005393398646346804 
0.0005393398646346804 
0.008286236658694832 
-0.02741393534349001 
0.008286236658694832 
0.008286236658694832 
0.008286236658694832 
0.008286236658694832 
0.008286236658694832 
0.008286236658694832 
0.03070983072598349 
0.008286236658694832 
0.008286236658694832 
0.008286236658694832 
0.008286236658694832 
0.008286236658694832 
0.04103721540507383 
0.01277879892158103 
0 
0 
0 
0 
0 
0 
0 
0 
0 
-0.01672249138421825 
0.01364002403956775 
0 
0 
0 
0 
0 
0 
0 
0 
0.1664190608046223 
0 
0 
0.02090163079120313 
-0.04931326716310461 
0 
0 
0 
0 
0 
0 
0 
0.06095565355755674 
0.05460542640965253 
0.05460542640965255 
0.05460542640965253 
0.05460542640965253 
0.05460542640965253 
0.3948611404831512 
0.2154497513279387 
0.05460542640965255 
0.009900502152746873 
0.009900502152746873 
0.009900502152746873 
0.009900502152746873 
-0.01199711764514358 
0.009900502152746873 
0.009900502152746873 
0.009900502152746873 
0.03750015408461209 
0.009900502152746873 
0.009900502152746873 
0.2537800350892514 
0 
0.004625245288589769 
0 
0 
0 
0 
0 
0 
0.1867713179380016 
0 
0 
0 
0 
0.328773761923157 
0 
0 
0 
0 
0 
0 
0 
0 
0.1408015247251374 
0 
0.007864764733509883 
0.01141291086962595 
0.01141291086962595 
0.01141291086962595 
-0.01741462587463485 
0.01141291086962595 
0.01141291086962595 
0.006553209174984801 
0.006553209174984801 
0.006553209174984801 
0.006553209174984801 
0.1738058145306836 
0.006553209174984801 
0.006553209174984801 
0.006553209174984801 
0.006553209174984801 
0 
0.06643530053070641 
0 
0 
0 
0.02253935639327757 
0.02253935639327757 
0.02253935639327757 
0.06458665481919888 
0.02253935639327757 
0.02253935639327757 
0.02253935639327757 
0.02253935639327757 
0.02253935639327757 
0.02253935639327757 
0.02253935639327757 
0 
0 
0 
0 
0 
0 
0 
0 
0 
0 
0.07681940518880612 
0 
0.0368225687118886 
0.03732649408954054 
0 
0 
0.0610620626034709 
0 
0 
0.1220892429233616 
0 
0 
0 
0.01941352761124724 
0.01024701112642877 
0 
0 
0 
0.01941352761124724 
0 
0 
0 
0 
0 
0 
0 
0.04548240177454327 
0 
0 
0 
0 
-0.02818903600476588 
0.5190614077258423 
0 
0 
0 
0.05867966441557673 
0.05867966441557673 
0.05867966441557673 
0.05867966441557673 
0.05867966441557673 
0.05867966441557673 
0.08493011300864017 
0 
0 
0 
0 
0 
0 
0 
0 
0 
-0.002693617446171332 
0 
0 
0.01774013171129367 
0.01774013171129367 
0.01774013171129367 
0.01774013171129367 
0.01774013171129367 
0.01774013171129367 
-0.01974267899370576 
0.01774013171129368 
0.01774013171129367 
0.01774013171129367 
0.01774013171129367 
0 
0.2827227312417638 
0 
0 
0 
0 
0.0376440418347989 
-0.06873514655796227 
0.0376440418347989 
0.0376440418347989 
0.0376440418347989 
0.0376440418347989 
0.0376440418347989 
0.0376440418347989 
0.0376440418347989 
0.0376440418347989 
0.0376440418347989 
0.07834071228937305 
0.0376440418347989 
0 
0 
0 
0 
0 
0.1466484738783453 
0.1466484738783453 
0.06012362987366521 
0.0001411089730624805 
0.0001411089730624805 
-0.006849756864028632 
0.0001411089730624805 
0.0001411089730624805 
0.2660299300863501 
0.2660299300863501 
0 
0 
0 
0.01696487215790884 
0 
0 
0 
0.01042507244160147 
0 
0 
0 
0 
0 
0 
-0.02385503920007474 
-0.4227461658639024 
0.06161264021583233 
0.05053430086954552 
0.05053430086954552 
0.05053430086954552 
0.05053430086954552 
0.05053430086954552 
0.05053430086954552 
0.05053430086954552 
0.05141825678834264 
0.05053430086954552 
0.05053430086954552 
0.05053430086954552 
0.1149190116822872 
0.1266688124149851 
-0.3354527230883512 
0.2425139101350244 
0.2425139101350244 
0.2425139101350244 
0.05521673353966514 
0.2425139101350244 
-0.1608049718825217 
0.2425139101350244 
-0.2223561079023794 
0.2425139101350244 
0.2345797276902399 
0.2345797276902399 
0 
0.1837076034734552 
0.2879418137518965 
0.4120903287461078 
0.4357859368012399 
0.144879747097764 
0.01754745243636991 
0.01754745243636991 
0.01754745243636991 
0.01754745243636991 
0.01754745243636991 
0.6126653379815102 
-0.1101863901932537 
0.1042342102784413 
0.1042342102784413 
0.1201919980111178 
0.1201919980111178 
0.04623542989959829 
0.04623542989959829 
0.04623542989959829 
0.04623542989959829 
-0.1260554454829788 
0.04623542989959829 
0.2857397815243808 
0.2857397815243808 
0.08220916379190971 
0.08220916379190971 
0.08220916379190971 
0.08220916379190971 
0.08220916379190971 
0.1200385216960418 
0.02953924159522057 
0.001124340395815664 
0.1606365704404469 
0.001124340395815664 
0.05919933558385528 
0.05919933558385528 
0.05919933558385528 
0.05919933558385528 
0.2741764511912416 
0.25003999434699 
0.4632364023692391 
0.03953275992062559 
0.08590294173312724 
0 
0 
0.03360865801920368 
0 
0 
0.03953275992062559 
0 
0.07663961396492651 
0 
0.03953275992062559 
0.03360865801920368 
0.2742708758634946 
0.1758203944630471 
0.1758203944630471 
0.1758203944630471 
0 
0 
0.0335254765515542 
0 
0 
0 
0 
0 
0 
0 
-0.05814669628410392 
0 
0 
0.181910794359856 
0.181910794359856 
0.181910794359856 
0.2113907967357305 
0.2113907967357305 
0.2113907967357305 
0.2113907967357305 
0.1438393411177664 
0.2469135936760284 
0.2469135936760284 
0.4938271695199535 
0.1076494864764139 
0.1076494864764139 
0.1076494864764139 
0.1076494864764139 
0.1076494864764139 
0.1076494864764139 
0.1076494864764139 
0.4751355854734314 
0.3993069204986299 
0.1055484385991939 
0.07582866497480163 
0.07582866497480163 
0.07582866497480163 
0.07582866497480163 
0.1369145186863845 
-0.03642151007125258 
0.1369145186863845 
0.1504264905764778 
0.1369145186863845 
0.1369145186863845 
0.1369145186863845 
0.1369145186863845 
0.1369145186863845 
0.2469135758439251 
0.2469135758439251 
0.267664773654802 
0.2557280178481341 
0.0119367558066679 
0.0119367558066679 
0.0119367558066679 
0.0119367558066679 
0 
0 
0.09385791368245139 
0 
0 
0 
0 
0 
0 
0 
0.07079784247856846 
0.07079784247856846 
0.1369032078293165 
0.07079784247856846 
0.07079784247856846 
0.07079784247856846 
0.09920596280463956 
0.07079784247856846 
0.07079784247856846 
0.07079784247856846 
0.07079784247856845 
0.08293415307727929 
0.4256750138920686 
0.1275457933304278 
0.1275457933304278 
0.1275457933304278 
0.1178039475563695 
0.1178039475563695 
0.1178039475563695 
0.2577412849163447 
0.2577412849163447 
0.4716084365627167 
0.1059671218442801 
0.1059671218442801 
0.1059671218442801 
0.05421331637801967 
0.05421331637801967 
0.05421331637801967 
0.05421331637801967 
0.05421331637801967 
0.05421331637801967 
0.1301021081252189 
0.06477741156302072 
0.01283096772499564 
0.01283096772499564 
0.02295685240371341 
0.05914350716764414 
0.01283096772499564 
0.01283096772499564 
0.01283096772499564 
0.01283096772499564 
0.01283096772499564 
0.08413396847564998 
0.08413396847564998 
0.08413396847564998 
0.08413396847564998 
0.08413396847564998 
0.1107898290417552 
0.06610536535074801 
0.06610536535074801 
0.06610536535074801 
0.06610536535074801 
0.06610536535074801 
0.06610536535074801 
0.06610536535074801 
0.06610536535074801 
0.06610536535074801 
-0.04480839974697677 
0.06610536535074801 
0.2801585298087471 
0.2801585298087471 
0.06403865932774758 
0.06403865932774758 
0.06775297190073019 
0.06403865932774758 
0.05018288472826318 
0.05018288472826318 
0.05018288472826318 
0.05018288472826318 
0.2053406226165551 
0.05018288472826318 
0.05018288472826318 
0.05018288472826318 
0.05018288472826318 
0.05018288472826318 
0.01797069075289361 
0.01797069075289361 
0.01797069075289361 
0.01797069075289361 
0.04269973891935944 
0.04269973891935944 
0.04269973891935944 
0.04269973891935944 
0.04269973891935944 
0.04269973891935944 
0.04269973891935944 
0.04269973891935944 
0.1220151141891789 
0.04269973891935944 
0 
0 
0 
0 
0 
0.01744492509484164 
0.3070812297844306 
0.2672105816483438 
0 
-0.001084127123414024 
0.271066231778862 
0.03368494106078977 
0 
0 
0 
0 
0 
0 
0.06542600107080437 
0 
0 
0 
0 
0 
0 
0 
0 
0 
0 
0 
0 
0.1276926600781184 
-0.06227442779127868 
0 
0.03209365410465866 
0 
0 
0.03092200887906942 
0 
0 
0 
0 
0 
0 
0.05812473832456085 
0 
0 
0 
0 
0 
0 
0 
0 
0 
-0.06866849800896427 
0.04291684358816048 
0.04291684358816048 
0.04291684358816048 
0.04291684358816048 
0.04291684358816048 
0.04291684358816048 
0.04291684358816048 
0.04291684358816048 
0.04291684358816048 
0.04291684358816048 
0.07125264571301773 
0 
0 
0.07367980097230663 
0.08703775100476333 
0.07367980097230663 
0.07367980097230663 
0.07367980097230663 
0.07367980097230663 
0.09656678068551737 
0.09656678068551737 
0.09656678068551737 
0.09656678068551737 
0.09656678068551737 
0.08477137433448448 
0.09656678068551737 
0.09656678068551737 
0.09656678068551737 
0.09656678068551737 
0.09656678068551737 
0.1246123264728391 
0.1585937727033686 
0.1246123264728391 
-0.03815212080680519 
0.1246123264728391 
0.1246123264728391 
0.1246123264728391 
0.09072012326006439 
0.05119458071413902 
0.05119458071413902 
0.1268557584867762 
0.05119458071413902 
0.05119458071413902 
0.05119458071413902 
0.05119458071413902 
0.05119458071413902 
-0.2535884261789318 
-0.06715831456132612 
0.01335795003245669 
0.4532698400588626 
0.01335795003245669 
0.01335795003245669 
0.01335795003245669 
0.01335795003245669 
0.01335795003245669 
0.01335795003245669 
0.01335795003245669 
0.01335795003245669 
0.01335795003245669 
0.01335795003245669 
-0.0643559148961553 
0.01335795003245669 
0.01106351528548021 
0.01106351528548021 
0.01106351528548021 
-0.0219116122683829 
-0.1203094364829117 
0.01106351528548021 
0.01106351528548021 
-0.08932479938765285 
0.01106351528548021 
0.01106351528548021 
0.05108442357913211 
-0.0704651827643716 
-0.009269299666523427 
0.01106351528548021 
0.01106351528548021 
0.01106351528548021 
0.01106351528548021 
0.1229987098852536 
-0.04907215075143094 
0.01106351528548021 
0.03775795630361861 
0.01130548911925582 
0.01130548911925582 
0 
0 
0 
0.1022317695269109 
0 
0 
0.009547457640862168 
0.0540010543222782 
0.0540010543222782 
0.009547457640862168 
0.009547457640862168 
0.0540010543222782 
0.009547457640862168 
-0.197622385544717 
0.06644828870719681 
0.06644828870719681 
0.06644828870719681 
0.06644828870719681 
0.06644828870719681 
0.06644828870719681 
0 
0 
0 
0 
0 
0 
0 
0.003003512465319758 
-0.1552513004430509 
0 
-0.06362950208617976 
0 
0 
0 
0 
0 
0 
0.1006798133638814 
0 
0 
0 
0.0208967750472008 
0 
0 
0.1417112002233522 
0 
0 
-0.01734709461207859 
0.2151508209899434 
0 
0 
0 
0.07993700490283573 
0.0087187025596788 
0 
0 
0 
0.04475639821100565 
0 
0 
0 
0 
0.02303217532758315 
0 
0 
0.01093250369004688 
0 
0 
0 
-0.1607401120758782 
0 
0 
0 
0 
0 
0 
0 
0 
-0.006492340273300653 
0 
0 
0 
0 
0 
0 
0.06550365749273963 
0 
0 
0 
0 
0 
0 
0 
0 
0 
0 
0.05893764864747163 
-0.03651632094725765 
0 
0 
0.05893764864747163 
0 
0 
0 
0 
0 
0.01941977184581945 
0 
0 
0 
0 
0 
0 
0 
0.01589617272836488 
0 
0.06028625258662818 
0 
0 
0 
0 
0 
0 
0.05200829302260328 
0.05200829302260328 
-0.05674739708878326 
0.05200829302260328 
0.05200829302260328 
0.05200829302260328 
0.009727525379868811 
0.05200829302260328 
0.05200829302260328 
0.05200829302260328 
-0.008546403459707995 
0.1060065008773748 
0.05200829302260328 
0.05200829302260328 
0.05046412928881455 
0.05200829302260328 
0.05200829302260328 
0 
0.04348833534671159 
0 
0.07316109767457957 
0 
0 
0 
0 
0 
0 
-0.03941958576971002 
0 
0.09056307245108405 
0.02393650188298019 
0 
0.06809763413368317 
0 
0 
0 
0 
0 
0.06229147547944058 
0.1474504378887507 
0.006998146305341909 
0.006998146305341909 
0.02826897053847493 
0.006998146305341909 
0.006998146305341909 
0.006998146305341909 
0.006998146305341909 
0.006998146305341909 
0.006998146305341909 
0.006998146305341909 
0.006998146305341909 
0.006998146305341909 
0.006998146305341909 
-0.01807613454472763 
0.006998146305341909 
0.006998146305341909 
0.006998146305341909 
0.006998146305341909 
0.006998146305341909 
0.006998146305341909 
0 
0 
0 
0.04964063771485565 
0 
0 
0.08379352953532852 
0 
0 
0 
0 
0.006375116972639253 
0.0398704412047724 
0 
0 
0 
0.1208151710170655 
0.00855385207067672 
0 
0 
0 
0 
0 
0 
0 
0 
0 
0 
0 
0 
0 
0 
-0.07204412467128855 
0 
0 
0 
0 
0 
0 
0 
0 
-0.07132846709883192 
0 
0 
0 
0 
0 
0 
0 
0 
0 
0 
0 
0 
0 
0 
0.02001787088507808 
0.02001787088507808 
0.02001787088507808 
0.02001787088507808 
0.02001787088507808 
-0.02237927912423313 
0.02001787088507808 
0.04504451074295818 
0.02001787088507808 
0.02001787088507808 
0.02001787088507808 
0.02001787088507808 
0.08218771135590325 
-0.1332732155315247 
0.02001787088507808 
0.02001787088507808 
0.02001787088507808 
0.1010183096279313 
0.02001787088507808 
0.02001787088507808 
0.02001787088507808 
0.02001787088507808 
0.02001787088507808 
0 
0 
0 
0.01395531112295032 
0 
0 
0 
0 
0 
0 
0 
0 
-0.01906179581960534 
0 
0.1845768133539677 
0 
0.003585881317507303 
0 
0 
0 
0 
0 
0 
0 
0 
0 
0 
0.01019641123548126 
0.01019641123548126 
0.01019641123548126 
0.01019641123548126 
0.01019641123548126 
0.01019641123548126 
0.01778498158220827 
0.01019641123548126 
0.01019641123548126 
0.01019641123548126 
-0.01964510566734571 
0.01019641123548126 
0.01019641123548126 
0.01019641123548126 
0.01019641123548126 
0 
0 
0.007524428190308735 
0.007524428190308735 
0 
0 
0.005719867970024281 
0 
0 
0 
0 
0 
0 
0 
0 
0 
0.3941512948031016 
0.06433075131822225 
0.06433075131822225 
0.06433075131822225 
0.06433075131822225 
-0.01162800649397233 
0 
0 
0 
0 
0 
0 
0.09135902763917443 
-3.035766082959412e-18 
0 
0 
0 
0 
0.02090163079120313 
0.02090163079120313 
0.02090163079120313 
0.0227368225326203 
0.02090163079120313 
0.02090163079120313 
0.02090163079120313 
0.02090163079120313 
0.0227368225326203 
0.02090163079120313 
0.02090163079120313 
0 
0 
0 
0 
0 
0 
0 
0 
0.008626100442634918 
0.001991519906862616 
-0.2368789046549568 
0.008626100442634918 
0.008626100442634918 
0.008626100442634918 
0.008626100442634918 
0.008626100442634918 
0.008626100442634918 
0.008626100442634918 
0.1427728022808614 
0.008626100442634918 
0 
0 
0 
0 
0.009534470693444907 
0 
0 
0 
0 
-0.01545751181452695 
0 
0 
0.05142918256290951 
0 
0.03398144623052953 
0.05525227046366255 
0 
0 
0.004591353461804671 
0 
0.03398144623052953 
0 
0 
0 
0 
0 
0 
0 
0 
0.0950814502448515 
0 
0 
-0.01436948945705337 
0 
0 
0 
0 
0 
0 
0 
0 
0.01611870560054655 
0.06013239818028734 
0.02997790684865159 
0.01611870560054655 
0.01611870560054655 
0.01611870560054655 
0.01611870560054655 
0.01611870560054655 
0.02997790684865158 
0.01611870560054655 
0.06595442591157191 
0.1256474372919323 
0.01611870560054655 
0.01611870560054655 
0.02997790684865159 
0 
0 
-0.2074686097141714 
0 
0 
0 
-0.1033035133012536 
0.0301447800655297 
0 
-0.250175574748603 
0 
-0.003929379969716013 
0 
0.002511655493094699 
0.002511655493094699 
0.002511655493094699 
0.0328130037240869 
0.002511655493094699 
0.002511655493094699 
0.002511655493094699 
0.002511655493094699 
0.002511655493094699 
0.002511655493094699 
0.01984398259837043 
0.007371618888094698 
0.0894474689911571 
0.002511655493094699 
0.002511655493094699 
0 
0 
0 
0.008203207323462679 
0 
0 
0.01914440619361849 
0.01914440619361849 
0.01914440619361849 
-0.155287948298867 
0.01914440619361849 
0.01914440619361849 
0.01914440619361849 
0 
0 
0 
0 
0 
0 
0 
0 
0 
0 
0 
0 
0 
0.02067366565885174 
0 
0 
0 
0 
0 
0 
0 
0 
-0.02881024296234316 
0 
0 
0 
0.03500027870492775 
0 
0 
0 
0 
0.0842982331177686 
0.0842982331177686 
0.0842982331177686 
0.0842982331177686 
0.0842982331177686 
0.0842982331177686 
0.0842982331177686 
0.0842982331177686 
-0.08735410187796047 
0.2130002980472115 
0.0842982331177686 
-0.06420877922499223 
0.0842982331177686 
-0.3060748344419529 
0.0842982331177686 
0.05605558946637164 
0.04565974493086113 
0.04565974493086113 
0.0969792317135918 
0.04565974493086113 
0.04565974493086113 
0.04565974493086113 
-0.003357754774705034 
-0.02537811712992876 
0.04565974493086113 
0.04565974493086113 
0.08248450876573642 
0.1171534860324533 
0.1171534860324533 
0.1171534860324533 
0.1171534860324533 
0.1171534860324533 
0.1171534860324533 
0.003978470803163956 
0.003978470803163956 
-0.2839164014963625 
0.003978470803163956 
0.003978470803163956 
0.003978470803163956 
-0.04642510312239165 
0.003978470803163956 
0.01378260394941243 
0.01378260394941243 
0.01378260394941243 
0.01378260394941243 
0.01378260394941243 
0.01378260394941243 
0.01378260394941243 
0.01378260394941243 
0.01378260394941243 
-0.150867823658166 
-0.1376265049310217 
0.01378260394941243 
0.01378260394941243 
-0.02419871592400511 
0.01378260394941243 
0.01378260394941243 
0.01378260394941243 
0.05748873549789067 
0.01378260394941243 
-0.03126965246757389 
0.1076021735170562 
0.01378260394941243 
0.01378260394941243 
0.01378260394941243 
0.2812110023290028 
0.3506678069332722 
0.3506678069332722 
0.03131170878625019 
0.03131170878625019 
0.03131170878625019 
0.03131170878625019 
0.03131170878625019 
0.03131170878625019 
0.03131170878625019 
0 
0 
0 
0 
0 
0 
0 
0 
0 
0 
0 
-0.01045914505779992 
-1.734723475976807e-18 
0 
0 
0 
0.02399887376905352 
0 
0 
0 
0 
0 
0 
0 
0 
0 
0 
0 
0.05054777527200443 
0 
0 
0 
0 
0 
0 
0 
0 
0 
0 
0 
0 
0 
0.001291670373499305 
0.001291670373499305 
0.001291670373499305 
0.001291670373499305 
0.001291670373499305 
0.001291670373499305 
0.05142377593373727 
0.001291670373499305 
0.001291670373499305 
0.001291670373499305 
0.001291670373499305 
0.001291670373499305 
0.001291670373499305 
0.02159476581981373 
0.02159476581981373 
0.02159476581981373 
0.02159476581981373 
0.02159476581981373 
0.02159476581981373 
0.02159476581981373 
0.04559050531851088 
0.02159476581981373 
0.02159476581981373 
0.02159476581981373 
0.0238173753610888 
0.0238173753610888 
0.0238173753610888 
0.0238173753610888 
0.0238173753610888 
0.0238173753610888 
0.0238173753610888 
0.0238173753610888 
0.0683231303906678 
0.03760953096099545 
0.0238173753610888 
0.1039862247848679 
0.0238173753610888 
-0.07680791877025099 
0.0683231303906678 
0.0238173753610888 
0.0238173753610888 
-0.04948659708468661 
0.0238173753610888 
0.0238173753610888 
0.0238173753610888 
0.05651312959077946 
0.05651312959077946 
0.05651312959077946 
0.05651312959077946 
0.05651312959077946 
0.01911778771408116 
0.05651312959077946 
0.05651312959077946 
0.01749671061736633 
0.05651312959077946 
0.05651312959077946 
0 
-0.1637619201655385 
0.0190454524571509 
0 
0 
0.03368036050210579 
0.1653090167138849 
0.0190454524571509 
0 
0.03429025023082187 
0.2594979422850254 
-0.0103063598709414 
0 
0.0190454524571509 
0 
0.0190454524571509 
-0.1137987857922199 
0.0190454524571509 
0.0190454524571509 
0.03050211726477384 
0.03050211726477384 
-0.2183917099935251 
0.0190454524571509 
0.0190454524571509 
0.03050211726477384 
0.03580035730761998 
0.03580035730761998 
0.03580035730761998 
0.05349233996994781 
0.03580035730761998 
0.03580035730761998 
-0.01369661860373477 
0.03580035730761998 
-0.05761274049465626 
0.03580035730761998 
-0.1569577636570471 
0.03580035730761998 
0.03580035730761998 
0.03580035730761998 
0 
-0.008433542868160698 
0 
0 
0 
0 
0 
0 
0 
0 
0 
0 
0 
0 
0 
0.06932678234896474 
0 
0 
0 
0.07855965320028466 
0.05764057142275656 
-0.0169283498340095 
0.05764057142275656 
0.05764057142275656 
0.05764057142275656 
0.05764057142275656 
0.0808041960937215 
0.0808041960937215 
0.0808041960937215 
0.0808041960937215 
0.0808041960937215 
0.0808041960937215 
0.0808041960937215 
0.0808041960937215 
0.0808041960937215 
0.03014478006552971 
0 
0 
0 
-0.01178282540870675 
0 
0 
0.1176897638824646 
0.01341035765472302 
0.01341035765472302 
0.01341035765472302 
-0.05092059381434525 
0.003652537410823423 
0.01341035765472302 
0.01341035765472302 
0.01341035765472302 
0.01341035765472302 
0.1176897638824646 
-0.1588673584338423 
0.01341035765472302 
0.1565977065274732 
0.01341035765472302 
0.01341035765472302 
0.01341035765472302 
0.01341035765472302 
0.0301447800655297 
0.0301447800655297 
0.0301447800655297 
0.122203635232788 
0.122203635232788 
0.1460127754342535 
0.122203635232788 
0.0978557930090995 
0.08193207456871557 
0.01819520681702037 
0.006693010661666561 
0.01819520681702037 
0.1292357446030336 
0.04703502350364851 
0.04703502350364851 
-0.00293200954216643 
-0.00293200954216643 
-0.03353175515148499 
-0.00293200954216643 
0.01819520681702037 
0.01819520681702037 
0.04703502350364851 
0.01819520681702037 
-0.00293200954216643 
-0.08432546884081459 
0 
0 
0 
0 
-0.06959461946388786 
0 
0 
0 
0 
0.09061193319291309 
0.1146996936562509 
0.02919077512653129 
-0.1010711246338113 
-0.08921987708592879 
0 
0.08367206152678044 
0.08367206152678044 
0.08367206152678044 
0.1857784872830564 
0.08367206152678044 
0.07417414961380331 
-0.226132857101103 
0.08367206152678044 
0.08367206152678044 
0.08367206152678044 
0.01213631059871082 
0.06214565487186473 
0.08639706987617678 
0 
0 
0 
0 
0 
0 
-0.1221400044137014 
0 
0 
0 
0 
0 
0 
0.1492949460084189 
0.07341123324662638 
0.1138654298225936 
0 
0.04078423306050514 
0 
0.05908830647868352 
0.03876639268999486 
0 
0 
0.03876639268999486 
0 
0 
0 
0 
0 
0.03821585709205136 
0.03821585709205136 
0.03821585709205136 
0.03821585709205136 
0.03821585709205136 
0.03821585709205136 
0.03821585709205136 
0.03821585709205136 
0.07013932398282523 
0.03821585709205136 
0.05665064890811854 
0.05665064890811854 
-0.01678091255919245 
0.05665064890811854 
0.05665064890811854 
-0.008971035818404022 
0.02076295229055129 
0.05665064890811854 
0.05665064890811854 
0.05665064890811854 
0.05665064890811854 
0.1562161929742455 
0.1562161929742455 
0.2461673509788368 
0.1562161929742455 
0 
0 
0 
0 
0 
0 
0 
0 
0 
0 
0 
0 
0 
0 
0.06427972279918077 
0 
0 
0 
0 
0 
0 
0 
0 
-0.04799155375624246 
0 
0 
0.05307299741260558 
0.052230528517758 
0.05223052851775801 
0.025549591314696 
0.1667797047813069 
0.025549591314696 
0.119831420853618 
0.025549591314696 
0.025549591314696 
0.025549591314696 
0.025549591314696 
0.025549591314696 
0.1837143644116841 
0.1837143644116841 
0.1837143644116841 
0.1031533900381246 
0.04066552945099304 
0 
0 
0.04066552945099304 
0 
0.06703703514081806 
0 
0.01277879892158103 
0 
0 
0 
0.08918899079793252 
0.08918899079793252 
0.08918899079793252 
0 
0 
0 
0 
0 
0 
0 
0 
0 
0.02715518059690392 
0.1017196858485603 
0 
0 
-0.02615501616229486 
0 
0 
0 
0.1270227416536988 
0 
0.02908332394722182 
0 
0 
0 
0.04804343386505926 
0.04620804658453628 
0.04620804658453628 
0.04620804658453628 
0.04620804658453628 
0.04620804658453628 
0.04620804658453628 
0.04620804658453628 
0.08074150362745061 
0.07959128460475398 
0.04620804658453628 
-0.08192425010980579 
0.04620804658453628 
0.003809757938881695 
-0.1383134959550957 
0.003809757938881695 
0.004432566164433064 
0.003809757938881695 
0.003809757938881695 
0.003809757938881695 
0.003809757938881695 
-0.1384483890144903 
0.1556232231119366 
-0.07999669771848752 
0.1556232231119366 
0.1556232231119366 
0.1556232231119366 
0 
0 
0 
0 
0.06254713449325383 
0.06222870504122947 
0.2596014814923517 
0.06222870504122947 
0.06222870504122947 
0.06222870504122947 
0.06222870504122947 
0.06222870504122947 
0.02493427288397108 
-0.04759436466738737 
0.06222870504122947 
0.06222870504122947 
0.06222870504122947 
0 
0 
0 
0 
-0.05132492962216968 
0 
0 
0 
0 
0 
0 
0.06541283683019995 
0.06541283683019995 
0.06541283683019995 
0.06541283683019995 
-0.003467516153336237 
0.04525973298101835 
0 
0 
0 
0 
0 
0 
0 
0.06238327339920467 
0 
0.01213631059871082 
0.01213631059871082 
0.01213631059871082 
0.01213631059871082 
0.01213631059871082 
0.01213631059871082 
0.01213631059871082 
0.01213631059871082 
0.02279747922028337 
0.01213631059871082 
0.01213631059871082 
0.01213631059871082 
0.01213631059871082 
0 
0.001455718101780667 
0 
0.05316534398323421 
0 
0 
0 
0 
0 
0 
-0.04964715306620874 
0 
0 
0.1882751540282574 
0.1882751540282574 
0.1882751540282574 
0.0894521429366186 
-0.04184180884633297 
0.02222966063343036 
0.02222966063343036 
-0.2429622158508815 
0.02222966063343036 
0.02222966063343036 
-0.06622715948821462 
0.02222966063343036 
0.1803199818706322 
0.02222966063343036 
0.02222966063343036 
0.02222966063343036 
0.02222966063343036 
-0.006335964152895065 
-0.05154192809238916 
0.02222966063343036 
-0.0305039873243605 
0 
0 
0 
0 
0 
0 
0 
0 
0 
0.01606179231087435 
-0.08134127285508511 
0 
0 
0 
0 
0 
0 
0 
0 
0.006711990740566258 
0 
0.04445359668141604 
0.04445359668141604 
0.04445359668141604 
0.04445359668141604 
0.04445359668141604 
0.06455652450524074 
0.06455652450524074 
-0.1344719084116505 
0.06455652450524074 
0.06455652450524074 
0.06455652450524074 
0.06455652450524074 
0.06455652450524074 
0.06455652450524074 
0.06455652450524074 
0.06455652450524074 
0.06126754105440455 
0.06126754105440455 
-0.1641655499074356 
0.06126754105440455 
0.005206699376976921 
0.06126754105440455 
0.06126754105440455 
0.06126754105440455 
0.06126754105440455 
0.06126754105440455 
0.06126754105440455 
0.06585889451620924 
0.06126754105440455 
0.06126754105440455 
0.3278688524590164 
0.3278688524590164 
0.3278688524590164 
0.03689814436131572 
0.03689814436131572 
0.03689814436131572 
0.08151256655422759 
0.2156346759645348 
0.03689814436131572 
0.03689814436131572 
0.03689814436131572 
0.03689814436131572 
0.03689814436131572 
0.03689814436131572 
0.03689814436131572 
0.01599194310997771 
0.07869499022024161 
0.07869499022024161 
0.07869499022024161 
0.07869499022024161 
0.1088876566945508 
0.07869499022024161 
0.07869499022024161 
0.07869499022024161 
0.07869499022024161 
-4.142953520978839e-05 
0.03353832484770199 
0.03353832484770199 
0.03353832484770199 
0.03353832484770199 
0.03353832484770199 
0.09125128981448401 
0.03353832484770199 
0.03353832484770199 
0.04885221742510919 
-0.2097930886311454 
0.03353832484770199 
-0.1433738002020758 
0.03353832484770199 
0.0127400238609569 
0.0127400238609569 
0.0127400238609569 
0.0127400238609569 
0.0127400238609569 
0.0127400238609569 
0.03734259576527953 
0.0127400238609569 
0.0127400238609569 
0.03734259576527953 
0.0127400238609569 
0.0127400238609569 
0.0127400238609569 
0.0127400238609569 
0.0127400238609569 
0 
0 
0.05891911247995357 
0 
0 
0 
0 
0 
0 
0 
0.04454015362799038 
0 
0.3654668879626438 
0 
0.0532639339316317 
0 
0 
0.2001177607973393 
0.0407058989612577 
0.0005321631409226369 
-0.0576329109249122 
0.0005321631409226369 
0.0005321631409226369 
0.0005321631409226369 
0.04723208418957171 
0.0005321631409226369 
0.0005321631409226369 
0.0005321631409226369 
0.0005321631409226369 
0.0005321631409226369 
-0.00599165168493182 
0.0005321631409226369 
0.0005321631409226369 
0.0005321631409226369 
0 
0.05515204661302005 
0 
0 
0.1505527535410324 
0 
0 
0 
0 
0 
0.1189076609177544 
0.2994052734324095 
0 
0 
0 
-0.06123385347538006 
0.002343966351567301 
0.002343966351567301 
0.002343966351567301 
0.002343966351567301 
0.002343966351567301 
0.002343966351567301 
0.002343966351567301 
0.002343966351567301 
0.002343966351567301 
0.0008182773768066161 
0.002343966351567301 
0.07226033016585025 
0.002343966351567301 
0.002343966351567301 
0.002343966351567301 
0.002343966351567301 
0.04875194769937343 
0.04875194769937343 
0.04875194769937343 
0.04875194769937343 
-0.06712899515775314 
0.04875194769937343 
0.125552606777626 
0.06720948896312286 
0.04875194769937343 
0.01453983459967689 
0.04875194769937343 
0.04875194769937343 
0.04875194769937343 
0.04875194769937343 
0.05949958967552437 
-0.1043828134450679 
0.05949958967552437 
0.05949958967552437 
0.1411320835866912 
0.05949958967552437 
0.05949958967552437 
0.05949958967552437 
0.05949958967552437 
0.1101081055782406 
-0.1322672315907398 
0.05949958967552437 
-0.4418398488929586 
0.03056422435512593 
0.05949958967552437 
0.05949958967552437 
0.06646740291253431 
0.06646740291253431 
0.06646740291253431 
0.06646740291253431 
0.02434572252832834 
0.06646740291253431 
0.06646740291253431 
0.06646740291253431 
0.06646740291253431 
0.06646740291253431 
-0.1973589677009643 
-0.4450915447154029 
0 
0.01235693088649614 
0 
0 
0 
0 
0 
0 
0 
0 
0 
0 
0.01215822644862141 
0.01215822644862141 
0.1706170562653075 
0.01215822644862141 
0.01215822644862141 
-0.05179020315120412 
0.01215822644862141 
0.09338440077783249 
0.01215822644862141 
0.01215822644862141 
-0.03449301433291957 
0.01215822644862141 
0.01215822644862141 
0.01215822644862141 
0.01215822644862141 
0.01215822644862141 
0.01907141166747873 
0.01907141166747873 
0.01907141166747873 
0.01907141166747873 
0.01907141166747873 
0.01907141166747873 
0.01907141166747873 
0 
0 
0 
0 
0 
0 
0.05618033706568863 
0.167489513919073 
-0.005478176109014229 
0.190545227612529 
0.05618033706568863 
0.1455909046156663 
0.05618033706568863 
0.05618033706568863 
0.05618033706568863 
0.05618033706568863 
0.05618033706568863 
0.01450043176625057 
0 
0.1514472062508927 
0.2074371690886237 
0.08725413099778639 
0 
0 
0.2315270258058056 
0 
0 
0 
0 
0 
0.008048649820469472 
0.08725413099778639 
0.0415791417712987 
0.0415791417712987 
0.0415791417712987 
0.0415791417712987 
0.0415791417712987 
-0.03168603208519059 
0.04076947254062499 
0.04157914177129871 
0.0415791417712987 
0.0415791417712987 
0.0415791417712987 
0.1079504966648821 
0.0415791417712987 
0.0415791417712987 
0.0415791417712987 
0.0415791417712987 
0 
0 
0.4805458738224465 
0 
0 
-0.07905763018384135 
0 
0 
0.006299852713818449 
0 
-0.06523338745430977 
0 
0 
0.1561796755443178 
0 
0 
0 
0.04327311084783784 
-0.02271041105389015 
0 
0 
0 
0 
0 
0 
0.06391793715998736 
0.1110589079001902 
0.05714834368697791 
0.03989660159380051 
0.03989660159380051 
0.1385145389917652 
0.03989660159380051 
0.03989660159380051 
0.03989660159380051 
0.03989660159380051 
0.03989660159380051 
0.03989660159380051 
0.02302096618397158 
0.03989660159380051 
0.0779302304439316 
0.0779302304439316 
0.0779302304439316 
0.0779302304439316 
0.1352060134194588 
0.0779302304439316 
0.0779302304439316 
0.0779302304439316 
-0.2920027671282289 
0.0671803032443844 
0.1265414109350812 
0.03464238940208 
0.03432496844752462 
0.03464238940208 
0.03464238940208 
0.03464238940208 
0.03464238940208 
0.0988804455260235 
0.03464238940208 
0.04745638231828102 
0 
0.05320002618344951 
0.1132783296400608 
0.05320002618344951 
0 
0.07194765835144645 
0 
0 
0.09870179279915375 
0.05320002618344951 
0 
0.1004721296648369 
0 
0.02558560663661448 
0.07590951001636789 
0.02558560663661448 
0.02558560663661448 
0.02558560663661448 
0.02558560663661448 
0.02558560663661448 
-0.05003962367533668 
0.02558560663661448 
-0.3028032693101014 
0.01477333580588804 
0.02558560663661448 
0.02558560663661448 
0.02558560663661448 
0.02558560663661448 
0 
0 
0 
0 
0.06971808177813635 
0 
0 
0 
-0.1983706038536077 
0 
0.05960489901198384 
0 
-0.07824886894145597 
0 
0.1029268736378581 
0 
0 
0.04157042238440305 
0 
0 
0 
0 
0.0004848328458487446 
0.05960489901198384 
0 
-0.04688554618252491 
0.06337921487867816 
0.06337921487867816 
0.06337921487867816 
0.06337921487867816 
0.06337921487867816 
0.06337921487867816 
0.06337921487867816 
0.06337921487867816 
0.06337921487867816 
0.0153775103766114 
0.0153775103766114 
0.0153775103766114 
0.0153775103766114 
0.0153775103766114 
0.0153775103766114 
0.0153775103766114 
0.06016577471420323 
0.0153775103766114 
0.04071102980675936 
0.04071102980675936 
0.04071102980675936 
0.04071102980675936 
0.04071102980675936 
0.04071102980675936 
0.04071102980675936 
0.04071102980675936 
0.04071102980675936 
0.09102616465701485 
0.04071102980675936 
0.04071102980675936 
-0.216939771764988 
0.04071102980675936 
0.01603773479830766 
0.01603773479830766 
0.01603773479830766 
0.01603773479830766 
0.01603773479830766 
0.05516213314123167 
0.01603773479830766 
0.01603773479830766 
0.01603773479830766 
-0.007580048887217768 
0.01603773479830766 
0.01603773479830766 
0.1585798469872248 
0.01603773479830766 
0.01603773479830766 
0.01603773479830766 
0.01603773479830766 
0.01603773479830766 
-0.1184685864770433 
0.04805548914592885 
0.04805548914592885 
0.04805548914592885 
0.06437515314051298 
0.06351856354791867 
0.04805548914592885 
0.04805548914592885 
0.04805548914592885 
0.04805548914592885 
0.05760144289290094 
0.07338104852732301 
0.07338104852732301 
0.07338104852732301 
0.07338104852732301 
0.07338104852732301 
0.07338104852732301 
0.07338104852732301 
0.07338104852732301 
0.01333907839611411 
0.073381048527323 
0.07338104852732301 
-0.007564785683056648 
0.07338104852732301 
0.07338104852732301 
-0.3769111708722582 
0.07338104852732301 
0.02497742348080125 
0 
0 
0 
0 
0 
0 
0 
0 
0 
0 
0 
0 
0 
0 
0.2007966381759794 
0 
0.05975914622785485 
0 
0.4119247231425797 
0.1632218546520108 
0 
0 
0 
0 
0 
0 
0.3599025736944486 
0 
0 
0 
0.08241839033559251 
0.08241839033559251 
0.3451635034207886 
0.08241839033559251 
0.03261253224776309 
0.0163583897614272 
-0.1685178100170693 
0.07496203546163956 
0.08241839033559251 
0.08241839033559251 
0.08241839033559251 
0.08241839033559251 
0 
0.008558696834480937 
0.008558696834480937 
0 
0 
0 
0 
0.00942418607625457 
0 
0 
0 
0 
0 
0 
0 
0 
0 
0 
0.08493041731939474 
0 
0 
0 
-0.0290302508383963 
0 
-0.02113770612844313 
0 
0 
0 
0.02566900600061897 
0 
0 
0 
0 
0 
-0.001975068806307161 
0 
0.01228181498782986 
0 
0 
0.01892328010863358 
0 
0 
0 
0 
0 
0.01657076014634451 
0.01657076014634451 
0.01657076014634451 
0.01657076014634451 
0.01657076014634451 
0.01657076014634451 
0.01657076014634451 
0.01657076014634451 
0.05249012639211348 
0.01657076014634451 
0.01657076014634451 
0.2266005579901599 
-0.02765785286983247 
0 
0 
0 
0 
0 
0 
0 
0.1884749615559759 
0 
0 
0 
0 
0 
0.03103880184071948 
0 
-0.192018719704099 
0 
0 
0 
0 
0 
0 
0 
0 
0 
0 
0 
0 
0 
0.005516270632785291 
0.005516270632785291 
0.005516270632785291 
-0.4052037477243948 
0.005516270632785291 
0.005516270632785291 
0.005516270632785291 
-0.09329566475354013 
