solver_type L2R_L2LOSS_SVC_DUAL
nr_class 2
label 1 2
nr_feature 295
bias -1
w
0.08186969139701052 
0.08186969139701052 
0.08186969139701052 
0.08186969139701052 
0.08186969139701052 
0.08186969139701052 
0.08186969139701052 
0.0134702186660232 
0.08186969139701052 
0.08186969139701052 
0.08186969139701052 
0.08186969139701052 
0.08186969139701052 
0.07662835249042145 
0.07662835249042145 
0.07662835249042145 
0.07662835249042145 
0.07662835249042145 
0.07662835249042145 
0.07662835249042145 
0.07662835249042145 
0.07662835249042145 
0.07662835249042145 
0.07662835249042145 
0.07662835249042145 
0.07662835249042145 
0.08056836859251225 
0.08056836859251225 
0.08056836859251225 
0.08056836859251225 
0.08056836859251225 
0.08056836859251225 
0.08056836859251225 
0.08056836859251225 
0.08056836859251225 
0.08056836859251225 
0.02915115846022743 
0.08056836859251225 
0.08056836859251225 
0.0615706029621987 
0.0615706029621987 
0.0615706029621987 
0.0615706029621987 
0.00643520523318215 
0.0615706029621987 
0.0615706029621987 
0.0615706029621987 
0.0615706029621987 
0.0615706029621987 
0.0615706029621987 
0.0615706029621987 
0.0615706029621987 
-0.05642770577451192 
0.0615706029621987 
0.0615706029621987 
0.0615706029621987 
0.0615706029621987 
0.0615706029621987 
0.09710887704196171 
0.09710887704196171 
0.09710887704196171 
0.09710887704196171 
0.02401701314842663 
0.09710887704196171 
0.09710887704196171 
0.09710887704196171 
0.09710887704196171 
0.09710887704196171 
0.09710887704196171 
0.1104972375690608 
0.1104972375690608 
0.1104972375690608 
0.1104972375690608 
0.1104972375690608 
0.1104972375690608 
0.1104972375690608 
0.1104972375690608 
0.1104972375690608 
0.04338394793926247 
0.04338394793926247 
0.04338394793926247 
0.04338394793926247 
0.04338394793926247 
0.04338394793926247 
0.04338394793926247 
0.04338394793926247 
0.04338394793926247 
0.04338394793926247 
0.04338394793926247 
0.04338394793926247 
0.04338394793926247 
0.04338394793926247 
0.04338394793926247 
0.04338394793926247 
0.04338394793926247 
0.04338394793926247 
0.04338394793926247 
0.04338394793926247 
0.04338394793926247 
0.04338394793926247 
0.04338394793926247 
0.09049773755656108 
0.09049773755656108 
0.09049773755656108 
0.09049773755656108 
0.09049773755656108 
0.09049773755656108 
0.09049773755656108 
0.09049773755656108 
0.09049773755656108 
0.09049773755656108 
0.09049773755656108 
0.03396503054560732 
0.03396503054560732 
0.03396503054560732 
0.03396503054560732 
0.03396503054560732 
0.03396503054560732 
0.03396503054560732 
0.03396503054560732 
0.03396503054560732 
0.03396503054560732 
0.03396503054560732 
0.03396503054560732 
0.03396503054560732 
0.03396503054560732 
0.03396503054560732 
0.03396503054560732 
0.03396503054560732 
0.03396503054560732 
0.03396503054560732 
0.03396503054560732 
0.03396503054560732 
0.03396503054560732 
0.03396503054560732 
0.03396503054560732 
0.03396503054560732 
0.03396503054560732 
0.03396503054560732 
0.03396503054560732 
-0.02064916789549982 
0.03396503054560732 
0.03396503054560732 
0.1104972375690608 
0.1104972375690608 
0.1104972375690608 
0.1104972375690608 
0.1104972375690608 
0.1104972375690608 
0.1104972375690608 
0.1104972375690608 
0.1104972375690608 
-0.06839947273098732 
-0.06839947273098732 
-0.06839947273098732 
-0.06839947273098732 
-0.06839947273098732 
-0.06839947273098732 
-0.06839947273098732 
-0.06839947273098732 
-0.06839947273098732 
-0.1235348704600038 
-0.06839947273098732 
-0.06839947273098732 
-0.06839947273098732 
-0.06839947273098732 
-0.1049659921179639 
-0.1049659921179639 
-0.1049659921179639 
-0.1049659921179639 
-0.159580190559071 
-0.1049659921179639 
-0.1049659921179639 
-0.1049659921179639 
-0.1049659921179639 
-0.05141721013228481 
-0.05141721013228481 
-0.05141721013228481 
-0.05141721013228481 
-0.05141721013228481 
-0.05141721013228481 
-0.05141721013228481 
-0.05141721013228481 
-0.05141721013228481 
-0.05141721013228481 
-0.05141721013228481 
-0.05141721013228481 
-0.05141721013228481 
-0.05141721013228481 
-0.05141721013228481 
-0.05141721013228481 
-0.05141721013228481 
-0.05141721013228481 
-0.05141721013228481 
-0.05141721013228481 
-0.06662225183211193 
-0.06662225183211193 
-0.06662225183211193 
-0.06662225183211193 
-0.06662225183211193 
-0.06662225183211193 
-0.06662225183211193 
-0.06662225183211193 
-0.06662225183211193 
-0.06662225183211193 
-0.06662225183211193 
-0.06662225183211193 
-0.06662225183211193 
-0.06662225183211193 
-0.06662225183211193 
-0.05461419844110714 
-0.05461419844110714 
-0.05461419844110714 
-0.05461419844110714 
-0.05461419844110714 
-0.05461419844110714 
-0.05461419844110714 
-0.05461419844110714 
-0.05461419844110714 
-0.05461419844110714 
-0.05461419844110714 
-0.05461419844110714 
-0.05461419844110714 
-0.05461419844110714 
-0.05461419844110714 
-0.05878894767783657 
-0.05878894767783657 
-0.05878894767783657 
-0.05878894767783657 
-0.05878894767783657 
-0.05878894767783657 
-0.05878894767783657 
-0.05878894767783657 
-0.05878894767783657 
-0.05878894767783657 
-0.05878894767783657 
-0.05878894767783657 
-0.05878894767783657 
-0.05878894767783657 
-0.05878894767783657 
-0.05878894767783657 
-0.05878894767783657 
-0.05513539772901654 
-0.05513539772901654 
-0.05513539772901654 
-0.05513539772901654 
-0.05513539772901654 
-0.05513539772901654 
-0.05513539772901654 
-0.05513539772901654 
-0.05513539772901654 
-0.05513539772901654 
-0.05513539772901654 
-0.05513539772901654 
-0.05513539772901654 
-0.05513539772901654 
-0.05513539772901654 
-0.07309186389353509 
-0.07309186389353509 
-0.07309186389353509 
-0.07309186389353509 
-0.07309186389353509 
-0.07309186389353509 
-0.07309186389353509 
-0.07309186389353509 
-0.07309186389353509 
-0.07309186389353509 
-0.07309186389353509 
-0.07309186389353509 
-0.07309186389353509 
-0.07309186389353509 
-0.1109877913429523 
-0.1109877913429523 
-0.1109877913429523 
-0.1109877913429523 
-0.1109877913429523 
-0.1109877913429523 
-0.1109877913429523 
-0.1109877913429523 
-0.1109877913429523 
-0.06286291100769408 
-0.06286291100769408 
-0.06286291100769408 
-0.06286291100769408 
-0.06286291100769408 
-0.06286291100769408 
-0.06286291100769408 
-0.06286291100769408 
-0.06286291100769408 
-0.06286291100769408 
-0.06286291100769408 
-0.06286291100769408 
-0.06286291100769408 
-0.06286291100769408 
-0.06286291100769408 
