solver_type L2R_L2LOSS_SVC_DUAL
nr_class 2
label 1 2
nr_feature 32680
bias -1
w
0.05228758169934641 
0.05228758169934641 
0.05228758169934641 
0.05228758169934641 
0.05228758169934641 
0.05228758169934641 
0.05228758169934641 
0.05228758169934641 
0.05228758169934641 
0.05228758169934641 
0.05228758169934641 
0.05228758169934641 
0.05228758169934641 
0.05228758169934641 
0.05228758169934641 
0.05228758169934641 
0.05228758169934641 
0.05228758169934641 
0.05228758169934641 
0.05228758169934641 
0.05228758169934641 
0.05228758169934641 
0.05228758169934641 
0.05228758169934641 
0.05228758169934641 
0.05228758169934641 
0.05228758169934641 
0.05228758169934641 
0.05228758169934641 
0.05228758169934641 
0.05228758169934641 
0.05228758169934641 
0.05228758169934641 
0.05228758169934641 
0.05228758169934641 
0.05228758169934641 
0.05228758169934641 
0.05228758169934641 
0.0583941605839416 
0.0583941605839416 
0.0583941605839416 
0.0583941605839416 
0.0583941605839416 
0.0583941605839416 
0.0583941605839416 
0.0583941605839416 
0.0583941605839416 
0.0583941605839416 
0.0583941605839416 
0.0583941605839416 
0.0583941605839416 
0.0583941605839416 
0.0583941605839416 
0.0583941605839416 
0.0583941605839416 
0.04324324324324325 
0.04324324324324325 
0.04324324324324325 
0.04324324324324325 
0.04324324324324325 
0.04324324324324325 
0.04324324324324325 
0.04324324324324325 
0.04324324324324325 
0.04324324324324325 
0.04324324324324325 
0.04324324324324325 
0.04324324324324325 
0.04324324324324325 
0.04324324324324325 
0.04324324324324325 
0.04324324324324325 
0.04324324324324325 
0.04324324324324325 
0.04324324324324325 
0.04324324324324325 
0.04324324324324325 
0.04324324324324325 
0.05517241379310345 
0.05517241379310345 
0.05517241379310345 
0.05517241379310345 
0.05517241379310345 
0.05517241379310345 
0.05517241379310345 
0.05517241379310345 
0.05517241379310345 
0.05517241379310345 
0.05517241379310345 
0.05517241379310345 
0.05517241379310345 
0.05517241379310345 
0.05517241379310345 
0.05517241379310345 
0.05517241379310345 
0.05517241379310345 
0.07079646017699115 
0.07079646017699115 
0.07079646017699115 
0.07079646017699115 
0.07079646017699115 
0.07079646017699115 
0.07079646017699115 
0.07079646017699115 
0.07079646017699115 
0.07079646017699115 
0.07079646017699115 
0.07079646017699115 
0.07079646017699115 
0.07079646017699115 
0.03756415389655313 
0.03756415389655313 
0.03756415389655313 
0.03756415389655313 
0.03756415389655313 
0.03756415389655313 
0.03756415389655313 
0.03756415389655313 
0.03756415389655313 
0.03756415389655313 
0.03756415389655313 
0.03756415389655313 
0.03756415389655313 
0.03756415389655313 
0.03756415389655313 
0.03756415389655313 
0.03756415389655313 
0.03756415389655313 
0.03756415389655313 
0.03756415389655313 
0.03756415389655313 
0.03756415389655313 
0.03756415389655313 
0.03756415389655313 
0.09376478724565572 
0.05620063334910259 
0.05620063334910259 
0.05620063334910259 
0.05620063334910259 
0.05620063334910259 
0.05620063334910259 
0.05620063334910259 
0.05620063334910259 
0.05620063334910259 
0.05620063334910259 
0.05620063334910259 
0.05620063334910259 
0.05620063334910259 
0.05620063334910259 
0.05620063334910259 
0.05620063334910259 
0.0311284046692607 
0.0311284046692607 
0.0311284046692607 
0.0311284046692607 
0.0311284046692607 
0.0311284046692607 
0.0311284046692607 
0.0311284046692607 
0.0311284046692607 
0.0311284046692607 
0.0311284046692607 
0.0311284046692607 
0.0311284046692607 
0.0311284046692607 
0.0311284046692607 
0.0311284046692607 
0.0311284046692607 
0.0311284046692607 
0.0311284046692607 
0.0311284046692607 
0.0311284046692607 
0.0311284046692607 
0.0311284046692607 
0.0311284046692607 
0.0311284046692607 
0.0311284046692607 
0.0311284046692607 
0.0311284046692607 
0.0311284046692607 
0.0311284046692607 
0.0311284046692607 
0.0311284046692607 
0.06611570247933884 
0.06611570247933884 
0.06611570247933884 
0.06611570247933884 
0.06611570247933884 
0.06611570247933884 
0.06611570247933884 
0.06611570247933884 
0.06611570247933884 
0.06611570247933884 
0.06611570247933884 
0.06611570247933884 
0.06611570247933884 
0.06611570247933884 
0.06611570247933884 
0.06201550387596899 
0.06201550387596899 
0.06201550387596899 
0.06201550387596899 
0.06201550387596899 
0.06201550387596899 
0.06201550387596899 
0.06201550387596899 
0.06201550387596899 
0.06201550387596899 
0.06201550387596899 
0.06201550387596899 
0.06201550387596899 
0.06201550387596899 
0.06201550387596899 
0.06201550387596899 
0.04733727810650887 
0.04733727810650887 
0.04733727810650887 
0.04733727810650887 
0.04733727810650887 
0.04733727810650887 
0.04733727810650887 
0.04733727810650887 
0.04733727810650887 
0.04733727810650887 
0.04733727810650887 
0.04733727810650887 
0.04733727810650887 
0.04733727810650887 
0.04733727810650887 
0.04733727810650887 
0.04733727810650887 
0.04733727810650887 
0.04733727810650887 
0.04733727810650887 
0.04733727810650887 
0.03827751196172249 
0.03827751196172249 
0.03827751196172249 
0.03827751196172249 
0.03827751196172249 
0.03827751196172249 
0.03827751196172249 
0.03827751196172249 
0.03827751196172249 
0.03827751196172249 
0.03827751196172249 
0.03827751196172249 
0.03827751196172249 
0.03827751196172249 
0.03827751196172249 
0.03827751196172249 
0.03827751196172249 
0.03827751196172249 
0.03827751196172249 
0.03827751196172249 
0.03827751196172249 
0.03827751196172249 
0.03827751196172249 
0.03827751196172249 
0.03827751196172249 
0.03827751196172249 
0.03868531145655806 
0.03868531145655806 
0.03868531145655806 
0.03868531145655806 
0.03868531145655806 
0.03868531145655806 
0.03868531145655806 
0.03868531145655806 
0.03868531145655806 
0.03868531145655806 
0.03868531145655806 
0.03868531145655806 
0.03868531145655806 
0.03868531145655806 
0.03868531145655806 
0.03868531145655806 
0.03868531145655806 
0.03868531145655806 
0.03868531145655806 
0.03868531145655806 
0.03868531145655806 
0.03868531145655806 
0.03868531145655806 
0.1054021717595464 
0.06671686030298833 
0.06671686030298833 
0.06671686030298833 
0.06671686030298833 
0.06671686030298833 
0.06671686030298833 
0.06671686030298833 
0.06671686030298833 
0.06671686030298833 
0.06671686030298833 
0.2190896178045413 
0.1523727575015529 
0.1523727575015529 
0.1523727575015529 
0.1523727575015529 
0.1523727575015529 
0.03827751196172249 
0.03827751196172249 
0.03827751196172249 
0.03827751196172249 
0.03827751196172249 
0.03827751196172249 
0.03827751196172249 
0.03827751196172249 
0.03827751196172249 
0.03827751196172249 
0.03827751196172249 
0.03827751196172249 
0.03827751196172249 
0.03827751196172249 
0.03827751196172249 
0.03827751196172249 
0.03827751196172249 
0.03827751196172249 
0.03827751196172249 
0.03827751196172249 
0.03827751196172249 
0.03827751196172249 
0.03827751196172249 
0.03827751196172249 
0.03827751196172249 
0.03827751196172249 
0.1095890410958904 
0.1095890410958904 
0.1095890410958904 
0.1095890410958904 
0.1095890410958904 
0.1095890410958904 
0.1095890410958904 
0.1095890410958904 
0.1095890410958904 
0.08247422680412371 
0.08247422680412371 
0.08247422680412371 
0.08247422680412371 
0.08247422680412371 
0.08247422680412371 
0.08247422680412371 
0.08247422680412371 
0.08247422680412371 
0.08247422680412371 
0.08247422680412371 
0.08247422680412371 
0.08247422680412371 
0.08247422680412371 
0.08247422680412371 
0.08247422680412371 
0.08247422680412371 
0.08247422680412371 
0.08247422680412371 
0.08247422680412371 
0.08247422680412371 
0.08247422680412371 
0.08247422680412371 
0.08247422680412371 
0.03980099502487562 
0.03980099502487562 
0.03980099502487562 
0.03980099502487562 
0.03980099502487562 
0.03980099502487562 
0.03980099502487562 
0.03980099502487562 
0.03980099502487562 
0.03980099502487562 
0.03980099502487562 
0.03980099502487562 
0.03980099502487562 
0.03980099502487562 
0.03980099502487562 
0.03980099502487562 
0.03980099502487562 
0.03980099502487562 
0.03980099502487562 
0.03980099502487562 
0.03980099502487562 
0.03980099502487562 
0.03980099502487562 
0.03980099502487562 
0.03980099502487562 
0.0898876404494382 
0.0898876404494382 
0.0898876404494382 
0.0898876404494382 
0.0898876404494382 
0.0898876404494382 
0.0898876404494382 
0.0898876404494382 
0.0898876404494382 
0.0898876404494382 
0.0898876404494382 
0.0583941605839416 
0.0583941605839416 
0.0583941605839416 
0.0583941605839416 
0.0583941605839416 
0.0583941605839416 
0.0583941605839416 
0.0583941605839416 
0.0583941605839416 
0.0583941605839416 
0.0583941605839416 
0.0583941605839416 
0.0583941605839416 
0.0583941605839416 
0.0583941605839416 
0.0583941605839416 
0.0583941605839416 
0.05517241379310345 
0.05517241379310345 
0.05517241379310345 
0.05517241379310345 
0.05517241379310345 
0.05517241379310345 
0.05517241379310345 
0.05517241379310345 
0.05517241379310345 
0.05517241379310345 
0.05517241379310345 
0.05517241379310345 
0.05517241379310345 
0.05517241379310345 
0.05517241379310345 
0.05517241379310345 
0.05517241379310345 
0.05517241379310345 
0.0898876404494382 
0.0898876404494382 
0.0898876404494382 
0.0898876404494382 
0.0898876404494382 
0.0898876404494382 
0.0898876404494382 
0.0898876404494382 
0.0898876404494382 
0.0898876404494382 
0.0898876404494382 
0.07079646017699115 
0.07079646017699115 
0.07079646017699115 
0.07079646017699115 
0.07079646017699115 
0.07079646017699115 
0.07079646017699115 
0.07079646017699115 
0.07079646017699115 
0.07079646017699115 
0.07079646017699115 
0.07079646017699115 
0.07079646017699115 
0.07079646017699115 
0.1158825791564848 
0.1158825791564848 
0.1158825791564848 
0.1158825791564848 
0.1158825791564848 
0.1158825791564848 
0.1158825791564848 
0.174336623509775 
0.05845404435329026 
0.05845404435329026 
0.05845404435329026 
0.05845404435329026 
0.05845404435329026 
0.05845404435329026 
0.05845404435329026 
0.05845404435329026 
0.05845404435329026 
0.05845404435329026 
0.05845404435329026 
0.05845404435329026 
0.05845404435329026 
0.05845404435329026 
0.1415192502568266 
0.1415192502568266 
0.1415192502568266 
0.1415192502568266 
0.4162330926905902 
0.2747138424337636 
0.2747138424337636 
0.1095890410958904 
0.1095890410958904 
0.1095890410958904 
0.1095890410958904 
0.1095890410958904 
0.1095890410958904 
0.1095890410958904 
0.1095890410958904 
0.1095890410958904 
0.06201550387596899 
0.06201550387596899 
0.06201550387596899 
0.06201550387596899 
0.06201550387596899 
0.06201550387596899 
0.06201550387596899 
0.06201550387596899 
0.06201550387596899 
0.06201550387596899 
0.06201550387596899 
0.06201550387596899 
0.06201550387596899 
0.06201550387596899 
0.06201550387596899 
0.06201550387596899 
0.0761904761904762 
0.0761904761904762 
0.0761904761904762 
0.0761904761904762 
0.0761904761904762 
0.0761904761904762 
0.0761904761904762 
0.0761904761904762 
0.0761904761904762 
0.0761904761904762 
0.0761904761904762 
0.0761904761904762 
0.0761904761904762 
0.0583941605839416 
0.0583941605839416 
0.0583941605839416 
0.0583941605839416 
0.0583941605839416 
0.0583941605839416 
0.0583941605839416 
0.0583941605839416 
0.0583941605839416 
0.0583941605839416 
0.0583941605839416 
0.0583941605839416 
0.0583941605839416 
0.0583941605839416 
0.0583941605839416 
0.0583941605839416 
0.0583941605839416 
0.08474122471383873 
0.08474122471383873 
0.08474122471383873 
0.08474122471383873 
0.08474122471383873 
0.08474122471383873 
0.08474122471383873 
0.08474122471383873 
0.08474122471383873 
0.08474122471383873 
0.1419950997721225 
0.05725387505828381 
0.05725387505828381 
0.05725387505828381 
0.05725387505828381 
0.05725387505828381 
0.05725387505828381 
0.05725387505828381 
0.05725387505828381 
0.05725387505828381 
0.05725387505828381 
0.05725387505828381 
0.05725387505828381 
0.05725387505828381 
0.1065477900879024 
0.04929391502961861 
0.04929391502961861 
0.04929391502961861 
0.04929391502961861 
0.04929391502961861 
0.04929391502961861 
0.04929391502961861 
0.04929391502961861 
0.04929391502961861 
0.04929391502961861 
0.04929391502961861 
0.04929391502961861 
0.04929391502961861 
0.04929391502961861 
0.04929391502961861 
0.04929391502961861 
0.04929391502961861 
0.04929391502961861 
0.08247422680412371 
0.08247422680412371 
0.08247422680412371 
0.08247422680412371 
0.08247422680412371 
0.08247422680412371 
0.08247422680412371 
0.08247422680412371 
0.08247422680412371 
0.08247422680412371 
0.08247422680412371 
0.08247422680412371 
0.07079646017699115 
0.07079646017699115 
0.07079646017699115 
0.07079646017699115 
0.07079646017699115 
0.07079646017699115 
0.07079646017699115 
0.07079646017699115 
0.07079646017699115 
0.07079646017699115 
0.07079646017699115 
0.07079646017699115 
0.07079646017699115 
0.07079646017699115 
0.04324324324324325 
0.04324324324324325 
0.04324324324324325 
0.04324324324324325 
0.04324324324324325 
0.04324324324324325 
0.04324324324324325 
0.04324324324324325 
0.04324324324324325 
0.04324324324324325 
0.04324324324324325 
0.04324324324324325 
0.04324324324324325 
0.04324324324324325 
0.04324324324324325 
0.04324324324324325 
0.04324324324324325 
0.04324324324324325 
0.04324324324324325 
0.04324324324324325 
0.04324324324324325 
0.04324324324324325 
0.04324324324324325 
0.1951219512195122 
0.1951219512195122 
0.1951219512195122 
0.1951219512195122 
0.1951219512195122 
0.0898876404494382 
0.0898876404494382 
0.0898876404494382 
0.0898876404494382 
0.0898876404494382 
0.0898876404494382 
0.0898876404494382 
0.0898876404494382 
0.0898876404494382 
0.0898876404494382 
0.0898876404494382 
0.06172385921081572 
0.06172385921081572 
0.06172385921081572 
0.06172385921081572 
0.06172385921081572 
0.06172385921081572 
0.06172385921081572 
0.06172385921081572 
0.06172385921081572 
0.06172385921081572 
0.06172385921081572 
0.06172385921081572 
0.06172385921081572 
0.06172385921081572 
0.1281504886472279 
0.0664266294364122 
0.0664266294364122 
0.0664266294364122 
0.0664266294364122 
0.0664266294364122 
0.0664266294364122 
0.0664266294364122 
0.0664266294364122 
0.0664266294364122 
0.0664266294364122 
0.0664266294364122 
0.0664266294364122 
0.0664266294364122 
0.0761904761904762 
0.0761904761904762 
0.0761904761904762 
0.0761904761904762 
0.0761904761904762 
0.0761904761904762 
0.0761904761904762 
0.0761904761904762 
0.0761904761904762 
0.0761904761904762 
0.0761904761904762 
0.0761904761904762 
0.0761904761904762 
0.05228758169934641 
0.05228758169934641 
0.05228758169934641 
0.05228758169934641 
0.05228758169934641 
0.05228758169934641 
0.05228758169934641 
0.05228758169934641 
0.05228758169934641 
0.05228758169934641 
0.05228758169934641 
0.05228758169934641 
0.05228758169934641 
0.05228758169934641 
0.05228758169934641 
0.05228758169934641 
0.05228758169934641 
0.05228758169934641 
0.05228758169934641 
0.03018867924528302 
0.03018867924528302 
0.03018867924528302 
0.03018867924528302 
0.03018867924528302 
0.03018867924528302 
0.03018867924528302 
0.03018867924528302 
0.03018867924528302 
0.03018867924528302 
0.03018867924528302 
0.03018867924528302 
0.03018867924528302 
0.03018867924528302 
0.03018867924528302 
0.03018867924528302 
0.03018867924528302 
0.03018867924528302 
0.03018867924528302 
0.03018867924528302 
0.03018867924528302 
0.03018867924528302 
0.03018867924528302 
0.03018867924528302 
0.03018867924528302 
0.03018867924528302 
0.03018867924528302 
0.03018867924528302 
0.03018867924528302 
0.03018867924528302 
0.03018867924528302 
0.03018867924528302 
0.03018867924528302 
0.05228758169934641 
0.05228758169934641 
0.05228758169934641 
0.05228758169934641 
0.05228758169934641 
0.05228758169934641 
0.05228758169934641 
0.05228758169934641 
0.05228758169934641 
0.05228758169934641 
0.05228758169934641 
0.05228758169934641 
0.05228758169934641 
0.05228758169934641 
0.05228758169934641 
0.05228758169934641 
0.05228758169934641 
0.05228758169934641 
0.05228758169934641 
0.163265306122449 
0.163265306122449 
0.163265306122449 
0.163265306122449 
0.163265306122449 
0.163265306122449 
0.04145077720207254 
0.04145077720207254 
0.04145077720207254 
0.04145077720207254 
0.04145077720207254 
0.04145077720207254 
0.04145077720207254 
0.04145077720207254 
0.04145077720207254 
0.04145077720207254 
0.04145077720207254 
0.04145077720207254 
0.04145077720207254 
0.04145077720207254 
0.04145077720207254 
0.04145077720207254 
0.04145077720207254 
0.04145077720207254 
0.04145077720207254 
0.04145077720207254 
0.04145077720207254 
0.04145077720207254 
0.04145077720207254 
0.04145077720207254 
0.04968944099378882 
0.04968944099378882 
0.04968944099378882 
0.04968944099378882 
0.04968944099378882 
0.04968944099378882 
0.04968944099378882 
0.04968944099378882 
0.04968944099378882 
0.04968944099378882 
0.04968944099378882 
0.04968944099378882 
0.04968944099378882 
0.04968944099378882 
0.04968944099378882 
0.04968944099378882 
0.04968944099378882 
0.04968944099378882 
0.04968944099378882 
0.04968944099378882 
0.4705882352941176 
0.4705882352941176 
0.04519774011299435 
0.04519774011299435 
0.04519774011299435 
0.04519774011299435 
0.04519774011299435 
0.04519774011299435 
0.04519774011299435 
0.04519774011299435 
0.04519774011299435 
0.04519774011299435 
0.04519774011299435 
0.04519774011299435 
0.04519774011299435 
0.04519774011299435 
0.04519774011299435 
0.04519774011299435 
0.04519774011299435 
0.04519774011299435 
0.04519774011299435 
0.04519774011299435 
0.04519774011299435 
0.04519774011299435 
0.1095890410958904 
0.1095890410958904 
0.1095890410958904 
0.1095890410958904 
0.1095890410958904 
0.1095890410958904 
0.1095890410958904 
0.1095890410958904 
0.1095890410958904 
0.1122860988271442 
0.1122860988271442 
0.1122860988271442 
0.1122860988271442 
0.1122860988271442 
0.1122860988271442 
0.1122860988271442 
0.1999615458565975 
0.08767544702945319 
0.08767544702945319 
0.08767544702945319 
0.08767544702945319 
0.08767544702945319 
0.08767544702945319 
0.08767544702945319 
0.08767544702945319 
0.08767544702945319 
0.04968944099378882 
0.04968944099378882 
0.04968944099378882 
0.04968944099378882 
0.04968944099378882 
0.04968944099378882 
0.04968944099378882 
0.04968944099378882 
0.04968944099378882 
0.04968944099378882 
0.04968944099378882 
0.04968944099378882 
0.04968944099378882 
0.04968944099378882 
0.04968944099378882 
0.04968944099378882 
0.04968944099378882 
0.04968944099378882 
0.04968944099378882 
0.04968944099378882 
0.1230769230769231 
0.1230769230769231 
0.1230769230769231 
0.1230769230769231 
0.1230769230769231 
0.1230769230769231 
0.1230769230769231 
0.1230769230769231 
0.08247422680412371 
0.08247422680412371 
0.08247422680412371 
0.08247422680412371 
0.08247422680412371 
0.08247422680412371 
0.08247422680412371 
0.08247422680412371 
0.08247422680412371 
0.08247422680412371 
0.08247422680412371 
0.08247422680412371 
0.08444652031760487 
0.08444652031760487 
0.08444652031760487 
0.08444652031760487 
0.08444652031760487 
0.08444652031760487 
0.08444652031760487 
0.08444652031760487 
0.08444652031760487 
0.08444652031760487 
0.1449789817842506 
0.06053246146664578 
0.06053246146664578 
0.06053246146664578 
0.06053246146664578 
0.06053246146664578 
0.06053246146664578 
0.06053246146664578 
0.06053246146664578 
0.06053246146664578 
0.06053246146664578 
0.06053246146664578 
0.06053246146664578 
0.06053246146664578 
0.06053246146664578 
0.1403508771929824 
0.1403508771929824 
0.1403508771929824 
0.1403508771929824 
0.1403508771929824 
0.1403508771929824 
0.1403508771929824 
0.1095890410958904 
0.1095890410958904 
0.1095890410958904 
0.1095890410958904 
0.1095890410958904 
0.1095890410958904 
0.1095890410958904 
0.1095890410958904 
0.1095890410958904 
0.2424242424242424 
0.2424242424242424 
0.2424242424242424 
0.2424242424242424 
0.1026267562614554 
0.1026267562614554 
0.1026267562614554 
0.1026267562614554 
0.1026267562614554 
0.1026267562614554 
0.1026267562614554 
0.1026267562614554 
0.1661576053756749 
0.0635308491142195 
0.0635308491142195 
0.0635308491142195 
0.0635308491142195 
0.0635308491142195 
0.0635308491142195 
0.0635308491142195 
0.0635308491142195 
0.0635308491142195 
0.0635308491142195 
0.0635308491142195 
0.0635308491142195 
0.0635308491142195 
0.09876543209876543 
0.09876543209876543 
0.09876543209876543 
0.09876543209876543 
0.09876543209876543 
0.09876543209876543 
0.09876543209876543 
0.09876543209876543 
0.09876543209876543 
0.09876543209876543 
0.05517241379310345 
0.05517241379310345 
0.05517241379310345 
0.05517241379310345 
0.05517241379310345 
0.05517241379310345 
0.05517241379310345 
0.05517241379310345 
0.05517241379310345 
0.05517241379310345 
0.05517241379310345 
0.05517241379310345 
0.05517241379310345 
0.05517241379310345 
0.05517241379310345 
0.05517241379310345 
0.05517241379310345 
0.05517241379310345 
0.0583941605839416 
0.0583941605839416 
0.0583941605839416 
0.0583941605839416 
0.0583941605839416 
0.0583941605839416 
0.0583941605839416 
0.0583941605839416 
0.0583941605839416 
0.0583941605839416 
0.0583941605839416 
0.0583941605839416 
0.0583941605839416 
0.0583941605839416 
0.0583941605839416 
0.0583941605839416 
0.0583941605839416 
0.2424242424242424 
0.2424242424242424 
0.2424242424242424 
0.2424242424242424 
0.301567128709719 
0.301567128709719 
0.359169839743969 
0.05760271103424998 
0.05760271103424998 
0.05760271103424998 
0.05760271103424998 
0.05760271103424998 
0.05760271103424998 
0.05760271103424998 
0.05760271103424998 
0.05760271103424998 
0.05760271103424998 
0.05760271103424998 
0.0761904761904762 
0.0761904761904762 
0.0761904761904762 
0.0761904761904762 
0.0761904761904762 
0.0761904761904762 
0.0761904761904762 
0.0761904761904762 
0.0761904761904762 
0.0761904761904762 
0.0761904761904762 
0.0761904761904762 
0.0761904761904762 
0.0583941605839416 
0.0583941605839416 
0.0583941605839416 
0.0583941605839416 
0.0583941605839416 
0.0583941605839416 
0.0583941605839416 
0.0583941605839416 
0.0583941605839416 
0.0583941605839416 
0.0583941605839416 
0.0583941605839416 
0.0583941605839416 
0.0583941605839416 
0.0583941605839416 
0.0583941605839416 
0.0583941605839416 
0.06611570247933884 
0.06611570247933884 
0.06611570247933884 
0.06611570247933884 
0.06611570247933884 
0.06611570247933884 
0.06611570247933884 
0.06611570247933884 
0.06611570247933884 
0.06611570247933884 
0.06611570247933884 
0.06611570247933884 
0.06611570247933884 
0.06611570247933884 
0.06611570247933884 
0.32 
0.32 
0.32 
0.09327470006080585 
0.09327470006080585 
0.09327470006080585 
0.09327470006080585 
0.09327470006080585 
0.09327470006080585 
0.09327470006080585 
0.09327470006080585 
0.09327470006080585 
0.148868361944546 
0.05559366188374017 
0.05559366188374017 
0.05559366188374017 
0.05559366188374017 
0.05559366188374017 
0.05559366188374017 
0.05559366188374017 
0.05559366188374017 
0.05559366188374017 
0.05559366188374017 
0.05559366188374017 
0.05559366188374017 
0.1770584877445689 
0.1214648258608288 
0.1214648258608288 
0.1214648258608288 
0.1214648258608288 
0.1214648258608288 
0.2004342797160352 
0.0789694538552064 
0.0789694538552064 
0.0789694538552064 
0.0789694538552064 
0.0789694538552064 
0.0789694538552064 
0.0789694538552064 
0.0789694538552064 
0.0789694538552064 
0.0789694538552064 
0.08247422680412371 
0.08247422680412371 
0.08247422680412371 
0.08247422680412371 
0.08247422680412371 
0.08247422680412371 
0.08247422680412371 
0.08247422680412371 
0.08247422680412371 
0.08247422680412371 
0.08247422680412371 
0.08247422680412371 
0.03827751196172249 
0.03827751196172249 
0.03827751196172249 
0.03827751196172249 
0.03827751196172249 
0.03827751196172249 
0.03827751196172249 
0.03827751196172249 
0.03827751196172249 
0.03827751196172249 
0.03827751196172249 
0.03827751196172249 
0.03827751196172249 
0.03827751196172249 
0.03827751196172249 
0.03827751196172249 
0.03827751196172249 
0.03827751196172249 
0.03827751196172249 
0.03827751196172249 
0.03827751196172249 
0.03827751196172249 
0.03827751196172249 
0.03827751196172249 
0.03827751196172249 
0.03827751196172249 
0.163265306122449 
0.163265306122449 
0.163265306122449 
0.163265306122449 
0.163265306122449 
0.163265306122449 
0.1403508771929824 
0.1403508771929824 
0.1403508771929824 
0.1403508771929824 
0.1403508771929824 
0.1403508771929824 
0.1403508771929824 
0.04849696893939262 
0.04849696893939262 
0.04849696893939262 
0.04849696893939262 
0.04849696893939262 
0.04849696893939262 
0.04849696893939262 
0.04849696893939262 
0.04849696893939262 
0.04849696893939262 
0.04849696893939262 
0.04849696893939262 
0.04849696893939262 
0.04849696893939262 
0.04849696893939262 
0.04849696893939262 
0.04849696893939262 
0.04849696893939262 
0.1209924379725818 
0.07249546903318914 
0.07249546903318914 
0.07249546903318914 
0.07249546903318914 
0.07249546903318914 
0.07249546903318914 
0.07249546903318914 
0.07249546903318914 
0.07249546903318914 
0.07249546903318914 
0.07249546903318914 
0.07249546903318914 
0.07079646017699115 
0.07079646017699115 
0.07079646017699115 
0.07079646017699115 
0.07079646017699115 
0.07079646017699115 
0.07079646017699115 
0.07079646017699115 
0.07079646017699115 
0.07079646017699115 
0.07079646017699115 
0.07079646017699115 
0.07079646017699115 
0.07079646017699115 
0.03319502074688797 
0.03319502074688797 
0.03319502074688797 
0.03319502074688797 
0.03319502074688797 
0.03319502074688797 
0.03319502074688797 
0.03319502074688797 
0.03319502074688797 
0.03319502074688797 
0.03319502074688797 
0.03319502074688797 
0.03319502074688797 
0.03319502074688797 
0.03319502074688797 
0.03319502074688797 
0.03319502074688797 
0.03319502074688797 
0.03319502074688797 
0.03319502074688797 
0.03319502074688797 
0.03319502074688797 
0.03319502074688797 
0.03319502074688797 
0.03319502074688797 
0.03319502074688797 
0.03319502074688797 
0.03319502074688797 
0.03319502074688797 
0.03319502074688797 
0.2424242424242424 
0.2424242424242424 
0.2424242424242424 
0.2424242424242424 
0.1230769230769231 
0.1230769230769231 
0.1230769230769231 
0.1230769230769231 
0.1230769230769231 
0.1230769230769231 
0.1230769230769231 
0.1230769230769231 
0.04733727810650887 
0.04733727810650887 
0.04733727810650887 
0.04733727810650887 
0.04733727810650887 
0.04733727810650887 
0.04733727810650887 
0.04733727810650887 
0.04733727810650887 
0.04733727810650887 
0.04733727810650887 
0.04733727810650887 
0.04733727810650887 
0.04733727810650887 
0.04733727810650887 
0.04733727810650887 
0.04733727810650887 
0.04733727810650887 
0.04733727810650887 
0.04733727810650887 
0.04733727810650887 
0.0761904761904762 
0.0761904761904762 
0.0761904761904762 
0.0761904761904762 
0.0761904761904762 
0.0761904761904762 
0.0761904761904762 
0.0761904761904762 
0.0761904761904762 
0.0761904761904762 
0.0761904761904762 
0.0761904761904762 
0.0761904761904762 
0.0898876404494382 
0.0898876404494382 
0.0898876404494382 
0.0898876404494382 
0.0898876404494382 
0.0898876404494382 
0.0898876404494382 
0.0898876404494382 
0.0898876404494382 
0.0898876404494382 
0.0898876404494382 
0.06916426716483531 
0.06916426716483531 
0.06916426716483531 
0.06916426716483531 
0.06916426716483531 
0.06916426716483531 
0.06916426716483531 
0.5072046120284422 
0.4380403448636069 
0.04236390595188624 
0.04236390595188624 
0.04236390595188624 
0.04236390595188624 
0.04236390595188624 
0.04236390595188624 
0.04236390595188624 
0.04236390595188624 
0.04236390595188624 
0.04236390595188624 
0.04236390595188624 
0.04236390595188624 
0.04236390595188624 
0.04236390595188624 
0.04236390595188624 
0.04236390595188624 
0.04236390595188624 
0.274518110573948 
0.2321542046220618 
0.2321542046220618 
0.2321542046220618 
0.163265306122449 
0.163265306122449 
0.163265306122449 
0.163265306122449 
0.163265306122449 
0.163265306122449 
0.08247422680412371 
0.08247422680412371 
0.08247422680412371 
0.08247422680412371 
0.08247422680412371 
0.08247422680412371 
0.08247422680412371 
0.08247422680412371 
0.08247422680412371 
0.08247422680412371 
0.08247422680412371 
0.08247422680412371 
0.09013315124801899 
0.09013315124801899 
0.09013315124801899 
0.09013315124801899 
0.09013315124801899 
0.09013315124801899 
0.09013315124801899 
0.09013315124801899 
0.2676681461098457 
0.1775349948618266 
0.1775349948618266 
0.1775349948618266 
0.1775349948618266 
0.03295555384649124 
0.03295555384649124 
0.03295555384649124 
0.03295555384649124 
0.03295555384649124 
0.03295555384649124 
0.03295555384649124 
0.03295555384649124 
0.03295555384649124 
0.03295555384649124 
0.03295555384649124 
0.03295555384649124 
0.03295555384649124 
0.03295555384649124 
0.03295555384649124 
0.03295555384649124 
0.4685915617254282 
0.4769539504413872 
0.04131794256245021 
0.04131794256245021 
0.04131794256245021 
0.04131794256245021 
0.04131794256245021 
0.04131794256245021 
0.04131794256245021 
0.04131794256245021 
0.04131794256245021 
0.04131794256245021 
0.1047018802442717 
0.06338393768182148 
0.06338393768182148 
0.06338393768182148 
0.06338393768182148 
0.06338393768182148 
0.06338393768182148 
0.06338393768182148 
0.06338393768182148 
0.06338393768182148 
0.06338393768182148 
0.06338393768182148 
0.06338393768182148 
0.06338393768182148 
0.06338393768182148 
0.1448692398258117 
0.1448692398258117 
0.1448692398258117 
0.5472836255443386 
0.402414385718527 
0.04968944099378882 
0.04968944099378882 
0.04968944099378882 
0.04968944099378882 
0.04968944099378882 
0.04968944099378882 
0.04968944099378882 
0.04968944099378882 
0.04968944099378882 
0.04968944099378882 
0.04968944099378882 
0.04968944099378882 
0.04968944099378882 
0.04968944099378882 
0.04968944099378882 
0.04968944099378882 
0.04968944099378882 
0.04968944099378882 
0.04968944099378882 
0.04968944099378882 
0.101467863759386 
0.101467863759386 
0.101467863759386 
0.101467863759386 
0.101467863759386 
0.101467863759386 
0.101467863759386 
0.101467863759386 
0.1755736069544882 
0.07410574319510219 
0.07410574319510219 
0.07410574319510219 
0.07410574319510219 
0.07410574319510219 
0.07410574319510219 
0.07410574319510219 
0.07410574319510219 
0.07410574319510219 
0.07410574319510219 
0.07410574319510219 
0.1846216043177006 
0.1846216043177006 
0.1846216043177006 
0.1846216043177006 
0.2384358821713014 
0.05381427785360083 
0.05381427785360083 
0.05381427785360083 
0.05381427785360083 
0.05381427785360083 
0.05381427785360083 
0.05381427785360083 
0.05381427785360083 
0.05381427785360083 
0.05381427785360083 
0.05381427785360083 
0.05381427785360083 
0.1090659988548504 
0.05525172100124959 
0.05525172100124959 
0.05525172100124959 
0.05525172100124959 
0.05525172100124959 
0.05525172100124959 
0.05525172100124959 
0.05525172100124959 
0.05525172100124959 
0.05525172100124959 
0.05525172100124959 
0.05525172100124959 
0.05525172100124959 
0.05525172100124959 
0.05525172100124959 
0.05525172100124959 
0.0761904761904762 
0.0761904761904762 
0.0761904761904762 
0.0761904761904762 
0.0761904761904762 
0.0761904761904762 
0.0761904761904762 
0.0761904761904762 
0.0761904761904762 
0.0761904761904762 
0.0761904761904762 
0.0761904761904762 
0.0761904761904762 
0.05517241379310345 
0.05517241379310345 
0.05517241379310345 
0.05517241379310345 
0.05517241379310345 
0.05517241379310345 
0.05517241379310345 
0.05517241379310345 
0.05517241379310345 
0.05517241379310345 
0.05517241379310345 
0.05517241379310345 
0.05517241379310345 
0.05517241379310345 
0.05517241379310345 
0.05517241379310345 
0.05517241379310345 
0.05517241379310345 
0.0898876404494382 
0.0898876404494382 
0.0898876404494382 
0.0898876404494382 
0.0898876404494382 
0.0898876404494382 
0.0898876404494382 
0.0898876404494382 
0.0898876404494382 
0.0898876404494382 
0.0898876404494382 
0.05061329890250241 
0.05061329890250241 
0.05061329890250241 
0.05061329890250241 
0.05061329890250241 
0.05061329890250241 
0.05061329890250241 
0.05061329890250241 
0.05061329890250241 
0.05061329890250241 
0.05061329890250241 
0.05061329890250241 
0.05061329890250241 
0.05061329890250241 
0.05061329890250241 
0.05061329890250241 
0.1838605551968881 
0.1332472562943856 
0.1332472562943856 
0.1332472562943856 
0.1332472562943856 
0.1332472562943856 
0.1332472562943856 
0.0583941605839416 
0.0583941605839416 
0.0583941605839416 
0.0583941605839416 
0.0583941605839416 
0.0583941605839416 
0.0583941605839416 
0.0583941605839416 
0.0583941605839416 
0.0583941605839416 
0.0583941605839416 
0.0583941605839416 
0.0583941605839416 
0.0583941605839416 
0.0583941605839416 
0.0583941605839416 
0.0583941605839416 
0.163265306122449 
0.163265306122449 
0.163265306122449 
0.163265306122449 
0.163265306122449 
0.163265306122449 
0.03980099502487562 
0.03980099502487562 
0.03980099502487562 
0.03980099502487562 
0.03980099502487562 
0.03980099502487562 
0.03980099502487562 
0.03980099502487562 
0.03980099502487562 
0.03980099502487562 
0.03980099502487562 
0.03980099502487562 
0.03980099502487562 
0.03980099502487562 
0.03980099502487562 
0.03980099502487562 
0.03980099502487562 
0.03980099502487562 
0.03980099502487562 
0.03980099502487562 
0.03980099502487562 
0.03980099502487562 
0.03980099502487562 
0.03980099502487562 
0.03980099502487562 
0.0497452337376577 
0.0497452337376577 
0.0497452337376577 
0.0497452337376577 
0.0497452337376577 
0.0497452337376577 
0.0497452337376577 
0.0497452337376577 
0.0497452337376577 
0.0497452337376577 
0.0497452337376577 
0.0497452337376577 
0.0497452337376577 
0.0497452337376577 
0.0497452337376577 
0.0497452337376577 
0.0497452337376577 
0.1481128722426119 
0.0983676385049542 
0.0983676385049542 
0.0983676385049542 
0.0983676385049542 
0.0983676385049542 
0.0983676385049542 
0.0983676385049542 
0.1510177034097744 
0.05265006490482019 
0.05265006490482019 
0.05265006490482019 
0.05265006490482019 
0.05265006490482019 
0.05265006490482019 
0.05265006490482019 
0.05265006490482019 
0.05265006490482019 
0.05265006490482019 
0.05265006490482019 
0.05265006490482019 
0.05265006490482019 
0.05265006490482019 
0.05265006490482019 
0.05265006490482019 
0.03541308452419364 
0.03541308452419364 
0.03541308452419364 
0.03541308452419364 
0.03541308452419364 
0.03541308452419364 
0.03541308452419364 
0.03541308452419364 
0.03541308452419364 
0.03541308452419364 
0.03541308452419364 
0.03541308452419364 
0.03541308452419364 
0.03541308452419364 
0.03541308452419364 
0.03541308452419364 
0.03541308452419364 
0.03541308452419364 
0.03541308452419364 
0.03541308452419364 
0.03541308452419364 
0.03541308452419364 
0.03541308452419364 
0.03541308452419364 
0.03541308452419364 
0.03541308452419364 
0.074833166806313 
0.03942008228211936 
0.03942008228211936 
0.03942008228211936 
0.03942008228211936 
0.03942008228211936 
0.03942008228211936 
0.03942008228211936 
0.03942008228211936 
0.03942008228211936 
0.03942008228211936 
0.03942008228211936 
0.03942008228211936 
0.03942008228211936 
0.03942008228211936 
0.03942008228211936 
0.03942008228211936 
0.03942008228211936 
0.03942008228211936 
0.03942008228211936 
0.03942008228211936 
0.03942008228211936 
0.09241759498379552 
0.05299751270167617 
0.05299751270167617 
0.05299751270167617 
0.05299751270167617 
0.05299751270167617 
0.05299751270167617 
0.05299751270167617 
0.05299751270167617 
0.05299751270167617 
0.05299751270167617 
0.05299751270167617 
0.05299751270167617 
0.05299751270167617 
0.05299751270167617 
0.05299751270167617 
0.05299751270167617 
0.05299751270167617 
0.0898876404494382 
0.0898876404494382 
0.0898876404494382 
0.0898876404494382 
0.0898876404494382 
0.0898876404494382 
0.0898876404494382 
0.0898876404494382 
0.0898876404494382 
0.0898876404494382 
0.0898876404494382 
0.04519774011299447 
0.04519774011299447 
0.04519774011299447 
0.04519774011299447 
0.04519774011299447 
0.04519774011299447 
0.04519774011299447 
0.04519774011299447 
0.04519774011299447 
0.04519774011299447 
0.04519774011299447 
0.04519774011299447 
0.04519774011299447 
0.04519774011299447 
0.04519774011299447 
0.04519774011299447 
0.04519774011299447 
0.04519774011299447 
0.04519774011299447 
0.04519774011299447 
0.09039548022598627 
0.0451977401129918 
0.0451977401129918 
0.0451977401129918 
0.0451977401129918 
0.0451977401129918 
0.0451977401129918 
0.0451977401129918 
0.0451977401129918 
0.0451977401129918 
0.0451977401129918 
0.0451977401129918 
0.0451977401129918 
0.0451977401129918 
0.0451977401129918 
0.0451977401129918 
0.0451977401129918 
0.0451977401129918 
0.0451977401129918 
0.0451977401129918 
0.0451977401129918 
0.06201550387596899 
0.06201550387596899 
0.06201550387596899 
0.06201550387596899 
0.06201550387596899 
0.06201550387596899 
0.06201550387596899 
0.06201550387596899 
0.06201550387596899 
0.06201550387596899 
0.06201550387596899 
0.06201550387596899 
0.06201550387596899 
0.06201550387596899 
0.06201550387596899 
0.06201550387596899 
0.04448626914195322 
0.04448626914195322 
0.04448626914195322 
0.04448626914195322 
0.04448626914195322 
0.04448626914195322 
0.04448626914195322 
0.04448626914195322 
0.04448626914195322 
0.04448626914195322 
0.04448626914195322 
0.04448626914195322 
0.04448626914195322 
0.04448626914195322 
0.04448626914195322 
0.04448626914195322 
0.04448626914195322 
0.04448626914195322 
0.04448626914195322 
0.1492001026606433 
0.1047138335186901 
0.1047138335186901 
0.1047138335186901 
0.1047138335186901 
0.1047138335186901 
0.1047138335186901 
0.1047138335186901 
0.1047138335186901 
0.04519774011299435 
0.04519774011299435 
0.04519774011299435 
0.04519774011299435 
0.04519774011299435 
0.04519774011299435 
0.04519774011299435 
0.04519774011299435 
0.04519774011299435 
0.04519774011299435 
0.04519774011299435 
0.04519774011299435 
0.04519774011299435 
0.04519774011299435 
0.04519774011299435 
0.04519774011299435 
0.04519774011299435 
0.04519774011299435 
0.04519774011299435 
0.04519774011299435 
0.04519774011299435 
0.04519774011299435 
0.04899994579652176 
0.04899994579652176 
0.04899994579652176 
0.04899994579652176 
0.04899994579652176 
0.04899994579652176 
0.04899994579652176 
0.04899994579652176 
0.04899994579652176 
0.04899994579652176 
0.04899994579652176 
0.04899994579652176 
0.04899994579652176 
0.04899994579652176 
0.04899994579652176 
0.04899994579652176 
0.04899994579652176 
0.04899994579652176 
0.1118759824380431 
0.06287603664152135 
0.06287603664152135 
0.06287603664152135 
0.06287603664152135 
0.06287603664152135 
0.06287603664152135 
0.06287603664152135 
0.06287603664152135 
0.06287603664152135 
0.06287603664152135 
0.06287603664152135 
0.06287603664152135 
0.06287603664152135 
0.06287603664152135 
0.09876543209876543 
0.09876543209876543 
0.09876543209876543 
0.09876543209876543 
0.09876543209876543 
0.09876543209876543 
0.09876543209876543 
0.09876543209876543 
0.09876543209876543 
0.09876543209876543 
0.05517241379310345 
0.05517241379310345 
0.05517241379310345 
0.05517241379310345 
0.05517241379310345 
0.05517241379310345 
0.05517241379310345 
0.05517241379310345 
0.05517241379310345 
0.05517241379310345 
0.05517241379310345 
0.05517241379310345 
0.05517241379310345 
0.05517241379310345 
0.05517241379310345 
0.05517241379310345 
0.05517241379310345 
0.05517241379310345 
0.0583941605839416 
0.0583941605839416 
0.0583941605839416 
0.0583941605839416 
0.0583941605839416 
0.0583941605839416 
0.0583941605839416 
0.0583941605839416 
0.0583941605839416 
0.0583941605839416 
0.0583941605839416 
0.0583941605839416 
0.0583941605839416 
0.0583941605839416 
0.0583941605839416 
0.0583941605839416 
0.0583941605839416 
0.0761904761904762 
0.0761904761904762 
0.0761904761904762 
0.0761904761904762 
0.0761904761904762 
0.0761904761904762 
0.0761904761904762 
0.0761904761904762 
0.0761904761904762 
0.0761904761904762 
0.0761904761904762 
0.0761904761904762 
0.0761904761904762 
0.05508545812422665 
0.05508545812422665 
0.05508545812422665 
0.05508545812422665 
0.05508545812422665 
0.05508545812422665 
0.05508545812422665 
0.05508545812422665 
0.05508545812422665 
0.05508545812422665 
0.05508545812422665 
0.05508545812422665 
0.05508545812422665 
0.05508545812422665 
0.05508545812422665 
0.05508545812422665 
0.1117469877468454 
0.05666152962261872 
0.05666152962261872 
0.05666152962261872 
0.05666152962261872 
0.05666152962261872 
0.05666152962261872 
0.05666152962261872 
0.05666152962261872 
0.05666152962261872 
0.05666152962261872 
0.05666152962261872 
0.05666152962261872 
0.05666152962261872 
0.1445704359521584 
0.08790890632953971 
0.08790890632953971 
0.08790890632953971 
0.08790890632953971 
0.08790890632953971 
0.08790890632953971 
0.08790890632953971 
0.08790890632953971 
0.1411697001203314 
0.0532607937907918 
0.0532607937907918 
0.0532607937907918 
0.0532607937907918 
0.0532607937907918 
0.0532607937907918 
0.0532607937907918 
0.0532607937907918 
0.0532607937907918 
0.0532607937907918 
0.0532607937907918 
0.0532607937907918 
0.0532607937907918 
0.0532607937907918 
0.0532607937907918 
0.0532607937907918 
0.0583941605839416 
0.0583941605839416 
0.0583941605839416 
0.0583941605839416 
0.0583941605839416 
0.0583941605839416 
0.0583941605839416 
0.0583941605839416 
0.0583941605839416 
0.0583941605839416 
0.0583941605839416 
0.0583941605839416 
0.0583941605839416 
0.0583941605839416 
0.0583941605839416 
0.0583941605839416 
0.0583941605839416 
0.07079646017699115 
0.07079646017699115 
0.07079646017699115 
0.07079646017699115 
0.07079646017699115 
0.07079646017699115 
0.07079646017699115 
0.07079646017699115 
0.07079646017699115 
0.07079646017699115 
0.07079646017699115 
0.07079646017699115 
0.07079646017699115 
0.07079646017699115 
0.05228758169934641 
0.05228758169934641 
0.05228758169934641 
0.05228758169934641 
0.05228758169934641 
0.05228758169934641 
0.05228758169934641 
0.05228758169934641 
0.05228758169934641 
0.05228758169934641 
0.05228758169934641 
0.05228758169934641 
0.05228758169934641 
0.05228758169934641 
0.05228758169934641 
0.05228758169934641 
0.05228758169934641 
0.05228758169934641 
0.05228758169934641 
0.06201550387596899 
0.06201550387596899 
0.06201550387596899 
0.06201550387596899 
0.06201550387596899 
0.06201550387596899 
0.06201550387596899 
0.06201550387596899 
0.06201550387596899 
0.06201550387596899 
0.06201550387596899 
0.06201550387596899 
0.06201550387596899 
0.06201550387596899 
0.06201550387596899 
0.06201550387596899 
0.05517241379310345 
0.05517241379310345 
0.05517241379310345 
0.05517241379310345 
0.05517241379310345 
0.05517241379310345 
0.05517241379310345 
0.05517241379310345 
0.05517241379310345 
0.05517241379310345 
0.05517241379310345 
0.05517241379310345 
0.05517241379310345 
0.05517241379310345 
0.05517241379310345 
0.05517241379310345 
0.05517241379310345 
0.05517241379310345 
0.0583941605839416 
0.0583941605839416 
0.0583941605839416 
0.0583941605839416 
0.0583941605839416 
0.0583941605839416 
0.0583941605839416 
0.0583941605839416 
0.0583941605839416 
0.0583941605839416 
0.0583941605839416 
0.0583941605839416 
0.0583941605839416 
0.0583941605839416 
0.0583941605839416 
0.0583941605839416 
0.0583941605839416 
0.06611570247933884 
0.06611570247933884 
0.06611570247933884 
0.06611570247933884 
0.06611570247933884 
0.06611570247933884 
0.06611570247933884 
0.06611570247933884 
0.06611570247933884 
0.06611570247933884 
0.06611570247933884 
0.06611570247933884 
0.06611570247933884 
0.06611570247933884 
0.06611570247933884 
0.08247422680412371 
0.08247422680412371 
0.08247422680412371 
0.08247422680412371 
0.08247422680412371 
0.08247422680412371 
0.08247422680412371 
0.08247422680412371 
0.08247422680412371 
0.08247422680412371 
0.08247422680412371 
0.08247422680412371 
0.04519774011299435 
0.04519774011299435 
0.04519774011299435 
0.04519774011299435 
0.04519774011299435 
0.04519774011299435 
0.04519774011299435 
0.04519774011299435 
0.04519774011299435 
0.04519774011299435 
0.04519774011299435 
0.04519774011299435 
0.04519774011299435 
0.04519774011299435 
0.04519774011299435 
0.04519774011299435 
0.04519774011299435 
0.04519774011299435 
0.04519774011299435 
0.04519774011299435 
0.04519774011299435 
0.04519774011299435 
0.07079646017699115 
0.07079646017699115 
0.07079646017699115 
0.07079646017699115 
0.07079646017699115 
0.07079646017699115 
0.07079646017699115 
0.07079646017699115 
0.07079646017699115 
0.07079646017699115 
0.07079646017699115 
0.07079646017699115 
0.07079646017699115 
0.07079646017699115 
0.0898876404494382 
0.0898876404494382 
0.0898876404494382 
0.0898876404494382 
0.0898876404494382 
0.0898876404494382 
0.0898876404494382 
0.0898876404494382 
0.0898876404494382 
0.0898876404494382 
0.0898876404494382 
0.05517241379310345 
0.05517241379310345 
0.05517241379310345 
0.05517241379310345 
0.05517241379310345 
0.05517241379310345 
0.05517241379310345 
0.05517241379310345 
0.05517241379310345 
0.05517241379310345 
0.05517241379310345 
0.05517241379310345 
0.05517241379310345 
0.05517241379310345 
0.05517241379310345 
0.05517241379310345 
0.05517241379310345 
0.05517241379310345 
0.1153687680263734 
0.1153687680263734 
0.1153687680263734 
0.1153687680263734 
0.1153687680263734 
0.1153687680263734 
0.1153687680263734 
0.1779975278120897 
0.0626287597857163 
0.0626287597857163 
0.0626287597857163 
0.0626287597857163 
0.0626287597857163 
0.0626287597857163 
0.0626287597857163 
0.0626287597857163 
0.0626287597857163 
0.0626287597857163 
0.0626287597857163 
0.0626287597857163 
0.0626287597857163 
0.06611570247933884 
0.06611570247933884 
0.06611570247933884 
0.06611570247933884 
0.06611570247933884 
0.06611570247933884 
0.06611570247933884 
0.06611570247933884 
0.06611570247933884 
0.06611570247933884 
0.06611570247933884 
0.06611570247933884 
0.06611570247933884 
0.06611570247933884 
0.06611570247933884 
0.07034877976484104 
0.07034877976484104 
0.07034877976484104 
0.07034877976484104 
0.07034877976484104 
0.07034877976484104 
0.07034877976484104 
0.07034877976484104 
0.07034877976484104 
0.07034877976484104 
0.07034877976484104 
0.07034877976484104 
0.1470210453513024 
0.07667226558646136 
0.07667226558646136 
0.07667226558646136 
0.07667226558646136 
0.07667226558646136 
0.07667226558646136 
0.07667226558646136 
0.07667226558646136 
0.07667226558646136 
0.07667226558646136 
0.07667226558646136 
0.07079646017699115 
0.07079646017699115 
0.07079646017699115 
0.07079646017699115 
0.07079646017699115 
0.07079646017699115 
0.07079646017699115 
0.07079646017699115 
0.07079646017699115 
0.07079646017699115 
0.07079646017699115 
0.07079646017699115 
0.07079646017699115 
0.07079646017699115 
0.1230769230769231 
0.1230769230769231 
0.1230769230769231 
0.1230769230769231 
0.1230769230769231 
0.1230769230769231 
0.1230769230769231 
0.1230769230769231 
0.05517241379310345 
0.05517241379310345 
0.05517241379310345 
0.05517241379310345 
0.05517241379310345 
0.05517241379310345 
0.05517241379310345 
0.05517241379310345 
0.05517241379310345 
0.05517241379310345 
0.05517241379310345 
0.05517241379310345 
0.05517241379310345 
0.05517241379310345 
0.05517241379310345 
0.05517241379310345 
0.05517241379310345 
0.05517241379310345 
0.09876543209876543 
0.09876543209876543 
0.09876543209876543 
0.09876543209876543 
0.09876543209876543 
0.09876543209876543 
0.09876543209876543 
0.09876543209876543 
0.09876543209876543 
0.09876543209876543 
0.08247422680412371 
0.08247422680412371 
0.08247422680412371 
0.08247422680412371 
0.08247422680412371 
0.08247422680412371 
0.08247422680412371 
0.08247422680412371 
0.08247422680412371 
0.08247422680412371 
0.08247422680412371 
0.08247422680412371 
0.09453211009175258 
0.09453211009175258 
0.09453211009175258 
0.09453211009175258 
0.09453211009175258 
0.09453211009175258 
0.09453211009175258 
0.09453211009175258 
0.09453211009175258 
0.137394495412853 
0.04286238532110047 
0.04286238532110047 
0.04286238532110047 
0.04286238532110047 
0.04286238532110047 
0.04286238532110047 
0.04286238532110047 
0.04286238532110047 
0.04286238532110047 
0.04286238532110047 
0.04286238532110047 
0.04286238532110047 
0.04286238532110047 
0.04286238532110047 
0.04286238532110047 
0.04286238532110047 
0.04286238532110047 
0.04286238532110047 
0.04286238532110047 
0.04286238532110047 
0.07079646017699115 
0.07079646017699115 
0.07079646017699115 
0.07079646017699115 
0.07079646017699115 
0.07079646017699115 
0.07079646017699115 
0.07079646017699115 
0.07079646017699115 
0.07079646017699115 
0.07079646017699115 
0.07079646017699115 
0.07079646017699115 
0.07079646017699115 
0.09876543209876543 
0.09876543209876543 
0.09876543209876543 
0.09876543209876543 
0.09876543209876543 
0.09876543209876543 
0.09876543209876543 
0.09876543209876543 
0.09876543209876543 
0.09876543209876543 
0.09876543209876543 
0.09876543209876543 
0.09876543209876543 
0.09876543209876543 
0.09876543209876543 
0.09876543209876543 
0.09876543209876543 
0.09876543209876543 
0.09876543209876543 
0.09876543209876543 
0.1095890410958904 
0.1095890410958904 
0.1095890410958904 
0.1095890410958904 
0.1095890410958904 
0.1095890410958904 
0.1095890410958904 
0.1095890410958904 
0.1095890410958904 
0.06611570247933884 
0.06611570247933884 
0.06611570247933884 
0.06611570247933884 
0.06611570247933884 
0.06611570247933884 
0.06611570247933884 
0.06611570247933884 
0.06611570247933884 
0.06611570247933884 
0.06611570247933884 
0.06611570247933884 
0.06611570247933884 
0.06611570247933884 
0.06611570247933884 
0.0898876404494382 
0.0898876404494382 
0.0898876404494382 
0.0898876404494382 
0.0898876404494382 
0.0898876404494382 
0.0898876404494382 
0.0898876404494382 
0.0898876404494382 
0.0898876404494382 
0.0898876404494382 
0.8888888888888888 
0.32 
0.32 
0.32 
0.0583941605839416 
0.0583941605839416 
0.0583941605839416 
0.0583941605839416 
0.0583941605839416 
0.0583941605839416 
0.0583941605839416 
0.0583941605839416 
0.0583941605839416 
0.0583941605839416 
0.0583941605839416 
0.0583941605839416 
0.0583941605839416 
0.0583941605839416 
0.0583941605839416 
0.0583941605839416 
0.0583941605839416 
0.1403508771929824 
0.1403508771929824 
0.1403508771929824 
0.1403508771929824 
0.1403508771929824 
0.1403508771929824 
0.1403508771929824 
0.05228758169934641 
0.05228758169934641 
0.05228758169934641 
0.05228758169934641 
0.05228758169934641 
0.05228758169934641 
0.05228758169934641 
0.05228758169934641 
0.05228758169934641 
0.05228758169934641 
0.05228758169934641 
0.05228758169934641 
0.05228758169934641 
0.05228758169934641 
0.05228758169934641 
0.05228758169934641 
0.05228758169934641 
0.05228758169934641 
0.05228758169934641 
0.32 
0.32 
0.32 
0.2880235097595958 
0.2880235097595958 
0.3879500347056175 
0.09992652494602164 
0.09992652494602164 
0.09992652494602164 
0.09992652494602164 
0.09992652494602164 
0.09992652494602164 
0.4705882352941176 
0.4705882352941176 
0.8888888888888888 
0.3030066380304671 
0.3030066380304671 
0.3561108941805267 
0.05310425615005965 
0.05310425615005965 
0.05310425615005965 
0.05310425615005965 
0.05310425615005965 
0.05310425615005965 
0.05310425615005965 
0.05310425615005965 
0.05310425615005965 
0.05310425615005965 
0.05310425615005965 
0.05310425615005965 
0.2424242424242424 
0.2424242424242424 
0.2424242424242424 
0.2424242424242424 
0.05517241379310345 
0.05517241379310345 
0.05517241379310345 
0.05517241379310345 
0.05517241379310345 
0.05517241379310345 
0.05517241379310345 
0.05517241379310345 
0.05517241379310345 
0.05517241379310345 
0.05517241379310345 
0.05517241379310345 
0.05517241379310345 
0.05517241379310345 
0.05517241379310345 
0.05517241379310345 
0.05517241379310345 
0.05517241379310345 
0.06201550387596899 
0.06201550387596899 
0.06201550387596899 
0.06201550387596899 
0.06201550387596899 
0.06201550387596899 
0.06201550387596899 
0.06201550387596899 
0.06201550387596899 
0.06201550387596899 
0.06201550387596899 
0.06201550387596899 
0.06201550387596899 
0.06201550387596899 
0.06201550387596899 
0.06201550387596899 
0.05244310026526666 
0.05244310026526666 
0.05244310026526666 
0.05244310026526666 
0.05244310026526666 
0.05244310026526666 
0.05244310026526666 
0.05244310026526666 
0.05244310026526666 
0.05244310026526666 
0.05244310026526666 
0.05244310026526666 
0.05244310026526666 
0.05244310026526666 
0.05244310026526666 
0.05244310026526666 
0.05244310026526666 
0.1019119079571189 
0.04946880769185225 
0.04946880769185225 
0.04946880769185225 
0.04946880769185225 
0.04946880769185225 
0.04946880769185225 
0.04946880769185225 
0.04946880769185225 
0.04946880769185225 
0.04946880769185225 
0.04946880769185225 
0.04946880769185225 
0.04946880769185225 
0.04946880769185225 
0.04946880769185225 
0.04946880769185225 
0.1004035680117635 
0.05093476031991127 
0.05093476031991127 
0.05093476031991127 
0.05093476031991127 
0.05093476031991127 
0.05093476031991127 
0.05093476031991127 
0.05093476031991127 
0.05093476031991127 
0.05093476031991127 
0.05093476031991127 
0.05093476031991127 
0.05093476031991127 
0.05093476031991127 
0.05093476031991127 
0.1292081821491969 
0.07827342182928566 
0.07827342182928566 
0.07827342182928566 
0.07827342182928566 
0.07827342182928566 
0.07827342182928566 
0.07827342182928566 
0.07827342182928566 
0.07827342182928566 
0.07827342182928566 
0.07827342182928566 
0.06201550387596899 
0.06201550387596899 
0.06201550387596899 
0.06201550387596899 
0.06201550387596899 
0.06201550387596899 
0.06201550387596899 
0.06201550387596899 
0.06201550387596899 
0.06201550387596899 
0.06201550387596899 
0.06201550387596899 
0.06201550387596899 
0.06201550387596899 
0.06201550387596899 
0.06201550387596899 
0.06328322518939597 
0.06328322518939597 
0.06328322518939597 
0.06328322518939597 
0.06328322518939597 
0.06328322518939597 
0.06328322518939597 
0.06328322518939597 
0.06328322518939597 
0.06328322518939597 
0.06328322518939597 
0.06328322518939597 
0.2326908963218918 
0.1694076711324959 
0.1694076711324959 
0.1694076711324959 
0.2379101313890585 
0.06850246025656265 
0.06850246025656265 
0.06850246025656265 
0.06850246025656265 
0.06850246025656265 
0.06850246025656265 
0.06850246025656265 
0.06850246025656265 
0.06850246025656265 
0.06850246025656265 
0.06850246025656265 
0.05061329890252012 
0.05061329890252012 
0.05061329890252012 
0.05061329890252012 
0.05061329890252012 
0.05061329890252012 
0.05061329890252012 
0.05061329890252012 
0.05061329890252012 
0.05061329890252012 
0.05061329890252012 
0.05061329890252012 
0.05061329890252012 
0.05061329890252012 
0.05061329890252012 
0.05061329890252012 
0.1838605551968632 
0.1332472562943431 
0.1332472562943431 
0.1332472562943431 
0.1332472562943431 
0.1332472562943431 
0.1332472562943431 
0.05228758169934641 
0.05228758169934641 
0.05228758169934641 
0.05228758169934641 
0.05228758169934641 
0.05228758169934641 
0.05228758169934641 
0.05228758169934641 
0.05228758169934641 
0.05228758169934641 
0.05228758169934641 
0.05228758169934641 
0.05228758169934641 
0.05228758169934641 
0.05228758169934641 
0.05228758169934641 
0.05228758169934641 
0.05228758169934641 
0.05228758169934641 
0.04388892030993932 
0.04388892030993932 
0.04388892030993932 
0.04388892030993932 
0.04388892030993932 
0.04388892030993932 
0.04388892030993932 
0.04388892030993932 
0.04388892030993932 
0.04388892030993932 
0.04388892030993932 
0.04388892030993932 
0.04388892030993932 
0.04388892030993932 
0.04388892030993932 
0.04388892030993932 
0.04388892030993932 
0.04388892030993932 
0.04388892030993932 
0.04388892030993932 
0.1167354787624711 
0.07284655845253175 
0.07284655845253175 
0.07284655845253175 
0.07284655845253175 
0.07284655845253175 
0.07284655845253175 
0.07284655845253175 
0.07284655845253175 
0.07284655845253175 
0.07284655845253175 
0.07284655845253175 
0.07284655845253175 
0.08247422680412371 
0.08247422680412371 
0.08247422680412371 
0.08247422680412371 
0.08247422680412371 
0.08247422680412371 
0.08247422680412371 
0.08247422680412371 
0.08247422680412371 
0.08247422680412371 
0.08247422680412371 
0.08247422680412371 
0.04968944099378882 
0.04968944099378882 
0.04968944099378882 
0.04968944099378882 
0.04968944099378882 
0.04968944099378882 
0.04968944099378882 
0.04968944099378882 
0.04968944099378882 
0.04968944099378882 
0.04968944099378882 
0.04968944099378882 
0.04968944099378882 
0.04968944099378882 
0.04968944099378882 
0.04968944099378882 
0.04968944099378882 
0.04968944099378882 
0.04968944099378882 
0.04968944099378882 
0.06700042775399163 
0.06700042775399163 
0.06700042775399163 
0.06700042775399163 
0.06700042775399163 
0.06700042775399163 
0.06700042775399163 
0.06700042775399163 
0.06700042775399163 
0.06700042775399163 
0.06700042775399163 
0.06700042775399163 
0.06700042775399163 
0.1206193857167233 
0.05361895796273168 
0.05361895796273168 
0.05361895796273168 
0.05361895796273168 
0.05361895796273168 
0.05361895796273168 
0.05361895796273168 
0.05361895796273168 
0.05361895796273168 
0.05361895796273168 
0.05361895796273168 
0.05361895796273168 
0.05361895796273168 
0.05361895796273168 
0.1220128330596917 
0.06839387509696004 
0.06839387509696004 
0.06839387509696004 
0.06839387509696004 
0.06839387509696004 
0.06839387509696004 
0.06839387509696004 
0.06839387509696004 
0.06839387509696004 
0.06839387509696004 
0.06839387509696004 
0.1171053064644392 
0.04871143136747921 
0.04871143136747921 
0.04871143136747921 
0.04871143136747921 
0.04871143136747921 
0.04871143136747921 
0.04871143136747921 
0.04871143136747921 
0.04871143136747921 
0.04871143136747921 
0.04871143136747921 
0.04871143136747921 
0.04871143136747921 
0.04871143136747921 
0.04871143136747921 
0.04871143136747921 
0.04871143136747921 
0.04871143136747921 
0.06611570247933884 
0.06611570247933884 
0.06611570247933884 
0.06611570247933884 
0.06611570247933884 
0.06611570247933884 
0.06611570247933884 
0.06611570247933884 
0.06611570247933884 
0.06611570247933884 
0.06611570247933884 
0.06611570247933884 
0.06611570247933884 
0.06611570247933884 
0.06611570247933884 
0.08173547935619713 
0.08173547935619713 
0.08173547935619713 
0.08173547935619713 
0.08173547935619713 
0.08173547935619713 
0.08173547935619713 
0.08173547935619713 
0.08173547935619713 
0.08173547935619713 
0.172428271518504 
0.0906927921623069 
0.0906927921623069 
0.0906927921623069 
0.0906927921623069 
0.0906927921623069 
0.0906927921623069 
0.0906927921623069 
0.0906927921623069 
0.0906927921623069 
0.08247422680412371 
0.08247422680412371 
0.08247422680412371 
0.08247422680412371 
0.08247422680412371 
0.08247422680412371 
0.08247422680412371 
0.08247422680412371 
0.08247422680412371 
0.08247422680412371 
0.08247422680412371 
0.08247422680412371 
0.04733727810650887 
0.04733727810650887 
0.04733727810650887 
0.04733727810650887 
0.04733727810650887 
0.04733727810650887 
0.04733727810650887 
0.04733727810650887 
0.04733727810650887 
0.04733727810650887 
0.04733727810650887 
0.04733727810650887 
0.04733727810650887 
0.04733727810650887 
0.04733727810650887 
0.04733727810650887 
0.04733727810650887 
0.04733727810650887 
0.04733727810650887 
0.04733727810650887 
0.04733727810650887 
0.0583941605839416 
0.0583941605839416 
0.0583941605839416 
0.0583941605839416 
0.0583941605839416 
0.0583941605839416 
0.0583941605839416 
0.0583941605839416 
0.0583941605839416 
0.0583941605839416 
0.0583941605839416 
0.0583941605839416 
0.0583941605839416 
0.0583941605839416 
0.0583941605839416 
0.0583941605839416 
0.0583941605839416 
0.04733727810650887 
0.04733727810650887 
0.04733727810650887 
0.04733727810650887 
0.04733727810650887 
0.04733727810650887 
0.04733727810650887 
0.04733727810650887 
0.04733727810650887 
0.04733727810650887 
0.04733727810650887 
0.04733727810650887 
0.04733727810650887 
0.04733727810650887 
0.04733727810650887 
0.04733727810650887 
0.04733727810650887 
0.04733727810650887 
0.04733727810650887 
0.04733727810650887 
0.04733727810650887 
0.04145077720207254 
0.04145077720207254 
0.04145077720207254 
0.04145077720207254 
0.04145077720207254 
0.04145077720207254 
0.04145077720207254 
0.04145077720207254 
0.04145077720207254 
0.04145077720207254 
0.04145077720207254 
0.04145077720207254 
0.04145077720207254 
0.04145077720207254 
0.04145077720207254 
0.04145077720207254 
0.04145077720207254 
0.04145077720207254 
0.04145077720207254 
0.04145077720207254 
0.04145077720207254 
0.04145077720207254 
0.04145077720207254 
0.04145077720207254 
0.0898876404494382 
0.0898876404494382 
0.0898876404494382 
0.0898876404494382 
0.0898876404494382 
0.0898876404494382 
0.0898876404494382 
0.0898876404494382 
0.0898876404494382 
0.0898876404494382 
0.0898876404494382 
0.163265306122449 
0.163265306122449 
0.163265306122449 
0.163265306122449 
0.163265306122449 
0.163265306122449 
0.0898876404494382 
0.0898876404494382 
0.0898876404494382 
0.0898876404494382 
0.0898876404494382 
0.0898876404494382 
0.0898876404494382 
0.0898876404494382 
0.0898876404494382 
0.0898876404494382 
0.0898876404494382 
0.05517241379310345 
0.05517241379310345 
0.05517241379310345 
0.05517241379310345 
0.05517241379310345 
0.05517241379310345 
0.05517241379310345 
0.05517241379310345 
0.05517241379310345 
0.05517241379310345 
0.05517241379310345 
0.05517241379310345 
0.05517241379310345 
0.05517241379310345 
0.05517241379310345 
0.05517241379310345 
0.05517241379310345 
0.05517241379310345 
0.05517241379310345 
0.05517241379310345 
0.05517241379310345 
0.05517241379310345 
0.05517241379310345 
0.05517241379310345 
0.05517241379310345 
0.05517241379310345 
0.05517241379310345 
0.05517241379310345 
0.05517241379310345 
0.05517241379310345 
0.05517241379310345 
0.05517241379310345 
0.05517241379310345 
0.05517241379310345 
0.05517241379310345 
0.05517241379310345 
0.1095890410958904 
0.1095890410958904 
0.1095890410958904 
0.1095890410958904 
0.1095890410958904 
0.1095890410958904 
0.1095890410958904 
0.1095890410958904 
0.1095890410958904 
0.0761904761904762 
0.0761904761904762 
0.0761904761904762 
0.0761904761904762 
0.0761904761904762 
0.0761904761904762 
0.0761904761904762 
0.0761904761904762 
0.0761904761904762 
0.0761904761904762 
0.0761904761904762 
0.0761904761904762 
0.0761904761904762 
0.05228758169934641 
0.05228758169934641 
0.05228758169934641 
0.05228758169934641 
0.05228758169934641 
0.05228758169934641 
0.05228758169934641 
0.05228758169934641 
0.05228758169934641 
0.05228758169934641 
0.05228758169934641 
0.05228758169934641 
0.05228758169934641 
0.05228758169934641 
0.05228758169934641 
0.05228758169934641 
0.05228758169934641 
0.05228758169934641 
0.05228758169934641 
0.09802274860504696 
0.09802274860504696 
0.09802274860504696 
0.09802274860504696 
0.09802274860504696 
0.09802274860504696 
0.09802274860504696 
0.09802274860504696 
0.2035651675839935 
0.1055424189789465 
0.1055424189789465 
0.1055424189789465 
0.1055424189789465 
0.1055424189789465 
0.1055424189789465 
0.1499875161725392 
0.04444509719359272 
0.04444509719359272 
0.04444509719359272 
0.04444509719359272 
0.04444509719359272 
0.04444509719359272 
0.04444509719359272 
0.04444509719359272 
0.04444509719359272 
0.04444509719359272 
0.04444509719359272 
0.04444509719359272 
0.04444509719359272 
0.04444509719359272 
0.04444509719359272 
0.04444509719359272 
0.04444509719359272 
0.04444509719359272 
0.04444509719359272 
0.0514674345934719 
0.0514674345934719 
0.0514674345934719 
0.0514674345934719 
0.0514674345934719 
0.0514674345934719 
0.0514674345934719 
0.0514674345934719 
0.0514674345934719 
0.0514674345934719 
0.0514674345934719 
0.0514674345934719 
0.0514674345934719 
0.0514674345934719 
0.0514674345934719 
0.0514674345934719 
0.0514674345934719 
0.1186201825867936 
0.0671527479933217 
0.0671527479933217 
0.0671527479933217 
0.0671527479933217 
0.0671527479933217 
0.0671527479933217 
0.0671527479933217 
0.0671527479933217 
0.0671527479933217 
0.0671527479933217 
0.0671527479933217 
0.0671527479933217 
0.0671527479933217 
0.05383742911153052 
0.05383742911153052 
0.05383742911153052 
0.05383742911153052 
0.05383742911153052 
0.05383742911153052 
0.05383742911153052 
0.05383742911153052 
0.05383742911153052 
0.05383742911153052 
0.05383742911153052 
0.05383742911153052 
0.05383742911153052 
0.05383742911153052 
0.05383742911153052 
0.05383742911153052 
0.1318714555765704 
0.07803402646503986 
0.07803402646503986 
0.07803402646503986 
0.07803402646503986 
0.07803402646503986 
0.07803402646503986 
0.07803402646503986 
0.07803402646503986 
0.07803402646503986 
0.07803402646503986 
0.07803402646503986 
0.0761904761904762 
0.0761904761904762 
0.0761904761904762 
0.0761904761904762 
0.0761904761904762 
0.0761904761904762 
0.0761904761904762 
0.0761904761904762 
0.0761904761904762 
0.0761904761904762 
0.0761904761904762 
0.0761904761904762 
0.0761904761904762 
0.04968944099378882 
0.04968944099378882 
0.04968944099378882 
0.04968944099378882 
0.04968944099378882 
0.04968944099378882 
0.04968944099378882 
0.04968944099378882 
0.04968944099378882 
0.04968944099378882 
0.04968944099378882 
0.04968944099378882 
0.04968944099378882 
0.04968944099378882 
0.04968944099378882 
0.04968944099378882 
0.04968944099378882 
0.04968944099378882 
0.04968944099378882 
0.04968944099378882 
0.05228758169934641 
0.05228758169934641 
0.05228758169934641 
0.05228758169934641 
0.05228758169934641 
0.05228758169934641 
0.05228758169934641 
0.05228758169934641 
0.05228758169934641 
0.05228758169934641 
0.05228758169934641 
0.05228758169934641 
0.05228758169934641 
0.05228758169934641 
0.05228758169934641 
0.05228758169934641 
0.05228758169934641 
0.05228758169934641 
0.05228758169934641 
0.04707701559210645 
0.04707701559210645 
0.04707701559210645 
0.04707701559210645 
0.04707701559210645 
0.04707701559210645 
0.04707701559210645 
0.04707701559210645 
0.04707701559210645 
0.04707701559210645 
0.04707701559210645 
0.04707701559210645 
0.04707701559210645 
0.04707701559210645 
0.04707701559210645 
0.04707701559210645 
0.04707701559210645 
0.04707701559210645 
0.04707701559210645 
0.09965207680081782 
0.05257506120871137 
0.05257506120871137 
0.05257506120871137 
0.05257506120871137 
0.05257506120871137 
0.05257506120871137 
0.05257506120871137 
0.05257506120871137 
0.05257506120871137 
0.05257506120871137 
0.05257506120871137 
0.05257506120871137 
0.05257506120871137 
0.05257506120871137 
0.05257506120871137 
0.05257506120871137 
0.05257506120871137 
0.06611570247933884 
0.06611570247933884 
0.06611570247933884 
0.06611570247933884 
0.06611570247933884 
0.06611570247933884 
0.06611570247933884 
0.06611570247933884 
0.06611570247933884 
0.06611570247933884 
0.06611570247933884 
0.06611570247933884 
0.06611570247933884 
0.06611570247933884 
0.06611570247933884 
0.08247422680412371 
0.08247422680412371 
0.08247422680412371 
0.08247422680412371 
0.08247422680412371 
0.08247422680412371 
0.08247422680412371 
0.08247422680412371 
0.08247422680412371 
0.08247422680412371 
0.08247422680412371 
0.08247422680412371 
0.04968944099378882 
0.04968944099378882 
0.04968944099378882 
0.04968944099378882 
0.04968944099378882 
0.04968944099378882 
0.04968944099378882 
0.04968944099378882 
0.04968944099378882 
0.04968944099378882 
0.04968944099378882 
0.04968944099378882 
0.04968944099378882 
0.04968944099378882 
0.04968944099378882 
0.04968944099378882 
0.04968944099378882 
0.04968944099378882 
0.04968944099378882 
0.04968944099378882 
0.0761904761904762 
0.0761904761904762 
0.0761904761904762 
0.0761904761904762 
0.0761904761904762 
0.0761904761904762 
0.0761904761904762 
0.0761904761904762 
0.0761904761904762 
0.0761904761904762 
0.0761904761904762 
0.0761904761904762 
0.0761904761904762 
0.07249546903311269 
0.07249546903311269 
0.07249546903311269 
0.07249546903311269 
0.07249546903311269 
0.07249546903311269 
0.07249546903311269 
0.07249546903311269 
0.07249546903311269 
0.07249546903311269 
0.07249546903311269 
0.07249546903311269 
0.1209924379725578 
0.04849696893944509 
0.04849696893944509 
0.04849696893944509 
0.04849696893944509 
0.04849696893944509 
0.04849696893944509 
0.04849696893944509 
0.04849696893944509 
0.04849696893944509 
0.04849696893944509 
0.04849696893944509 
0.04849696893944509 
0.04849696893944509 
0.04849696893944509 
0.04849696893944509 
0.04849696893944509 
0.04849696893944509 
0.04849696893944509 
0.04324324324324325 
0.04324324324324325 
0.04324324324324325 
0.04324324324324325 
0.04324324324324325 
0.04324324324324325 
0.04324324324324325 
0.04324324324324325 
0.04324324324324325 
0.04324324324324325 
0.04324324324324325 
0.04324324324324325 
0.04324324324324325 
0.04324324324324325 
0.04324324324324325 
0.04324324324324325 
0.04324324324324325 
0.04324324324324325 
0.04324324324324325 
0.04324324324324325 
0.04324324324324325 
0.04324324324324325 
0.04324324324324325 
0.05879512901668516 
0.05879512901668516 
0.05879512901668516 
0.05879512901668516 
0.05879512901668516 
0.05879512901668516 
0.05879512901668516 
0.05879512901668516 
0.05879512901668516 
0.05879512901668516 
0.05879512901668516 
0.05879512901668516 
0.05879512901668516 
0.05879512901668516 
0.05879512901668516 
0.1107236736226369 
0.05192854460595172 
0.05192854460595172 
0.05192854460595172 
0.05192854460595172 
0.05192854460595172 
0.05192854460595172 
0.05192854460595172 
0.05192854460595172 
0.05192854460595172 
0.05192854460595172 
0.05192854460595172 
0.05192854460595172 
0.05192854460595172 
0.05192854460595172 
0.05192854460595172 
0.05192854460595172 
0.05192854460595172 
0.1403508771929824 
0.1403508771929824 
0.1403508771929824 
0.1403508771929824 
0.1403508771929824 
0.1403508771929824 
0.1403508771929824 
0.109580320025549 
0.109580320025549 
0.109580320025549 
0.109580320025549 
0.109580320025549 
0.109580320025549 
0.109580320025549 
0.109580320025549 
0.1096598990892066 
7.957906365758856e-05 
7.957906365758856e-05 
7.957906365758856e-05 
7.957906365758856e-05 
7.957906365758856e-05 
7.957906365758856e-05 
7.957906365758856e-05 
7.957906365758856e-05 
7.957906365758856e-05 
7.957906365758856e-05 
7.957906365758856e-05 
7.957906365758856e-05 
7.957906365758856e-05 
7.957906365758856e-05 
7.957906365758856e-05 
7.957906365758856e-05 
7.957906365758856e-05 
7.957906365758856e-05 
0.8888977303819996 
0.0761904761904762 
0.0761904761904762 
0.0761904761904762 
0.0761904761904762 
0.0761904761904762 
0.0761904761904762 
0.0761904761904762 
0.0761904761904762 
0.0761904761904762 
0.0761904761904762 
0.0761904761904762 
0.0761904761904762 
0.0761904761904762 
0.07619047619047682 
0.07619047619047682 
0.07619047619047682 
0.07619047619047682 
0.07619047619047682 
0.07619047619047682 
0.07619047619047682 
0.07619047619047682 
0.07619047619047682 
0.07619047619047682 
0.07619047619047682 
0.1523809523809454 
0.07619047619046865 
0.07619047619046865 
0.07619047619046865 
0.07619047619046865 
0.07619047619046865 
0.07619047619046865 
0.07619047619046865 
0.07619047619046865 
0.07619047619046865 
0.07619047619046865 
0.07619047619046865 
0.0761904761904762 
0.0761904761904762 
0.0761904761904762 
0.0761904761904762 
0.0761904761904762 
0.0761904761904762 
0.0761904761904762 
0.0761904761904762 
0.0761904761904762 
0.0761904761904762 
0.0761904761904762 
0.0761904761904762 
0.0761904761904762 
0.0761904761904762 
0.0761904761904762 
0.0761904761904762 
0.0761904761904762 
0.0761904761904762 
0.0761904761904762 
0.0761904761904762 
0.0761904761904762 
0.0761904761904762 
0.0761904761904762 
0.0761904761904762 
0.0761904761904762 
0.0761904761904762 
0.09876543209876543 
0.09876543209876543 
0.09876543209876543 
0.09876543209876543 
0.09876543209876543 
0.09876543209876543 
0.09876543209876543 
0.09876543209876543 
0.09876543209876543 
0.09876543209876543 
0.0761904761904762 
0.0761904761904762 
0.0761904761904762 
0.0761904761904762 
0.0761904761904762 
0.0761904761904762 
0.0761904761904762 
0.0761904761904762 
0.0761904761904762 
0.0761904761904762 
0.0761904761904762 
0.0761904761904762 
0.0761904761904762 
0.0761904761904762 
0.0761904761904762 
0.0761904761904762 
0.0761904761904762 
0.0761904761904762 
0.0761904761904762 
0.0761904761904762 
0.0761904761904762 
0.0761904761904762 
0.0761904761904762 
0.0761904761904762 
0.0761904761904762 
0.0761904761904762 
0.0715662773985232 
0.0715662773985232 
0.0715662773985232 
0.0715662773985232 
0.0715662773985232 
0.0715662773985232 
0.0715662773985232 
0.0715662773985232 
0.0715662773985232 
0.0715662773985232 
0.0715662773985232 
0.0715662773985232 
0.1322588865429062 
0.06069260914438302 
0.06069260914438302 
0.06069260914438302 
0.06069260914438302 
0.06069260914438302 
0.06069260914438302 
0.06069260914438302 
0.06069260914438302 
0.06069260914438302 
0.06069260914438302 
0.06069260914438302 
0.06069260914438302 
0.1318432282157725 
0.07115061907138955 
0.07115061907138955 
0.07115061907138955 
0.07115061907138955 
0.07115061907138955 
0.07115061907138955 
0.07115061907138955 
0.07115061907138955 
0.07115061907138955 
0.07115061907138955 
0.1477567536377038 
0.07660613456631434 
0.07660613456631434 
0.07660613456631434 
0.07660613456631434 
0.07660613456631434 
0.07660613456631434 
0.07660613456631434 
0.07660613456631434 
0.07660613456631434 
0.07660613456631434 
0.07660613456631434 
0.06760538062318841 
0.06760538062318841 
0.06760538062318841 
0.06760538062318841 
0.06760538062318841 
0.06760538062318841 
0.06760538062318841 
0.06760538062318841 
0.06760538062318841 
0.06760538062318841 
0.06760538062318841 
0.06760538062318841 
0.06760538062318841 
0.112679379320346 
0.04507399869715759 
0.04507399869715759 
0.04507399869715759 
0.04507399869715759 
0.04507399869715759 
0.04507399869715759 
0.04507399869715759 
0.04507399869715759 
0.04507399869715759 
0.04507399869715759 
0.04507399869715759 
0.04507399869715759 
0.04507399869715759 
0.04507399869715759 
0.04507399869715759 
0.04507399869715759 
0.04507399869715759 
0.1154283929908303 
0.07035439429367273 
0.07035439429367273 
0.07035439429367273 
0.07035439429367273 
0.07035439429367273 
0.07035439429367273 
0.07035439429367273 
0.07035439429367273 
0.07035439429367273 
0.07035439429367273 
0.1722333647820374 
0.1018789704883646 
0.1018789704883646 
0.1018789704883646 
0.1018789704883646 
0.1018789704883646 
0.1018789704883646 
0.1018789704883646 
0.1018789704883646 
0.07699798198499301 
0.07699798198499301 
0.07699798198499301 
0.07699798198499301 
0.07699798198499301 
0.07699798198499301 
0.07699798198499301 
0.07699798198499301 
0.07699798198499301 
0.07699798198499301 
0.07699798198499301 
0.1433974504169527 
0.06639946843195975 
0.06639946843195975 
0.06639946843195975 
0.06639946843195975 
0.06639946843195975 
0.06639946843195975 
0.06639946843195975 
0.06639946843195975 
0.06639946843195975 
0.06639946843195975 
0.06639946843195975 
0.117908463277093 
0.05150899484513326 
0.05150899484513326 
0.05150899484513326 
0.05150899484513326 
0.05150899484513326 
0.05150899484513326 
0.05150899484513326 
0.05150899484513326 
0.05150899484513326 
0.05150899484513326 
0.05150899484513326 
0.05150899484513326 
0.05150899484513326 
0.05150899484513326 
0.05150899484513326 
0.05150899484513326 
0.05150899484513326 
0.1527258413698482 
0.1527258413698482 
0.1527258413698482 
0.1527258413698482 
0.1527258413698482 
0.2172800629795283 
0.06455422160968015 
0.06455422160968015 
0.06455422160968015 
0.06455422160968015 
0.06455422160968015 
0.06455422160968015 
0.06455422160968015 
0.06455422160968015 
0.06455422160968015 
0.06455422160968015 
0.06455422160968015 
0.06455422160968015 
0.1230769230769231 
0.1230769230769231 
0.1230769230769231 
0.1230769230769231 
0.1230769230769231 
0.1230769230769231 
0.1230769230769231 
0.1230769230769231 
0.1230769230769231 
0.1230769230769231 
0.1230769230769231 
0.1230769230769231 
0.1230769230769231 
0.1230769230769231 
0.1230769230769231 
0.1230769230769231 
0.0761904761904762 
0.0761904761904762 
0.0761904761904762 
0.0761904761904762 
0.0761904761904762 
0.0761904761904762 
0.0761904761904762 
0.0761904761904762 
0.0761904761904762 
0.0761904761904762 
0.0761904761904762 
0.0761904761904762 
0.0761904761904762 
0.1095890410958904 
0.1095890410958904 
0.1095890410958904 
0.1095890410958904 
0.1095890410958904 
0.1095890410958904 
0.1095890410958904 
0.1095890410958904 
0.1095890410958904 
0.05787914283746282 
0.05787914283746282 
0.05787914283746282 
0.05787914283746282 
0.05787914283746282 
0.05787914283746282 
0.05787914283746282 
0.05787914283746282 
0.05787914283746282 
0.05787914283746282 
0.05787914283746282 
0.05787914283746282 
0.05787914283746282 
0.05787914283746282 
0.05787914283746282 
0.1245779645834832 
0.06669882174602033 
0.06669882174602033 
0.06669882174602033 
0.06669882174602033 
0.06669882174602033 
0.06669882174602033 
0.06669882174602033 
0.06669882174602033 
0.06669882174602033 
0.06669882174602033 
0.06669882174602033 
0.06669882174602033 
0.06669882174602033 
0.04999571954458441 
0.04999571954458441 
0.04999571954458441 
0.04999571954458441 
0.04999571954458441 
0.04999571954458441 
0.04999571954458441 
0.04999571954458441 
0.04999571954458441 
0.04999571954458441 
0.04999571954458441 
0.04999571954458441 
0.04999571954458441 
0.04999571954458441 
0.04999571954458441 
0.04999571954458441 
0.04999571954458441 
0.1438233027994403 
0.09382758325485585 
0.09382758325485585 
0.09382758325485585 
0.09382758325485585 
0.09382758325485585 
0.09382758325485585 
0.09382758325485585 
0.09382758325485585 
0.09382758325485585 
0.09567976568220933 
0.09567976568220933 
0.09567976568220933 
0.09567976568220933 
0.09567976568220933 
0.09567976568220933 
0.09567976568220933 
0.09567976568220933 
0.2226019038320492 
0.1269221381498399 
0.1269221381498399 
0.1269221381498399 
0.1269221381498399 
0.1269221381498399 
0.1269221381498399 
0.04145077720207254 
0.04145077720207254 
0.04145077720207254 
0.04145077720207254 
0.04145077720207254 
0.04145077720207254 
0.04145077720207254 
0.04145077720207254 
0.04145077720207254 
0.04145077720207254 
0.04145077720207254 
0.04145077720207254 
0.04145077720207254 
0.04145077720207254 
0.04145077720207254 
0.04145077720207254 
0.04145077720207254 
0.04145077720207254 
0.04145077720207254 
0.04145077720207254 
0.04145077720207254 
0.04145077720207254 
0.04145077720207254 
0.04145077720207254 
0.04733727810650887 
0.04733727810650887 
0.04733727810650887 
0.04733727810650887 
0.04733727810650887 
0.04733727810650887 
0.04733727810650887 
0.04733727810650887 
0.04733727810650887 
0.04733727810650887 
0.04733727810650887 
0.04733727810650887 
0.04733727810650887 
0.04733727810650887 
0.04733727810650887 
0.04733727810650887 
0.04733727810650887 
0.04733727810650887 
0.04733727810650887 
0.04733727810650887 
0.04733727810650887 
0.05228758169934641 
0.05228758169934641 
0.05228758169934641 
0.05228758169934641 
0.05228758169934641 
0.05228758169934641 
0.05228758169934641 
0.05228758169934641 
0.05228758169934641 
0.05228758169934641 
0.05228758169934641 
0.05228758169934641 
0.05228758169934641 
0.05228758169934641 
0.05228758169934641 
0.05228758169934641 
0.05228758169934641 
0.05228758169934641 
0.05228758169934641 
0.06138754845344414 
0.06138754845344414 
0.06138754845344414 
0.06138754845344414 
0.06138754845344414 
0.06138754845344414 
0.06138754845344414 
0.06138754845344414 
0.06138754845344414 
0.06138754845344414 
0.06138754845344414 
0.06138754845344414 
0.06138754845344414 
0.06138754845344414 
0.1329008780951016 
0.07151332964165745 
0.07151332964165745 
0.07151332964165745 
0.07151332964165745 
0.07151332964165745 
0.07151332964165745 
0.07151332964165745 
0.07151332964165745 
0.07151332964165745 
0.07151332964165745 
0.07151332964165745 
0.07151332964165745 
0.04302435937996608 
0.04302435937996608 
0.04302435937996608 
0.04302435937996608 
0.04302435937996608 
0.04302435937996608 
0.04302435937996608 
0.04302435937996608 
0.04302435937996608 
0.04302435937996608 
0.04302435937996608 
0.04302435937996608 
0.04302435937996608 
0.04302435937996608 
0.04302435937996608 
0.3492565643780131 
0.306232204998047 
0.306232204998047 
0.08646321961177705 
0.08646321961177705 
0.08646321961177705 
0.08646321961177705 
0.08646321961177705 
0.08646321961177705 
0.08646321961177705 
0.08646321961177705 
0.08646321961177705 
0.08646321961177705 
0.1245599014293726 
0.03809668181759548 
0.03809668181759548 
0.03809668181759548 
0.03809668181759548 
0.03809668181759548 
0.03809668181759548 
0.03809668181759548 
0.03809668181759548 
0.03809668181759548 
0.03809668181759548 
0.03809668181759548 
0.03809668181759548 
0.03809668181759548 
0.03809668181759548 
0.03809668181759548 
0.03809668181759548 
0.03809668181759548 
0.03809668181759548 
0.03809668181759548 
0.03809668181759548 
0.1087443769915184 
0.07064769517392287 
0.07064769517392287 
0.07064769517392287 
0.07064769517392287 
0.07064769517392287 
0.07064769517392287 
0.07064769517392287 
0.07064769517392287 
0.07064769517392287 
0.07064769517392287 
0.1759477093711278 
0.1053000141972049 
0.1053000141972049 
0.1053000141972049 
0.1053000141972049 
0.1053000141972049 
0.1053000141972049 
0.1790897037479509 
0.07378968955074598 
0.07378968955074598 
0.07378968955074598 
0.07378968955074598 
0.07378968955074598 
0.07378968955074598 
0.07378968955074598 
0.07378968955074598 
0.07378968955074598 
0.07378968955074598 
0.07378968955074598 
0.1951219512195122 
0.1951219512195122 
0.1951219512195122 
0.1951219512195122 
0.1951219512195122 
0.0660482846837515 
0.0660482846837515 
0.0660482846837515 
0.0660482846837515 
0.0660482846837515 
0.0660482846837515 
0.0660482846837515 
0.0660482846837515 
0.0660482846837515 
0.0660482846837515 
0.0660482846837515 
0.2652128328932646 
0.1991645482095132 
0.1991645482095132 
0.3115625063555464 
0.1123979581460332 
0.1123979581460332 
0.1123979581460332 
0.1123979581460332 
0.1123979581460332 
0.1123979581460332 
0.1029468038016587 
0.1029468038016587 
0.1029468038016587 
0.1029468038016587 
0.1029468038016587 
0.1029468038016587 
0.1029468038016587 
0.1029468038016587 
0.1635572191115231 
0.06061041530986436 
0.06061041530986436 
0.06061041530986436 
0.06061041530986436 
0.06061041530986436 
0.06061041530986436 
0.06061041530986436 
0.06061041530986436 
0.06061041530986436 
0.06061041530986436 
0.06061041530986436 
0.06061041530986436 
0.1015414952523741 
0.04093107994250973 
0.04093107994250973 
0.04093107994250973 
0.04093107994250973 
0.04093107994250973 
0.04093107994250973 
0.04093107994250973 
0.04093107994250973 
0.04093107994250973 
0.04093107994250973 
0.04093107994250973 
0.04093107994250973 
0.04093107994250973 
0.04093107994250973 
0.04093107994250973 
0.04093107994250973 
0.04093107994250973 
0.1975137607682224 
0.1565826808257127 
0.1565826808257127 
0.1565826808257127 
0.1565826808257127 
0.1565826808257127 
0.1269221381498399 
0.1269221381498399 
0.1269221381498399 
0.1269221381498399 
0.1269221381498399 
0.1269221381498399 
0.2226019038320492 
0.09567976568220933 
0.09567976568220933 
0.09567976568220933 
0.09567976568220933 
0.09567976568220933 
0.09567976568220933 
0.09567976568220933 
0.09567976568220933 
0.1403508771929824 
0.1403508771929824 
0.1403508771929824 
0.1403508771929824 
0.1403508771929824 
0.1403508771929824 
0.1403508771929824 
0.05815374718558994 
0.05815374718558994 
0.05815374718558994 
0.05815374718558994 
0.05815374718558994 
0.05815374718558994 
0.05815374718558994 
0.05815374718558994 
0.05815374718558994 
0.05815374718558994 
0.05815374718558994 
0.05815374718558994 
0.05815374718558994 
0.05815374718558994 
0.05815374718558994 
0.120424573817952 
0.06227082663236213 
0.06227082663236213 
0.06227082663236213 
0.06227082663236213 
0.06227082663236213 
0.06227082663236213 
0.06227082663236213 
0.06227082663236213 
0.06227082663236213 
0.06227082663236213 
0.06227082663236213 
0.06227082663236213 
0.06227082663236213 
0.06227082663236213 
0.1461070170379483 
0.1461070170379483 
0.1461070170379483 
0.1461070170379483 
0.1461070170379483 
0.2512015380178932 
0.1050945209799448 
0.1050945209799448 
0.1050945209799448 
0.1050945209799448 
0.1050945209799448 
0.1050945209799448 
0.1050945209799448 
0.0761904761904762 
0.0761904761904762 
0.0761904761904762 
0.0761904761904762 
0.0761904761904762 
0.0761904761904762 
0.0761904761904762 
0.0761904761904762 
0.0761904761904762 
0.0761904761904762 
0.0761904761904762 
0.0761904761904762 
0.0761904761904762 
0.05146743459342174 
0.05146743459342174 
0.05146743459342174 
0.05146743459342174 
0.05146743459342174 
0.05146743459342174 
0.05146743459342174 
0.05146743459342174 
0.05146743459342174 
0.05146743459342174 
0.05146743459342174 
0.05146743459342174 
0.05146743459342174 
0.05146743459342174 
0.05146743459342174 
0.05146743459342174 
0.05146743459342174 
0.1186201825868078 
0.06715274799338607 
0.06715274799338607 
0.06715274799338607 
0.06715274799338607 
0.06715274799338607 
0.06715274799338607 
0.06715274799338607 
0.06715274799338607 
0.06715274799338607 
0.06715274799338607 
0.06715274799338607 
0.06715274799338607 
0.06715274799338607 
0.0703487797649026 
0.0703487797649026 
0.0703487797649026 
0.0703487797649026 
0.0703487797649026 
0.0703487797649026 
0.0703487797649026 
0.0703487797649026 
0.0703487797649026 
0.0703487797649026 
0.0703487797649026 
0.0703487797649026 
0.1470210453513024 
0.07667226558639978 
0.07667226558639978 
0.07667226558639978 
0.07667226558639978 
0.07667226558639978 
0.07667226558639978 
0.07667226558639978 
0.07667226558639978 
0.07667226558639978 
0.07667226558639978 
0.07667226558639978 
0.07249546903311269 
0.07249546903311269 
0.07249546903311269 
0.07249546903311269 
0.07249546903311269 
0.07249546903311269 
0.07249546903311269 
0.07249546903311269 
0.07249546903311269 
0.07249546903311269 
0.07249546903311269 
0.07249546903311269 
0.1209924379725578 
0.04849696893944509 
0.04849696893944509 
0.04849696893944509 
0.04849696893944509 
0.04849696893944509 
0.04849696893944509 
0.04849696893944509 
0.04849696893944509 
0.04849696893944509 
0.04849696893944509 
0.04849696893944509 
0.04849696893944509 
0.04849696893944509 
0.04849696893944509 
0.04849696893944509 
0.04849696893944509 
0.04849696893944509 
0.04849696893944509 
0.06852294897958366 
0.06852294897958366 
0.06852294897958366 
0.06852294897958366 
0.06852294897958366 
0.06852294897958366 
0.06852294897958366 
0.06852294897958366 
0.06852294897958366 
0.06852294897958366 
0.06852294897958366 
0.06852294897958366 
0.06852294897958366 
0.1006362946430185 
0.03211334566343479 
0.03211334566343479 
0.03211334566343479 
0.03211334566343479 
0.03211334566343479 
0.03211334566343479 
0.03211334566343479 
0.03211334566343479 
0.03211334566343479 
0.03211334566343479 
0.03211334566343479 
0.03211334566343479 
0.03211334566343479 
0.03211334566343479 
0.03211334566343479 
0.03211334566343479 
0.03211334566343479 
0.03211334566343479 
0.03211334566343479 
0.03211334566343479 
0.03211334566343479 
0.2209692782169214 
0.1888559325534867 
0.1888559325534867 
0.1888559325534867 
0.1888559325534867 
0.32 
0.32 
0.32 
0.07079646017699115 
0.07079646017699115 
0.07079646017699115 
0.07079646017699115 
0.07079646017699115 
0.07079646017699115 
0.07079646017699115 
0.07079646017699115 
0.07079646017699115 
0.07079646017699115 
0.07079646017699115 
0.07079646017699115 
0.07079646017699115 
0.07079646017699115 
0.8888888888888888 
0.2106660719168923 
0.2106660719168922 
0.5515195003950878 
0.4058738210451378 
0.06502039256694205 
0.06502039256694205 
0.06502039256694205 
0.06502039256694205 
0.06502039256694205 
0.06502039256694205 
0.06502039256694205 
0.06502039256694205 
0.06502039256694205 
0.32 
0.32 
0.32 
0.2321542046163366 
0.2321542046163366 
0.2321542046163366 
0.2745181105685388 
0.04236390595220212 
0.04236390595220212 
0.04236390595220212 
0.04236390595220212 
0.04236390595220212 
0.04236390595220212 
0.04236390595220212 
0.04236390595220212 
0.04236390595220212 
0.04236390595220212 
0.04236390595220212 
0.04236390595220212 
0.04236390595220212 
0.04236390595220212 
0.04236390595220212 
0.04236390595220212 
0.04236390595220212 
0.06611570247933884 
0.06611570247933884 
0.06611570247933884 
0.06611570247933884 
0.06611570247933884 
0.06611570247933884 
0.06611570247933884 
0.06611570247933884 
0.06611570247933884 
0.06611570247933884 
0.06611570247933884 
0.06611570247933884 
0.06611570247933884 
0.06611570247933884 
0.06611570247933884 
0.1230769230769231 
0.1230769230769231 
0.1230769230769231 
0.1230769230769231 
0.1230769230769231 
0.1230769230769231 
0.1230769230769231 
0.1230769230769231 
0.0761904761904762 
0.0761904761904762 
0.0761904761904762 
0.0761904761904762 
0.0761904761904762 
0.0761904761904762 
0.0761904761904762 
0.0761904761904762 
0.0761904761904762 
0.0761904761904762 
0.0761904761904762 
0.0761904761904762 
0.0761904761904762 
0.0840588411888266 
0.0840588411888266 
0.0840588411888266 
0.0840588411888266 
0.0840588411888266 
0.0840588411888266 
0.0840588411888266 
0.0840588411888266 
0.0840588411888266 
0.0840588411888266 
0.1489042329631307 
0.06484539177430408 
0.06484539177430408 
0.06484539177430408 
0.06484539177430408 
0.06484539177430408 
0.06484539177430408 
0.06484539177430408 
0.06484539177430408 
0.06484539177430408 
0.06484539177430408 
0.06484539177430408 
0.06484539177430408 
0.06484539177430408 
0.07079646017699115 
0.07079646017699115 
0.07079646017699115 
0.07079646017699115 
0.07079646017699115 
0.07079646017699115 
0.07079646017699115 
0.07079646017699115 
0.07079646017699115 
0.07079646017699115 
0.07079646017699115 
0.07079646017699115 
0.07079646017699115 
0.07079646017699115 
0.1403508771929824 
0.1403508771929824 
0.1403508771929824 
0.1403508771929824 
0.1403508771929824 
0.1403508771929824 
0.1403508771929824 
0.4546735460348086 
0.4884922408543553 
0.03381869481954675 
0.03381869481954675 
0.03381869481954675 
0.03381869481954675 
0.03381869481954675 
0.03381869481954675 
0.03381869481954675 
0.03381869481954675 
0.03381869481954675 
0.03381869481954675 
0.03381869481954675 
0.03381869481954675 
0.03381869481954675 
0.03381869481954675 
0.03381869481954675 
0.8888888888888888 
0.0761904761904762 
0.0761904761904762 
0.0761904761904762 
0.0761904761904762 
0.0761904761904762 
0.0761904761904762 
0.0761904761904762 
0.0761904761904762 
0.0761904761904762 
0.0761904761904762 
0.0761904761904762 
0.0761904761904762 
0.0761904761904762 
0.1230769230769231 
0.1230769230769231 
0.1230769230769231 
0.1230769230769231 
0.1230769230769231 
0.1230769230769231 
0.1230769230769231 
0.1230769230769231 
0.1951219512195122 
0.1951219512195122 
0.1951219512195122 
0.1951219512195122 
0.1951219512195122 
0.09876543209876543 
0.09876543209876543 
0.09876543209876543 
0.09876543209876543 
0.09876543209876543 
0.09876543209876543 
0.09876543209876543 
0.09876543209876543 
0.09876543209876543 
0.09876543209876543 
0.08134081901446892 
0.08134081901446892 
0.08134081901446892 
0.08134081901446892 
0.08134081901446892 
0.08134081901446892 
0.08134081901446892 
0.08134081901446892 
0.08134081901446892 
0.08134081901446892 
0.1764242069868119 
0.09508338797234299 
0.09508338797234299 
0.09508338797234299 
0.09508338797234299 
0.09508338797234299 
0.09508338797234299 
0.09508338797234299 
0.1461066537102442 
0.05102326573790122 
0.05102326573790122 
0.05102326573790122 
0.05102326573790122 
0.05102326573790122 
0.05102326573790122 
0.05102326573790122 
0.05102326573790122 
0.05102326573790122 
0.05102326573790122 
0.05102326573790122 
0.05102326573790122 
0.05102326573790122 
0.184212982988112 
0.1331897172502108 
0.1331897172502108 
0.1331897172502108 
0.1331897172502108 
0.1331897172502108 
0.1331897172502108 
0.05517241379310345 
0.05517241379310345 
0.05517241379310345 
0.05517241379310345 
0.05517241379310345 
0.05517241379310345 
0.05517241379310345 
0.05517241379310345 
0.05517241379310345 
0.05517241379310345 
0.05517241379310345 
0.05517241379310345 
0.05517241379310345 
0.05517241379310345 
0.05517241379310345 
0.05517241379310345 
0.05517241379310345 
0.05517241379310345 
0.09478383697574606 
0.09478383697574606 
0.09478383697574606 
0.09478383697574606 
0.09478383697574606 
0.09478383697574606 
0.09478383697574606 
0.09478383697574606 
0.2298813254599086 
0.1350974884841626 
0.1350974884841626 
0.1350974884841626 
0.1350974884841626 
0.2128415345429206 
0.07774404605875801 
0.07774404605875801 
0.07774404605875801 
0.07774404605875801 
0.07774404605875801 
0.07774404605875801 
0.07774404605875801 
0.07774404605875801 
0.07774404605875801 
0.07774404605875801 
0.1951219512195122 
0.1951219512195122 
0.1951219512195122 
0.1951219512195122 
0.1951219512195122 
0.163265306122449 
0.163265306122449 
0.163265306122449 
0.163265306122449 
0.163265306122449 
0.163265306122449 
0.0635308491142195 
0.0635308491142195 
0.0635308491142195 
0.0635308491142195 
0.0635308491142195 
0.0635308491142195 
0.0635308491142195 
0.0635308491142195 
0.0635308491142195 
0.0635308491142195 
0.0635308491142195 
0.0635308491142195 
0.0635308491142195 
0.1661576053756749 
0.1026267562614554 
0.1026267562614554 
0.1026267562614554 
0.1026267562614554 
0.1026267562614554 
0.1026267562614554 
0.1026267562614554 
0.1026267562614554 
0.06575713922548775 
0.06575713922548775 
0.06575713922548775 
0.06575713922548775 
0.06575713922548775 
0.06575713922548775 
0.06575713922548775 
0.06575713922548775 
0.06575713922548775 
0.06575713922548775 
0.06575713922548775 
0.06575713922548775 
0.06575713922548775 
0.1369375476654733 
0.07118040843998559 
0.07118040843998559 
0.07118040843998559 
0.07118040843998559 
0.07118040843998559 
0.07118040843998559 
0.07118040843998559 
0.07118040843998559 
0.07118040843998559 
0.07118040843998559 
0.07118040843998559 
0.07118040843998559 
0.1230769230769231 
0.1230769230769231 
0.1230769230769231 
0.1230769230769231 
0.1230769230769231 
0.1230769230769231 
0.1230769230769231 
0.1230769230769231 
0.06746741630488624 
0.06746741630488624 
0.06746741630488624 
0.06746741630488624 
0.06746741630488624 
0.06746741630488624 
0.06746741630488624 
0.06746741630488624 
0.06746741630488624 
0.06746741630488624 
0.06746741630488624 
0.2494249936112499 
0.1819575773063637 
0.1819575773063637 
0.1819575773063637 
0.1819575773063637 
0.04754186925985835 
0.04754186925985835 
0.04754186925985835 
0.04754186925985835 
0.04754186925985835 
0.04754186925985835 
0.04754186925985835 
0.04754186925985835 
0.04754186925985835 
0.04754186925985835 
0.04754186925985835 
0.04754186925985835 
0.04754186925985835 
0.04754186925985835 
0.04754186925985835 
0.04754186925985835 
0.2333873581847841 
0.1858454889249258 
0.1858454889249258 
0.1858454889249258 
0.1858454889249258 
0.163265306122449 
0.163265306122449 
0.163265306122449 
0.163265306122449 
0.163265306122449 
0.163265306122449 
0.09336749217187801 
0.09336749217187801 
0.09336749217187801 
0.09336749217187801 
0.09336749217187801 
0.09336749217187801 
0.09336749217187801 
0.09336749217187801 
0.241389126103 
0.1480216339311219 
0.1480216339311219 
0.1480216339311219 
0.1480216339311219 
0.1480216339311219 
0.08444652031760487 
0.08444652031760487 
0.08444652031760487 
0.08444652031760487 
0.08444652031760487 
0.08444652031760487 
0.08444652031760487 
0.08444652031760487 
0.08444652031760487 
0.08444652031760487 
0.1449789817842506 
0.06053246146664578 
0.06053246146664578 
0.06053246146664578 
0.06053246146664578 
0.06053246146664578 
0.06053246146664578 
0.06053246146664578 
0.06053246146664578 
0.06053246146664578 
0.06053246146664578 
0.06053246146664578 
0.06053246146664578 
0.06053246146664578 
0.06053246146664578 
0.1230769230769231 
0.1230769230769231 
0.1230769230769231 
0.1230769230769231 
0.1230769230769231 
0.1230769230769231 
0.1230769230769231 
0.1230769230769231 
0.1095890410958904 
0.1095890410958904 
0.1095890410958904 
0.1095890410958904 
0.1095890410958904 
0.1095890410958904 
0.1095890410958904 
0.1095890410958904 
0.1095890410958904 
0.06611570247933884 
0.06611570247933884 
0.06611570247933884 
0.06611570247933884 
0.06611570247933884 
0.06611570247933884 
0.06611570247933884 
0.06611570247933884 
0.06611570247933884 
0.06611570247933884 
0.06611570247933884 
0.06611570247933884 
0.06611570247933884 
0.06611570247933884 
0.06611570247933884 
0.1403508771929824 
0.1403508771929824 
0.1403508771929824 
0.1403508771929824 
0.1403508771929824 
0.1403508771929824 
0.1403508771929824 
0.07708891704360762 
0.07708891704360762 
0.07708891704360762 
0.07708891704360762 
0.07708891704360762 
0.07708891704360762 
0.07708891704360762 
0.07708891704360762 
0.07708891704360762 
0.07708891704360762 
0.07708891704360762 
0.1423857978904652 
0.06529688084685756 
0.06529688084685756 
0.06529688084685756 
0.06529688084685756 
0.06529688084685756 
0.06529688084685756 
0.06529688084685756 
0.06529688084685756 
0.06529688084685756 
0.06529688084685756 
0.1964832835351021 
0.1311864026882446 
0.1311864026882446 
0.1311864026882446 
0.1311864026882446 
0.1311864026882446 
0.1311864026882446 
0.0761904761904762 
0.0761904761904762 
0.0761904761904762 
0.0761904761904762 
0.0761904761904762 
0.0761904761904762 
0.0761904761904762 
0.0761904761904762 
0.0761904761904762 
0.0761904761904762 
0.0761904761904762 
0.0761904761904762 
0.0761904761904762 
0.1951219512195122 
0.1951219512195122 
0.1951219512195122 
0.1951219512195122 
0.1951219512195122 
0.32 
0.32 
0.32 
0.1951219512195122 
0.1951219512195122 
0.1951219512195122 
0.1951219512195122 
0.1951219512195122 
0.4705882352941176 
0.4705882352941176 
0.1480216339590638 
0.1480216339590638 
0.1480216339590638 
0.1480216339590638 
0.1480216339590638 
0.2413891261279336 
0.09336749216886971 
0.09336749216886971 
0.09336749216886971 
0.09336749216886971 
0.09336749216886971 
0.09336749216886971 
0.09336749216886971 
0.09336749216886971 
0.07079646017699115 
0.07079646017699115 
0.07079646017699115 
0.07079646017699115 
0.07079646017699115 
0.07079646017699115 
0.07079646017699115 
0.07079646017699115 
0.07079646017699115 
0.07079646017699115 
0.07079646017699115 
0.07079646017699115 
0.07079646017699115 
0.07079646017699115 
0.08247422680412371 
0.08247422680412371 
0.08247422680412371 
0.08247422680412371 
0.08247422680412371 
0.08247422680412371 
0.08247422680412371 
0.08247422680412371 
0.08247422680412371 
0.08247422680412371 
0.08247422680412371 
0.08247422680412371 
0.4705882352941176 
0.4705882352941176 
0 
0 
0.8888888888888888 
0.32 
0.32 
0.32 
0.1403508771929824 
0.1403508771929824 
0.1403508771929824 
0.1403508771929824 
0.1403508771929824 
0.1403508771929824 
0.1403508771929824 
0.4705882352941176 
0.4705882352941176 
0.4331491714759849 
0.5127071820895169 
0.07955801061353217 
0.07955801061353217 
0.07955801061353217 
0.07955801061353217 
0.07955801061353217 
0.07955801061353217 
0.4705882352941176 
0.4705882352941176 
0.1403508771929824 
0.1403508771929824 
0.1403508771929824 
0.1403508771929824 
0.1403508771929824 
0.1403508771929824 
0.1403508771929824 
0.2747138234716549 
0.2747138234716549 
0.4162330774284052 
0.1415192539567502 
0.1415192539567502 
0.1415192539567502 
0.1415192539567502 
0.32 
0.32 
0.32 
0.0761904761904762 
0.0761904761904762 
0.0761904761904762 
0.0761904761904762 
0.0761904761904762 
0.0761904761904762 
0.0761904761904762 
0.0761904761904762 
0.0761904761904762 
0.0761904761904762 
0.0761904761904762 
0.0761904761904762 
0.0761904761904762 
0.2291950886765707 
0.2291950886765707 
0.2291950886765707 
0.2837653478853091 
0.05457025920873836 
0.05457025920873836 
0.05457025920873836 
0.05457025920873836 
0.05457025920873836 
0.05457025920873836 
0.05457025920873836 
0.05457025920873836 
0.05457025920873836 
0.05457025920873836 
0.05457025920873836 
0.05457025920873836 
0.05457025920873836 
0.32 
0.32 
0.32 
0.1951219512195122 
0.1951219512195122 
0.1951219512195122 
0.1951219512195122 
0.1951219512195122 
0.2921204355752548 
0.2921204355752548 
0.3792440744025835 
0.08712363882732864 
0.08712363882732864 
0.08712363882732864 
0.08712363882732864 
0.08712363882732864 
0.08712363882732864 
0.08712363882732864 
0.2804789999308955 
0.2804789999308955 
0.4039821088597844 
0.1235031089288888 
0.1235031089288888 
0.1235031089288888 
0.2100707031087517 
0.08656759417986283 
0.08656759417986283 
0.08656759417986283 
0.08656759417986283 
0.08656759417986283 
0.08656759417986283 
0.08656759417986283 
0.08656759417986283 
0.08656759417986283 
0.4705882352941176 
0.4705882352941176 
0.4705882352941176 
0.4705882352941176 
0.2255482074486485 
0.2255482074486485 
0.2255482074486485 
