solver_type L1R_LR
nr_class 2
label -1 3
nr_feature 531742
bias -1
w
1.630109715796124 
1.949880981971117 
0 
0.4748532921082517 
1.176807850832335 
0 
0 
0 
1.393149280001823 
2.28781186871052 
0 
0 
0 
0 
0.2846352678249723 
0 
0 
0 
0 
-0.7980521215343419 
0 
3.515302973398272 
-0.5142346115066676 
0 
0 
0.3614306195586902 
0.2158914281595146 
0 
0 
0 
0.5743299222788886 
1.835371923711024 
0 
0 
0 
1.633135776660365 
0 
0.4216807807492543 
0 
0 
0 
0 
0 
0 
1.556551857810553 
0.834697313352274 
0.7505189408722206 
0 
0.2041420515287112 
0.398351599404038 
0 
1.495679160245853 
0 
0 
0 
0 
0.698544750525076 
0 
0.05961207961748132 
0 
1.361606375262169 
0.01047148776432256 
0 
0.823019258102059 
0 
0 
0 
0 
1.268810635668815 
0.5202124490119534 
0 
0 
1.872703194066604 
0 
0 
0.622607025881219 
0 
1.008235867086892 
0.7882032982618167 
0 
0.9913004833423554 
0 
0 
0 
0.07394129556808704 
0 
0 
0.7858062646095548 
0 
0 
0.4812196144930105 
0.6219771186270824 
0.6404392843179515 
1.556622202026519 
0.1896122137816218 
0 
1.209153106277793 
0 
0.5263084288641732 
0 
0.4265916089743925 
0 
0 
0 
2.564743327205762 
1.36483655110138 
0.7472956354922893 
0 
1.513869976895655 
2.023858588352815 
0 
0 
0 
1.682311809006955 
-1.246382506910179 
0 
1.827373862513048 
1.084113893886756 
1.648805458197959 
1.525326469851301 
0 
0 
0 
0 
0 
0 
0 
0 
0 
1.19910078352391 
-1.216573326510211 
0 
0 
-0.1029667850161082 
0 
-2.320322243186824 
0 
0.8555515329451403 
0 
0.5290270940463795 
1.719655660350464 
0.50374419264151 
0.6396765278126183 
0 
0.9589887757029655 
0 
0 
0 
0.3849373385916497 
0 
1.612238004089571 
0.5988549688498309 
2.689974239380221 
0.6129006896230415 
2.870467232409315 
0 
0.1597333142867575 
0 
0 
0 
1.246081151192828 
0.4236106345100014 
0.9955147421399011 
1.458128492553017 
1.047293928406764 
0 
0 
0 
0 
0.7625726549354859 
1.646389206255911 
0 
1.67474755942064 
0 
0.08828345783752457 
-1.20147213881569 
0 
0 
0 
0.3940192275698446 
0 
0 
0 
1.605472571624922 
0 
0.2117248462992055 
0 
3.887902131304869 
0.6623356396157084 
0 
0 
0 
0 
0 
0 
1.303176467715042 
1.831616463934689 
-0.505550847387004 
0 
0 
0.08897734593717233 
0 
0 
-1.83038747874533 
0 
1.108147727668211 
1.390142968112669 
0 
0 
0 
0 
0 
0 
0 
0 
0 
-0.2499401057561133 
0 
0 
0 
0 
0 
0 
0 
1.185132706197236 
0 
1.1274369862666 
0.6076771221432655 
0 
0 
1.814999106174098 
0 
1.437690520429715 
0.8529945213775438 
0 
0.8234601953170815 
0 
0 
0.5832782289384034 
-0.2083352250415892 
0 
0 
0 
0.09927904161133731 
0 
0 
0 
0 
0 
0 
0 
1.245356573219901 
0.5331564979783622 
-0.578479423230181 
0 
2.19065051173669 
0.0233981257913244 
1.176884054317103 
0.545174945758961 
0 
0 
0 
0 
0 
1.240885608381316 
0 
0 
0.6539747828558311 
0 
0 
0.8541867258187421 
0 
0 
2.247710193230715 
0 
0 
0 
1.485414338405821 
3.14945315539498 
2.047293734557195 
0 
0 
2.229003743087154 
0 
0 
0 
0.3968348585489739 
0 
0.452766211155218 
-0.2492904655694441 
0 
0 
0 
-0.3562978798443219 
0 
0 
0 
0 
0 
0 
0 
0 
0.5826874328728642 
0.52403379046834 
0 
0 
0.3211155884695156 
0 
0 
1.801159307807046 
0 
0 
1.510194685899201 
0 
0 
0.4027864205604922 
0 
0 
0 
0 
0 
0 
0 
0 
0 
0 
0 
0 
0 
0 
0.2742010826796447 
0 
0.171152061845192 
1.572951177435917 
0 
1.073261290806387 
0 
0 
0 
0 
0 
0.822544429149651 
0 
0 
0 
0 
1.682622044685561 
0 
0 
0 
1.716009437147783 
1.83087245914307 
0.8567444069354231 
0 
0 
0 
0 
0 
0 
0.8816493777571864 
1.778898211392212 
0 
0 
0 
0 
0 
0 
0 
1.448562533733436 
0 
0 
1.061842128068991 
0 
0 
0 
0 
0 
0 
0 
-0.08266864513619809 
0 
0.6366084275452834 
0 
0 
0 
0 
0 
0.4921220121325587 
0 
0.8957431711729785 
0 
0 
-0.09623627909033078 
0 
2.371864369633334 
0 
0.2747631228069417 
2.720076683839647 
0 
0 
2.812799066871382 
0 
0 
0 
0 
1.685448048236239 
3.616193629239216 
0 
0.3190848420857815 
1.940417032451258 
0 
0 
0 
0.8685695065241318 
0 
0 
1.10703005222081 
0.681700061074381 
0.8129971764626454 
-0.6345278329105327 
0 
0 
0 
0 
1.076461328531516 
1.549950575901808 
0 
0 
0 
0.009477285307758244 
0 
0 
1.78375438952338 
0 
0.4838557483308247 
0.151873743735579 
0 
0 
0.6418837417985749 
0 
0 
0 
0 
0.6048622713391075 
0.03267960202500234 
0.5332428433682407 
0 
0 
0 
0 
0 
1.880796038914886 
0.02288344666206137 
0.5578661107476195 
0 
0.7520476961483399 
1.077347849589825 
0 
0.6604203114274605 
0 
0.9460549018367761 
0 
0 
0.9025785549855271 
0 
0 
0 
0.5409016237955053 
0 
0 
0 
0 
0 
0 
0.9219753015907666 
0 
0 
0.7004652727949439 
0 
-0.7103491725977568 
0 
1.110452899350387 
1.118667811342732 
0 
0.9812734923046921 
0 
0.9132250301494373 
0.07720329325367056 
0 
3.379094239311045 
0 
0 
0 
0 
0 
0 
0.0595942527242642 
0 
0 
3.087522720004704 
0 
0 
0 
0 
0 
0.8072733914036777 
1.286760480363222 
0 
0 
0 
1.60862742820388 
0.5170821099163447 
1.95376140846002 
0 
0 
0 
0 
0 
0 
0.7222606915894324 
0 
2.905605951492507 
0 
-0.3460491519210362 
0 
0 
1.25592121366069 
2.306210095096516 
0 
0 
1.196823901790065 
0.2988250866114165 
0 
0 
0 
0 
0 
2.225934093814869 
0 
1.482372300956669 
0 
0 
0 
0 
0 
0 
0 
0 
0 
0 
0 
0 
0.7487580097681623 
0 
0 
0.6389937877077766 
1.77219710078122 
0 
0 
0 
0 
0.7899306968721692 
0 
0 
1.478371716993211 
0 
0 
0 
0 
0 
0 
0 
0 
0 
0 
0 
2.074236699007404 
0.5893499225800687 
0.2443491926728717 
0.462095533060018 
0 
0 
0 
-1.78766841609787 
0 
0 
0 
0 
0 
0 
0.7253622338598927 
0 
0 
0 
0 
0 
0 
0 
0 
1.200915603776717 
0 
0 
0 
0 
0 
0 
0 
1.484074829622493 
0 
0 
0.04925408191769181 
0 
0 
0 
0 
0 
0 
0 
0 
0 
0 
0 
0 
0.3155324981192442 
0 
0 
0 
0.4810491435244023 
0 
0.3629582996263361 
-0.2141781790439806 
0 
0 
1.399370317637509 
0 
2.32612927347995 
0 
0 
-2.315525048477795 
0.3955825996766574 
0 
0 
0 
0 
0 
0 
0 
1.876989693369605 
1.678943036271992 
0 
0 
0 
0 
0 
0 
0 
0 
0 
0 
0 
0 
0.9683372735065244 
0 
0 
0 
2.452858240633719 
0 
1.325900627838435 
0 
0 
0 
0 
1.576216504198578 
0 
0 
0.0127569013872481 
0 
0.6103421039168669 
-0.8971004390107784 
0 
0 
1.153749050776332 
1.687219293555253 
0 
2.095864977176153 
0 
0 
0 
0 
0 
0 
0 
1.147911818452511 
0 
0.3223482062553033 
0.9042701923139433 
0.5251537704392082 
0 
0 
1.386294361119891 
0 
0 
0 
0.5912287239536885 
0 
0 
0 
0 
0.7131778401457811 
0.4414439342974538 
0 
0 
0 
0 
0 
0 
0 
0.003172267852734937 
1.69836423585247 
0 
-1.798100770275761 
0 
0 
0 
0 
0 
0 
0 
1.510837859000409 
0.2789162914116866 
0 
0 
0 
0 
1.951239533160497 
1.57881635358686 
0 
0 
0 
0 
0 
0 
0 
0 
1.200390457737973 
1.567665238140394 
2.606254864810303 
0.1836807392435231 
0 
0 
0 
0 
0 
0.3012090756429526 
0 
0.9962436344660102 
1.988734626848372 
0 
0 
0.2376457308680954 
0 
0 
0 
1.537401016962462 
0 
0 
0 
1.597503176369869 
0.6377036435345533 
0 
0 
0 
0 
0 
0 
0 
0 
0.1849151931103276 
2.624333156877998 
0 
0 
0 
0 
0 
0.3923670266121743 
0.4297906247522901 
0.005780863580497926 
0 
0.7955870005585481 
0 
1.161871016756548 
0.437695347998098 
0 
-0.849281999024426 
1.034757184148553 
0 
0 
0 
0 
0 
0 
0 
0 
0 
0.6100815617720133 
0 
2.527046642928324 
1.994684843840627 
0 
0 
0.6582707051678 
0 
0 
0 
0 
1.198338096543818 
0 
0 
0 
0 
1.494348883699784 
0 
0 
0 
0 
0.75069589786202 
0 
0 
0 
0 
0 
0 
0 
0 
1.787202177510246 
0 
0 
0 
0.2984716511873546 
0 
0.2275846037334734 
1.685127751055483 
1.673547758867125 
0 
0 
0 
0 
-0.8766667967345578 
0 
0 
0 
0 
0.8234060185214402 
0 
0 
0 
0 
0 
0 
0 
0 
0 
0 
0 
0 
0 
0 
0 
0 
0 
0 
0 
0 
0.0002326700130849449 
0 
0 
1.289015560087539 
0 
0.5423378159745879 
0 
0 
0 
0.7460974233343887 
0 
0 
0 
0 
0 
1.570828221408407 
-0.1320095558382058 
0.2661242698806401 
0 
0.5173772937878202 
0.8767163783180586 
0 
0 
0 
-0.3011328610654362 
0 
0 
1.203960483486797 
-0.7634739954364995 
0 
0 
0 
0 
0 
0.5490294971334992 
2.922641767498716 
0 
0 
0 
0 
-0.3136489662193843 
0 
0 
0 
0 
0 
0 
0.8817797029512456 
0 
1.736503373800292 
0 
0 
0 
0 
0 
0 
0 
0 
0 
0 
0 
2.08290755955738 
0.6596266586823264 
0 
1.966925408030071 
0.09163463421080539 
1.189881968169103 
0.1047777587399704 
-0.6121689826948806 
1.645891231818765 
0 
0 
0 
0.9743234075032899 
0.07567240074888429 
1.322891878383753 
0 
1.209273599467497 
0 
0 
1.385471069712264 
0 
0 
0 
0 
2.382442580369344 
-0.6964697273207504 
0 
0 
0 
0 
0.9558500382172985 
0 
0 
0 
0 
0 
0 
0 
0 
1.244990116380402 
0 
0 
0 
0 
0 
0.7066518519739197 
1.047285467248902 
1.772075778480576 
0 
0 
0 
0 
0 
1.210738338601458 
0 
0 
0 
0 
0 
-0.3333610882772488 
0 
-0.06747662606532974 
0 
0 
0.2215173145861604 
0 
0 
0 
0 
0 
0 
0 
1.667299873017319 
2.007043041076978 
-0.9912907694476197 
0 
0 
0 
0.8380878116549637 
0 
0 
0 
-0.7628802269362055 
1.700622316097736 
0 
0 
1.580444012759612 
-1.311656202739009 
1.448131561248571 
0 
0 
1.143334207463117 
0 
0.9727058849638369 
0 
0.6488823388411822 
0 
0 
0 
0 
0 
0 
0 
0 
0 
0 
0 
0.4779901460829701 
-0.1262100232334485 
0 
0 
0.7863463170236926 
0 
0 
0 
0 
0 
0 
-0.1776682478805477 
0 
0 
0.4827434173052113 
0.1838263930929612 
0 
1.660394465323416 
0 
0 
0 
0 
0 
0 
1.077580948439419 
0 
0 
0 
0 
0 
0 
0 
0 
0 
0 
0 
0 
0 
0 
0.09772800769853762 
2.645206481628792 
0 
0.8780330534961989 
0 
-0.01686421360209298 
2.311024192071072 
1.043605514091503 
0 
0 
0 
-0.4701922945597349 
0 
0 
2.113396825204577 
1.227844827414686 
0 
0 
0 
0 
0 
1.44515157835174 
0 
0 
0.07631393426380126 
0 
0 
0 
0 
0.04536076702160761 
0 
0 
0.6024399179708043 
-0.5975324799019259 
1.698129414028453 
0 
0 
0 
1.688409979811633 
0.1501520191527948 
0.3883756988163857 
0 
0 
0 
0 
0 
0.351414305244316 
0 
0 
0 
0 
0 
0 
0 
0.4042632117825551 
0 
0 
1.477215904276645 
0 
1.110132188193356 
0 
0 
0 
0 
0 
0 
0 
0 
0 
0.6738134071467689 
0 
0.4555149617858075 
0.3165233016846654 
0 
1.669957978737474 
0 
0 
0 
0 
0 
0 
0 
2.557258344526773 
0 
-0.4516355247117625 
0 
1.09397936895528 
0 
0.3294626904113243 
0 
0.1505335649212874 
0 
0 
0 
0 
0 
1.434326069657643 
0 
0.6521728222202814 
0 
0 
0 
0 
0 
0 
0 
0 
0 
0 
0 
0 
0 
1.666203871452901 
0 
0 
0 
0 
0 
0 
4.218964655446104 
-3.136840617207068 
0 
0 
0 
0 
0 
2.124808686513134 
0 
0.06026325687064174 
0 
0 
1.636574024745822 
0 
0 
1.616314183585545 
0 
0 
0 
0.9160811062747198 
0 
0 
0 
0.2669195987446668 
0 
0.8205193231351974 
0 
0 
0 
1.71672267040841 
-1.822562844764209 
0 
0 
0 
0.6419301421624544 
0 
0 
2.264774150956749 
0 
0 
0 
0 
0 
0 
0 
2.400853298694914 
0 
0 
0 
0 
0 
0 
0 
0 
0 
0.9286117338545161 
0 
1.196988069402387 
0 
0 
0 
0 
-0.8968998942745482 
0.06487678904890375 
1.183940535557214 
0.1439808421697882 
0 
0 
0 
0 
-0.735495508933367 
0 
0 
0 
0 
0 
0 
-0.2647760268258196 
0.990494178732008 
0 
-1.0468322933906 
0 
-0.6014727410095271 
0 
0 
0 
0 
0.6940299906981385 
0.457911304485046 
0 
-0.1020186272593127 
0 
0.6770290961856904 
0 
0 
0 
1.233197093245256 
0 
0.5289943972205897 
2.708197800764741 
0 
0 
0 
0 
0 
0 
1.121764506397394 
0 
1.623075829827658 
0 
0 
0 
0 
0 
-0.1207657224940172 
0 
0 
1.105711212796541 
0 
0 
0 
1.195311876588788 
0 
0.8464446666035494 
0 
0.8539309712243548 
0 
0.4266054247839055 
0 
0 
0 
0 
0 
0.3272674637556215 
0 
0 
0 
0 
1.890892791533263 
0.4168944332903899 
0.1120758963283296 
0 
0 
0 
1.389168847822683 
0 
1.972264792126078 
0 
0 
0 
1.454847898715689 
0 
0 
0 
0 
0 
0 
0.784542191997791 
0 
0 
0 
0 
0 
0 
0 
0 
0.5573870616537049 
1.565772415598516 
0 
0 
0 
0 
0 
1.417041429320613 
0.1506735993328058 
0 
0.2586100105295479 
0 
0 
0 
0.7533081890207324 
0.1468800533698533 
1.509591921941729 
0 
0 
0 
0 
0.6075629889986965 
0.03330170509694887 
0 
0 
0 
0 
0 
0 
0 
1.026737891716792 
0 
0 
0 
0.8697180425214791 
0 
0 
0 
0 
-1.452374112179728 
0 
0 
1.913071541987908 
0 
0 
1.407208512729043 
0 
0 
0 
0 
-1.383503345011586 
0 
0 
0.7067314833932599 
0 
0 
0 
0 
0.1900951301991546 
0 
0 
0 
0 
0 
0 
1.210546772910809 
0 
4.050296141000194 
0 
1.732364343922319 
0 
0 
0 
0 
0 
0 
0.03313469148578067 
0 
-0.8403418679716714 
0.747102737893321 
0 
0.7230052059208526 
0 
0 
0 
0 
0 
0 
0 
0 
1.064080313729958 
0 
0.3764306361454538 
0 
0.04686345425026609 
0 
0.5813829530806858 
0 
0 
0 
0 
0 
0 
0 
0 
0 
0 
0.1420722252783489 
0 
0 
0 
0 
0 
1.887089422185784 
0 
0.6635986023429605 
0 
0.7819416369395967 
1.783931117256879 
2.235753577857478 
0 
0.3065839966542056 
0 
0 
0 
0 
0 
0.005997497829763038 
0 
0 
0.2024765711529389 
0 
1.680114646548192 
0 
0 
0.9188545486479255 
0 
0 
0 
0 
1.006641512931954 
0 
0 
0 
0 
0 
0.07448901107148412 
0 
0 
0 
0 
0 
0 
0 
0 
0 
0.6049593210527712 
0 
0 
0 
0 
0 
0 
0 
0 
0 
1.621564861149475 
0 
0 
0 
0 
1.773160100862466 
0 
0 
0 
0 
0 
0 
0 
0 
0 
0 
0 
0 
0 
0.8318193044359338 
0 
2.462930901936253 
1.923141562421371 
0.02119695312669399 
-0.2630648596980848 
0 
0 
0.600822122502099 
0 
0 
0.8514327511257053 
0 
0.8747031145464449 
0 
1.156780490114948 
0 
0 
0 
0 
0 
0 
0 
0 
0 
0.7111349537373104 
0 
0 
0 
0 
0.2207921483934039 
0 
0.5278423531989671 
1.402222096497109 
0 
0 
-2.130781039449585 
-0.5477815481908477 
0 
-1.285897962534432 
0 
0 
0 
0 
0 
0 
0 
0.3725046678391198 
0 
0 
0 
0 
0 
0 
0 
0 
1.208041355716626 
0 
0 
1.372034146788468 
0 
-1.456760434278984 
0 
0 
0.4264880556420015 
0 
0 
0 
0 
0 
0.8999969604422342 
0 
0 
0 
0 
0 
0 
0 
0.5865166681386688 
0 
0 
0 
0 
1.612886241802499 
0 
0 
0 
0.327319326307097 
0 
0.5910475553409592 
1.707556158004465 
0 
0 
0 
0 
0.6805201002131044 
0 
0 
0 
0 
0 
0 
0 
-0.2212196574272472 
0 
0 
0 
0 
0 
1.728321153799911 
0 
0 
0 
0 
0 
0 
0 
1.246363965230582 
0 
1.40335104042982 
0 
0 
-0.3102911066289641 
0 
0 
0.4840805013575937 
0 
0 
0 
0 
0 
0.6812855581540709 
0 
0 
0 
0.01655239335359106 
0 
0 
1.191632104566787 
0 
0 
0 
0.986754551005966 
0 
0 
0 
0 
0 
0 
0 
0 
0 
0.8074252791986376 
0 
0.9826356203290963 
0 
0 
0 
0 
0 
0 
0 
0.9094249858204478 
-0.8177158401443303 
0 
0 
0 
0 
1.128978256657592 
0 
0 
0 
0 
0 
0 
0 
0 
0 
2.265789632544793 
4.1411174320533 
0 
0.1922735397682685 
0 
0 
0 
1.010844900992209 
0.1763006861949408 
0 
0 
0 
0 
0 
0 
1.289460320826966 
0 
0 
0 
0 
0.06641757725352021 
0 
0 
0.4688503286037685 
0.7321206653387325 
0 
0 
0 
0 
0 
0 
0 
0 
0 
0 
0 
0 
2.124557939387401 
1.040789502328222 
0 
0 
0.9240458382239556 
0.841588090542545 
0 
0 
0 
0.2138795514900486 
0 
1.992147992051441 
0 
0.4220448954914451 
0 
0 
0 
0 
0 
1.979889484625631 
0 
0 
1.213568665342982 
0.5216461965911513 
0.5904582174069831 
0 
0.6348229996311673 
0 
0 
0 
2.479325527313554 
0.265312415099396 
0 
0 
-0.2906267482681772 
0 
0 
0 
-0.4304946734650595 
0 
0 
0.2423508509932388 
0 
0 
1.995445751619252 
0 
0 
1.685866215905337 
2.599264537799511 
0 
0 
0 
1.023821720295503 
0 
0 
3.366718259622886 
0.06264152933319765 
2.545338074024164 
0 
-0.2991590480854529 
0 
-0.7761930902144825 
0 
0 
0 
0 
0 
0 
0.2155709192842519 
0 
0 
0 
0 
0 
-0.3941619871814914 
0 
0 
0 
0 
0 
0 
0 
0 
0.1703904085682077 
0 
0 
0.7166791682335233 
0 
1.974816339654333 
0 
0 
0 
0 
0.3589305977627633 
0 
0 
0 
0 
0 
0 
0 
0 
0 
1.155150827989589 
0 
0 
0 
0 
0 
0 
0 
0 
0 
0 
0 
1.210548106940239 
0 
0 
0 
0 
0 
0 
0 
0 
0 
0 
0.3808220214961099 
0.3576806473425199 
0 
0 
0 
0 
0 
0 
0 
2.275455142627488 
0 
0 
0 
0.5227761193039042 
0 
0 
0 
0 
0 
0 
0 
0 
0.7636490514021762 
0 
0 
0.9984619730694564 
0.6806035254143538 
0 
-0.7698546757181297 
0 
1.203157092682132 
0 
0 
0 
-0.3576966224399478 
0 
0 
0 
0 
0 
0 
0 
0 
0.8588990826916334 
0 
0 
0 
0 
0 
0 
0 
0 
0.8774417703995647 
0 
1.274402056786084 
0 
0 
0 
1.046167454434296 
0 
0 
0 
0 
0 
0 
0 
0 
-0.1482556875741909 
0 
0 
0.4723211370781827 
0 
0 
-0.3344850886328967 
1.888143174130415 
0 
0 
0 
0 
0 
0 
2.741666469120856 
0.6827423937760332 
0 
-0.2382079989110438 
-0.07109568468839544 
0 
0.472957334597861 
-0.1069762424842087 
0 
0 
0 
0 
0 
0 
0 
0 
0 
0.2198559107893149 
0 
0 
0 
1.76242114067012 
0 
0.4642804248265195 
0 
0 
0 
0 
0 
0 
0 
1.03756485722674 
0 
0 
0 
0 
0 
0 
0 
0 
0 
0 
0 
0 
0 
0 
0 
0 
0 
0 
2.678428492924624 
0 
0 
0.03115397289390842 
0 
0 
0 
0 
2.49547561760603 
0 
0 
0 
0 
0 
0.8561915185141473 
1.386294361119891 
0 
0 
1.948693828446618 
0 
0 
0 
0 
0.9217448279308427 
0 
0 
0 
0 
0 
-0.6688929375877088 
0 
0 
0 
0 
0 
0 
0.8334254787023001 
0 
0 
0 
1.637823130466799 
0 
0 
0 
0 
0 
0 
0 
0 
0 
0 
0.1355847505173369 
0 
0 
0 
0.06446960276407594 
0 
0 
0 
0 
0 
3.194592423043507 
1.386294361119891 
0 
0 
0 
0 
0 
1.386294361119891 
1.386294361119891 
0 
0 
0 
0 
0 
0 
2.650290633155391 
0.2637171202269116 
0 
0 
0 
0 
0.2867704326940064 
0 
0 
0 
0 
1.403913598775744 
0 
1.870664151453964 
0 
2.181785256130241 
0 
0 
0 
0 
0 
0 
0 
0 
0 
0 
0 
0 
0 
0 
0 
0 
0.08355702826315752 
0 
0 
0 
0 
0 
0 
0 
0 
0.6920946881924364 
0 
0 
0 
-0.1176954462497061 
0 
0 
1.2272397778385 
-1.865251645052952 
0.8135070903457662 
0 
0 
0 
0 
0.08283666236685032 
0 
0 
0 
0 
0 
0 
0.411545033669901 
0 
0 
0 
0 
0.9565603326544898 
0 
0 
0 
0 
0 
0 
-1.37637862524401 
0.7478805746128135 
1.87322245749742 
0 
0 
0.2521517927510075 
0 
0 
0 
0 
0 
0 
0 
0 
2.907829343225347 
0 
0 
0.5472124710661562 
0.9128212263328845 
0 
0 
0 
0 
0 
0 
0 
0 
0 
0.3893885075548335 
0 
0 
0.544844746833263 
0.4314296385594852 
1.053984917637712 
0 
0 
0 
0 
-0.3381394102212263 
1.284747092023574 
0 
0 
0 
0 
0 
2.737066383529091 
2.94018579209464 
1.212059346345811 
0 
0 
0 
0 
0 
0 
0 
0 
0 
0 
0 
1.957799246196076 
0 
1.79064798127688 
0 
0 
0 
0 
-0.172055218938927 
1.845200161672008 
1.05701006577543 
0 
0 
0 
0 
-0.7420547778562759 
0.6028132221317468 
0 
0 
0 
0.06172754820695458 
0 
0 
0 
0 
0 
0 
0 
0 
0 
0.7909492738291876 
0 
0 
0 
0 
0 
0 
0 
1.175654191014802 
0 
1.325903754093241 
0 
0 
0 
0 
0 
0 
0 
0 
0 
0 
0 
0 
0 
0 
0 
0 
0 
1.706302857349894 
0 
0.6763670311823223 
0 
0 
0 
3.394993692827045 
0 
0 
0 
0 
0 
0 
0 
0 
0 
1.484134887444026 
2.831685612236057 
0 
0 
0 
0 
0 
0 
0 
0 
1.821913163489059 
0 
1.202426292141215 
0.3956459646536606 
0 
0.4903251632443272 
1.413587432986519 
0 
-0.6693260921049593 
0 
0 
0 
0.2845147727563952 
0 
0 
0 
0 
0 
0 
0 
0 
0 
0 
0 
0 
-1.310198124518106 
0 
0 
0.6650138740389336 
0 
0 
0 
3.293981186967498 
0 
0 
0 
0 
0 
0.558305435983472 
0 
0 
0 
0 
0 
0 
0 
2.338535917239057 
0 
0 
0 
0 
0 
0 
0 
0 
0 
0 
0 
0 
1.329595138709831 
1.229701959023678 
0 
0 
0 
0.3437358608651232 
0 
0 
0 
0.4325097253683836 
0 
0 
0 
0 
0 
-1.248734997594589 
0 
0 
0.9776824284767724 
0.2086207168920611 
-0.4967543980995965 
0 
0 
1.091914392092457 
0 
0 
0.8180934859481934 
0 
0 
0 
0 
0 
1.857216268732228 
0 
1.412418646674141 
0 
0 
-0.3735265120611141 
0 
0 
2.797033263633968 
0 
0.5721437246042865 
0 
0 
0 
0 
0 
0 
0 
0 
0 
0 
0 
0 
0 
0 
1.599433708222462 
0 
0.6163933392768656 
0 
0 
0 
0 
-1.086009701392836 
0 
0 
0 
0.6529847366115514 
-0.5140075504802205 
0.3348393857415317 
0 
0 
0 
0 
0 
0 
0 
0 
0 
0.2248916015747839 
0 
0 
0 
0 
0 
0 
0 
0 
0 
0 
1.653552145094701 
0 
0 
0 
0 
0 
0 
0 
0 
0 
0 
0 
0 
0 
0 
0 
0 
0 
1.475132344989952 
0 
0 
0 
0 
0 
0 
0 
0 
0 
0 
0.186134030307629 
0.5747972167300841 
0 
0.3161856506297803 
0 
0 
0 
-0.2571394595884572 
0 
0 
0 
0 
0 
0.2655693409534527 
0 
0 
0 
0 
0 
0 
0 
0 
0.6234330839850097 
0 
0 
0.4202735636907404 
0.8145984738848628 
0 
0 
0 
0 
0 
0 
0 
-0.4852639266071797 
0 
0 
0 
0.8705497395881515 
0 
0 
0 
0 
2.660913073444916 
0 
0 
0 
0 
0 
0 
0 
0 
0 
0 
-0.1864317971404532 
0 
0 
0 
0 
0 
0 
0.1619407634452405 
0 
0 
0 
0.08513648785822542 
0 
0 
0 
1.146201529845659 
0 
0 
0 
0 
0 
0 
0 
1.080610156327352 
0 
-0.7081410382605942 
0 
0 
0 
0 
0.9834808204030623 
0.6888220823371223 
0 
0 
0 
0 
0 
1.537111787863469 
0 
0 
0 
3.302544719598791 
0 
0 
0.4394150479151549 
0 
0 
0 
0 
0 
0.4560868136252542 
0 
0 
0 
0 
0 
0 
0.5314244703196159 
0 
-0.3550735006451616 
0 
0 
0 
0 
0.9040508343105303 
0.5300173212878098 
0 
2.366202131121271 
-0.1681386575051031 
1.023742652549838 
0 
0 
0 
0 
0 
0.6714210776451803 
0 
0 
0 
0 
0 
0 
0 
0 
0 
0 
0 
1.018006054219409 
0 
0 
0 
-0.128292828993627 
0 
0 
-0.2441240992660098 
0 
0 
0 
0 
0 
0 
0.04231040004020673 
0 
0 
0 
0 
0.2794635926231827 
-1.213936802707576 
0 
0 
0 
0 
0 
0 
0 
0 
0 
0 
0.621194588134855 
0 
0 
0 
0 
0 
-0.4849119677521194 
0 
0 
0 
1.039567035787851 
0 
0 
0 
0 
0 
0 
0 
2.254116414937918 
0 
0 
0 
0 
0 
0.4821531041930277 
1.472920174723372 
1.740609753103821 
0 
0 
1.957750252278365 
0 
0 
0 
0 
0 
0 
0 
0 
0 
0.5862762049483898 
0 
0 
0 
0 
0 
0 
1.111074297563651 
1.309841774835562 
-0.6229545527945008 
0 
0 
1.921516415761842 
0 
0 
-0.4499088017653895 
0 
0 
0 
0 
0 
0 
0 
0 
0 
0 
0 
-0.1313236359243892 
0 
0.5619975128505096 
0 
0.008968540641513712 
0 
0 
0.7313156509466987 
0 
0 
-0.08082585020954884 
0 
0 
0 
0 
0 
0 
0.722995394978691 
0 
0 
0 
0 
0 
0.5100158631919329 
0.4188487524688211 
0 
0 
0 
0 
0 
0 
0.481363160985353 
0.9324631964614285 
0 
1.300916786992933 
0 
0 
0 
-1.598575084113511 
0 
0 
0.6000077139486182 
0 
0 
0 
0 
0 
0 
0 
0 
0 
0 
0.5285096908039264 
0 
0 
0.2962078486927737 
0 
0 
1.290318506514441 
0 
0 
0 
0 
0 
-0.01356151648640635 
0 
0 
0 
2.188160193507615 
0 
0 
0 
0 
0 
0.6608124295655955 
0 
0 
2.362472420085743 
0 
0 
0 
0 
0 
0 
0 
0 
0.4415981581699874 
0 
0 
0 
0 
0 
0 
0.8066743321051414 
0 
0 
0 
0 
0 
0 
0.9090049468543898 
0 
0 
0 
-0.9242478258483573 
0 
0 
0 
1.234299870736773 
1.295636814786176 
0 
0.4307256042526156 
0 
0 
0 
0 
0 
0 
0 
0 
0 
1.793127091006245 
-1.132294842401591 
0 
0 
0 
0 
0 
0 
0 
0 
0 
0 
0 
0 
0 
0 
0 
0 
0 
0 
0 
0.3821214932359602 
0 
0 
0 
0 
0 
0.7869068804371891 
0 
0 
0 
0.6422753680443565 
0 
0 
1.157529230011227 
0 
0 
0 
0 
0 
0 
0 
0 
0 
0 
0 
0 
0 
0 
0 
0 
-1.600538304447949 
0 
0 
2.114457801014709 
0 
1.842700554912294 
0 
0 
0.3274127568766266 
0 
0 
0 
0 
0 
0 
0 
0 
1.138913448539004 
0 
0 
1.429405846753281 
0 
0 
2.101849408602634 
0 
0 
0 
0 
0 
0 
0 
0 
0 
0 
0 
0.6865796122440264 
0 
0 
0 
0 
0 
1.792665297482958 
0 
0 
0 
0 
0.2951842102999242 
0 
1.780725030115485 
0 
0 
0 
0 
0 
0 
-1.108782367130507 
0 
0 
0 
0 
0 
1.430820087525592 
0.4487024614436689 
0 
0 
0 
0 
0 
0 
0 
0 
0 
0 
0 
0 
0 
0 
0 
0 
0 
0.7782946633309568 
0 
0 
0 
0 
0 
0 
0 
0 
0 
0 
0 
0 
0 
0 
0 
0 
2.45456858694937 
0.09548462875873256 
-0.5856965865262775 
0 
0 
0 
0 
0 
0 
0 
-0.2271948764795572 
0 
0 
0 
0 
0 
0 
0 
0 
0 
0 
0 
0 
0 
0 
0.2074357729009407 
0.234265419548176 
0 
0 
0 
0 
0 
0 
0 
0 
-0.8496918927277762 
0 
0 
0 
2.519143605440084 
0.7611262586777929 
0 
0 
0 
0 
0 
0 
0 
0 
0 
0 
0.602629244468326 
0 
0 
0 
0 
-2.883437097516365 
0 
0 
0 
-0.9960770544912954 
0.7404423140473866 
0 
0 
0.4635142303549321 
0 
0 
0 
-0.4113627483020358 
0 
0 
0 
0 
0.07915489856064051 
0 
0 
0.2226252868599099 
0 
0 
0 
0 
0 
0.3797379610218405 
0 
-1.43319697590339 
0.4920272106436244 
1.277746912635444 
0.6468816488225668 
0 
0 
0 
0 
0 
-2.776631368081212 
0 
3.184482053756617 
-0.4869576737517056 
0 
0 
1.298731456943887 
0 
-0.06499389422772509 
0 
1.561145538013118 
0 
0 
0 
0 
0 
0 
-0.6535226464460757 
0.2637750296313518 
0.1305874854295284 
0 
0.6317475666060124 
-0.6837638293693447 
0 
0 
0 
0 
2.051792960278261 
0.5268156421369767 
0.9813379994372492 
0 
-0.2330767945191806 
0 
0 
0.4778249375115327 
0 
0 
0 
0 
0 
0 
0 
0 
0.8287118444766791 
1.571315497228901 
0 
-0.2719685092670052 
0 
0 
0 
0 
2.253501105589145 
0 
0 
0 
0 
0 
0 
0 
0 
1.06187907279308 
0 
0 
0 
0.6361611266880405 
0.1619265902591328 
0 
0 
1.958538952076119 
0 
0.5691699490656171 
0 
1.597989549702807 
0 
0 
0 
0 
0 
0.8742719970070834 
-0.377507870894241 
0.885945295171309 
0 
0.5553728847272058 
0 
0.05906446265351537 
0 
0 
0 
0 
0 
0 
0.4906398854604248 
0 
0 
0 
2.087761611673134 
0.06261728843704907 
1.123643688800267 
1.146317242197434 
0 
0.891740494641611 
0 
0 
0.7934453139660042 
0 
0 
0 
0 
0 
0 
0 
0 
0 
0 
0 
1.086655281428303 
0 
0 
0 
0 
0 
0 
0.857655793951099 
0.7572664032464489 
0 
0 
0 
0.6792262635183204 
-1.008932187748219 
1.481383361100852 
0 
0 
0 
0 
0 
0 
0 
-0.3998486612324663 
0 
0 
0 
0 
0 
0 
0 
0 
0 
0.1824670058369893 
0 
0 
0 
2.09609184875822 
0 
0 
0.4603273558925613 
0 
0 
0 
0 
0 
0 
0 
0 
1.023308211745704 
0.1968489031554599 
0 
0 
0 
0 
0 
0 
0 
0 
0 
0 
0 
-0.4548666141848278 
3.330742752785974 
0 
0.5999577676561791 
0 
0 
0 
0.5683491973989765 
0 
0 
0 
0 
1.145324681528816 
0 
0.5849751731617506 
0 
0 
0 
0 
1.865257602486325 
0 
0 
0 
0 
0 
0 
2.093772549132776 
0 
0 
0 
0 
0 
0 
0 
0 
0 
0 
0 
0.234615786137264 
0.2480489084254459 
0 
0 
0 
0 
2.459821968172987 
0 
0.3487724231891789 
0 
0 
0 
0 
0 
0 
1.617964733872729 
0 
0 
0 
-0.4639926230486544 
0 
0 
0 
0 
2.241498313206166 
0 
0 
0 
0 
0 
0 
0 
0 
0 
0 
0 
0 
0 
0 
0 
0 
0 
0.005283216238244683 
0 
0 
0 
0 
0 
0 
0 
0 
0 
0.3067964639830014 
-0.1836220011681585 
0 
0 
1.005084305981224 
-0.3173800364031761 
0 
0 
0 
0 
0 
0 
0 
0 
0.8264698518486486 
0 
0 
0 
0 
0 
0 
0 
0 
0 
0.1401252241697335 
0 
0 
-0.6434107116708545 
0 
0 
0 
0 
0 
0 
0.3865596888779409 
1.162748197111624 
0 
0 
0 
0 
0 
0 
0 
0 
0 
0 
0 
0 
0 
0 
0 
0.7454314967829558 
0 
0 
0.7607374870438086 
0 
2.107106995469134 
0 
0 
0 
0 
0 
0 
0 
0 
0 
0 
0 
0 
0 
0 
-0.560220879815295 
0 
0 
0 
0 
0 
0 
0 
0 
0 
0 
0 
0 
0 
0 
0 
0 
1.075745553409882 
0 
0 
0 
0 
0 
0.8162498562118737 
0 
-0.7652678524018302 
0 
0 
0 
0 
0 
0 
0 
0 
0 
0 
0 
0 
0 
1.029880711733729 
0.8490104521623191 
0 
1.767698788541957 
0 
-0.192869214441867 
0 
0 
0 
0 
0 
0 
-0.4912225731946377 
0 
0.7905875707703813 
0 
0 
1.688107542077419 
0 
0 
0.8127526217314829 
0 
0 
0 
0 
0 
2.11220420315813 
0 
0 
0 
0 
0 
0 
0 
0 
0 
0 
0 
0 
0 
1.622374666049016 
0 
0 
0 
0 
0 
0 
0 
0 
0 
0 
0 
0 
0 
0 
0 
0 
0 
0 
0 
0 
0 
0 
0 
0 
0 
0 
0 
1.80355183616284 
0 
0 
0 
0 
-0.5767823044170345 
0 
0.6245695276623962 
0 
0 
0.6599627769985082 
0 
-0.5056748042199379 
0 
0 
1.445716151235046 
0 
0 
0 
0 
0.9068523506811164 
0.4296855115519098 
0 
0 
0 
0 
0 
0 
0 
0 
1.966033170400892 
0.02935632850535891 
0.6873044795497966 
0 
-0.9936867254199707 
0 
0 
0 
0.001142082106898781 
0 
0 
0 
-0.04713650763142198 
0 
0 
0 
0.6975370563858967 
0 
0 
0 
0 
0 
0 
0 
0 
0 
0 
0 
0 
0 
0 
0 
0 
0 
0 
0 
0 
0.3005242358479669 
0 
0 
0 
0 
0 
0 
0 
1.937500275231494 
0 
0 
-1.119194828006409 
-0.9507396123866605 
0 
0 
0 
0 
0 
0 
0 
0 
0 
0 
0 
0 
0 
0 
1.386294361119891 
0 
0 
0 
0 
1.586380953467217 
-1.057217025370726 
0 
0 
0 
0 
0 
0 
0 
0 
0 
0 
0 
0 
0 
0 
0 
0 
0 
0 
0 
0 
0.4594984591627239 
0 
0 
0 
0 
0 
0 
0 
0 
-1.284608765891549 
0.9515700574288658 
0 
0 
0 
0 
0 
0 
0 
0 
0 
0.7301011121081379 
0 
0 
0 
1.291307000147238 
0 
0 
0 
0 
0 
0 
0 
1.914263305986979 
0 
0 
0 
0 
0 
0 
1.182345680477079 
-0.1956370120832804 
-0.7109367362536961 
0 
0 
0 
0 
0 
0 
0 
0 
-0.1791992949922342 
0 
0 
0 
0 
0 
1.851852411238011 
0 
0 
0 
0 
0 
0 
0 
0 
0 
0 
1.160461236361273 
0 
0 
0 
0 
1.498710401642619 
0 
0 
0 
0.8788555553833777 
0 
0 
0 
0 
0 
0 
0 
0 
0 
0 
0 
-1.872190046931955 
0 
0 
0 
0 
0 
0.7504387025830562 
0 
0 
0 
0 
0 
0 
0.8270021221864273 
0 
0 
0 
0 
1.023636188215161 
0 
1.595919512516722 
0 
0 
0 
0 
0 
0 
0 
0 
0 
0 
0 
0 
0 
0 
0 
0 
0 
0 
1.97512294903018 
0 
0 
0 
0.7164423337141779 
0 
0 
0 
0 
0 
0 
0 
0 
0 
0 
0 
0 
0 
0.3491984055861231 
1.898678598673423 
0 
0 
0 
0 
0 
1.20668828545595 
0 
0 
-0.4250864186831946 
0 
0 
0.9379476940483705 
0 
0 
0 
0 
0 
0 
0 
0.4166492878995127 
0 
0 
0 
0 
0 
0 
0 
0 
0 
1.215434097013412 
0 
0.555961355064037 
0 
0 
0 
1.509460509790341 
0 
0 
0 
0 
0 
0.7583655805382812 
0 
0 
0 
0 
0 
0.5840096205630833 
0 
0 
0 
0 
0 
0 
0 
0 
0 
0 
0 
0 
0 
0 
0 
0 
0 
0 
0 
0 
0 
0 
0 
0 
0 
-0.05600293411821723 
0 
0 
0 
0 
0 
0 
0 
0 
0.9153288760849868 
0 
0 
0 
0 
0 
0 
0 
0 
0 
0 
0 
0 
1.441140881288259 
0 
0 
0 
0 
0 
0.8043642687479094 
0 
0 
0 
0 
0 
0 
0 
0 
0 
0 
0 
0 
0 
0 
0.892297793090873 
0 
0 
0 
0 
0 
0 
0 
0 
0 
0 
0 
0 
0.3083795508964148 
0 
0 
0 
0 
0.005396244127690611 
0 
0 
0 
0 
0 
0.5873649700549322 
0 
0 
0 
0 
0 
0 
0.4250737254232069 
-1.286236946967172 
0 
0 
0 
0 
0 
0 
0 
0.999006887163845 
0 
0 
0 
0.3733606556364295 
0 
0 
0 
0 
0 
0 
0 
0 
0 
0 
0 
0 
0 
0 
0 
0 
0 
0 
0 
0 
0 
0 
0 
0 
0 
0 
0.8866002411527982 
0 
0 
0 
1.369822484011248 
0 
1.388434709267258 
0 
0.5819300923720423 
0 
0 
0 
1.794604033143768 
0.7849090985905615 
1.954961932798096 
0 
0 
0 
0 
2.908783342054295 
1.288284883260451 
0 
0 
0 
0 
0 
0 
0.8269165231883754 
0 
0 
0 
0 
0 
0 
0.5185161722426749 
0 
0.7489401892092081 
0 
0 
0 
0 
0 
0.1063517226208976 
0 
2.041591084832375 
0 
1.209294455101652 
0 
0 
0 
0 
0 
0 
0 
0 
0 
0 
0 
2.186300765135421 
0 
0 
0 
0 
0 
0 
0 
0 
0 
0 
0 
0 
0 
0 
0 
0 
0 
0.3346747422568872 
0 
0.009336216495240258 
1.376958144624651 
0 
0 
2.653677826680437 
0 
0 
0 
0 
0 
0 
1.727599098887462 
0 
0 
0 
0 
0 
0 
0.8692613649663421 
0 
0 
1.443211598803405 
0 
0 
0 
0 
1.440484128220042 
0 
0.7968434532097917 
0 
0 
0 
0 
0 
0 
0 
0 
0 
0 
0 
0 
0 
0 
0.03160530851017571 
0 
0 
0 
0.5108525178393456 
0 
0 
0 
0 
0 
1.567233762616431 
0 
0 
0 
0 
0.7031453141623397 
0.04571549310213967 
0 
1.38626742569789 
0 
0 
0 
0 
0 
0 
0 
0 
0 
0 
1.54591607006714 
0 
1.475274939269292 
0 
0 
0 
0 
0 
0 
0 
0 
0 
0 
0 
0 
2.449463693320239 
0 
0 
-2.44031843446413 
0.8374709398611286 
0 
0 
0 
0 
0 
0.8827744601776366 
0 
2.150151551987542 
0 
-1.633292540397783 
0 
1.478465555400607 
0 
0 
0 
0 
0 
0 
0 
0 
0 
0 
0 
0 
0 
0 
0 
0.794626063701679 
0 
0 
0 
0 
0 
0 
0 
1.101232486023575 
0 
0 
0 
0.288409546067464 
2.385707675142247 
0 
0 
0 
0 
0 
-0.170978838229739 
0 
0 
0 
0 
0 
0 
0 
0 
0 
0 
0 
0 
-0.08018471376880852 
0 
0 
0 
0 
0 
0 
0 
0 
0 
0 
0 
0 
0 
0 
0 
0 
0 
0 
0 
0 
0 
0 
0 
0 
0 
0 
0 
0 
0 
1.208700138647542 
0 
0 
0 
0 
0 
0 
0 
0 
0 
0 
0 
0.2492214963478079 
0.4600638338598648 
0 
0 
0 
0 
0 
1.232222626252041 
0 
1.228557713454611 
0 
0 
0 
0 
0 
0 
0.2595778776034866 
0.5197147037259273 
0 
0 
0 
0 
0 
0.6066523237351985 
0 
0 
1.035035330521429 
0 
0 
0 
0 
0.8838507478785989 
0 
0 
1.501680406602873 
0 
0 
0 
0 
0 
0 
0 
0.0931404492521184 
0 
0.470072110715639 
0 
0 
0 
0 
0 
0 
1.112049585453333 
0 
0 
0 
0 
0 
0 
0 
-0.4944449832097723 
0 
0 
0 
0 
0 
0 
0 
0 
1.704268042768896 
0 
0 
0 
1.692467472371373 
0 
0 
0 
0 
-0.4049759743910182 
0 
0 
0 
0 
0 
0.2706131049926478 
0 
0 
0 
0 
0 
0 
1.937404325442934 
0 
0 
0 
0 
0 
0.8606693789851569 
0.003286249260079355 
0 
0 
0 
0 
1.321186616959475 
0 
0 
0 
0 
0 
0 
0.5846553393166756 
0 
0 
0 
0 
0 
0 
0 
0 
0 
0 
0 
0 
0 
0 
0 
0 
0 
0 
0 
0 
0 
0 
0 
0 
0 
-0.0739295613573355 
0 
0 
0 
0 
0 
0 
0.6554065418628531 
0 
0 
0 
0 
0.4215357647165483 
0 
0 
1.576829832161206 
0 
0 
0 
1.223291569449498 
0 
0 
0 
2.095947690629536 
1.288617584909434 
0 
0.8174209085439426 
0 
0 
3.780645822077322 
0 
0.07864445842469941 
0.4181627105206823 
0 
0 
0 
0 
0 
0 
-0.2182054719413149 
0 
0 
0 
0.2811728504469417 
0 
0 
0 
0 
0 
0 
0 
0 
0 
0 
1.107060039585154 
0 
0 
0 
0 
0.502430385767917 
0 
0 
0 
0 
0 
0 
0 
0 
0 
0 
0 
0 
0.02616152499894664 
0 
0 
0 
0 
0 
0.2020642150738211 
-0.8951396684109273 
0 
0 
0 
0 
0 
0 
0 
0 
0 
0 
0 
0 
0 
0 
0 
0 
0 
0.0008706273178964558 
0.09485834465570968 
0 
0 
0 
0 
0 
0 
0 
0 
0 
0 
0 
0 
0 
0 
0.08077031708865959 
0 
0 
0 
0 
0 
0 
0 
0 
0 
0 
-0.3569703214405827 
0 
0 
0.2096046111786619 
0 
0 
0 
0 
0.05891621355460802 
0 
0 
0 
0 
0 
0 
0 
0 
0 
0 
0 
0 
0 
0 
-2.378755656359695 
0 
0 
0 
0 
0 
0 
0 
0 
0 
0 
0 
0 
-0.5593542886485727 
0 
0 
0 
0 
1.475783795021227 
0 
0 
0 
0 
0 
0 
0 
0 
0 
1.422019581034513 
0 
0 
-0.5172971365391545 
0 
0 
0 
0 
0 
0 
0 
0 
0 
0 
0 
0 
0 
0 
0 
0 
0 
0 
0 
0.3206289485959508 
0 
0 
0 
0 
0 
0 
0 
0 
0 
0 
0.3101063281913986 
0 
0 
0 
0 
0 
0 
0 
0 
0 
-0.4173876091183781 
1.857100042538352 
0 
0 
1.250398902414191 
0 
0 
0 
0 
0 
0 
0 
0 
0 
0 
0 
0 
0 
0 
0 
0 
0 
0 
0 
0 
0 
0 
0 
0 
0 
0 
0 
0 
0 
0 
0 
0 
0 
0 
0 
0.06243343158817002 
0 
0 
0 
0 
0.5114772179791318 
0 
0 
0.1817804257528904 
0 
0 
0 
0 
0 
0 
0.61123152887004 
0 
0 
0 
0.5319420429882663 
0 
0 
0 
0.7419353168648392 
0 
0 
0 
0 
0 
0 
0 
-1.518227932325231 
0 
0 
0 
0 
0 
0 
1.189540506881966 
0 
0 
0 
0 
0 
0 
0 
0 
0 
0 
0 
0 
0 
0 
0 
0 
0 
0 
0 
0 
0 
0.8501555370307428 
0 
0 
0 
0 
0 
0 
0 
0 
0 
0 
0 
0 
0 
0 
1.639576950135271 
0 
0 
0 
0.7312071985930042 
0.5895751236669721 
0.6571898808888491 
0 
0 
0 
-0.2789878581984047 
0 
0 
0 
0.852371136164127 
0 
0 
0 
0 
0 
0 
1.200307677396512 
0 
0 
0 
-0.5180911250095335 
0 
0 
0 
1.654944610158473 
0 
0.04347545312033888 
0 
0 
-2.191602526201417 
0 
1.416990254684569 
0 
0 
0 
0.9057930244809002 
0.5248267229145746 
0 
0 
0 
0 
0 
0 
0 
0 
0 
0 
0 
0 
0 
0 
0 
0 
0 
0 
0.6834048281765814 
0 
0 
0 
0 
0 
0 
0 
0 
0 
0 
0 
0 
0 
0 
0 
-0.01171805896122272 
0 
0 
0 
0 
0 
0 
0 
0 
0 
0 
0 
0 
0 
0 
0 
0 
0 
0 
0 
0 
0 
0 
0 
0 
0.7462324952585424 
0 
0 
0 
0 
0 
0 
0 
0 
0 
0 
1.42445970294488 
0 
0 
-2.626427251002785 
0.8868018865218322 
0 
0 
0 
0 
0 
0 
0 
0 
0 
0 
0 
1.693531488325152 
0 
0 
0 
0 
0 
0 
0 
0 
0 
0.7556064530419933 
0.005547765595782422 
0 
-0.8969025795117083 
0.5750058245928724 
0 
0 
0 
-0.09510458460016857 
0 
0 
0 
0 
0 
0 
0 
0 
0.9560284194050782 
0 
1.582252134405612 
0 
0 
2.648863526015656 
0 
0 
0 
0 
0 
0 
0 
0 
0 
0 
-1.283527503470552 
0 
0 
0 
-0.4109776946034142 
0 
0 
2.500847698572025 
0 
0.09515200669698502 
0 
0 
1.433715317175445 
0 
-0.6619129125987921 
0 
1.027637605708826 
0 
0 
0 
0 
0 
-1.216698030585429 
0 
0 
0 
0 
0 
0 
0 
0 
0 
1.889288247665115 
0 
0 
-0.3296630227652123 
0 
0 
0 
0 
0 
0 
0.5576706165764076 
0 
0.5787643522942474 
0 
0 
0 
0 
0 
0 
0 
0 
0 
0 
0.9348617081646948 
0.367546297037476 
0 
0 
0.3904219302439544 
1.062974829630696 
0 
0 
0 
0 
0 
0 
0 
0 
0 
0.2343515463025841 
1.396396656237061 
0.7364336960765888 
0 
0 
0 
0 
0 
0 
0 
-0.7186879120366074 
0 
2.091064842967786 
2.459732686757542 
0 
0 
0 
0 
0 
0 
0 
0.5700430395306947 
0.5440571474086158 
0.3867961884988413 
0 
0 
0 
0 
0 
0 
0 
0 
0 
0 
0 
0 
0 
1.034125568998331 
0 
0 
0 
0.8893843456172187 
0 
0 
1.393228510347153 
0 
0 
0 
0 
1.909871447663763 
1.236582679668835 
0 
0 
0 
0 
0 
0 
0 
0 
0 
0 
0 
0 
0 
0 
0 
0 
0 
0 
0 
0 
0 
0 
0 
-0.0960887138691576 
0 
0 
0 
0 
0 
-0.382280352293299 
0 
0 
0.5954542577798414 
0 
0 
0 
0 
0 
0 
0 
0 
0 
0 
1.213928523930017 
0 
0 
0 
0 
1.298244955068582 
0 
0 
0 
0 
0 
0 
0 
0 
0 
0 
0 
0 
1.087234295649661 
1.945652822718945 
0 
0 
0 
0 
0 
0 
1.268498690944195 
0 
0 
0 
0 
0 
-0.6890743836057577 
-0.4355680601433426 
0 
0 
0 
0 
0 
0 
1.325547905456797 
0 
0 
0 
0 
0 
0 
0 
0 
0 
0.02041288722575687 
0 
0 
0 
0 
0 
0.8406419426156303 
0 
0.8092961321216902 
0 
0 
0 
0 
0 
0 
0 
0 
0 
0 
0.5532199186739881 
0 
0 
0 
0 
0 
0 
0 
0 
0 
0 
0 
0 
0 
0 
0 
0 
0 
0 
0 
0 
0 
0 
0 
0 
0 
0 
0 
0 
0 
-0.351678379700146 
0 
0 
0 
0 
0.5988270920324384 
0 
0 
0 
0 
0 
-0.9306389015289693 
0 
0 
0 
0 
0 
0.8974190132321005 
0 
0 
0 
0 
0 
0.904930389159464 
0.7733007119549136 
0 
1.51900847100376 
0 
0 
0 
0 
0 
0 
0 
0 
0 
0 
0 
0 
0 
0 
0 
0 
0 
0 
-0.6477924940898232 
0 
1.559649756223799 
0 
0 
0.8017337984009286 
0 
0 
0 
0 
0 
1.035915977138319 
0 
0 
0 
-0.6125711758128572 
0 
0 
0 
0 
0 
0 
0.4304609633811223 
-0.5098559479198319 
0 
0.6254769894232645 
0 
0 
0 
0 
0.01948507309305832 
0 
0 
-0.4513532713458885 
0 
0 
0 
1.630610351658269 
0 
0 
0 
0 
0.3076348044478332 
0 
0 
0 
0.9526643110685801 
0 
1.065514289576843 
0 
0 
0 
0 
0 
0 
0 
0 
0 
0 
0 
0 
0 
0 
0.1280956165218363 
0 
0 
0 
0 
0 
2.217107619054626 
0 
0 
0 
0 
0 
0 
-0.6141322823773475 
-1.027001313756511 
0 
0 
0 
0.6515891524985197 
0 
0 
0 
0 
0 
1.763105812526986 
0 
0 
0.8872197610192201 
0 
0 
0 
1.209032361451916 
0.8574593089266118 
0 
0 
0 
0.5459450994688101 
0 
-1.199442398971355 
0 
0 
0 
-1.397904379386797 
0 
0 
3.914672901217388 
0 
0.6790580311650286 
0 
0 
0 
0 
0 
0.1890821530381364 
0 
3.95022919625448 
-0.1160945900157167 
-0.6787476912060918 
0 
1.3883648603745 
-1.302689165151895 
0 
0 
0 
0.5593338521809869 
0 
0 
0 
0 
0 
0 
0.4660416727136781 
0.4770768211170987 
0 
0 
0 
0 
0 
0 
1.539019032660043 
0 
0 
0 
0.848456587594861 
0.8891128103942252 
0 
0 
0.2127929827767698 
0 
0 
0 
0 
0 
0 
0 
0 
0.0604715118486082 
0 
0.4661142284028937 
-1.022105862349419 
0 
0.2781400220190813 
0 
0 
1.445529399122701 
0 
0 
0 
0 
-0.003335411807298626 
0 
0 
0 
0 
0 
0.3754202562435602 
0.008336633618562298 
0 
0 
0 
0 
0 
0.2206813159869157 
0 
0 
0.8852955222405543 
0 
0 
0 
2.712322017082784 
0 
0 
0 
0 
0 
0 
0 
0 
0 
0 
0 
0 
0 
0 
0 
0 
0 
1.69435078387786 
0 
-1.506657742496916 
0 
-1.304204744870324 
-0.9579554579669274 
0 
0 
1.390580017268344 
0 
0 
0 
0 
0 
0 
0 
0 
0 
0 
0 
0 
0 
1.3113828996614 
1.006204680245343 
0 
0 
0 
0 
0 
0 
0 
-0.637601086481217 
0 
0 
0 
1.863430288707534 
0 
0 
0 
0 
-1.483853602216395 
0.7848647202104441 
0 
2.312694784648575 
0 
0 
0.02293440767627316 
0 
0 
0 
0 
0 
0 
0 
0 
-0.4153606842595283 
0 
0 
0 
1.329267790324221 
0 
0 
0 
0 
0 
0 
0 
0 
1.487228969632679 
0.5105300384156588 
0 
0 
0 
0 
0 
0 
0 
0 
0 
0 
0 
0.3892850100526956 
0 
0 
0 
1.383009930226601 
0 
0 
0 
0 
0 
-0.4581429856904918 
-1.761028964045629 
0 
2.279374585289268 
-2.73057524348763 
0.0914508357381328 
-1.478936596511616 
0.8938727066485304 
0 
0 
0 
0 
0 
0 
0 
0 
0 
0 
0 
0 
0.3249245109625926 
0 
0 
0 
0 
0 
0 
0 
1.040536343155857 
0 
0 
2.166460618856098 
0 
0 
0 
0 
0 
0 
0 
0.2426008759220069 
0 
2.030779852503074 
0 
0 
0 
0 
0 
0 
0 
0 
0 
0 
-2.35909920251009 
0 
0 
0 
0 
0 
0 
0 
0 
0 
0.09962810893157929 
0 
0 
2.095716616519792 
0 
0 
0 
0 
0 
0 
0 
0 
0 
0 
0 
0 
0 
0 
0 
0.692075686470388 
0.4882011752075235 
0 
0.614450681821918 
0 
0 
0 
0 
1.996079541624127 
0.003375528798056038 
2.436247799875634 
0 
0 
0 
2.560861762148395 
0 
0 
0 
0 
0 
0 
0.2675746634808803 
0 
0 
0 
0 
0 
0 
0 
0 
0 
0 
1.234684988710354 
0 
0 
0.1833901029654965 
0 
0 
0 
0 
0 
0 
0.2610489351375054 
0.1455251780351634 
0 
0.7724915584272321 
0 
0 
0 
0 
0 
0 
0 
0 
-0.311739323990633 
0 
0 
0 
0 
0 
0 
0 
0 
0 
0.1286556851677698 
0 
1.952647986380485 
0 
0 
0 
0 
0 
0 
0 
0 
0 
0 
0 
0 
0 
0 
0 
0 
0 
1.038129015139237 
0 
0 
0 
0 
0 
0 
0 
0 
0 
0 
0 
0 
0 
0 
0 
0 
0 
0 
0 
0 
1.095622673887287 
0 
0 
1.220681322876854 
0 
0 
1.623354219437336 
0 
0 
-1.305953679669579 
0 
0 
0 
1.402722411485256 
0 
0 
0 
0.4537149677435245 
0 
0 
0 
0 
0 
0.6958886615081553 
0 
0 
2.318256389150796 
0.08087290777814908 
0 
0 
0 
0 
0 
0 
0 
0 
0 
0 
0 
0 
0 
0 
0 
0.06136374984888425 
0 
0 
0 
0 
0 
0 
0.7447071968043458 
0 
0 
0 
0 
0 
0 
0 
0 
0 
0 
0 
0 
0 
0 
0 
0 
0 
0 
0 
0.8287528914778141 
0 
0 
-0.5938366567896497 
0 
0 
0 
0 
0 
0 
0 
0.3403995694937677 
0 
0 
0 
0 
2.36483038755336 
-1.084768393896108 
0 
0 
0 
0 
0 
0 
0 
-0.08870044056038334 
0 
0 
0 
0 
0 
0 
0 
0 
0 
0 
0 
0 
1.551633688394678 
0 
0 
0 
0.1163997214784997 
0 
0 
0 
1.20537444164491 
0.7513439348068406 
0.9628470734994322 
0 
0 
0 
0 
0 
-2.289921688814178 
0.001826961002558596 
0 
0 
2.134880517262665 
0 
0 
3.318168745998815 
0 
0.2890991748125695 
0 
0 
0 
0 
0 
1.401120121270641 
0 
0 
0 
0 
0 
0 
0 
0 
0 
0 
0.9691194402729594 
0 
0 
0 
0.7020823724596625 
0 
0 
0 
0 
0 
0 
0 
0 
0 
0 
0 
0 
0 
0 
0 
2.084144067236592 
0 
0 
0 
0 
0 
2.142115086527281 
0 
0 
0 
0 
0 
0 
0 
0 
0 
0 
0 
0.3653065645724214 
1.135207116218714 
0 
0 
0 
0 
0 
0 
0.7233697327981298 
0 
0.858720295484771 
0 
0 
0 
0 
0 
0 
0 
0 
0 
0 
0 
0 
0 
0 
0 
0 
0 
0 
-1.595040987988678 
0 
1.261120672310609 
0 
0 
0 
0.4601856125419295 
0 
0 
0 
0 
0 
-0.4399712343994824 
0 
0 
0 
0 
0 
0.05008748041785056 
0 
-0.787328733688245 
0 
0.6106028396583383 
0 
0 
0 
0 
0.4758645049548207 
0 
0 
0 
0 
0 
0 
1.217570904743753 
0 
0 
0 
0 
0 
0 
0 
0 
0 
0 
0 
0 
0 
0 
0.7621691069348947 
0 
0 
0 
0 
1.421750492585281 
0 
0 
0 
0 
1.742561365435319 
0 
0 
0 
0 
0 
0 
0 
0 
0 
0 
0 
0 
0 
0.3705458099712222 
0 
0 
0 
0 
0 
0 
0.979770732895177 
0 
0.4328856533545368 
0 
0 
0 
0 
0 
0 
0 
0.5677089931129592 
0 
0 
0 
0 
0 
0 
-0.8733123199082871 
0 
0 
0 
0 
0.7714436403110538 
1.533778118698328 
0 
0 
0 
0 
0 
1.104616725944661 
0 
0 
0 
0 
0 
0 
0.9748925746578452 
0 
0 
0 
0.09920201466726167 
0 
0 
0 
0 
0 
0 
0 
1.14842165637605 
0 
0 
0 
0 
0 
0 
0 
0 
0 
0 
0.3383824922931191 
1.834361964704341 
0 
0 
2.666098267338145 
0 
0 
0 
0 
0 
0 
0 
0 
0 
1.559084004723619 
0 
0 
1.930025833156427 
0 
0 
0 
0 
1.040371165811714 
0 
0 
0 
0 
0 
0 
0 
0 
0 
0 
0 
0 
0.08342038631424373 
0 
0 
0.4062129840736399 
1.026424088158022 
0 
0 
0 
0 
0 
0 
0 
0 
0 
0 
0 
-0.361480650712118 
1.288449499845407 
0 
0 
0 
0.2433075102881679 
0 
0 
0 
0 
0 
0 
0 
0 
0.8831628093295957 
0 
0 
0 
0 
0 
0 
0 
0 
0 
0 
0 
0 
0 
0 
0 
0 
0 
0 
0 
0 
0 
0 
0 
0 
0 
0 
0 
0 
0 
0 
0 
0 
0 
0 
0 
0 
0 
0 
0 
0 
0.2661326015344158 
0 
0 
0 
0 
0 
0 
0 
0 
0 
0 
0 
0 
0 
0 
0 
0 
0 
0 
-0.1100071442343997 
0 
0 
0 
0 
0 
0 
0 
0 
0 
0 
0.9025881713595905 
0 
0 
0 
0 
0 
1.647338440939639 
0 
0 
0 
0 
0 
-3.502666493784996 
0.1468439697777918 
0 
0 
0 
0 
0 
0 
0 
0 
0.8575714138181499 
0 
0 
0 
0 
0 
0 
0 
0 
1.098176259700484 
0.5546763104756554 
0 
0 
0 
0.06333128354675711 
0.409738047423786 
1.076261239423281 
0 
0 
0 
0 
0 
0 
0 
0 
1.279059285102481 
0 
0 
0 
0 
0 
0 
0 
0 
0 
0 
0 
0 
0 
0 
0 
0 
0 
0 
0 
0 
0 
0 
0 
0 
0 
0 
0 
0 
0 
0 
0 
0 
0 
0 
0 
0 
0 
0 
0 
0 
0 
0 
0 
0 
-1.92775879499613 
0 
0 
0 
0 
0 
0 
0 
0 
0 
0 
0 
0 
0 
0 
0 
0 
0 
0.9667283526974134 
0 
0 
0 
0 
0 
0 
1.11258607540064 
0 
0 
-0.7002938370571263 
0 
0 
0 
0 
0 
0 
0 
0 
0 
0 
0 
0 
0 
0 
0 
0 
0 
0 
0 
0 
0 
0 
1.375409597733569 
0.01088475664774196 
0.509118243457544 
0 
0 
0 
0 
0 
0 
0 
0 
0 
0 
0 
0 
0 
0 
0 
0 
0.7059834897781477 
0 
0 
0 
0 
0 
0 
0 
0 
0 
0 
0 
0 
0 
0 
0.7676414883100638 
0 
0 
0 
0 
0 
0 
0 
0 
0 
0 
0 
0 
0 
0 
0 
0 
0.729033199875271 
0 
0 
0 
0 
0 
0 
0 
0 
0 
0 
0 
0 
0 
0 
0 
0 
0 
0 
0 
0 
0 
0 
0 
0 
0 
0 
0 
0 
0 
0 
0 
0 
0 
0 
0 
0 
0 
0 
0 
0 
0 
0.5805156352977076 
0 
0 
0 
0 
2.725252574787375 
0 
0 
0 
0 
0 
0 
1.392370882687282 
0 
0 
0 
0 
1.300623473331949 
0 
0 
0 
0 
0 
0 
0 
0 
0 
0 
-1.456246945716003 
0 
0 
0.3838192831031595 
0 
0 
0 
0 
0 
0 
0 
0 
0 
0 
-3.28027404011211 
0 
0 
0 
0 
0 
1.466346113109824 
0.8334869203975116 
0 
0 
0 
0 
-0.08733742916536673 
0 
3.058615034271461 
0 
0 
0 
0 
0 
0 
0 
0 
0 
0 
0 
0 
0 
0 
0 
0 
0 
0 
0 
0 
0 
0 
0 
0 
0 
0 
0 
0 
0 
0 
0 
0 
0 
0 
0 
0 
0 
0.6819314120787854 
0 
0 
0 
0 
0 
0 
0 
0 
0 
0 
0 
0 
0 
0 
0 
0 
0 
-1.222274523798225 
0 
0 
0.8195940971033757 
0 
0 
0 
-0.4332740574963339 
0 
0.8690079034272665 
0 
0 
0 
0 
0 
0 
0 
0 
0.04199145007488275 
0 
0 
0 
0 
0 
0.2825113500547966 
0 
0 
2.265299387538801 
0 
0 
0 
0 
0 
0 
0 
0 
0 
0 
0 
0 
1.27222959838757 
0 
0 
0 
0 
0 
0 
0 
0 
0 
0 
0 
0 
0 
0 
0.002519310367502128 
1.062845812614778 
0 
0 
0 
0 
0 
0 
0 
0 
0 
0 
1.354366696614134 
0 
0 
0 
0.7391895933363107 
0 
0 
0.4411778588185757 
0 
0 
0 
1.213374986441572 
0 
0 
0 
0 
0 
0 
0 
0 
0 
0 
0 
0 
0 
0 
0 
0 
0 
0 
0 
0 
0 
0 
0 
0 
0 
0 
0 
0 
0 
1.088430201628891 
0 
0 
0 
0.1588695073455264 
0 
0 
0 
0 
0 
0 
0 
0 
0 
1.719528743693856 
0 
0 
0 
0 
0 
0 
0 
0 
0 
0 
0.9624745024277326 
0 
0 
0 
0 
0 
0.4274165532470975 
0 
0 
0 
0 
0 
0 
1.85664842686848 
0.8374565648920411 
0 
0 
0 
0 
0 
0 
0 
0 
0 
0 
0 
0 
0 
0 
0 
0 
0 
0 
0 
0 
0 
0 
0 
0 
0 
0 
0 
0 
0 
0.9518973867835322 
0 
0 
0 
0 
0.391262949416932 
0 
0 
0 
0 
0 
2.351703207229038 
0 
1.407292666548489 
0 
0 
0 
0 
0.6678505237432291 
0 
2.728780337066665 
0 
0.4157808693541019 
0 
0 
0.9602564630756752 
0 
0 
0 
0 
0 
0 
0 
0 
0 
0.5556825750694196 
0 
0 
0 
0 
0 
0 
0 
0 
0 
0 
-0.1270084426044112 
0 
0 
3.687131686690075 
0 
0 
0 
0 
0 
0 
0 
0 
0 
0 
0 
0 
0 
0 
0 
0 
0 
1.420688636159136 
0 
0 
0 
1.208205011268182 
0 
0 
0 
0 
0 
0.7102907916906566 
0 
0 
0 
0 
0 
0 
0 
0 
0 
0 
0 
0 
0 
0 
0 
0 
0 
0 
0 
0 
0 
0 
0 
0 
-0.2768162799345338 
0 
0 
0 
1.074846868242435 
0 
0 
0 
0.2474005032115289 
0 
1.031218910640421 
0 
0 
0 
0 
0 
0.998760870361089 
1.794923354361186 
0 
0 
0 
0 
0.375362248611802 
0 
0 
0 
0 
0 
0.2051609348987675 
0 
0.7950702140024459 
0 
0 
0 
0 
0 
0 
0 
0 
0 
0 
0 
0 
0 
0 
0 
0 
0 
0 
0 
0 
0 
0 
0 
0 
1.268344671731716 
0 
0 
0 
0 
0 
0 
0 
0 
0 
0 
0 
0 
0 
0.8366162045117994 
-0.3155602164980501 
0 
0 
0 
0 
0 
-1.081778444911718 
0 
0 
0 
0 
0 
0 
0 
0 
0 
0 
0 
0 
0 
0 
0 
0 
0 
0 
0 
0 
0 
0 
0 
0 
0 
0 
0 
2.025323908148249 
0 
0 
0 
0 
0 
0 
0 
0 
0 
0 
0 
0 
0 
0 
0 
2.150991309434402 
0 
0 
0 
0 
0 
1.664319524047105 
0 
1.066106878762969 
0 
0 
0 
0 
0 
0 
0 
0 
0 
0 
0 
0 
0 
0 
0 
0 
0 
2.10816260617568 
0 
0 
0 
0 
0 
0 
0 
0 
0 
0 
1.25182765941501 
0 
0 
0 
0.6906922204756012 
0 
0 
0.2057065295695123 
0 
0 
0 
0 
0 
1.296549363781312 
0.1303849431602975 
0 
0 
0 
0 
0 
0 
0 
0 
0 
0 
0 
0 
-0.9068341886423458 
0 
0 
0 
0 
0 
0 
0 
0 
0 
1.351640934771048 
0 
0 
0 
0 
0 
0 
0 
0 
0 
0 
0 
0 
0 
0 
0 
0 
0 
0 
0 
0 
0 
0 
0 
0 
0 
0 
0 
0 
0 
1.451035303640664 
0 
0 
0 
0 
0 
0 
0 
0 
0 
0 
0 
0 
0 
0 
0 
0 
0 
0 
0 
0 
0 
0 
0 
0 
0 
0 
0 
0.7494016376502887 
0 
0 
0 
0 
0 
0 
0 
0 
0 
0 
0 
0 
0 
0 
0 
0 
0 
0 
0 
1.688836185327119 
0 
0 
0 
0 
0 
0 
0 
0 
0 
0 
0 
0 
1.006207120496439 
0 
0 
0 
0 
0 
0 
0 
0 
-0.3109074327750506 
0 
0 
0 
0.8495632897747308 
0 
1.104884337759622 
0 
0 
0 
0 
0.9457052723133172 
-0.3935718760223594 
0 
0 
0 
0 
0 
0 
0 
0 
0 
0 
1.102253894020931 
0 
0 
0 
0 
0 
0 
0 
0 
0 
0 
0 
0 
0 
0.120654286875938 
0 
0 
0 
0 
0 
0 
0 
0 
0 
0 
0 
0 
0 
0 
0 
0 
0 
0 
0 
1.190446034565909 
-0.2012646871048572 
0 
0 
0 
0 
0 
0 
0 
0 
0 
0 
0.4033613879825795 
0 
0 
0 
0 
0 
0 
3.18024633205517 
0 
0 
2.002864659207875 
0 
0 
0 
0 
0 
0 
0 
0 
0 
0 
0 
0 
3.469207993615975 
0 
0 
0 
-0.5785172902852327 
0 
0 
0 
0 
-0.5231358671457942 
0 
0 
-0.3377141101809732 
0 
0 
0 
0.5132594027273336 
0 
0 
0 
0 
0 
0 
0 
0 
0 
0 
0 
-0.04236269928536902 
1.244841557238578 
0 
0 
0 
0 
0 
0 
0 
0 
0 
0 
0 
0 
0 
0 
0 
0 
0 
0 
0 
0 
0 
0 
0.3950802398828909 
0 
0 
0 
0 
0.5391755260625752 
0 
0 
0 
1.022103666663887 
0 
0 
0 
0 
0 
0 
0 
0 
0 
0 
0 
0.8423503726674569 
0 
0.1428644772932953 
0.3213317886699292 
0 
-1.134727768212769 
0 
0 
3.929844333994766 
0 
0 
-0.2310850080405112 
0 
0 
1.100614768035326 
0 
0 
0 
0 
0 
0 
0.1652759853042103 
2.075075057733615 
0 
0.01433243351012325 
0 
0 
0 
0 
0 
1.019925766791956 
0 
0 
0 
0 
0 
0 
0 
0 
0 
0 
-0.601811042861146 
0.2369854542126368 
0 
0 
0.3327391662435241 
0 
0 
0 
0 
0 
0 
0 
1.66420767400333 
0 
0 
0 
0 
0 
1.245941113854215 
0 
1.32088973542263 
0 
0 
0 
1.881902687206393 
0 
0.3184983089658709 
1.600536673918757 
0 
0 
0 
0 
0.3451503901853426 
0 
0.7735951623600739 
0 
0 
0 
0 
0 
0 
0 
0 
0 
0 
0 
0 
1.387031074688995 
0 
0 
0 
0 
0 
0 
0 
0 
0 
0 
0 
2.39992428200879 
0 
0.1405873061838221 
0 
0 
3.732768506820829 
0 
0 
0 
0 
0 
0 
0 
0.3206018134309034 
2.648272926205661 
0 
0 
0 
0 
0 
1.440969772728267 
0 
0 
0 
0 
0 
0 
0 
-1.109066138812884 
0 
1.28841251643353 
0 
-0.4394648956712939 
1.164477253116422 
0 
0 
0 
0 
0 
0 
0 
-0.4789497241804648 
0 
1.149745475281845 
0 
-2.443874136660394 
0 
0 
0 
0 
0 
0 
0 
0 
1.440207868202476 
0 
0 
0 
0 
0 
0 
0 
0 
0 
0 
0.3431361438808302 
0 
0 
0.04185517392412112 
0 
0 
0 
0 
0 
0 
0 
0 
0 
0 
0 
0 
0 
0 
0 
0 
0 
0 
0 
0 
0 
0 
0 
0 
0.3617703960638823 
0 
0.08762078638231501 
0 
0 
0 
0 
0 
0 
0 
-0.08395757366006444 
0 
-2.156326316216398 
0 
0 
0 
0 
0 
0 
0 
0 
0 
1.426735238794674 
0 
0.9914761141071174 
0 
0 
0 
0 
0 
0 
0 
0 
0 
0 
0 
0 
0 
-1.263709588738929 
0 
-0.4951938207893649 
-1.533941635753272 
0 
0 
0 
0 
-0.1625697846795313 
0 
0 
0 
0 
-0.07981205900867414 
0 
0 
0 
0 
0 
0 
0 
0 
0 
0 
0 
0 
0 
0 
0 
0.8119483665846262 
0 
0 
0 
0 
0.5730464914642062 
0.8934798956261287 
0 
0 
0 
0 
0 
0 
0 
0 
0 
0 
0 
0 
0 
0 
0 
0 
0 
0 
0 
0 
0 
0 
0 
0 
0 
0 
0 
0 
0 
0 
0 
1.438104834029121 
0.6237951715157468 
0 
0 
0 
0 
0 
0 
0 
0 
0 
0 
0 
0 
0 
0 
0 
1.372995337048555 
0 
0 
0 
0 
0 
0 
-1.098731479095156 
0 
0 
0 
0 
0 
0 
0 
0 
0 
0 
1.428053186571198 
0 
1.04958805836216 
0 
0 
0 
1.069766360607405 
0 
0.9738298334284258 
0 
-0.3078362271755672 
-0.5825502365738668 
0 
0 
0 
0 
0 
-0.7435408135510607 
0 
0 
0 
0 
0 
0 
0 
0 
0 
0 
0 
0 
0 
0 
0 
0 
0 
0 
0 
0 
0 
0 
0.1402657730217714 
2.516068631772358 
0 
0 
0 
0 
0 
0 
0 
0 
0 
0 
0 
0 
0 
0 
0 
0 
0 
0 
0 
0 
0 
0.03272204948538391 
0 
0 
1.06130711265115 
0 
0 
0 
0 
0 
0 
0 
0 
0 
0 
0 
0 
0 
0 
0 
0.3810346089312755 
0 
0 
0 
0 
0 
0 
0 
0 
0 
0 
0.3227410475792389 
0 
0 
0 
0 
0 
0 
0 
0 
0 
0 
0.5142137698888707 
0 
0 
0 
0 
0 
0 
0 
0 
0.3998909649286175 
0 
1.432992365117253 
0 
0 
0 
0 
0 
0 
0 
0 
0 
0.2548156843764208 
0 
-0.1394243384284079 
0 
0.9657456631328591 
0 
0 
3.250917708952251 
0 
0 
0 
0 
0 
0 
0 
0 
-3.282334892405922 
0 
0 
0 
0 
0 
0 
0 
0 
0 
0 
0 
0 
0 
0 
0 
0 
0 
0 
0 
0 
0 
1.841341633828767 
0 
0 
0 
0 
0 
0 
0 
0 
0 
0 
0 
0 
0 
0 
0 
0 
0 
0 
0 
0.815489513059275 
0 
0 
0.6630705937966485 
0 
0 
0 
0 
0 
0 
0 
0 
0 
0 
0 
0.2170357732365488 
0 
0 
0 
0 
0 
0.6876325091451657 
0 
-1.489127769261988 
0 
0 
0 
0.9375499850785856 
0 
0 
0 
0 
0 
0 
0 
0 
0.1878615620167012 
0 
0.8904108343203826 
0 
0 
0 
0 
0 
0 
0 
0 
0 
0 
-0.2057386176352951 
0 
1.381645745012432 
-0.7450140706705022 
0 
0 
0 
0 
-1.01534168710658 
0 
2.608748092877149 
0 
0 
0 
0 
0 
0 
0 
0 
0.08605649645571217 
0 
0 
0 
0.01221200020363559 
0 
0 
0 
0 
0 
0 
0 
0 
0 
0 
0 
0 
0 
0.1706233337732912 
0 
0 
0 
0 
0 
0 
0 
0 
0 
0 
0 
0 
0 
0 
0 
0 
0 
0 
0 
0 
0 
0 
0 
0 
0 
0 
0 
0 
0 
0 
2.648908870571963 
0 
0 
0 
0 
0 
0 
0 
0 
0 
0 
0 
0 
0 
0 
0 
0 
0 
0 
0 
0 
0 
0.2637620463944969 
0 
0 
0 
0 
0 
0 
0 
0 
0 
0 
0 
0 
0 
0.3056155259169889 
0 
0 
0 
-0.9849506385130755 
0 
0 
0 
0 
0 
0 
0.8295530316812543 
-1.296116112761243 
0 
0 
0 
0 
0 
0.4300020502337362 
0 
0 
0 
0 
0 
-0.1255416638261846 
0 
0 
0 
0 
1.532618260844869 
0 
0 
0 
0 
0 
0 
0 
0 
0 
0 
0 
0 
0 
2.011241873708141 
0 
0 
0 
0 
0.8277947083667057 
0 
0 
0 
0 
0 
0 
0 
0 
0 
0 
0 
0 
0 
0 
0 
0 
0 
0 
0 
0 
0 
0 
2.135541703995938 
0 
0.1124208252725359 
0 
0 
0 
0 
0 
-0.6742091834416877 
0 
0 
0 
0 
0 
0 
0 
0 
0 
0 
0 
0 
0 
0 
0 
0 
0 
0 
0 
1.463707708368329 
0 
-4.349991647947124 
0 
0 
0.5475903073417099 
0 
0 
-0.7206251141081212 
0 
0 
0 
0 
0.1085768532800104 
0 
0 
0 
0 
1.245929168474116 
0 
0 
0 
0 
0 
0.02398595034780324 
0 
0 
0 
-0.1962673112969326 
0 
0 
0 
0 
0 
0 
0 
0 
0 
0 
0 
0 
0 
0 
0 
0 
0 
0.8734498933335282 
0 
0.3609010206563291 
0.6404792759223206 
0 
0 
0 
0 
0.5658405969122502 
0 
0 
0 
0 
0 
0 
0 
0 
0 
0 
0 
0 
0 
0 
0 
0 
0 
0 
0 
0 
0 
1.014608705327108 
0.2853338781768275 
0 
0 
0 
0 
0 
1.09159910481232 
0 
0 
0 
0 
0 
0 
1.649800258199024 
0 
0 
0 
0 
0 
0 
0 
0 
0 
0.1036606353673222 
-0.1560873213397589 
1.241300280200077 
0 
0 
0 
0 
0 
1.408197159564548 
0 
0 
0 
0 
0 
0 
0.2283849961662849 
0 
0 
0.8363423112531114 
0 
0 
0 
0 
0 
0 
0 
0 
0 
0 
0 
0 
0 
0 
0 
0 
0 
0 
0 
0 
0 
0 
0 
0 
0 
0 
0 
0 
0 
0 
0 
0 
-0.7907938135691795 
0 
0 
0 
0 
0 
0 
0 
0 
0.5563769955331698 
0 
0 
1.704805116150313 
0.1399704274935924 
-1.079060374069443 
0.513399327021437 
0.3501367036745658 
0.4027963003557222 
-0.6476166787920501 
0 
0 
0 
0 
0 
0 
0 
0 
0 
0 
0 
0 
0 
0 
0.9430715668761801 
0 
0 
0.577982124148146 
0 
0 
0 
0 
0 
0 
0 
0 
0 
0.6160544611134625 
0 
-0.3156950610249007 
0 
0 
0 
0 
0.1126711377708935 
0 
0 
0 
0 
0 
0 
0 
0 
0 
0 
0 
0 
0 
0 
0 
0.7482634220627158 
0 
0 
0 
0 
0 
0 
0 
0 
0 
0 
0 
0 
0 
0 
0 
0 
0 
0 
0.470338018485675 
0 
0 
0 
0 
0 
0 
0 
0 
0 
0 
0 
0.5681213079509387 
1.17848607488743 
0 
0 
0 
0 
0 
0 
0 
4.071479347894395 
0 
0 
0 
0 
-0.231463787118012 
0 
0 
0 
0 
0 
0 
0 
0.4855146773243594 
0 
0 
0 
0 
0 
0 
0 
0.2437552846505719 
0 
0 
0 
0 
0.6933381876534253 
0.2388712242468642 
0 
0 
0 
0 
0.5653274750392746 
0 
0 
0 
0 
0 
1.860392310988429 
0 
1.213798143290561 
0 
0 
0 
0 
0 
0 
0 
0 
0 
0 
0 
0 
0 
0 
0 
0 
0.113689179862678 
0.8111125031217375 
0 
0 
0 
0 
0 
0 
0 
0 
1.984602765938217 
1.976133743675917 
0 
0 
2.745201500906258 
1.25900177298253 
0 
0 
0 
0 
0 
0 
0 
0 
-0.8659398932341824 
0 
0 
0 
0 
0 
0 
1.719866219883434 
0 
0 
0 
0.4209575814495657 
0 
0 
0 
2.91798483838955 
1.189386742067184 
0 
0 
0 
0 
0 
-0.6347447007475491 
0 
0 
0 
0 
0 
1.76176113270057 
0 
0 
0 
0 
0 
1.566349420745947 
0 
0 
0 
0 
0 
0 
0 
0 
0 
0 
0 
0 
0.4208205432950281 
0 
0 
0 
1.305925168300752 
0 
0 
0 
0.9645669865415828 
0 
1.543408311595147 
0 
0 
0 
0 
0 
0 
0 
0 
0 
0 
0 
0 
0 
0 
0 
0 
0.9385613433579097 
0 
0 
0 
0 
0 
0 
0 
0 
0 
0 
0 
0 
0 
0 
0 
0 
0 
0 
0 
0 
0 
0 
0.3987128474986543 
0 
0 
0 
0 
0 
0 
0 
0 
0 
0 
0 
0 
0 
0.1353333374650258 
0 
0 
0 
0 
0 
0 
0 
0 
0 
0 
0 
0 
0 
0 
0 
0 
0 
1.202076326518219 
0 
0 
0 
0 
0 
0 
2.084410482887108 
0 
0 
0.009151404210406517 
0 
0 
0 
2.122025139519004 
0 
0 
0 
0 
0 
0 
0 
0 
0 
0.3079591014116607 
0 
0 
-0.07547085342451784 
0.5245765609571389 
0 
0 
0 
0 
0 
0 
0 
0 
0 
0 
0 
0 
0 
0 
1.014930074581699 
0 
0 
0 
0 
0 
0 
0 
0 
0 
0 
0 
0 
0.762395408966531 
0 
0 
0 
0 
0 
0 
0 
0 
0 
-0.586534236126211 
0 
0 
0 
0 
0 
0 
2.261676057614553 
0 
0 
0 
-0.5858883282206095 
0 
0 
0 
0 
0 
0 
0 
0 
0 
0 
0 
0 
0 
0 
0 
0 
0 
0 
0 
0 
-3.140047103634875 
0 
0 
0.1837531497174973 
-1.007009391296253 
0 
0 
0 
0 
0 
0 
0 
0 
0 
0.3946145110905026 
2.629835038897411 
0 
0 
-1.032354120257227 
0 
0 
0 
2.413771267327113 
0 
0 
0 
0 
0 
0 
0 
0.6668206293257897 
1.667259814278901 
0 
0 
0 
0.219005866221344 
0 
-1.229873515331877 
0 
0 
0 
0 
0 
0 
0 
0 
0 
0 
0 
0 
0 
0 
0 
0 
0 
0 
0 
0.2043739027634092 
0 
0 
0 
0 
0 
-1.367751780609484 
0 
0 
1.332616669057808 
0 
0 
0.8130639762796429 
0 
0 
0 
0.5204707658879782 
0 
0 
0 
0 
0 
0 
0 
0 
0 
0 
0 
0 
0 
0 
0 
0 
0.5975460460566847 
0 
0 
0 
0 
0 
0 
0 
0.919226943686269 
0 
0 
0 
-0.7805268526950254 
0 
-2.741152999659473 
0 
0 
0 
0 
0 
0.12300350674857 
0 
0 
0 
0 
0 
0.230585754866453 
-1.597581005487243 
0 
0 
0 
0 
0 
0 
0 
0 
1.082797673322919 
0 
0 
0 
0 
0 
0 
0 
0 
0 
0 
0 
0 
1.660170608580016 
0.7404164107352192 
0 
0 
0 
0 
0 
0 
0 
0 
0 
2.024407865995556 
0 
0 
3.148665208385984 
0 
0 
0 
0 
0 
0 
0 
0 
0 
0 
0 
0 
-0.2462493360867985 
0 
0 
0 
0 
0 
0 
0 
0 
0.6980439826244952 
-0.2201337477652416 
0 
0 
0 
0 
0 
0 
0 
0 
0 
0 
0 
0 
0.4121968826505472 
0.3103178322102331 
0 
-0.1353975193323914 
0.6926681521975169 
0.431287816186245 
0 
0 
0 
0 
0 
1.324840330729699 
0.05148935516457047 
0 
0 
0 
1.128489232968556 
0.8182904676575563 
0 
0 
0 
-0.06819685800543329 
-0.1358273891369885 
2.342251479425341 
0 
0 
0 
1.03759480397202 
0 
0 
1.816712728862188 
0 
0.7592212629588955 
0 
0 
0 
0 
0 
0 
0 
0 
0 
-0.8545462408912567 
0 
0 
0 
0 
-0.1589679032906799 
2.342752811903611 
0 
0 
0 
0 
0 
0 
0 
0 
0 
0 
0 
0 
0 
0 
0 
0 
0 
-2.351129777619934 
0.8576484033995637 
0 
0 
0 
0 
0 
0 
0 
0.6399187670948445 
0 
0 
0 
0 
0 
0 
0 
0 
0 
1.686708709282711 
0 
0 
0 
0 
0 
0 
0 
0 
0.9361761152277083 
0 
0 
0 
0 
0 
0 
0 
0 
0 
0 
0 
0 
0 
0 
1.097880544404668 
0 
0 
0 
-1.923758944759708 
0 
0 
0 
0 
0 
1.855958971968011 
0 
0 
0 
0 
0 
0 
0 
0 
0 
-0.09943823336761531 
0 
0 
2.051375186372079 
0 
0.9540249042813308 
0 
0 
0 
0 
0 
0 
0 
0 
0 
0 
0 
0.5342517835092843 
0 
0 
0.02433832429354518 
0 
0 
0 
0 
0 
0.2937600008310597 
-0.7828469879225699 
0 
0 
0 
0 
1.652714784512608 
0 
0 
0 
0 
0 
0 
0 
0 
0 
0 
0.9301349352631403 
0 
0 
0 
0 
0 
1.175832156420472 
1.503168235106529 
0 
0 
0 
0 
0 
0 
0 
0.8443194704174033 
0 
0 
0 
0 
0 
0 
0 
0 
0 
0 
0 
0 
0 
0 
0 
0 
0 
0 
0 
0 
0 
0 
0 
0.2361872811010674 
0 
0 
0 
0 
0 
0 
0 
0 
0 
0 
0 
0 
0 
0 
0 
-3.91898043203647 
0 
0 
0 
0 
0 
0 
0.1467450474698595 
0 
0 
0 
0 
0 
0 
0 
0 
0 
0 
0 
0 
0 
0 
0 
0.01588667694244976 
0 
0 
0 
0.304887426335923 
1.636656462299209 
0 
0 
0 
0 
0.3295256538021183 
0 
0 
0 
0 
0 
0 
0 
0 
0 
0 
0 
0 
0 
0 
0 
0 
0 
1.530614476581159 
0 
0 
0 
0 
0 
0 
0 
0 
0 
0 
2.414654610354763 
0.08782522591352382 
0 
0 
0 
0 
0 
0 
0 
0 
0.6698726827059012 
0 
0 
2.045477428025984 
0 
0 
0 
0 
0 
0.8214356147388554 
0 
0 
0 
0 
0 
0 
0 
0 
0 
0 
0 
-1.486478073816097 
0 
0 
0 
0 
1.265446480503052 
0 
0 
0 
0 
0 
0.06190697632925006 
0 
0.06266848818534379 
0 
0 
0 
0 
0 
0 
0 
0 
-1.024979051396048 
0 
0 
0 
1.519257377948643 
0 
0 
-2.699911804747432 
0 
0 
0 
0 
0 
0 
0 
-0.0973429111469296 
0 
0 
0 
0 
0 
0 
0 
0 
0 
0 
0 
0 
0 
0.2221834970178683 
0 
0 
0 
0 
0 
0 
0 
0 
0 
0 
0 
0 
0 
0 
0 
0 
0 
0 
0 
0 
-0.4248914204253011 
0 
0 
0 
0 
0 
0 
0 
1.523769276605302 
0 
0 
0 
0 
0 
0 
0 
0.4910461916479866 
0 
0 
0 
0 
0.249381727967826 
0 
1.386294361119891 
0 
0 
0 
0 
0 
0 
0 
0 
0 
0 
0 
0 
0 
0 
0 
0 
0 
0 
0 
0 
0.2526643101195393 
0 
0 
0 
-1.596839558124777 
0 
0 
0 
0.8633953219332895 
0 
0.732494046514492 
0 
0 
0 
0 
1.256151872704712 
0 
0 
0 
0 
1.484686667117096 
1.085541732883891 
0 
0 
1.065365122982225 
0 
0 
0 
0 
0.3992255646843088 
0 
0 
0 
0 
0 
0 
0 
0.8922238739457929 
0 
0 
0 
0 
0 
0 
0 
0 
0 
0 
0 
0 
0 
0 
0 
0.5022169548614385 
0 
0 
0.7787169220303162 
0 
0 
0 
0 
0 
0 
0 
0 
0 
0 
0 
0 
0 
0 
0 
0 
0 
0 
-2.297508143473556 
0 
0 
0 
0 
0 
0 
0.5488945095885873 
0 
0 
0 
0 
0 
-1.128399078242796 
0 
0 
-2.583333060812686 
0 
0 
1.707486881766277 
0 
0 
0 
0 
0 
0 
0 
0 
0 
0.6257592349658428 
0 
0 
0 
0 
0 
0 
0 
0 
0 
0 
0 
0 
0 
0 
0 
0 
0 
0 
0 
0 
0 
0 
0 
1.628488757311963 
0 
0 
0 
0 
0 
0 
0 
0 
0 
0 
0 
0 
0 
0 
0 
0 
0 
0 
0 
0 
0 
0 
0 
0 
0 
0 
0 
0 
0 
1.082435263528408 
0 
0 
0 
0 
0.0290929622916983 
0 
0 
0 
0 
1.420677611462003 
0 
0.3132338469891325 
0 
0 
0 
0 
0 
0 
0 
0 
0 
0 
0 
0 
0 
0 
0 
0 
0 
0 
0 
0 
0 
0 
0 
0 
0 
0 
0 
0 
1.737375510196111 
0 
0 
0 
0 
0 
0 
0 
0 
0 
0 
0 
0 
0 
0 
0 
0 
0 
0 
0 
0 
0 
0 
0 
0 
0 
0 
0 
0 
0 
0 
0 
0 
1.047923747236937 
1.647529851531168 
0 
0 
0 
0 
0 
0 
0 
0.9094249348970671 
0 
0 
0 
0 
0 
0 
0 
0 
0 
0 
0 
0 
0 
0 
0 
0 
0 
0 
0 
0 
0 
0.2384900299017191 
-1.836127149339705 
0 
0 
0 
0 
0 
0 
0 
0 
0 
0 
0 
0 
0 
0 
0 
0 
0 
0 
0 
0.5743056249779178 
0 
0 
0 
0 
0 
0 
0 
0 
0 
0 
-1.528008228424065 
0 
0 
0 
0 
0 
0 
0 
0 
0 
0 
0 
0 
1.118735368109931 
0 
0 
0 
0 
0 
0 
0 
0 
-0.930917421985161 
0 
0 
0 
0 
0 
0 
0 
0 
0 
0 
0 
0.5425162237817323 
0 
0 
0 
0 
0 
0 
0 
0 
0 
0 
0 
0 
0 
0 
0 
0 
0 
0 
0 
0 
0 
0 
0 
0 
0 
0 
0 
0 
0 
0 
0 
0 
0 
0 
0 
0 
0 
0 
0 
0 
0 
0 
0 
0 
0 
0 
0 
0 
0 
1.184771931780032 
0 
0 
1.48771454987197 
0 
0 
0 
0 
0 
0 
0 
0 
0 
0 
0 
0 
0 
0 
0 
0 
0 
0 
0 
0 
0 
0 
0 
0 
0 
0 
0 
0 
0 
0 
2.006609703546716 
0 
0 
0 
0 
0 
0 
0.7448750710960789 
0 
-1.712092512095858 
0 
0 
0 
0 
0 
0 
0 
0 
0 
0 
0 
0 
0.684892083858914 
0 
0 
0 
0 
0 
0 
0 
0 
0 
0 
0 
0 
0 
0 
0 
0 
0 
0 
0 
0 
0 
0 
0 
0 
0 
0 
0.2651313946990793 
0 
0 
0 
0 
0 
0 
0.9590698640306757 
0 
0 
0 
0 
0 
0 
0 
0 
1.080900013700488 
0 
0 
0 
0.4886094420759323 
0 
0 
0 
0 
2.39847750651755 
0 
0 
0 
0 
0 
0 
0 
0 
0 
0 
0 
0 
0.8364022961968428 
0 
0 
-0.5482214943807235 
0 
0 
0 
0 
0 
0 
0 
0 
0 
0 
0 
0 
0 
0 
0 
0 
0 
0 
-0.351435122062995 
0 
0 
0 
0 
0.2712698599652084 
0 
0 
0 
0 
0 
1.116398118458485 
0 
0 
0 
0 
0.8106834766856453 
0 
0 
0.6113348302777158 
0 
0 
0 
0 
0 
0 
0 
0 
0 
0 
0 
0 
0 
0 
0 
0 
0 
0 
0 
0 
0 
0 
0 
0 
0 
0 
0 
0 
0 
0 
0 
0 
0 
0 
0 
0 
0 
0 
0 
0 
0 
0.416722970286637 
0 
0 
2.094673187814842 
0 
-2.983801359591228 
3.429603697365482 
0 
0 
0 
0 
-1.093907829519099 
0 
0 
0 
0 
0 
0 
0 
2.331049384775343 
0 
3.079785043162607 
0 
0 
0 
0 
0 
0 
1.967104667380452 
0.07595931330124171 
-2.03242651417643 
0 
0 
2.189293887900324 
0 
0 
-0.9882113503148192 
0 
0 
0 
0 
0 
0 
0 
0 
0 
0 
0 
0 
0 
0 
0 
0 
0 
0 
-1.522919649654563 
0 
0 
0 
0 
0 
0 
0 
0 
0 
0 
0 
0 
-0.01734496256252913 
0 
0 
-0.03021126053474717 
0 
0 
0 
0 
0 
0 
0 
0 
0 
0 
0.9034361056657109 
0 
0 
0 
0 
0.5563583335709472 
0 
0 
0.4215863545124796 
0 
0 
0 
0 
0 
0 
0 
0 
0 
0 
0 
0 
0 
0 
0 
0.9996395222025097 
0 
0 
0 
0 
0.07422793640542949 
0.3552761354065238 
0 
0 
0 
0 
0 
0 
0 
0 
0 
0 
0 
0 
2.610745485928504 
0 
0 
0 
0 
0 
0 
0 
0 
0 
1.362176365918484 
0 
0 
1.109680363748054 
0.7532828532116859 
0 
0 
0.09527064380637501 
0 
0 
0 
0.4594887829239818 
0 
0 
0 
0 
0 
0 
0 
0 
0 
0 
0 
0 
0 
-0.6133995541844453 
0 
0 
0.6034067013499698 
0 
0 
0 
0 
0 
0 
0 
0 
0 
0 
0 
0 
0 
0 
0 
0 
0 
0 
0 
0 
0 
0 
0 
0 
0 
0 
0 
0 
0 
0 
0 
0 
0 
0 
0 
0 
0 
0 
0 
0 
0 
0 
0 
0 
0 
0 
0 
0 
0 
0 
0 
0 
0 
0 
0 
0 
0 
0 
0 
0.2631569516491054 
0.1807287989223577 
0 
0 
0 
0 
0 
0 
0 
0 
0 
0 
0 
0 
0 
0 
0 
0.1558230422581079 
0 
0 
0 
0 
0 
0 
0 
0 
0 
0.02350977547761974 
0 
0 
0 
0 
0 
0 
0.5640154516308591 
0 
0 
3.326177640011528 
0 
0 
0 
0 
0 
0 
0 
0 
0 
0 
0 
0.4027123947011721 
0 
0 
1.386294361119891 
0 
0 
0 
0 
0 
0 
0 
0 
0 
0 
0.3064989021700844 
0 
0 
0.9648437190551338 
0 
0 
0 
0 
0 
0.9810903907821001 
0 
0 
0 
0 
0 
0 
0 
0 
1.078820949024959 
0 
0 
0 
0 
0 
0 
0 
0 
0 
0 
0 
0 
-0.08320367651646141 
0 
0 
0 
0 
0 
0 
0 
0 
0 
0 
0 
0 
0 
0 
0.3960435335363804 
0 
0 
0 
0 
0 
0 
1.047132861666823 
0 
0 
0 
0 
0 
0 
0 
0 
0 
0.4177326501464376 
0 
0 
0 
0 
2.063551770126982 
0 
0 
0 
0 
0.08037736718875493 
0 
0 
0 
0 
0 
0 
0 
0 
1.386294361119891 
0 
0.8751965027288386 
0 
0 
0 
0 
0 
-0.9410371082130117 
0 
0 
0 
0 
0 
0 
0 
0 
0 
1.271192702849306 
0 
0 
0 
0 
-0.6538310961885481 
0 
0 
0 
0 
-0.1990859396347573 
0 
0 
0 
0 
0 
0 
-0.4594314280423133 
0 
0 
0 
0 
0 
0 
0 
0 
0 
0 
0 
0 
1.930807043348017 
0 
0 
0 
0 
0 
0 
0 
0 
0 
0 
0 
0 
0 
0 
0 
0 
0 
0 
0 
0 
0 
0 
0.6929742861831705 
0 
0 
0 
0.2716650965217111 
0 
0 
0 
0 
0.122090373360954 
0 
0 
0 
0 
0 
0 
0 
0 
0 
0 
0 
0 
0 
0 
0 
0.3208590180949975 
0 
0 
0 
0 
0 
0 
1.498293657688489 
0 
0 
0 
-0.1195807957931775 
-0.04763667401439519 
0 
0 
0 
0 
0 
0 
0 
0 
0 
0 
0 
0 
0 
0 
0 
0 
0 
0 
0 
0 
0 
0 
0 
0 
0 
0 
0 
0 
0 
0 
0 
0 
0.4107738798885959 
0 
0.01560629352541099 
0 
0 
0 
0.3524255488455853 
0 
0.6238065701207947 
0 
0 
0 
0 
0 
2.446628075213295 
0.2065594467895656 
0 
0 
0 
0 
0 
0 
0.1976251989838548 
0 
0 
0.4655347466333213 
0 
0 
0 
0 
0 
0 
0 
0 
0 
0 
0 
0.08130117875884274 
-1.124464597166836 
0 
0 
0 
0 
1.103842557861951 
1.190066630094855 
0 
0.3271900362569413 
0 
0 
0 
0 
0 
0 
0 
0.2819851810923174 
0 
0 
0 
0 
0 
0 
0 
0.007152816416044898 
1.532608786403523 
0 
0 
0 
0 
0 
0 
0 
0 
0 
0 
0 
0 
0 
0 
0 
0 
1.423569890903919 
0.3318389825099043 
0 
0 
-0.1805433130335858 
0 
0 
0 
0 
0 
0 
0 
0 
0 
0 
0 
0 
0 
0 
0 
0 
0 
0 
0 
-2.72974659440842 
0 
0 
0 
0.8569939775000669 
0 
0 
0 
0 
0 
0.6878738633110357 
0 
0 
0 
0 
0 
0 
0 
0 
0 
0 
0 
0 
0 
0 
0 
0 
0 
0 
0 
0 
0 
0 
0 
0.6553934543799836 
0 
0 
0 
0 
0 
0 
0 
0 
0 
0 
0 
0 
0 
0 
0 
0.8254257338171768 
0 
0 
0 
-0.4384910793910805 
0 
0.5204685636293028 
0 
0 
0 
0 
0 
0 
0 
0 
0 
0 
0 
1.189140475708318 
0 
0 
0 
0 
0 
0 
0 
0 
0 
0 
0 
0.2543941260086702 
0 
0 
0 
0 
0 
0 
0 
0 
0 
0 
0 
0 
0 
0 
0 
0 
0 
0 
-0.1181577287792537 
0 
-1.322074275539824 
0 
0 
0 
0 
0 
0 
0 
0 
0 
0.76704212009241 
0.754517488293392 
0 
0 
0 
0 
1.621598439536466 
0 
0 
0 
0 
0 
0 
0.1750996253083179 
0.8627951891782519 
0 
0 
0 
0 
0 
0 
0 
0 
2.492416791507196 
0 
0 
0 
0.2456524940027179 
0 
0 
0 
0 
0 
0 
0 
0 
0 
0 
0 
0 
2.381828597673166 
0 
0 
0 
0 
0 
0 
0 
0.5777163255354973 
0.05861984192303182 
0 
0 
0 
0.4897303116109316 
0 
0 
0 
0 
0 
0 
0 
0 
0 
0 
0 
0 
0 
0 
0 
0 
0 
1.139912360660914 
0 
0 
0 
0 
0.07388374044272218 
0 
0 
0 
0 
0 
0 
0 
0 
0 
0 
0 
0 
0 
0 
0 
0 
0 
0 
0 
0 
0 
0 
0 
0 
0 
0 
1.693382380301701 
0 
0 
0 
0 
0 
0.6014398081264847 
0 
0 
0 
0 
0 
0 
0 
0 
0 
0 
0 
0 
0 
0 
0 
0 
0 
0 
0 
0 
0 
0 
0 
0 
0 
0 
0 
0 
0 
0 
0 
1.262093182622994 
0 
0 
0 
0 
0 
0 
0 
0 
0 
0 
0 
0 
0 
1.345604894964543 
0 
0 
0.04471344321081108 
0 
0 
0 
0 
0 
0.5471291952193061 
0 
0 
0 
0 
0 
0 
0 
0 
0.3905084954004693 
0.4945716827847506 
0 
0 
0 
0 
0 
-0.7342945651299552 
0.05707930780317434 
0.2411575282063282 
0 
0 
0 
0 
0 
2.568714042300746 
0 
0 
0 
0 
0 
0 
0 
0 
0 
0 
0.2204459812995781 
0 
0 
0 
0 
0.3868786568213309 
0 
0 
0 
0 
0 
0 
0 
0 
0 
0 
0 
0 
0 
0.5106839210621125 
0 
0 
0 
0 
0 
0 
0 
0 
0 
0 
0 
0 
0 
0 
0 
0 
0 
1.039114291353842 
0 
0 
0 
0 
0 
0 
0 
0 
0 
0 
0 
0 
0 
0 
0 
0 
0 
-0.4344764905344874 
0 
0 
0.3127502197624393 
0 
0 
0 
0 
0 
0 
2.028231276805868 
0 
0 
0 
0 
0 
0 
0 
0 
0 
0 
0 
0 
0 
1.432375132258016 
0 
0 
0 
0 
0 
0 
0 
0 
0 
0 
-0.2631574133829588 
0 
0 
0 
0 
0 
0 
0 
0 
0 
0 
0 
0 
0 
0 
0 
0 
0 
0 
0 
0 
0 
0 
-0.6339037423229942 
0 
0 
0 
0 
0 
0 
0 
0 
0 
0 
0 
0 
0 
0 
0 
0 
0 
0 
0 
0 
0 
0 
0 
0 
0 
0 
0 
0 
0 
0 
0 
0 
1.45229868381103 
0 
0 
0 
0 
0 
0 
2.363982751962261 
0 
0 
0 
0 
0 
0 
0 
1.286651632093546 
0 
0 
0 
0 
0 
0 
0 
0 
0 
0 
0 
0.8614522654856497 
0 
0 
0 
0 
0 
0 
0 
0 
0 
0 
0 
0 
0 
0 
0 
0 
0 
0 
0 
0 
0 
0 
0 
0 
0 
0 
0 
0 
0 
0 
0 
0 
0 
0 
0 
0 
0 
0 
0 
0.7123051864269809 
0 
0 
0.2790815233171951 
0 
0 
0 
0 
0 
0 
0 
0 
0 
0 
1.230213123676097 
0 
0 
0 
0 
0 
0.2163951772996916 
0 
0.0238312029236725 
0 
0 
0 
0 
0 
0 
0 
0 
0 
0 
0 
0 
2.860774892545736 
0 
0 
0 
0 
0 
0 
0 
0 
0 
0 
0 
0 
0 
1.575767472898318 
0 
0 
0 
0 
0 
0 
0 
0 
0 
0 
0 
0 
0 
0 
0 
0 
2.07824453548991 
0 
0 
0 
0 
0 
0 
0 
0 
0 
0 
0 
0 
0 
0 
0 
0 
0 
0 
0 
0 
0 
0 
0 
0 
0 
0 
0 
0 
0 
0 
0 
0 
0 
0.4281393259525096 
0 
0 
0 
0 
0 
0 
-0.6809529266872305 
0 
0 
1.775650851581791 
0.4788505587804125 
0 
0 
0 
0.7704551960439638 
2.231780315108338 
0 
0 
0 
0 
0 
0 
0 
0 
0 
0 
0 
0 
-0.08382929359580815 
0 
0 
0 
0 
0 
0 
0 
0 
1.921958982162933 
-0.5053144322551353 
-0.05284912140034578 
0 
0 
0 
0 
0 
0 
0 
0 
0 
0 
0 
0 
0 
0 
0 
0 
0 
0 
0 
0 
0 
0 
0 
0 
0 
0 
0 
0 
0 
0.5718614789507586 
0 
0 
0 
0 
0 
0.6361143265393064 
0 
0 
0 
0 
0 
0 
0 
0 
0 
0 
0 
0.4036561677533196 
0 
0 
0 
0 
0 
0 
0 
0 
0 
0 
0 
0 
0 
0.8764474027895994 
0 
0 
0 
0 
0 
0 
0 
0 
0 
0 
0 
0 
0 
0 
0 
0 
0 
0.9471626037027052 
0 
0 
0 
0 
0 
1.464631473097421 
0 
1.628888308100567 
1.109559179756221 
0 
0 
0 
0 
0 
0 
0 
0.9006071528006238 
0 
0 
0.3165322739143073 
0 
0 
0 
0 
0 
0 
0 
0 
0 
0 
0 
0 
0 
0 
0 
0 
0 
0 
0 
0 
1.158963588042945 
0 
0 
0 
0 
0 
0 
0 
0 
0 
0 
0 
0 
0 
1.015158442763543 
0 
0 
0 
0 
0 
0 
0 
0.7040319632917146 
0 
0 
0 
0 
0 
0 
0 
0 
0 
0 
1.215511847203045 
0 
0 
0 
0 
0 
0 
2.435133648171509 
0 
0 
0 
0 
0 
0 
0 
0 
0 
0 
1.204331977075579 
0 
0 
0.4098690757740491 
0 
0 
0 
0 
0 
0 
0 
2.369798561296058 
0 
0 
0 
0 
0 
0 
0 
0 
0 
0 
0 
0 
0 
0 
0 
0 
0 
0 
0 
0 
0 
0 
0 
0 
0 
0 
0 
0 
0 
0 
0 
0 
0 
0 
0 
0 
0 
0 
0 
0 
0 
0 
0 
0 
0 
0 
0 
0 
0 
0 
0 
0 
0 
0 
0.5774145226527404 
0 
0 
0 
0 
0.4932100231042538 
0 
0 
0 
0 
0 
0 
0 
0 
0 
0 
0 
0 
0 
0 
0 
0 
0 
0 
0 
0 
0 
0 
0.02081640571899386 
0 
1.058616322453282 
-0.7666483286505142 
0.671047893734613 
0 
0.3494314069274089 
0 
0 
0 
0 
0 
0 
0 
0 
0 
0 
0 
0.1554428391049852 
0 
0 
0 
0 
0 
0 
0 
0 
1.131375975405118 
0 
0 
0 
0 
0 
0 
0 
0 
0 
0 
0.7209793412616535 
0.6195464598788133 
0 
0 
0 
0 
0 
0 
0 
1.182140617853505 
0 
0 
0 
0 
0 
0 
0 
0 
0 
0 
0 
0 
0 
0 
0 
0 
0 
0 
0 
0 
0 
0 
0.5621834821385301 
0 
0.6055802941912052 
0.3135234095655046 
0 
0 
0 
0 
0 
0 
0 
0 
0 
0 
0 
0 
0 
0 
0 
0 
0 
0 
0 
0 
0 
0 
0 
0 
0 
0 
0 
0 
0 
0.3583197220638197 
0 
0 
0 
0 
0 
0.6619663521928372 
0 
1.386294361119891 
0 
0 
0 
0 
0 
0 
0 
0 
0 
0 
0 
0 
0 
0 
0 
0 
0 
0 
0 
0 
0 
0 
0 
0 
0 
0 
0 
0 
0 
-1.048991650623406 
0 
0 
0 
0 
0 
0 
0 
0 
1.582030177246748 
0 
0 
0 
0 
0 
0 
0 
0 
0 
0 
0 
0 
0 
0 
0 
0 
0 
0 
0 
0 
0 
-0.2216323818218749 
0 
0 
0 
0 
0 
0 
0 
0 
0 
0 
0 
0 
0 
0 
0 
0 
0 
0 
0.3363966549881018 
0 
0 
0 
0 
0 
0 
0 
-0.167160020648648 
0 
0 
0 
0 
0 
0 
0 
0 
0 
0 
0 
0.6943991080972303 
0 
0 
0 
0 
0 
0 
0 
0 
0 
-1.166437880702791 
0 
0 
0 
0 
0 
0 
0 
0 
0 
0 
2.023861474870974 
0 
0 
0 
0 
0 
0 
0 
0 
0.6434918261411529 
0 
0 
0 
0 
0 
0 
0 
-0.5073464392962653 
0 
0 
0 
0.9210210723957466 
0 
0 
0 
0 
0 
0 
0 
0 
0 
0 
0 
0 
0 
0 
0 
0 
0 
0 
0 
0 
0 
0 
0 
0 
0 
0 
0 
0 
1.253118380751812 
0 
0 
0 
0 
0 
0 
0 
0 
0 
0 
0 
0 
0 
0 
0 
0 
0 
0 
0 
0 
0 
1.357108536677851 
0 
0 
0 
0 
0 
0 
0 
0 
0 
0 
0 
0 
0 
0 
0 
0 
0 
0 
0 
0 
0 
0 
0 
0.08168758858453615 
0 
0 
0 
0 
0 
0 
1.2537522441532 
0 
3.188288919299526 
0 
0 
1.15697476220256 
0 
0 
0 
0 
1.380866916105769 
3.12005941989463e-05 
0 
0 
0 
0 
0 
0 
1.44845727730521 
0 
0 
0 
0 
0 
0 
0 
0 
0 
0 
0 
0 
0 
0 
0.8561274447293077 
0.1809682400667254 
0 
0 
0 
0 
0.06992908056478031 
0 
0 
0 
0 
0 
0 
0 
0 
0 
0 
0 
0 
0 
0 
2.098559767380627 
0 
0 
0 
0 
0 
0 
0 
0 
0 
0 
0 
0 
0.3204195840071681 
0 
0 
0 
0 
0 
0 
0 
0 
0 
0 
0 
0 
0 
0 
0 
0 
0 
0 
0 
0 
-1.922818315459226 
0 
0 
0 
0 
0 
0 
0 
0 
0 
0 
0.00412369128257993 
0.5778064010893961 
0.5035441301435392 
0 
0 
0 
0 
0 
-0.1711814706651202 
0 
0 
0 
0 
0 
0 
0 
0 
0 
0 
0 
0 
0 
0 
0 
0 
0 
0 
0 
0 
0 
0 
-1.34238276238021 
0 
0 
0 
0 
0 
0 
0 
0.628906191639499 
0.498911892890017 
0.1769595664211 
0 
0 
0 
0 
0 
0 
0 
2.382763401252683 
0 
0 
0 
0.1674288124551007 
0 
0 
0 
0 
0 
0 
0 
0 
0 
0 
0.8824412167007741 
0 
0.5038531443967402 
0 
0 
0 
0 
0 
0 
0 
0 
0 
0 
0 
0 
0 
0 
0 
0 
0 
0 
2.359171256132433 
0 
0 
0 
0 
0 
0 
0.8830729830851944 
0 
0 
0 
0 
0 
0 
0 
0 
0 
-0.969337683266013 
0 
0 
0 
0 
0 
0 
0 
0 
0 
1.540253604935752 
0 
0 
0 
0 
0.1281224354435856 
0 
0 
0 
0 
0 
0 
0 
0 
2.893989425679564 
0 
0 
0 
0 
0 
0 
0 
1.64165709518356 
0 
0 
0 
0 
0 
0 
0 
0 
0 
0 
0 
0 
0 
0 
0 
0 
0 
0 
0 
0 
0 
0 
0 
0 
0 
0.7663673909191799 
0 
0 
0 
0 
0.8132599005618218 
0 
0 
0 
0 
0 
0 
0 
0 
0 
0 
0 
0 
0 
0 
0 
0 
0 
0 
0 
0 
0 
0 
0 
0 
0 
0 
0 
0.6479197465615543 
0 
0 
0 
0 
0 
0 
0 
0 
0 
0 
0 
0 
0 
0 
0 
0 
0 
0 
0 
0.4238198586926318 
0 
0 
0 
0 
0 
0 
0 
0 
0 
0 
0.2443117556213548 
0 
0 
0 
0 
0 
0 
0 
0 
0 
0 
0 
0.679813776727202 
0 
0 
0 
0 
0 
0 
0 
0 
0 
0 
0 
0 
0 
0 
0 
0 
0 
0 
0 
0 
0 
0 
-0.1898726697889619 
0 
0 
0 
0 
0 
0 
0 
0 
0 
0 
0 
0 
0 
0 
0 
0 
0 
0 
0 
0 
0 
0 
0 
0 
0 
0 
0.07453789894951975 
0 
0 
0 
-0.08338669828467399 
0 
0 
0 
0 
0 
0.2380478765820893 
0.1079948613812433 
0 
0 
0 
0 
0 
0 
0 
0.02427078375291438 
0 
0 
0 
0 
0 
0 
0 
-0.02304382498868121 
0 
0 
0 
0 
0 
0 
0 
0 
0 
1.207263465632635 
0 
0 
0 
0 
0 
0 
1.307027465285188 
0 
0 
0.2443070305693325 
0 
0 
0 
0 
0 
0 
0 
0 
0 
1.185200293623073 
0 
0 
0 
0 
0.1803912067290243 
1.575017081829348 
0 
0 
0 
0 
0 
0 
0 
0 
0 
0 
0 
0 
0 
0 
0 
0 
0 
0 
0 
0 
0 
0 
0 
0 
0 
0 
0 
0 
0 
0 
0 
0 
0 
1.671343948576074 
0 
0 
0 
0 
0 
0 
0 
0 
0 
0 
0.4046913053718273 
0 
0 
0 
0 
0 
0 
0 
0 
0 
0 
0 
0 
0 
0 
-1.387261821262944 
0 
0 
0 
0 
0 
0 
0 
0 
0 
0 
0 
0 
0 
0 
0 
0 
0 
0 
0 
0 
0 
0 
0 
0 
0 
0 
0 
0.7325195978167576 
0 
0 
0 
0 
0 
0 
0.3615173044559208 
0 
0 
0 
0 
0 
0 
0 
0 
0 
0 
0 
0 
0 
0 
0 
0 
0 
0 
0 
0 
0 
0 
0 
0 
0 
0 
0 
0 
0 
0 
0 
0 
0 
0 
0 
0 
0 
0 
0 
0 
0 
0 
0 
0 
0 
0 
0 
0 
0 
0 
0 
0 
0 
0 
0 
0 
0 
0 
0 
0 
0 
0 
0 
0.003427654432551351 
0 
0 
0 
0 
0 
0 
0 
0 
0 
0 
0 
0 
0 
0 
0 
0 
0.1068767298516588 
0 
1.003405860799214 
0 
0 
0 
0 
0 
0 
0 
0 
0 
0 
0.8031156532611724 
0 
0 
0 
0 
0 
0 
0 
0 
0 
0 
0 
0 
0 
0 
0 
0 
0 
0 
0 
1.597731092091566 
0 
0 
0 
0 
0 
0 
0 
0 
0 
0 
0 
0 
0 
0 
0 
0 
0 
0 
0 
-0.06301249663881857 
0 
0 
0 
0 
0 
0 
0 
1.449319760120324 
0 
0 
0 
0 
-0.5742463265153627 
0 
0 
0 
0 
0 
0 
0 
0 
0 
0 
0 
0 
-0.434330217661024 
0 
0 
0 
0 
0 
0 
0 
0 
0 
0 
0 
0 
0 
-0.4005253071308973 
0 
0 
0 
0 
0 
0 
0 
0 
0 
0.8630316780733135 
0 
0 
0 
0 
0 
0 
0 
0 
0 
0 
0 
-1.354308018014739 
0 
0 
0 
0 
0 
0 
0 
0 
0 
0 
0 
0 
0 
0 
0 
0 
0 
0 
0 
0 
0 
0 
0 
-1.08838068962009 
0 
0 
0 
0 
0 
0 
0 
0 
0 
0 
0 
0 
0 
0 
0 
0 
0 
0 
0 
0 
1.11383822783252 
1.19395962073429 
0.3558551644352734 
0 
0 
0.4338477541955286 
0 
0 
0 
0 
0 
0 
0 
0 
0 
0 
0 
0 
0 
0 
0 
0 
0 
0 
0 
0 
0 
0 
0 
0 
0 
0 
0 
0 
0 
0 
0 
0 
0 
0 
0 
0 
0 
0 
0 
0 
0 
0.3288272085182739 
0 
0 
0 
0 
0 
0 
0 
0 
0 
0 
0 
0 
0 
0 
0 
0 
0 
0 
0 
0.6556558067982424 
0 
0 
0 
0 
0 
1.776134262581682 
0 
0 
0 
0 
0 
0 
0 
0 
0 
0 
0 
0 
0 
0 
0 
0 
0.2330335617486712 
0 
0 
0 
1.240976867909549 
0 
0 
0 
0 
0 
0 
0 
0 
2.346437791983213 
0 
0 
0 
0 
0.7877712837670611 
0 
0 
0 
0 
0 
0 
0 
0 
0.5971726279481867 
0 
0 
0 
0 
0 
0 
1.461794884441526 
0 
0 
0 
0 
0 
0 
0 
0 
0 
0 
0 
0 
0 
0 
0 
0 
0 
0 
0 
0 
0 
0 
0 
0 
0 
0 
0 
0 
0.1937809498681262 
0 
0 
0 
0 
0 
0 
0 
0 
0 
0 
0 
0 
1.680414467752342 
0 
0.1740086010943055 
0 
0 
0 
0 
0 
0 
0 
0 
0 
0.8696270465291829 
0 
0 
0 
0 
0 
0 
0 
0 
0 
0 
0 
0 
-0.7079541411466277 
0 
0 
0 
0 
0 
0 
0 
0 
0 
0 
0 
0 
1.015113673556191 
0 
0 
0 
0 
0 
0 
0 
0 
0 
0 
0 
0 
0 
0 
0 
0 
0 
0.3534206786188686 
0 
0 
0 
0 
0 
0 
0 
0 
0 
0 
0 
0 
0 
0 
0 
0 
0 
0 
0.7664643651209314 
0 
0 
0 
0 
0 
0 
0 
0 
0 
0 
0 
0 
0 
0 
0 
0 
0 
0 
0 
0 
0 
0 
0 
0 
0 
0 
0 
0 
0 
0 
0 
0 
0 
0 
0 
0.3560072723628056 
0 
0 
0 
0 
0 
0 
0 
0 
0 
0 
0 
0 
0 
0 
0 
0 
0 
0 
0 
0 
0 
2.622019621473679 
0 
0 
0 
0 
0 
0 
0 
0 
0 
0 
0 
0 
0 
0.7940527536659021 
0 
0 
0 
0 
0 
0 
0 
0 
0.009213940020529452 
0.04315450141149537 
0 
0 
0 
0 
0 
0 
0 
0 
0 
0 
0 
0 
0 
0 
0 
0 
0 
0 
0 
0 
0 
0 
0 
0 
0 
0 
0 
0 
0 
0 
0 
0 
0 
0 
0 
0 
0 
0 
0 
0.719649945268647 
0 
0 
0 
0 
0 
0 
1.367448925141906 
0 
0 
0 
0 
-0.1750446571638971 
0.17524586385883 
0 
0 
0 
0 
-0.005778331750199677 
0 
0 
0 
0 
0 
0 
0 
0 
0 
0 
0 
0 
0 
0.1098090332266904 
0 
0 
0 
0 
0 
0 
0 
0 
0 
0 
0 
0 
0 
0 
-0.4683298447673781 
0 
0 
0 
0 
0 
0 
0 
0 
0 
0 
0 
0.2672052349308385 
0 
0 
0 
0 
0 
0 
0 
0 
0 
0 
0.8973207999441372 
0 
0 
0 
0 
0 
0 
0 
0.570559853832017 
0 
0 
0.3046407017826137 
0 
0 
0 
0 
1.77874945510924 
0 
2.125929046982632 
0 
0 
0 
0 
0 
0 
0 
0 
0 
0 
-0.1002085312517383 
0 
0 
0 
0 
0 
0 
-1.556000406972636 
0 
0 
2.185981523731999 
0 
0 
0 
0 
-0.3899740365353139 
0 
0 
0 
0 
1.17572953039795 
0 
0 
0 
0 
0 
0 
1.684707735493841 
0 
0 
0 
0 
0 
0 
0 
0 
0 
0 
0 
0 
1.193340038123837 
0 
0 
0 
0 
0.6715676080213647 
0 
0 
0 
0 
0 
1.349344543889192 
0.6401648531309719 
0 
0 
0 
0 
-0.0273225283315515 
0 
0 
0 
0 
0.5765466196445335 
0 
0 
0 
0 
0 
0 
0 
3.830631725301144 
0 
0 
0 
0 
0 
1.512904654569996 
0 
0 
0 
0 
0 
0 
0 
0 
0 
0 
0 
0 
0 
1.031982862621796 
2.282017831260889 
0 
0 
0 
0 
0 
1.340380855709547 
0 
0 
0 
0 
1.046314349642202 
0 
0 
0 
0 
0 
0 
0 
0 
0 
0 
0 
0 
-0.1492350978850609 
0 
0 
0 
0.4052251508364094 
0 
0 
0 
0 
0 
0 
0 
0 
0 
0 
0 
0 
0 
0 
0 
0 
0 
0.4274447770828843 
0 
0 
0 
0.479270017731785 
0.002443376151525622 
0 
1.071809702257155 
0 
0 
0 
0.267247755513008 
0 
0 
0 
0 
0 
0 
0 
0 
2.08202425806203 
0 
0 
0 
0 
0 
0 
0 
0 
0 
0 
0 
0.9166879557417164 
0 
1.225719427843416 
0.1990087090177666 
0 
0 
0 
0 
0 
0 
0 
0 
0 
0 
0 
0 
0 
0 
0 
0 
0 
0 
0 
0 
0 
0 
0 
0 
0 
0 
0 
0 
0 
0 
0 
0 
0 
0 
0 
1.971059084231698 
0 
0 
0 
0 
0 
0.9645264069639908 
0 
0 
0 
0 
0 
0 
0 
0 
0 
0 
0 
0 
0 
0 
0 
0 
0 
0 
0 
0 
0 
0 
0 
0 
0 
0 
0 
0 
0 
0 
0 
0.3639163925740783 
0 
0 
0.6913601257637813 
0 
1.449489593574229 
0 
0 
0 
0 
0 
0 
0 
0 
0 
0 
0 
0 
0 
0 
0 
0 
0 
0 
0 
0 
0 
0 
0 
0 
0 
0 
0 
0 
0 
0 
0 
0 
0 
0 
0 
0 
0.7546270889650674 
-0.1926507423351384 
0.3930200459541435 
0 
0 
0 
0 
0 
0 
0 
0 
0 
0 
1.511942874317863 
0 
0 
0 
0 
0 
0 
0 
0 
0 
0 
-0.9193125068212017 
0.59425891751339 
0 
0.8552404531465398 
0 
0 
0 
0 
0 
1.264491055746297 
0 
0 
0 
0 
0 
0 
0 
0.5368467113148744 
0 
0 
0 
0 
0 
0 
0 
0 
0 
0 
0 
0 
0 
0 
0 
0 
0 
1.984285049026025 
0 
0.3656225050026535 
0 
0 
0 
0 
0 
0 
0 
1.384371535404502 
0 
0 
0 
0 
0 
0 
0 
0 
0 
0 
0 
0 
0 
0 
0 
0 
0 
0 
0 
0 
0 
0 
0 
0 
0 
0 
0 
0 
0 
0 
0 
0 
0.855303726226762 
0 
0 
0 
0 
-0.04365550026436558 
0 
0 
0 
0 
0 
-0.6009664655509545 
0 
0 
0 
0 
0 
0 
0 
0 
0 
-0.3025462615308653 
0 
0 
0 
0 
0 
0 
0 
0 
0 
0 
0 
0 
0 
0 
0 
0 
0.6250607181934191 
0 
0 
0.482760993005612 
0 
0 
0 
0 
0 
0 
3.80682803457059 
0 
-2.801518573117568 
0 
-0.2879954513880485 
0 
0 
-0.7548784211061231 
0 
-1.461722315454925 
0 
1.535457291017923 
0 
0 
0 
0 
0 
0 
0 
0 
0 
0 
0 
0 
0 
0 
0 
0 
0 
0 
0 
0 
0 
0 
0 
0 
0 
0 
0 
0 
0 
0 
0 
0 
0 
0 
0 
0 
0 
0 
0 
0 
0 
0.5197283284931046 
0 
0 
0 
0 
0 
0 
0 
0.6790438325636543 
0 
0 
0 
0 
0 
0 
0 
0 
0 
0 
0 
0 
0 
0 
0 
0 
0 
0 
0 
0 
0 
0 
0 
1.094198943508845 
0 
0 
0 
0 
0 
0 
0 
0 
0 
0 
0 
0 
0 
0 
0 
0.4446672599019563 
0 
0 
0 
0 
0 
0 
0 
0 
0 
0 
0 
0 
0 
0 
0 
0 
0 
0 
0 
0 
0 
0 
0 
0 
0 
0 
0 
0 
0 
0 
0 
0.2775470243637757 
0 
0 
0 
0 
0 
0 
0 
0 
0 
0 
0 
0 
0 
0 
0 
0 
0.3356619259643008 
0 
0 
0 
0 
0 
0 
0 
0 
0 
0 
0 
0 
0 
0 
0 
0 
0 
0 
0 
0 
0 
0 
0 
0 
0 
0 
0 
0 
0 
0 
0 
0 
0 
0 
0 
0 
0 
0 
0 
0 
0 
0 
0 
0 
0 
0 
0 
0 
0 
0 
0 
0 
0 
0 
0 
0 
0 
0 
0 
0 
0 
0 
0.8792660449668043 
0 
0 
0 
0 
0 
0 
0 
0 
0 
0 
-0.1046723137400258 
0 
0 
0 
0 
0 
0 
0 
0 
0 
0 
0 
0 
0 
0 
0 
0 
0 
0 
0 
0 
0 
0 
0 
0 
0 
0 
0 
0 
0 
0 
0 
0 
0.7416544015636904 
0 
0 
0 
0 
0 
0 
0 
0 
0 
0 
0 
0.0827664827364597 
0 
0 
0 
0 
0 
0 
0 
0 
0 
0 
0 
0 
0 
0 
-0.7725280704174272 
0 
0 
0 
-1.338146110655264 
0 
0 
0 
0 
0 
0 
0 
0 
0 
0.3680798091386117 
0 
0 
0 
-0.3347656247805608 
0 
0 
0 
0 
0 
0 
0 
0 
0 
0 
0 
0 
0 
0 
0 
0 
0 
0 
0 
0 
0 
0 
0 
0 
0 
0 
0.3709231709933746 
0 
0 
0 
0 
0 
0 
0 
0.8760868180098312 
0 
0 
0 
0 
0 
0 
0 
0 
-1.407680068440924 
0 
0 
0 
0 
0 
0 
0 
0 
0 
0 
0 
0 
0 
0 
0 
0 
1.288661657929552 
0 
0 
0 
0 
0 
0 
0 
0 
0 
0 
0 
0 
0 
0 
0 
0.7918933135077475 
-0.1892196288584576 
0 
0 
0 
0 
0 
0 
0 
0 
0 
0.8477065959881488 
0.9040110822247804 
0 
0 
0 
0.7360782536118425 
0 
0 
0 
0 
0 
0 
0 
0 
0 
0 
0 
0 
0 
0 
0 
0 
0 
0 
0 
0 
0 
0 
0 
0 
0 
0 
0 
0 
0 
0.9182109005742797 
0 
0 
0.0777010985768857 
0 
0 
0 
0 
0 
0 
0 
0 
0 
0 
0 
0 
0 
0 
0 
0 
0 
0 
0 
0 
0 
-0.5893812363781272 
0 
0 
0 
0 
0 
0 
0 
0 
0 
0 
0 
0 
0 
0 
0 
0 
0 
0 
0.1665935487066883 
1.315540012143536 
0 
0 
0 
0 
0 
0 
0 
0 
0 
0 
0 
0 
0 
0 
0 
0 
0 
0 
0 
0 
0 
0 
0 
0 
0 
0 
0 
0 
0 
0 
0 
0 
0 
0 
0 
0 
0 
0 
0 
0 
0 
0 
0 
0 
0 
0 
0 
0 
0 
0 
1.855260415170278 
0 
0 
0 
0 
0 
0 
0 
0 
0.3207360993218548 
0 
0 
0 
0 
0 
0 
0 
0 
0 
0 
0 
0 
0 
0 
0 
0 
0 
0 
0 
0 
0 
0 
0 
-0.2226678550328088 
0 
0 
0 
0 
0 
0 
0 
0 
0 
0 
0.1019393627298329 
0 
0 
0 
0 
0 
0 
0 
0 
0 
0 
0 
0 
0 
0 
0 
0 
0 
0 
0 
0 
0 
0 
0 
0 
0 
0 
0 
0 
0 
1.142723881933542 
0.349777793647896 
0 
0 
0 
0 
0 
0 
0 
0 
0 
0 
0 
0 
0 
0 
0 
0 
0 
0 
0 
0 
0 
0 
0 
0 
0 
0 
0 
0 
0 
0 
0 
0 
0 
0 
0 
0 
0 
0 
0 
0 
0 
0 
0 
0 
-2.701017813554541 
0 
3.124640303191899 
0 
0 
0 
0 
0 
0 
0 
0 
0 
0 
0 
0 
0 
0 
0 
0 
0 
0 
0 
0 
0 
0 
0 
0 
0 
0 
0 
0 
0.8391028857667636 
0 
0 
0 
0 
0 
0 
0 
2.304988654044372 
0 
0 
0 
0 
0 
0 
0 
-0.5554947505536638 
0 
0 
0 
0 
0 
0 
0 
0 
0 
0 
0.5921013242413486 
0 
0 
0 
0 
0.874307093423747 
0 
0 
0 
0 
0 
1.030736244643929 
0 
0 
0 
0 
0 
0 
0 
0 
0 
0 
0 
0 
0 
0 
0 
0 
0 
0 
0 
0 
0 
0 
1.069758353678443 
0.08057007293113087 
0.09986981179700573 
0 
0 
0 
0 
0 
0 
0 
0 
0 
0 
0 
0 
0 
0 
1.386294361119891 
1.376958144624651 
0 
0.009336216495240258 
0 
0 
0 
0 
0 
0 
0 
-2.222714671181641 
0 
0 
0 
0 
0 
0 
0.168485980301145 
0 
0 
0 
0 
0 
0 
0 
0 
0 
0 
0 
0 
0 
0 
0 
0 
0 
0 
0 
0 
0 
0 
0 
0 
0 
0 
0 
0 
0 
0 
0 
0 
-0.5466738530626862 
0.8875874399990804 
0 
0 
0 
0 
0 
0 
0 
0 
0 
0 
0 
0 
0 
0 
0 
0 
0 
0 
0 
0 
0 
0 
0 
0 
0 
0 
0 
0.6659597456818676 
0 
0 
0 
0 
0 
0 
0 
0 
0 
0 
0 
0 
1.105452406729965 
0 
0 
1.82801724446684 
0 
0 
0 
0.5732188890852619 
0 
0 
1.386294361119891 
0 
0.7939723663874022 
0 
0 
0 
1.386294361119891 
0 
0 
0 
0 
0 
0 
0 
0 
0 
0 
0 
0 
0 
0 
0 
0 
0 
0 
0 
0 
0 
0 
0 
0 
0 
0 
0 
0 
0 
0 
-0.223115798489113 
0 
0 
0 
0 
0 
0 
0 
0 
0 
0 
0 
0 
0 
0 
0 
0 
0 
0 
0 
0 
0 
0 
0 
0 
0 
0 
0 
0 
0 
0 
0 
0 
0 
0 
1.75340038878472 
0 
0 
0 
0 
0 
0 
0 
0 
0 
0 
0 
0 
0 
0 
0 
0 
0 
0 
0 
0 
0 
0 
0 
0 
0 
0.1826503843415881 
0 
0 
0 
0 
0 
0 
0 
0 
0 
0 
0 
0 
0 
0 
0 
0 
0 
0 
0 
0 
0 
0 
0 
0 
0 
0 
0 
0.1903997254760325 
0 
0 
0 
0 
0 
0 
0 
-0.01771614956992825 
0 
0 
0 
0 
0 
0 
0 
0 
0 
0 
0 
0 
0 
0 
0 
0 
0 
0 
0 
0.01520599737918082 
0 
0 
0 
0 
0 
0 
0 
0 
0 
0 
1.777021627825433 
0 
0 
0 
0 
0 
0 
0 
0 
0 
0 
0 
0 
0 
0 
0 
0 
0 
0 
0 
0 
0 
0 
0 
0 
0 
0 
0 
0 
0 
0 
0 
0 
0 
0 
0 
0 
0 
0.3222598434461696 
0 
0 
0.004046148544588356 
0.1663323162067235 
0 
1.34847432847741 
0 
0 
0 
0 
0 
0 
0 
0 
0 
0 
0 
0 
0 
0 
0 
0 
0 
0 
0 
0 
0 
0 
0 
0 
0 
0 
0 
0 
0 
0 
0 
0 
0 
0 
0 
0 
0 
0 
0 
0 
0 
0 
0 
0 
0 
0 
0 
0 
0 
0 
0 
0 
0 
0 
0 
0 
0 
0 
1.897662663882491 
0 
-0.760641809345198 
0 
0 
0 
0 
0.42971668545461 
-0.7469615806245947 
0.1086707981106609 
0 
0.4900891150948391 
0 
2.066594583904352 
0 
0 
0 
0 
1.196540316166328 
0 
0 
0 
0 
0 
0 
0 
-2.07143436507826 
0.005020636179701369 
0 
0 
0 
0 
0 
0 
0 
0 
0 
0.5558251128410566 
0 
0 
0 
0 
0 
1.725673075634735 
0.8171244120547122 
0 
0 
0 
0 
0 
0 
0 
0.7091418129509428 
0 
0 
0 
0 
0 
0 
0 
1.686994245113316 
0 
0 
0 
0 
0 
0 
0 
0 
0 
0 
0 
0 
0 
0 
0 
0 
0 
0 
0 
0 
0 
0 
0 
0 
0 
0 
0 
0 
0 
0 
0 
0.4556833696273027 
0 
0 
0 
0 
0 
-0.5577835835525234 
0 
0 
0 
0 
0 
0 
0 
0 
0 
0 
0 
0 
0 
0 
0 
0 
0 
0 
0 
0 
-0.01644926698251143 
0 
0.3023898245550232 
0 
0 
0 
0 
0 
0 
0 
0 
0 
0 
0 
0 
0 
0 
0 
0 
0 
0 
0 
0 
0 
0 
0 
0 
0 
0 
0 
0 
0 
0 
0 
0 
0.1917275005590006 
0 
0 
0 
0 
0 
0 
0 
0 
1.536906783541972 
0 
2.186380278309547 
0 
0 
0 
0 
0 
0 
0 
0 
0 
0 
0 
0 
0 
0 
0 
2.756470011895372 
0 
0 
0 
0 
0 
0 
0 
0 
0 
0 
0 
0 
0 
0 
0 
0 
0 
0 
0 
0 
0 
0 
0 
0 
0 
0 
0 
0 
0 
0 
0 
0 
0 
0.6523447888552992 
0 
0 
0 
0 
0 
0 
0 
0 
0 
0 
0 
0 
0 
0 
0 
0 
0 
0 
0 
0 
0 
0 
0 
0 
0 
0 
0 
1.406582147900804 
0 
0 
0 
0 
0 
0 
0 
0 
0 
0 
0 
0 
0 
0 
0 
0 
0 
0 
0 
0 
0 
0 
0 
0 
0 
0 
0 
0 
0 
0 
0 
0 
0 
0 
0 
0 
0 
0 
0 
0 
0 
0 
0 
0 
0 
0 
0 
0 
0 
0 
0 
0 
0.0004022882703801765 
0 
0 
0 
0 
0 
0 
0 
0 
0 
0 
0 
0 
0 
0 
0 
0 
0 
0 
0 
0 
0 
0 
0 
0 
0 
0 
0 
0 
0 
0 
0 
0 
0 
0 
0 
0 
0 
0 
0 
0 
0 
0 
0 
0 
0 
0 
0 
0 
0 
0 
0 
0 
0.117376843739708 
0 
0 
0 
0 
0 
0 
0 
0 
0 
0 
0 
0 
0 
0 
0 
0 
0 
0 
0.9475750589559189 
0 
0 
0 
0 
0 
0 
-1.852803785520078 
0 
0 
0.05789317783779407 
0 
0 
0 
0 
0 
0 
0 
-0.6152107933234147 
0 
0 
1.077360425117408 
0 
0 
0 
0 
-0.4948065203238802 
0 
0 
0 
0 
0 
-0.4521290592197319 
0 
0 
0 
0 
0 
0 
0 
0 
0 
0 
0 
0 
0 
0 
0 
0 
1.016772562857854 
0 
0 
2.30146356481623 
0 
0 
0 
0 
0 
0.3144068389673193 
0.9638572421381089 
0 
0.05870317209711275 
0 
0 
0 
0 
0 
0 
0 
0 
0 
0 
0 
0 
0 
0 
0 
0 
0 
0 
1.161203242125327 
0 
0 
0.1810962232981639 
0 
0 
0 
0 
0 
0 
0 
0.09936449172305493 
0 
0 
0 
0 
0 
-2.328059270900797 
0 
0 
0 
0 
0 
-0.4300828931867149 
0 
0 
-0.7603988722782836 
0 
0 
0 
0 
0 
0 
0 
0 
0 
0 
0 
0 
0 
0 
0 
0 
0 
0 
0 
0 
0 
0 
0 
0 
0 
0 
0 
0 
0 
0 
0 
0 
0 
0 
0 
0 
0 
0 
0 
0 
0 
0 
0 
0 
0 
0 
0 
0 
0 
0 
0 
0 
0 
0 
0 
0 
0 
0 
0 
0 
0 
0 
0 
0 
0 
0 
0 
0 
0 
0 
0 
0 
0 
0 
0 
0 
0 
-0.1525135218049358 
0 
0 
0 
0 
0 
0 
0 
0 
0 
0 
0 
0 
0 
0 
0 
0 
0 
0 
0 
0 
0 
0 
0 
0 
0 
0 
0 
0 
0 
0 
0 
0 
0 
0 
0 
0 
0 
0 
0 
0 
0 
0 
0 
0 
-0.02420709220080361 
0 
0 
0 
0 
0 
0 
0 
0 
0 
0 
0 
0 
1.551954980840721 
0 
0 
0 
0 
0 
0 
0 
0 
0 
0 
0 
0 
0 
0 
0 
0 
0 
0 
0 
0 
0 
0 
0 
0 
0 
0 
0 
0 
0 
0 
0 
0 
0 
0 
0 
0 
0 
0 
0 
0 
0 
0 
0 
0 
-1.788506190489056 
-0.2965766412524733 
0 
0 
0 
0 
0 
0 
0 
0 
0 
0 
0 
0 
0 
0 
1.097174932140007 
-0.3272726026731219 
0 
0 
0 
0 
3.554071898860544 
0 
0 
0 
0 
-1.43847203692705 
0 
0 
0 
0 
0 
0 
0 
0.4595737019747677 
0 
0 
0.5653458177026863 
0 
0.8751261383021466 
0 
0 
0 
0 
0 
0.2617220535665156 
0 
0 
0 
0 
0 
0 
1.064312440570457 
0 
0 
0 
0 
0 
0 
0 
0 
0 
0 
0 
0 
0 
0 
0 
0 
0 
0 
0 
0 
1.162350548666257 
0 
0 
2.561449551210113 
0 
0 
0 
0 
0 
0 
0.03528914645975493 
0 
0 
0 
0 
0 
0 
0 
0 
0 
0 
0.3679461246169059 
0 
0 
0 
0 
0.7069559871105758 
0 
0 
0.5022276527689591 
0.4878335530827346 
0 
0 
0 
0 
0 
0 
0 
0 
0 
0 
0 
0 
0 
0 
0 
0 
1.5004979848329 
1.27972944838919 
0 
0 
0 
0.6949674257590037 
0 
0 
0 
0 
0 
0 
0 
2.226959749851456 
0 
0 
0 
0 
0 
0 
0 
0 
0 
0 
0 
0 
0.1710843426031255 
0 
1.429212241139285 
0 
0 
0 
0 
0 
0 
0 
0 
0 
0 
0 
0 
0 
0 
0 
0 
0 
0 
0 
0 
0 
-1.781427050486388 
0 
0 
0 
2.351669741066161 
0 
0 
0 
-2.214086937479157 
0 
2.715729322959512 
0 
-3.374832661578933 
0 
0 
0 
0 
0 
0 
0 
0 
0 
0 
0 
0 
0 
0 
0 
0 
0 
0 
0 
0 
0 
0 
0 
0 
0 
0 
0 
0.166501902889162 
0 
0 
0 
0 
0 
0 
0 
0 
0 
0.6855106300649183 
0 
0 
0 
0 
0 
0 
0 
0 
0 
0 
0 
0 
0 
0 
0 
0 
0 
0 
0 
0 
0 
0 
-0.915580092564964 
0 
0 
0 
0 
0 
0.839868399379608 
0 
0 
0 
0 
0 
0 
0 
0 
0 
0 
0 
0 
0 
0 
0 
0 
0.1755778545515732 
0 
0.6786594114957052 
-2.344486865656676 
0 
0 
0 
0 
0 
0 
1.57428060268785 
0 
0 
0 
0 
0 
0 
0 
0 
0 
0 
0 
0 
0 
0 
0 
0 
0 
0 
0 
0 
0 
0 
0 
0 
0 
0 
0 
0 
0 
0 
0 
0 
0 
0 
0 
0 
0 
0 
0 
0 
0 
0 
0 
0.6335944374228201 
0 
0 
0 
0 
0 
0 
0 
0 
0 
0 
0 
2.078406521341538 
0 
0 
0 
0 
0 
0 
0 
0 
0 
0 
0 
0 
0 
0 
0 
0 
0 
0 
0 
0 
0 
0 
0 
0 
0 
0 
0 
0.6301812558017766 
0 
0 
0 
0 
0 
0 
0 
0 
0 
0 
0 
0 
0 
0 
0 
0 
0 
0 
0 
0 
0 
0 
0 
0 
2.0062719941049 
0 
0 
1.94109642866576 
0 
0 
0 
0 
0 
0 
0 
0 
0 
0 
0 
0 
0 
0 
0 
0 
0 
0 
0 
0 
0 
0.4337013802045929 
0 
0 
1.082670251843661 
0 
0 
0 
0 
0 
0 
0 
0 
0 
0 
0 
1.075719741401115 
0 
0 
0 
0 
0 
0 
0 
0 
0 
0.2416975200402872 
0 
0 
0 
0 
0 
0 
0 
1.34941938300321 
0 
0 
0 
0 
0 
0 
-0.6295265935796105 
0 
0 
0 
0 
0 
0 
0 
0 
0 
0 
0 
0 
0.4881829235777477 
0 
0 
0 
0.2599003161723381 
0.710329791791275 
0 
0 
2.099066608427077 
0 
0 
0 
0 
0 
0 
0 
0 
0 
0 
0 
0 
0 
0 
0 
0 
-0.1533454421323292 
0 
0 
0 
0 
0 
0 
0 
0 
0 
0 
0 
1.799411563682329 
0 
0 
0 
0 
0 
0.6251805019360249 
0 
0 
0 
0 
0 
0 
0 
0 
0 
0 
0 
0 
0 
0 
0 
0 
-2.72491540506934 
0 
0 
0 
0 
0 
0 
0 
0 
0 
0 
0 
0 
0 
0 
0 
0 
0 
0 
0 
0 
-3.240005819072055 
0 
0 
0 
0 
0 
0 
0 
0 
0 
0 
0 
0 
0 
0 
0 
0 
0 
0 
0 
0 
0 
0 
0 
0 
0 
0 
0 
0 
0 
0 
0 
0 
0 
0 
0 
0 
0 
0 
0 
0 
0 
0 
0 
0 
0 
0 
0 
0 
0 
0 
0 
0 
0 
0 
0 
0 
0 
0 
0 
0 
0 
0 
0 
0 
0 
0 
0 
0 
0 
0 
0 
0 
0 
0 
0 
0 
0 
0 
0 
1.113162908416337 
2.750761082473717 
0 
0 
0 
0 
0 
0 
0 
0 
0 
0 
0 
0 
0 
0 
0 
0 
0 
0 
0 
0 
0 
0 
0 
0 
0 
0 
0 
0 
0 
0 
0 
0 
0 
0 
0.6480818976829308 
0 
0 
0 
0 
0 
0 
0 
0 
0 
0 
0 
0 
0 
0 
0 
0 
0 
0 
-3.103301431628499 
0 
0 
0 
0 
0 
0 
0 
0 
0 
0 
0 
0 
0 
0 
0 
0 
0 
0 
0 
0 
0 
0 
0 
0 
0 
0 
0 
0 
0 
0 
0 
-0.2891716236262593 
0 
0 
0 
0 
0 
0 
0 
0 
0 
0 
0 
0 
0 
1.039561316362098 
0 
0 
0 
0 
-2.590801602794861 
0 
0 
0 
0 
0 
0 
1.095293347687022 
2.444183481494789 
-0.06399448709990983 
0 
0 
1.98322148384516 
0 
0 
0 
0 
0 
0 
0 
0 
0 
0.2788052625596682 
0 
0 
0 
0 
0 
0 
0 
0 
0 
0 
0 
0 
0 
0 
0.08252519052145224 
1.632060980064508 
0 
0 
-0.4098935432005815 
0 
0 
0 
0 
0 
0 
1.223821699895771 
0 
0 
0 
0 
0 
0 
0 
0 
0 
0 
0.1206079373339987 
-1.188202132871662 
0 
0 
0 
0 
0 
0 
0 
0 
1.44369448522048 
0 
0 
0 
0 
0 
0 
0 
0 
0 
0 
0 
0 
0 
1.731461471976337 
0 
0 
0 
0 
0 
0 
0 
0 
0 
0.2505993408556594 
0 
0 
0 
0 
0 
0 
0 
0 
0 
0 
0 
0 
0 
0 
0 
0 
0 
0 
0 
0 
0 
0.6149754734011058 
0 
0 
0 
0 
0 
0 
0 
0 
0.7043150688118225 
0 
0 
0 
0 
0 
0 
0 
0 
0 
0 
0 
0 
0 
0 
0 
0 
0 
1.698725130043121 
0 
0 
0 
0 
0 
0 
0 
0 
-0.1935232537704389 
0 
0 
0 
0 
0 
0 
0 
0 
0 
0 
0 
0 
0 
0 
0 
0 
0 
0 
0 
0.3612710952765077 
0 
0 
0 
0 
0 
0 
0 
0 
0 
0 
0 
0 
0 
0 
0 
0 
0 
0 
0 
0 
0 
0 
0 
0 
0 
0 
0 
0 
0 
0 
0 
0 
0 
0 
0 
0 
0 
0 
0 
0 
0 
0 
0 
0 
0 
0 
0 
0 
0 
0 
0 
0 
0 
0 
0 
0 
0 
0 
0 
0 
0 
0 
0 
0 
0.7824144433927349 
1.895584020473598 
0 
0 
0 
0 
0 
0 
0 
0 
0 
0 
0 
0 
0.08739335927410241 
3.256567067404548 
0 
0 
0 
0 
0 
0 
0 
0 
0 
0 
0 
0 
1.314555494846973 
0 
0 
0 
0 
0 
0 
0 
0 
0 
0 
0 
0 
0 
0 
0 
0 
0 
0 
0 
0 
0 
0 
0 
0 
0 
0 
0 
0 
0 
0 
0 
0 
0 
0 
0 
0 
0 
0 
0 
0 
0 
0 
0 
0 
0 
0 
0 
0 
0 
0 
0 
0 
0 
0 
0 
0 
0 
0 
0 
0 
0 
0 
0 
0 
0 
0 
0 
0 
0 
0 
0 
0 
0 
0 
0 
0 
0 
0 
0 
0 
0 
0 
0 
0 
-1.745297690824755 
0 
0 
0 
0 
0 
0 
0 
0 
0 
0 
0 
0 
0 
0 
0 
0 
0 
0 
0 
0 
0 
0 
0 
0 
0 
0 
0 
0 
0 
0 
0 
0 
0 
0 
0 
0 
-1.089307773703544 
0 
0 
0 
0 
0 
0 
0 
0 
0 
0 
0 
0 
0 
0 
0 
0 
0 
0 
0 
0 
0 
0 
0 
0 
0 
0 
0 
0 
0 
0 
0 
0 
0 
0 
0 
0 
0 
0 
0 
3.543328612100654 
0 
0 
0 
0 
0 
0 
0 
0 
0 
0 
0 
0.1299612532325017 
0 
0 
0 
0 
0 
0 
0 
0 
0 
0 
0 
0 
0 
0 
0 
0 
0 
0 
0 
0 
0 
0 
0.3811476115469667 
0 
0 
0 
0 
0 
0 
0 
0 
0 
0 
0 
0 
0 
0 
0 
0 
0 
0 
0 
0.7391661185206996 
0 
0 
0 
-0.4598322977340917 
0 
0 
0 
0 
0 
0 
0 
0 
0 
0 
0 
0 
0 
0 
0 
0 
0 
0 
0 
0 
0 
0 
0 
0 
0 
0 
0 
0 
0 
0 
0 
0 
0 
0 
0 
0 
0 
0 
0 
0 
0 
0 
0 
0 
0 
0 
0 
0 
0 
0 
0 
0 
0 
0 
0 
0 
0 
0 
0 
0 
0 
0 
0 
0 
0 
0 
0 
0 
0 
-0.0848822022540231 
0 
0 
0 
0 
0 
0 
0 
0 
0 
0 
1.386816866741419 
0 
0.2259095078557093 
0 
0 
0 
0 
0 
0 
0 
1.940165650952254 
0 
0 
0 
0 
0 
0 
-0.1973725821970408 
0 
0.1772061258158487 
0 
0 
0 
0 
0 
0 
0 
0 
-0.2484152786242871 
0 
0 
0 
0 
0 
0 
0 
0 
-0.08834683886144633 
0 
0 
0 
0 
0 
0 
0 
0 
0 
0 
0 
0 
0 
0 
0 
0 
0 
0 
0 
0 
0 
-0.614340182707006 
0 
0 
0.03155554205280311 
1.354335637396169 
0 
0 
0 
0 
0 
0 
0 
0 
0 
0 
0 
0 
0 
0 
0 
0 
0 
0 
0 
-0.5324693226908048 
0 
0 
0.355814736516703 
0 
0 
0 
0 
0 
0 
0 
0 
0 
0 
0 
0 
0 
0 
0 
0 
0 
0 
0 
0 
0 
0 
0 
0 
0 
0 
0 
0 
0 
0 
0 
0 
0 
0 
0 
0 
0 
0 
0 
0 
0 
0 
0 
0 
0 
2.498530015349777 
0 
0 
0 
0 
0 
0 
0 
0 
0 
0 
0 
0 
0.4426148455844232 
0 
0 
0 
0 
0 
0 
0 
1.707797718099366 
0 
0 
0 
0 
0 
0 
0 
0 
0 
0 
0 
0 
0 
0 
0 
0 
0 
0 
0 
0 
0 
1.035203831705953 
0 
0 
0 
0 
-2.042214913865426 
0 
0 
0.8955594135938203 
0 
0 
0 
0 
0 
0 
0 
0 
0 
0 
0 
0 
0 
0 
0 
0 
0 
0 
0 
0 
0.2555777132966058 
0 
0 
0 
0 
0 
0 
0 
0 
0 
0 
-0.09205110653046809 
0 
0 
0 
0 
0 
0 
0 
3.471503174292494 
0 
0 
0 
0 
0 
0 
0 
0 
0 
0 
0 
0 
0 
0 
0 
0 
1.59955071782493 
0 
0 
0 
0 
0 
0 
0 
0 
0 
0 
0 
0 
0 
0 
0 
0 
0 
0.4556778067851879 
0.3291326053659165 
0 
0 
0 
0.1812073926547204 
0 
1.573916577061069 
0.3345902463645404 
0 
0 
0 
0 
0 
0 
-1.270620690136358 
0 
0 
0 
0 
0 
0 
0 
0 
0 
0 
0 
0 
0 
0 
0 
0 
0 
0 
0 
0 
0 
0 
0 
0 
0 
0 
0 
0 
0 
0 
0 
0 
0 
0 
0 
0 
0 
0 
0 
0 
0 
0 
0 
0 
0 
0 
0 
0 
0 
0 
0 
0 
0 
0 
0 
0 
0 
0 
3.660588398840335 
0 
0 
0 
0 
0 
0 
0 
0 
0 
0 
0 
0 
0 
0 
0 
0 
0 
0 
0 
0 
0 
0 
0 
0 
0 
2.153503661606776 
0 
0 
0 
0 
0 
0 
0 
0 
0 
0 
0 
0 
0 
0 
0 
0 
0 
0 
0 
0.1423775809579389 
0 
0 
0 
0 
0 
0 
0 
0 
0 
0 
0 
0 
0 
0 
0 
0 
0 
0 
-0.10450557207731 
0 
0 
0 
2.286404646686153 
0 
1.395159677870096 
0 
0 
0 
0 
0 
0 
0 
0 
0 
0 
0 
0 
0 
0 
0 
0 
0 
0 
0 
0 
0 
0 
0 
0 
0 
0 
0 
0 
0 
0 
0 
0 
0 
0 
0 
0 
0 
0 
0 
0 
0 
0.2982785047395963 
0 
0 
0 
0 
0 
0 
0 
0 
0 
0 
0 
0 
0 
0 
0 
0 
0 
0 
0 
0 
0 
0 
0 
0 
0 
0 
0 
0 
-1.37467782302037 
0 
0 
0 
0 
0 
0 
0 
0 
0 
0 
0 
0 
0 
0 
0 
0 
0 
0 
0 
0 
0 
0 
0 
0 
0 
0 
0 
0 
0 
0 
0 
1.097042791036136 
0 
0 
0 
0 
0 
0 
2.793639863656596 
0 
0 
0 
0 
-0.1570380328295424 
0 
0 
0 
0 
0 
-0.6666228771337388 
0 
0 
0 
0 
0 
0 
0 
0 
0 
0 
0 
0 
0 
0 
0 
0 
0 
0 
0 
0 
0 
-0.01527120987943397 
0 
0 
0 
0 
0 
0 
0 
0 
0 
0 
1.240944612752862 
0 
0 
0 
0 
0 
0 
0 
0 
0 
0 
0 
0 
0 
0.1924092846731281 
0 
0 
0 
0 
0 
0 
0 
0 
0 
0 
0 
0 
0 
0 
0 
0 
0 
0 
0 
0 
0 
-0.3864086125093413 
0 
0 
0 
0 
0 
0 
0 
0 
0 
0 
0 
1.394365824703796 
0 
0 
-0.5624249126962411 
0 
0 
0 
0 
0 
0 
0 
0 
0 
0 
0 
0 
0 
0 
0 
0 
0 
0 
0 
0 
0 
0 
0 
0 
2.004902445611799 
-0.2578831059120809 
1.446884858716361 
0 
0 
0 
0 
0 
0 
0 
0 
0 
0 
0 
0 
0 
0 
0 
1.296642544256255 
0 
0 
0 
1.365727883215712 
0 
0 
0 
0 
0 
0 
0 
0 
0 
0 
0 
0 
1.016851858731358 
0 
0 
0 
0 
0 
0 
-0.3839846674828586 
0 
0 
-2.923720213921259 
0 
0 
0 
0 
0 
-1.605662415246926 
-0.05130971400023094 
0 
0 
0 
0 
0 
0 
0 
0 
0 
0 
0 
0 
0 
0 
1.027924546546291 
0 
0 
0 
0 
0 
0 
0 
0 
1.330986473819479 
0 
0 
0 
0 
0 
0 
0 
1.827287182828177 
0 
0 
0 
0 
0 
0 
0 
0 
0 
0 
0 
0 
0 
0 
0 
0 
-0.3994345358860886 
0 
0 
0 
0 
0 
0 
0 
0 
0 
0 
0 
0 
0 
0 
0 
0 
0 
0 
0 
0 
0 
0 
0 
0 
0 
0 
0 
0 
0 
0 
0 
0 
0 
0 
0 
0 
0 
0 
0 
0 
0 
0 
0 
0 
0 
0 
0 
0 
0 
0 
0 
0 
0 
0 
0 
1.309424528789602 
0 
0 
0 
0 
0 
0 
0 
0 
0 
0 
0 
0 
0 
0 
0 
0 
0 
0 
0 
0.04703586425686943 
0 
0 
0 
0 
0 
0.001653379087150473 
0 
0 
0 
0 
0 
0 
0 
0 
0 
0 
0 
0 
-0.05099527552203997 
0 
0 
0 
0 
0 
0 
0 
0 
0 
0.2072977428495844 
0 
0 
0 
-0.327255829952215 
0 
1.970441421793127 
0 
0 
0 
0 
0 
0 
0 
0 
0 
0 
0 
0 
0 
0 
0 
0 
0 
0 
0 
0 
0 
0 
0 
0 
0 
0 
0 
0 
0 
0 
0 
0 
0 
0 
0.1400496401742168 
0 
0 
0 
1.16455382598564 
0 
0 
0 
0 
0 
0 
0 
0 
0 
0 
0 
0 
0 
0 
0 
0 
0 
0 
0 
0 
0 
0 
0 
0 
0 
0 
0 
0 
0 
0 
0 
0 
0 
0 
0 
0 
0 
0 
0 
0 
0 
0 
0 
0 
0 
0 
0 
0 
0 
0 
0 
0 
0 
0 
-0.08313840825552699 
0 
0 
0 
0 
0 
0 
0 
0 
0 
0 
0 
0 
0 
0 
-1.316134570383074 
0 
0 
0 
0 
0 
0 
0 
0 
0 
0 
0 
0 
0 
0 
0 
0 
0 
0 
0 
0 
0 
0 
0 
0 
0 
0 
0 
0 
0 
0 
0 
0 
0 
0 
0 
0 
0 
0 
0 
0 
0 
0 
0 
0 
0 
0 
0 
0 
0 
0 
0 
0 
0 
0 
0 
0 
0 
0 
0 
0 
0 
0 
0 
0 
0.4315010391497095 
0 
0 
1.825995547572364 
0 
0 
0 
0 
0 
0 
0 
0 
0 
0 
-2.432405988053147 
0 
0 
0 
0 
0 
0 
0 
0 
0 
0 
0 
0 
0 
0 
0 
0 
0 
0 
0 
0 
0 
0.1690683084606314 
0 
0 
0 
0 
0 
0 
0 
0 
0 
0 
0 
0 
0 
0 
0 
0 
0 
0 
0 
0 
0 
0 
0 
0 
0 
0 
0 
0 
0 
0 
0 
0 
0 
0 
0 
0 
0 
0 
-1.036464409542966 
0 
0 
0 
0 
0 
0 
0 
0 
0 
0 
0 
-0.3400558068399188 
0 
0 
0 
0 
0 
0 
0 
0 
0 
0 
0 
0 
0 
0 
0 
0 
0 
0 
0 
0 
0 
0 
0 
3.733645559947838 
0 
0 
0 
0 
0 
0 
0 
0 
0 
0 
0 
0 
0 
0 
0 
0 
0 
0 
0 
0 
0 
0 
0 
0 
0 
0 
0 
0 
0 
0 
0 
0 
0 
0 
0 
0 
0 
0 
0 
0 
0 
0 
0 
0 
0 
0 
0 
0 
1.531530466913689 
0 
0 
0 
0 
0 
0 
0 
0 
0 
0 
0 
0 
0 
0 
0 
0 
0 
0 
0 
0 
0 
0 
0 
0 
0 
0 
0 
0 
0 
0 
0 
0 
0 
0 
0 
0 
0 
0 
0 
2.863014768053201 
0 
0 
0 
0 
0 
0 
0 
1.295977459099516 
0 
0 
0 
0 
0 
0 
0 
0 
0 
0 
0 
0 
0.03641410970645097 
0 
0 
0 
0 
0 
0 
0 
0 
0 
0 
0.5641504383215766 
0 
0 
0 
0 
0 
0 
0 
0 
0 
0 
0 
0 
0 
0.8534167073451178 
0 
0 
0 
0 
0 
0 
0 
0 
0 
0 
0 
0 
0 
0 
0 
0 
0 
0 
0 
0 
0.003767896795190052 
0 
0 
0 
0 
0 
0 
0 
0 
0 
0 
0 
0 
0 
0 
0 
0 
0 
0 
0 
0 
0 
0 
-0.05744437704614312 
0 
0 
0 
0 
0 
0 
0 
0 
0 
0 
0 
0 
0 
0 
0 
0 
0 
0 
0 
0 
0 
0 
0 
0 
0 
0 
0 
0 
0 
0 
0 
0 
0 
0 
0 
0 
0 
0 
0 
0.4413874366649198 
0 
0 
0 
0 
0 
0 
0 
0 
0 
0 
0 
0 
0 
0 
0 
0 
0 
0 
0 
0 
0 
0 
0 
0 
0 
0 
0 
0.1569047025174942 
3.698245699431545 
0 
0 
0 
0 
0.2081833643405677 
0 
0 
0 
0 
0 
0 
0 
0 
0 
0 
0 
0 
0 
0 
0 
0 
0 
0 
0 
0 
0 
0 
1.096269420774879 
0 
0 
0 
0 
0 
0 
0 
0 
0 
0 
0 
0 
0 
0 
0 
0 
0 
0 
0 
0.3420393522896398 
0 
0 
0 
0 
0 
0 
0 
0 
0 
0 
0 
0 
0 
0 
0 
0 
0 
0 
0 
0 
0 
0 
0 
0 
0 
0 
-0.01846882031202733 
0 
0 
0 
0 
0 
0 
0 
0 
0 
0 
0 
0 
0 
0 
0 
1.748433012848844 
0 
0 
0 
0 
0 
0 
0 
0 
0 
0 
0 
0 
0 
0 
0 
0 
0 
0 
0 
0 
0 
0.2373506199545963 
0 
0 
0 
0 
0 
0 
0 
0 
0 
0 
0 
0 
0 
0 
0 
0 
0 
0 
0 
-1.192716344188129 
0 
0 
0 
0 
0 
0 
0.7718057721587769 
0 
0 
0 
0 
0 
0 
0 
0 
0 
0 
0 
0 
0 
0 
0 
0 
0 
0 
0 
0 
0 
0 
0 
0 
0 
0 
0 
0 
0 
0 
0 
0 
0 
0 
0 
0 
0 
0 
0 
0 
0 
0 
0 
0 
0 
0 
0 
0 
0 
0 
0 
0 
0 
0 
0 
0 
0 
0 
0 
0 
0 
0 
0 
0 
0 
0 
0 
0 
0 
0 
0 
0 
0 
0 
0 
0 
0 
0 
0 
0 
0 
0 
0 
0 
0 
0 
0 
0 
0 
-1.374443548530174 
0 
0 
0.5397957019545453 
0 
0 
0 
0 
0 
0 
0 
0 
0 
0 
0 
0 
0 
0 
0 
0 
0 
0 
0 
0 
0 
0 
0 
0 
0 
0 
3.184327214229336 
-0.9771301817418329 
0 
0 
0 
0 
0 
0 
0 
0 
0 
0 
0 
0 
0 
0 
0 
0 
0 
0 
0 
0 
0 
0 
0 
0 
0 
0 
0 
0 
0 
0 
0 
1.608048027113227 
0 
0 
0 
0 
0 
-1.014992993828425 
0 
0 
0.4937146999508458 
0 
0.5652268570446471 
0 
0 
0 
0.5054129011432242 
0 
0 
0 
0 
0 
0 
0 
0 
0 
0 
0 
0 
0 
0 
0 
0 
0 
0 
0 
0.8454081148104086 
0 
0 
0 
0 
0 
0 
-0.07565292541419087 
0 
0 
0 
0 
0.3775012933131083 
0 
-3.23357909763281 
0 
0.6854485325617098 
0 
0 
0.3993778711219806 
0 
0 
0 
0 
0 
0 
0 
0 
0 
0 
0 
0 
0 
0 
0 
0 
0 
0 
0 
0 
0 
0 
0 
0 
0 
0 
0 
0 
0 
0 
0 
0 
0 
0 
0 
0 
0 
0 
0 
0 
2.492758854562443 
0 
0 
0 
0 
0 
0 
0 
0 
0 
0 
0 
0 
0 
0 
0 
0 
0 
0 
1.28259099515988 
0 
0 
0 
0 
0 
0 
0 
0 
0 
0 
-0.09291865034318197 
0 
0 
0 
0 
0 
0 
0 
0 
0 
0 
0 
0 
0 
0 
0 
0 
0 
0 
0 
0 
0 
-0.1087545117338639 
0 
0.4693570629334863 
0 
0 
0 
0 
0 
0 
0.6067821604101581 
0 
0 
0 
0 
0 
0 
0 
0 
0.4152121949020074 
0 
0 
0 
0 
0 
0 
0 
0 
0 
0 
0 
0 
0 
0 
0 
-1.165471407216373 
0 
0 
2.147619033953371 
0 
0 
0 
0 
0.965393454820368 
0 
0 
0 
0 
0 
0 
0 
0 
0 
0 
0 
0 
0 
0 
0 
0 
0 
0 
0 
0 
0 
0 
0 
0 
0 
0 
0 
0 
0 
0 
0 
0 
0 
0 
0 
0 
0 
0 
0 
0 
0 
0 
0 
0 
0 
0 
1.071512663491156 
0 
0 
0 
0 
0 
0 
0 
0 
0 
0 
0 
0 
0 
0 
0 
0 
0 
0 
0 
0 
0 
0 
0 
0 
0 
0 
0 
0.5903199184650627 
0 
0 
0 
0 
0 
0 
0 
0 
0 
0 
0 
0 
0 
0 
0 
0 
0 
0 
0 
0 
0 
0 
0 
0.7147075670990244 
0 
0 
0 
0 
0 
0 
0 
0 
0 
0 
0 
0 
0 
0 
0 
0 
0 
0 
0.3504262506344422 
0 
0 
0 
0 
0 
0 
0 
0 
0 
0 
0 
0 
0 
0.4308793305039637 
0 
0 
0 
0 
0 
0 
0 
1.919284000590863 
0 
0 
0 
0 
0 
0 
0 
0 
0 
0 
0 
0 
0 
0 
0 
0.3972381069645257 
0 
0 
0 
0 
0 
0 
0 
0 
0 
0.7930166483787546 
0 
0 
0 
2.358514112390378 
0 
0 
0 
-1.606007907877901 
0 
0 
0 
0 
0 
0 
0 
0.5939255641289347 
0 
0 
0 
0 
-0.5197790401080551 
1.303458733846077 
0 
0 
0 
0.07719938636998187 
0 
0 
0 
0 
0 
0 
0 
0 
0 
0 
0 
0 
0 
0 
0 
0 
0 
0.288857244727911 
0 
0 
0 
0 
0 
0 
0 
0 
0 
0 
0 
1.369396544470191 
0 
0 
0 
0 
0 
0 
0 
0 
0 
0 
0 
0 
0 
0 
0 
0 
0.1244652451585156 
0 
0 
0 
0 
0 
0 
0 
0 
0 
0 
0 
0 
0 
0 
0 
0 
0 
0 
0.7326889288057831 
0 
0 
0 
0 
0 
0 
0 
0 
0 
0 
0 
0 
0 
0 
0 
0 
0 
0 
0 
0 
0 
0 
0 
0 
0 
0 
0 
0 
0 
-1.512343525497188 
0 
0 
1.466483834011292 
0 
0 
0 
0 
0 
0 
0 
0.5213278179749186 
0 
0 
0 
0 
0 
0 
-0.2345778118641996 
-0.9073546424483083 
0 
0 
0 
0 
0.3806208858703503 
0 
0 
0 
0 
0 
0 
0 
0 
0 
0 
0 
0 
0 
0 
0 
0 
0 
0 
0 
0 
0 
0 
0 
0 
0 
0 
-0.2689536234423861 
0 
0 
0 
0 
0 
0 
0 
0 
0 
0 
0 
0 
0 
0 
0 
0 
0 
0 
0 
0 
0 
0 
0 
1.170915768456954 
0 
0 
0 
0 
0 
0 
0 
0 
0 
0 
0 
0 
0 
0 
0 
0 
0 
0 
0 
0.4721201324183303 
0 
0 
0 
0.2828957537351365 
0 
0 
0 
1.557506630099549 
0 
0 
1.389511307722692 
0.06569043633267789 
0 
0 
0 
0 
0 
0 
0 
0 
0 
0 
0 
0 
0 
0 
0 
0.4943392915698536 
0 
0 
0 
0 
0 
0 
0 
0 
0 
0 
0 
0 
0.1006372130147112 
1.317581147219978 
0 
0 
0 
0 
0 
0 
0 
0 
0 
0 
0 
0 
0 
0 
2.475658679240867 
0 
0 
0 
0 
0 
0 
0 
0.5497000851854125 
0 
0 
0 
0 
1.132586256336815 
0 
0 
0 
0 
0 
0 
0 
0 
0 
1.288868954440452 
0 
0 
0 
0 
0 
0 
0 
0 
0 
0 
0 
0 
0 
0 
0 
0 
0 
0 
-0.3605129198781594 
0 
0 
0 
0 
0 
0 
0 
0 
0 
0 
0 
0 
0 
0 
0 
0 
0 
0 
0 
0 
0 
0 
0 
0 
0 
0 
0 
0 
0 
0 
0 
0 
0 
0 
0 
0 
0 
0 
0 
0 
0 
0 
0 
0 
0 
0 
0 
0 
0 
0 
0 
0 
0 
0 
0 
0 
0 
0 
0 
0 
0 
0 
0 
0 
0 
0 
0 
0 
0 
0 
0 
0 
0 
0 
0 
0 
0 
0 
0 
0 
0 
0 
0 
0 
0 
0 
0 
0 
0 
0 
0 
0 
0 
0 
0 
0 
0 
0 
1.313257537616489 
0 
-1.268711359401154 
0 
0 
0.02647892393606603 
0 
0 
0 
0 
0 
3.668763246370237 
0 
0 
0 
0 
0 
0 
0 
0 
0.8417058768108068 
0 
0 
0 
0 
0 
0 
0 
0 
0 
0 
0 
0 
0 
0 
0 
0 
0 
0 
0 
0 
-0.02818472151154257 
0 
0 
0 
0 
0 
0 
0 
0 
0 
0 
0 
0 
0 
0 
0 
0 
0 
0 
0 
0 
0 
0 
0 
0 
0 
0 
0 
0 
0 
0 
0 
0 
0 
0 
0 
0 
0 
0 
0 
0 
0 
0 
0 
0 
0 
0 
0 
0 
0 
0 
0 
0 
0 
0 
0 
0 
0 
0 
0 
0 
0 
0 
0 
0 
0 
0 
0 
0 
0 
0 
0 
0 
0 
0 
0 
0 
0 
0 
0 
0 
0 
0 
0 
0 
0 
0 
0 
0 
0 
0 
0 
0 
0 
0 
0 
0 
0 
0 
0 
0 
0 
0 
0 
0 
0 
0 
0 
0 
0 
0 
0 
0 
0 
0 
0 
0 
0 
0 
0 
0 
0 
0 
0 
0 
0 
0 
0 
0 
0 
0 
0 
0 
0 
0 
1.614271067162607 
0 
0 
0 
0 
0 
0 
0 
0 
0 
0 
0 
0 
0 
0 
0 
0 
0 
0 
0 
0 
0 
0 
0 
0 
0 
0 
0 
0 
0 
0 
0 
0 
0 
