solver_type L1R_LR
nr_class 2
label -1 2
nr_feature 531742
bias -1
w
1.518964775387198 
0.803149408794664 
0 
0.6313907795538318 
1.619726400342545 
0 
0 
0 
0.7073978160412672 
2.208454879382086 
0 
0 
0 
0 
0.3647370533836401 
0 
0 
0 
0 
0.3560814097225559 
0 
3.314456027541198 
1.625592765867508 
0 
0 
0.5533245055233976 
1.239766518192739 
0 
0.1943667981499564 
0 
0 
1.286766171491081 
0 
0 
0 
0.9804484533133896 
0.002183350914183499 
0.007429921900567876 
0 
1.835618774637221 
0 
0 
0 
0 
-0.04566032915918819 
0.788315838898771 
0.2433530995221263 
0 
0 
0.6339515150817212 
0 
-0.1517229177184555 
0 
0 
0 
0.1210998571990045 
0 
0 
2.116498814456725 
0 
0.5126989917570519 
0.8971869044541256 
-0.1462718149012031 
0.4163663227010012 
0 
0 
0 
0 
1.820595697497964 
0.07404415292522903 
0 
2.835154949570689 
-1.695387049375472 
0 
0 
0.2018574193279828 
0 
0.3791183990997771 
0.3457280655287409 
0 
0.036371330255709 
0 
0 
0 
0 
2.772962428709061 
0 
0.7724075549636532 
0 
0 
0.5270032789531283 
1.681534068656939 
-0.08158207653415531 
0 
0 
0 
-0.3199162240651183 
0 
1.611676795009518 
0 
0.6397308231905529 
0 
0 
0 
0.2662043490424971 
0.4699879249268664 
0.03973988330131993 
0 
0.01056245881401396 
0 
0.6357581660621148 
0 
0 
1.575777473025723 
1.885649094017167 
0 
2.800930300820584 
0.5285743161502484 
1.349480196484117 
0.3841747967634287 
0 
0 
0 
0 
0 
0 
0 
0 
0 
0.3003353520668276 
1.751492522994694 
0 
0 
1.259202233086421 
0 
0.9940290986189434 
0 
-0.3433323627925817 
0 
-0.08269922150089713 
0 
-0.03517638330220531 
0.8225982814515747 
0 
0.5337205206772304 
0 
0 
0 
1.52342693261112 
0 
0.7962130750111416 
0 
0 
0 
1.450856180792134 
0 
2.163675428677667 
0 
0 
0 
1.134089565257442 
0.465068836847415 
1.198662686077939 
1.428519902912981 
0.6503239209094668 
0 
0 
0 
-2.283225015042948 
2.044939410470755 
1.216143195525796 
0 
0 
0 
2.037433977499277 
1.331737237419372 
0 
1.513683847256742 
0 
0 
0 
0 
2.062082241157559 
0.7166523878771207 
0.07992680289127169 
0.8063533237329392 
0 
3.375178947325308 
-0.1320563248023179 
0 
0 
0 
-0.9867200616412248 
0 
0 
-0.9607519230508423 
-0.8807251827281781 
1.399617411573246 
0 
0 
0.9296202525792384 
0 
0 
0.9438672531891346 
0 
0.6791243387990356 
0.261178182703063 
0 
0 
0 
0 
0 
0 
0 
0 
0 
0.8898244434965269 
0 
0 
0 
0 
0 
0 
0.3928219970955518 
0.1746084582971409 
0 
1.593541761436495 
1.212307441591492 
0 
0 
1.61620170634543 
0 
1.555783810827742 
0 
0 
2.70810049228927 
0 
0 
1.365096367623974 
0.8774756281609039 
0 
0 
0 
1.075587599325103 
0 
0 
0 
0 
0 
0 
0 
0.2312402051419244 
1.131180819524192 
0.5530918952317695 
0 
0.3193335467825943 
0 
-0.5762569422383201 
0.9034245843880548 
0 
0 
0 
0 
0 
-1.335494723525869 
0 
0 
1.316625619025944 
0 
0 
0 
0 
0 
-1.325947661162404 
0 
0 
0 
0.3271662391107724 
3.10655646186436 
0.7087445454705473 
0 
0.3246047648961635 
1.55464108557561 
0 
0 
0 
0 
0 
0.7341619884397604 
1.258883864800929 
0 
0 
0.6821658996197716 
1.346822730409613 
0 
0 
0 
1.311618172905751 
0 
0 
0 
0 
-0.05816362283401739 
0.3861770219827353 
0 
0 
0.02294320667239931 
0 
0 
0.9180497488253367 
0 
0 
0.8690931516022649 
0 
0 
1.368905497645558 
0 
0 
0 
0 
0 
0 
0 
0 
0 
0 
0 
0 
0 
0 
0.7465974406391157 
0 
-0.09923700139079529 
-0.7180702461005156 
0 
0.1440895519493136 
0 
0 
0 
0 
0 
0.5430394986264343 
0 
0 
0 
0 
1.304149465890397 
0 
0 
0 
1.184936152589702 
1.35011155395159 
-0.2281373688799753 
0 
0 
0 
0 
0 
0 
-0.08895998215612032 
0.9821876368196988 
0 
0 
2.392649153235811 
0 
0 
0 
0 
1.061801775151855 
0 
0 
-1.095284132867916 
0 
0 
0 
0 
0 
0 
0 
0.06031059703865429 
0 
0.1867821606540311 
0 
0 
0 
0 
0 
1.353768217870919 
0 
0.8950972760207281 
0 
0 
0.06958718829042762 
0.4762936118029604 
0 
0 
0.2149736057169432 
0.7361799742417457 
0.4351407811615718 
0 
2.824580234976787 
0 
0 
0 
0 
0 
4.392762393206121 
0 
0.9858675511406697 
0.9734698833414118 
0 
0 
0 
0.8980171031780658 
0 
0 
0.634499827321609 
0.8691214022074765 
0.6971132366016108 
0.6770641522836108 
0 
0 
0 
0 
2.075937635250539 
1.256055882262407 
0 
0 
0 
3.020303113906227 
0 
2.001669892248206 
-0.281701404990965 
0 
0.2956626619814154 
1.426047475819455 
0 
0 
1.424219861864978 
0 
0 
0 
0 
0.5042464745603285 
0.5710301223183529 
1.615634812911686 
0 
0 
0 
0 
0 
0.3807773882897501 
0 
0 
0 
0.4131124945266015 
1.305623211933434 
0 
1.068125720349391 
0 
0.1280676806252982 
0 
0 
0.1087769917999158 
0 
0 
0 
-0.2803939332283846 
0 
0 
0 
1.895723957050499 
0 
0 
0.9229058429971922 
0 
0 
0.7121923369736873 
0 
0.3992388261204742 
0 
-0.0385825216413913 
0.2747526759383858 
0 
0.3505939016193852 
0 
1.674452913693479 
0 
0 
2.522326222106092 
0 
0 
0 
0 
0 
0 
0.4576874632067953 
1.346575966547037 
0 
2.761469720486741 
-1.210618159221833 
0.6759731960813425 
0 
0 
0 
0.4023166515688816 
2.004060260023728 
0 
0 
0 
1.167617000044405 
0 
2.460534847443847 
0 
0 
0 
0 
0 
0 
0 
0 
2.554551274497316 
0.2929636334527024 
0.814369233896757 
0 
0 
1.240792151965569 
-1.380844532799348 
0 
0 
1.493401379480824 
-0.2639221872502474 
0 
0 
1.519555224375343 
0 
0 
1.754122751282482 
0 
2.745529871336684 
0 
0 
0 
0 
0 
0 
0 
0 
0 
0 
0.1826676849496691 
0 
1.861291542312007 
0 
0 
1.461062559636614 
1.775063062837281 
0 
0 
0 
0 
0 
0 
0 
2.172789092264391 
0 
0 
0 
0 
0 
0 
0 
0 
0 
0 
0 
1.263678694692404 
0 
0.6302249799573206 
1.188888801959009 
0 
0 
0 
1.906343322729544 
0 
0 
0 
0 
0 
0 
0.2882739088784904 
0 
0 
0 
0 
2.494452491141835 
0 
0 
0 
0 
0 
1.009070541625162 
0 
0 
0 
0 
0 
0 
0 
2.546124780861996 
2.36127502498357 
0 
0 
0 
0 
0 
0 
0 
0 
0 
0 
0 
0 
1.461184189526034 
0 
0 
0 
-0.01646712105834865 
0 
0.102241355122559 
0.4895786944465287 
1.398889016389391 
0 
3.065719445220857 
-0.2874108467479204 
0.3350536599897546 
0 
0 
1.273631759288731 
-0.1206975904342889 
0 
0 
1.411779105928166 
0 
0 
0 
0 
0 
1.573989692447108 
1.888414365047077 
0 
0 
0 
1.055758329203203 
0 
0 
0 
0 
0 
0 
0 
1.038813772637237 
0 
0 
0 
2.289212790419221 
0 
-0.04297586238448663 
0 
0 
0 
-1.116121922551296 
0 
0 
0 
-0.005271920692766358 
0 
1.389715828758616 
1.129909071385042 
0 
0 
0.2089758344770389 
2.670261838587992 
0 
0.8357762029325072 
0 
0 
1.622258953314315 
0 
0 
0 
0 
0.7101959590307483 
0 
1.960748360615089 
0.5700376348883813 
0.6376151070898313 
0 
0 
1.386294361119891 
0 
0 
0 
1.534154798820676 
0 
0 
0 
0 
0.7722698930240829 
1.113225370050528 
0 
0 
0 
0 
1.02150559941907 
0 
0 
0 
0.2389230841577155 
0 
1.632064944075928 
0 
0 
0 
0 
0 
0 
0 
1.230255860704617 
0.04148118255805534 
0 
0 
0 
0 
-0.4123306556217207 
1.668256899100588 
0 
0 
0 
0 
0 
0 
0 
0 
-0.6178347900179506 
1.052201352077996 
0.9015772793139321 
1.29157974854182 
0 
0 
0 
0 
0 
0.1351357574435731 
0 
1.194502564804577 
-0.8608088206786392 
0 
0 
0.2698988282030957 
0 
0 
0 
0.7738493536519695 
0 
0 
0 
0.8271625308557745 
0.1475113514163553 
0 
0 
0 
0 
0 
0 
0 
0.1970390613341986 
0.4618898923909248 
0 
0 
0 
0 
0.07156323093757387 
0 
0.6660719453179851 
2.539720099423818 
0.4588174933781142 
0 
0.01554747641263972 
0 
0 
0.314133266628885 
0 
2.126864688566755 
-0.5502227714768148 
0 
0 
0 
0 
0 
0 
0 
0 
0 
-0.6425191726629788 
0 
2.906745423831813 
0.0205829964672879 
0 
0 
-0.08112299336431764 
0 
0 
0 
0 
0.8776381696029626 
0 
0 
0 
0 
0.0782255280797656 
0 
0 
0 
0 
-0.14786872295439 
0 
0 
0 
0 
0 
0 
0 
0 
0 
0 
0.6936506614049881 
0 
1.98308794532146 
0 
0 
2.032792000182414 
2.538058379198471 
0 
0 
0 
0 
1.172722722377402 
0 
0 
0 
0 
1.391021617704783 
0 
0 
0 
0 
0 
-0.5881128187545483 
0 
0 
0 
0 
0 
0 
0 
-0.4606074245277105 
0 
0 
0 
0 
0 
0 
2.264687522304173 
0 
0 
1.728850884974684 
0 
0.7518856791442033 
0 
0 
0 
-0.01306185455813514 
0 
0 
0 
0 
0 
-0.2346588090801289 
1.843885441057121 
0 
0 
-0.4931495911876324 
1.753066497248345 
0 
0 
0 
0 
0 
0 
0.2645268477638424 
1.683975660426485 
0 
0 
0 
0 
0 
0.3111542643943516 
0.1368943748234663 
0 
-0.1004553811749847 
0 
0 
0 
0 
0 
0 
0 
0 
0 
0.2017208257589836 
0 
-0.438053358359349 
0.7106983579261835 
0 
0 
0 
0 
0 
0 
0 
0 
0 
0 
1.212145415767196 
-0.1348434040572629 
0 
0.02723678069562167 
0 
0 
1.976582746517203 
0.720771003532713 
0.785785867576849 
0 
0 
0 
0.1255510197850818 
0.2479305725910594 
1.394988232001519 
0 
0.7100809403899819 
0 
0 
0.9892966147963177 
0 
0 
0 
0 
0.2594709405745099 
1.122197459528419 
0 
0 
0 
0.1982683011368449 
0.9252881355413651 
0 
0 
0 
0 
0 
0 
0 
0 
2.265644898940581 
0 
0 
0 
0 
1.640371998583057 
0.3491990673875319 
2.605854332071102 
1.475254506641064 
0 
0 
0 
0 
0 
1.38160970703715 
0 
0 
0.2082103537237441 
0 
0 
0.5391632179564714 
0 
1.907123957022951 
0 
0 
-0.09142749625554233 
0 
0 
0 
0 
0 
0 
0 
-0.2176131549176988 
1.434084148852154 
2.518344811097406 
0 
1.577450681808435 
0 
0 
0 
0 
0 
1.56951688660197 
1.673730683587903 
0 
0 
1.36494756173938 
0 
1.086805249201783 
0 
0 
0.4498976581858148 
0 
-0.1052393935677446 
0 
0.04284480618580634 
0 
0 
0 
0 
0.4902931645331073 
0 
0 
0.4076550138716757 
0 
0 
0 
0.3870567558262502 
0.1480028246151393 
0 
0 
1.261923744170376 
0 
0 
0 
0 
0 
0 
0.9093117791294535 
0 
0 
-0.3519113124619537 
1.375971824301601 
0 
3.067089941675963 
0 
0 
0 
0 
0 
0.6337448100315347 
1.6570507540308 
0 
0 
0 
0 
0 
0 
0 
0 
0 
0 
0.8939086540057806 
0 
0 
0 
0 
1.035616719961238 
0 
0.5135499439725638 
0 
1.74099010122454 
0.5782906200948338 
0.09009081045252658 
0.3110557726983358 
0 
0 
2.171380003844168 
0 
0 
2.188599930956274 
-0.0761308582007693 
0 
0 
0 
0 
0 
0.7266436385384821 
0 
0 
0.8786025883694647 
0 
0 
0 
0 
0.236279859479816 
0 
0 
0.104153183248107 
0.2108815765146038 
-0.4589286768311203 
0 
0 
0 
1.292322527888562 
-0.6139036484960658 
0 
0 
0 
0 
0 
0 
0.8217715895398514 
0 
0 
0 
0 
0 
0 
0 
0.7509934817905223 
0 
0 
1.935996075325329 
0 
-0.1315115657229152 
0 
0 
0 
0 
0 
0 
0 
0 
0 
-0.04428515696910382 
0 
1.159068089536959 
1.348118716780222 
0 
1.114885053635656 
0 
0 
0 
0 
0 
0 
0 
1.607276530810635 
0 
-0.6817081052664371 
0 
0.8613441075407975 
0 
1.093225515845615 
0 
0.3940936183886948 
0 
0 
0 
0 
0 
0 
0 
-0.1479986135946877 
0 
0 
0 
0.3416917862044098 
0 
0 
0 
0 
0 
0 
0 
0 
0 
-0.6696272316748753 
0 
0 
0 
-1.662806209596532 
0 
0 
2.794531649347299 
2.044387417535289 
0 
0 
0 
0 
0 
1.584127124450769 
0 
0.8207101209498663 
0 
0 
-0.5234850017277475 
0 
0 
1.408592547009213 
0 
0 
0 
1.08209716654243 
0 
0 
0 
-0.5387755832975633 
0 
1.444085208908699 
0 
0 
0 
-0.6445497136956739 
1.126243811099509 
0 
0 
0 
0.7264205326260111 
0 
0 
1.775199055398595 
0 
0 
0 
0 
0 
0 
1.247896771789961 
1.934216034771833 
0 
0 
0 
0 
0 
0 
0 
0 
0 
2.33373284913833 
0 
0.4883602281398268 
0 
0 
0 
0 
0 
0 
0.8544887596477186 
0.5401007142268108 
0.2392199187452875 
0 
0 
0 
1.20598879746638 
0 
0 
0 
0 
0 
0 
1.608621451660828 
0.4844774369338772 
0 
0 
0 
1.438084638916225 
0 
0 
0 
0 
0.5956465090356047 
0.6150827580244145 
0 
-0.1546734918350715 
0 
-0.4130243631029434 
0 
0 
0 
2.055192876764746 
1.242039548559569 
-0.7397689649407789 
0 
0 
0.7762008424821432 
0 
0 
0 
0 
0 
0 
0.4106120489707416 
0 
0 
0 
0 
0 
0.7024879129563887 
0 
0 
0.9602800301890383 
0 
0 
0 
0.01788622431260167 
0 
2.42049096348887 
0 
-2.719796067576444 
0 
0.08641267804853066 
0 
0 
0 
0.4647442799181806 
0 
1.189269989152139 
0 
0 
0 
1.953766413602478 
-0.2402083577383866 
1.930275011829144 
0.7265521009326098 
0 
0 
0 
-0.940081876167022 
0 
-0.3868092039438742 
0 
0 
0 
1.604811431818221 
0 
0 
0 
0 
1.504640048614072 
0 
0 
0 
0 
0 
0 
0 
0 
0 
0 
-1.04775231389724 
3.112875385659342 
0 
0 
1.691234317370379 
0 
0 
1.323958215633563 
-0.2968871559820633 
0 
0.7745223815359075 
0 
0 
0 
0.2239950768661652 
0.3253538425908363 
2.869654705783116 
0 
0 
0 
0 
0.8527783307487334 
1.035402214414822 
0 
0 
0 
0 
0 
0 
0.9366585840085678 
1.693235692484698 
0 
0 
0 
0.6289820988094267 
0 
0 
0 
0 
2.15883224426701 
0 
0 
1.119939122947636 
0 
0 
0.548288714821588 
0 
0 
0.4075098126069048 
0 
0 
0 
0 
-2.892446146319015 
0 
0 
0 
0.6245548301189593 
-0.4714065917162134 
0 
0 
-0.1783845173851982 
0 
0 
0 
-1.173611658840487 
0 
4.302926628059168 
0 
2.3583609772228 
0 
0 
0 
0 
0.562220357058573 
0 
0 
0 
1.08323070203386 
0.5318920111737657 
0.1001463199009156 
1.870643729602371 
0 
0 
0 
0 
0 
0 
0 
0 
0.298985396914379 
0 
-0.02634535276864489 
0 
1.500523992873257 
0 
0 
0 
0 
0 
0 
0 
0 
0 
0 
0 
0 
0.69421474847104 
0 
0 
0 
0 
0.02937972276876253 
-0.7377189535680746 
0 
0.3737126968276924 
0 
0.7156964329084337 
-1.871396531472004 
0.8404207185975074 
0 
0 
0 
0 
0 
0 
0 
-0.2608616225195883 
0 
0 
1.030905036452515 
0 
0 
0 
0 
1.309936871918234 
0 
0 
0 
0 
-0.5016154798929157 
0 
0 
0 
0 
0 
0 
0 
0 
0 
0 
0 
0 
1.943948041299464 
0 
0 
0.2070178778889125 
0 
0 
0 
0 
0 
-0.004357541198650277 
0 
0 
0 
0.3947719112092662 
0 
0 
0 
0 
-0.2285690195290782 
0 
0 
0.6859481752008523 
0 
0 
0 
0 
0 
0 
0 
0 
0 
0.1449883990757704 
0 
0 
0 
0.1073271753797851 
0.3433065367434404 
0.3653285278582039 
0 
0 
-0.2972560434080275 
0 
0 
0 
0 
-0.2431846770625949 
0 
-1.17653699631328 
0 
0 
0 
0 
0 
0 
0 
0 
0 
0.545104679625802 
-0.5881022400221885 
0 
0 
0 
1.691348902265475 
0 
0.2203447655145035 
0 
0 
0 
2.243479678012037 
1.365951946541803 
0 
1.461758139079229 
0 
0 
0 
0 
0 
0 
0 
3.189479835191346 
0 
0 
0 
0 
0 
0 
0 
0 
0.6087447204036021 
0 
0 
1.429576022928552 
-0.3867687142809885 
1.052211049392798 
0 
0 
0.9925217597689907 
0 
0 
0 
0 
0.4292858848069169 
0 
0 
0 
0 
0 
0 
0 
0 
-0.2801254064003488 
0 
0 
0 
0 
0 
0 
0 
0 
1.631893793583658 
0 
0.4019866700236566 
0 
0 
0 
0 
0.608148713104194 
0.5866033630727399 
0 
0 
0 
0 
0 
0 
0 
2.106855705911704 
0 
0 
1.079973221670015 
0 
0 
0.1016856077677217 
0 
0 
0.8216208341010186 
0 
0 
0 
0 
2.615833504539295 
0 
1.51054549123222 
2.723299690651545 
0 
-1.018038658630582 
0 
0 
0 
0 
0 
-0.09417256325950843 
0 
0 
-0.03413540886834047 
0 
0 
0 
0 
0 
0 
0 
0 
0 
0 
0.4683903304020889 
0 
0 
0 
0 
0 
0 
0 
0 
0 
0.6249018801664978 
0 
-0.946612497164082 
0 
0 
0 
0 
0 
0 
0 
0.500335123849173 
1.618913283586852 
0 
0 
0 
0 
0.1262908597518021 
0 
0 
0 
0 
0 
0 
0 
0 
0 
1.626360278283016 
3.290351443703524 
0 
0.7082933844375207 
0 
0 
0 
1.124147031803072 
1.444263115456564 
0 
0 
0 
0 
0 
0 
0.5293307571971756 
0 
0 
0 
0 
0 
0 
0 
0.782166749815463 
-0.1750838984927842 
2.784894766343259 
0 
0 
0 
0 
0 
0 
0 
0 
0 
0 
0 
0.903338101814291 
0.616676871794981 
0 
0 
0 
1.03555769207261 
0 
0 
0 
-1.039408402511803 
0 
2.894425232430793 
0 
1.009807904725418 
0 
0 
0 
0 
-0.8938096408719024 
0 
0 
0 
0.2379076536512209 
0 
1.749434396299226 
0 
-0.2692003265807927 
0 
0.02003984648895089 
0 
1.537845039762957 
2.183862766769211 
0 
0 
0.4244933970375153 
0 
0 
0 
0.8001477923808854 
0 
0 
0.5605923822232407 
0 
0 
2.452614874363722 
0 
0 
0.8895576186606182 
1.268566305448189 
0 
0 
0 
-0.1338127960950103 
0 
0 
0 
0.3496560982498204 
1.847539018348885 
0 
0.7957798508212988 
0 
1.835802436037996 
0 
0 
0 
0 
0 
0 
0 
0 
0 
0 
0 
-1.598545381648047 
0.9436959186387461 
0 
0 
0.1349683890545622 
0 
0 
0 
0 
0 
-0.1865557963379374 
0 
0 
1.497176049359684 
0 
0.2195928730662799 
0 
0 
0 
0 
0.3476786127325243 
0 
0 
2.860396663755578 
0 
0 
0 
0 
0 
0 
0.6842213342207186 
0.5292512713250245 
0 
0 
0 
0 
0 
0 
0 
0 
0 
0 
0.3779464863613742 
0 
0 
0 
0 
0 
0 
0 
0 
0 
0 
-0.4809630184471052 
3.485375823547425 
0 
0 
0 
0 
0 
0 
0 
-0.5106970795291107 
0 
0 
0 
0.9626548873975279 
0 
0 
0 
-1.873780831483382 
0 
0 
0 
0 
0.8904414441972941 
0 
0 
-0.5893835282134665 
0.2183630199357642 
0 
0 
0 
1.503499219337821 
0 
0 
0 
0 
0 
0 
0 
0 
0 
0 
0 
0 
0.8834799635736974 
0 
0 
0 
0 
0 
0 
0 
0 
0.5497599603941663 
0 
0.008231944890616977 
0 
0 
0 
1.34572481239761 
0 
0 
0 
0 
0 
0 
0 
0 
-0.09675066451957214 
0 
0 
1.383560962059627 
0 
0 
0.5907162803585961 
1.518836922793634 
0 
0 
0 
0 
0 
0 
0.2082214564069264 
0.07743360972814055 
0 
0.8450997254384255 
0 
0 
0.5495615686376256 
1.53186006676682 
0 
0 
0.4483344999768041 
0 
0 
0 
0 
0 
0 
0 
0 
0 
0 
1.266086429767568 
0 
1.960036799675505 
0.01937441592686862 
0 
0 
0 
0 
0 
0 
0.3611230079945629 
0 
0 
0 
0 
0 
0 
0 
0.4145063106000055 
0 
0 
0 
0 
0 
0 
0 
0 
0 
0 
2.220792318807832 
0 
0 
0.755413419942922 
0 
0 
0 
0 
1.332313236503595 
0 
0 
0 
0 
0 
0 
1.386294361119891 
0 
0 
1.887266435605847 
0 
0 
0 
-0.6843843542892694 
-0.5639613309030392 
0 
0 
0 
0 
0 
2.650262937203498 
0 
0 
0 
1.271074478089994 
0.1851847568293195 
1.091422172582574 
0 
0.1476961918471623 
0.01169499007546087 
0 
0 
0 
1.866427804977209 
0 
0 
0 
1.441068005756568 
0 
0 
0 
0 
0.1150440784833032 
0.3876133489304323 
0 
0 
0.234630354336391 
0 
0 
0 
0 
0 
3.75107048898004 
1.386294361119891 
0 
0 
0 
0 
0 
1.386294361119891 
1.386294361119891 
0 
0 
0 
0 
0 
0 
0 
0.5909811212394854 
0 
0 
0 
0 
0.5066989477351951 
0 
0 
0 
0 
0.2545060259440939 
0 
0.4061039986816461 
0 
2.860046280992484 
0 
0 
0 
0 
0 
0 
0 
0 
0 
0 
0 
0.4013472198120295 
0 
0 
0 
0 
-0.5579363786994813 
0 
0 
0 
0 
0 
0 
0 
0 
0.2967694789544351 
0 
0 
0 
-0.3214004822911156 
0 
0 
-0.1149644255252067 
0.3153767733707225 
0.8148321731229744 
0 
0.4617715367682587 
0 
0 
0 
0 
0 
0 
0.92845934204372 
0 
0 
0 
0 
0 
0 
0 
0 
0 
0 
0 
0 
0.229669808201006 
0 
1.680115191724548 
-0.978348447259875 
1.106354425689476 
0 
0 
0 
0 
0 
0 
0 
0 
0 
0 
-0.1418765596803843 
1.901429948716025 
0.3830432672255057 
0 
0.2866582842550189 
0.1250685741038907 
0 
0 
0 
0 
0 
0 
0 
0 
0 
0.629936241911582 
0 
0 
-0.5030021313355818 
-0.07256889950331373 
-0.05045896716311736 
0 
0 
0 
0 
0.9167827648842978 
2.789778841474647 
0 
0 
0 
0 
0 
1.716404190662237 
2.355006312382682 
2.727513827463007 
0 
0 
0 
0 
0 
0 
0 
0 
0 
0 
0 
3.854489181185687 
0 
1.042049117086949 
0 
0 
0 
0 
0.9727232445538475 
0 
0.3650690255262995 
0 
0 
0 
2.356603033065465 
1.886275694167834 
1.429800794016392 
0 
0 
0 
0.9963949496285192 
0 
0 
0 
0 
0 
0 
0 
0 
0 
0 
0.9939045356164921 
0 
0 
0 
0 
0 
0 
1.847944241185497 
0 
1.633550027806928 
0 
0 
0 
0.6003740522779906 
0 
0 
0 
0 
0 
0 
0 
0 
0 
0 
-0.5595343275992016 
0 
0 
0.7507062300121279 
0 
2.023803424019949 
0 
0 
0 
0 
0 
0 
0.662796266118567 
0 
0 
0 
0 
0 
0 
1.887974798336803 
-1.233802258747442 
0 
0 
0 
0 
0 
0 
0 
0 
2.042112278847919 
0.4176681477508133 
0.232880978208779 
0 
0 
0.11491264602986 
1.595194956843057 
0 
0.6221631832480095 
0 
0 
0 
0.06133089153447555 
0 
0 
0 
0 
0 
0 
0 
0 
0 
0 
0 
0 
1.175607024244895 
0 
0 
0 
0.09790957324643583 
0.2706489684233964 
0.2726287310790442 
-2.155486849424322 
0.2331576220818178 
0.2266424881500852 
0.1456200806312173 
0.4107819439098244 
0 
0.5730882025349867 
0 
0 
0 
0 
0 
0 
1.215778110033104 
1.690101582926574 
0.7009349540932314 
0 
0 
0 
0 
0 
0 
0 
0 
0 
0 
0 
-1.141508985875578 
0.310203270975628 
0 
0 
0 
0.840213953046773 
0 
0 
0 
-3.805741382143776 
0 
0.4345884707962479 
0 
0 
0 
1.248179115572504 
0 
0 
-1.508202844110765 
0 
1.535324808456801 
0.381668956427216 
0 
0.1912362704969416 
0 
0 
-0.6235101371970561 
0 
0 
0 
0 
0 
0 
0 
1.470752705648038 
0 
0 
0.4507431862809179 
0.7347337990421172 
0 
1.178799325035051 
0 
0 
0 
0 
0 
0 
0 
0 
0 
0 
0 
0 
0 
0 
0 
1.210385970780252 
0.850311956409246 
0 
0.4827849801537226 
0 
0 
0 
0 
-2.261657620270016 
0 
0 
0 
-1.224624284301717 
1.739132159488771 
1.233736722205095 
1.841582448885757 
0 
0 
0 
0 
0 
-1.819796344758282 
0.3492728088618381 
0 
0 
0.2246737031487683 
0.2907681750336014 
0 
0 
0 
-0.2676601657960523 
0 
0 
2.077601938290954 
0 
-0.8299775300701115 
0 
0 
0 
0 
0 
0 
0 
0 
0 
0 
0 
0 
0 
0 
0 
0 
0 
1.962004146360999 
0 
0 
0 
0 
0 
0 
0 
0 
0 
0 
0.9095597512232535 
-1.278256323083257 
0 
2.61226803558728 
0 
0 
0 
0 
0 
0 
0 
0 
0 
0.3636405677077705 
0 
0 
0 
0 
0 
0 
0 
0 
2.536549369493045 
0 
0 
0.01617438775917655 
0.1282589734796998 
0.01443766586525635 
0 
0 
0 
0 
0 
0 
0.4234920659866181 
0 
0 
0 
0.2968862337098858 
0 
0 
0 
0 
1.238771319299335 
0 
0 
0 
0 
0 
0 
0 
0 
0 
0 
0.9673102120878015 
0 
0 
0 
0 
0 
0 
0.3079099667414943 
0 
0 
0 
0.5525223960466101 
0 
0 
0 
0.5997470263728959 
0 
0 
0 
0 
0 
0 
0 
0 
0 
2.277582296345464 
0 
0 
0 
0 
0.1741864661171174 
1.528768761766177 
0 
0 
0 
0 
0 
-1.728581581810752 
0 
0 
0 
1.792572753437977 
0 
0 
0.3910510682677067 
0 
0 
0 
0 
0 
0.522933211513416 
0 
0 
0 
0 
0 
0 
1.08891575498661 
0 
0 
-0.06997978070766141 
0 
0 
0 
0.2776714299407788 
0.2079552621218953 
0 
0.8385743980830136 
1.993048342124366 
-0.3708079404212428 
0 
1.898514199089529 
0 
0 
0 
0.5852358622833583 
0 
0 
0 
0 
0 
0 
0 
0 
0 
0 
0 
0.2263581168326782 
0 
0 
0 
0 
0 
0 
0 
0 
0 
0 
0 
0 
0 
0.7353323789693621 
0 
0 
0 
0 
-0.9978954134970874 
0.6588086957475227 
0 
0 
0 
0 
0 
0 
0 
0 
0 
0 
0.7233864558752294 
0 
0 
0 
0 
0 
0 
0 
0 
0 
0.351248795432768 
0 
0 
0 
-1.650332084699841 
0 
0 
0 
-3.313375073656803 
0 
0 
0 
0 
0 
-0.1848755050847083 
-0.1227684197755399 
0 
3.297170596618859 
0 
0 
1.065977673419228 
0 
0 
0 
0 
0 
0 
0 
0 
1.054726079574744 
0 
0 
0 
0 
0 
0 
1.25247606185751 
1.795531476436508 
0.2501558038623168 
0 
0 
0.08240316885301366 
0 
0 
-0.2471675160043914 
0 
0 
0 
0 
0 
0 
0 
0 
0 
0 
0 
0 
0 
0 
0 
0.7505134410493441 
0 
0 
0.329605797541992 
0 
0 
-0.03627148569667549 
0 
0 
0 
0 
0 
0 
0.3021781063747418 
0 
0 
0 
0 
0 
-0.2623084403614486 
0 
0 
0 
0 
0 
0 
0 
0 
0 
0 
-0.3538635920926916 
0 
0 
0 
1.81307793402587 
0 
0 
0 
0 
0 
0 
0 
0 
0 
0 
0 
0 
0 
0.3065779821553964 
0 
0 
0.573362607357734 
0 
0 
-0.991270005539575 
0 
0 
0 
0 
0 
0 
0 
0 
0 
1.895874695803561 
0 
0 
0 
0 
0 
0.6861397473452212 
0 
0 
1.325429696802223 
0 
0 
0 
0 
0 
0 
0 
0 
0 
0 
0 
0.172871877113385 
0 
0 
0 
0 
0 
0 
0 
0 
0 
0 
0.7645052242726743 
0 
0 
0 
0.7471620570538519 
0 
0 
0 
0.1630877558863235 
0.06111977538564904 
0 
1.080784422483541 
0.7948729333974307 
0 
0 
0 
0 
0 
0 
0 
0 
0.05433160669419086 
0.2385062578906612 
0 
0 
0 
0 
0 
0 
0 
0 
0 
0 
0 
1.173416787676903 
0 
0 
0 
0 
0 
0 
0 
-0.3787947359011274 
0 
0 
0 
0 
0 
0.04794353231960276 
0 
0 
0 
1.599744794418643 
0 
0 
0.5192440768217292 
0 
0 
0 
0 
0 
0 
0 
0 
0 
1.505843223969719 
0 
0 
0 
0 
0 
0 
0.8979749304913637 
0 
0 
0 
0 
1.416796937345018 
0 
0 
0 
0 
0 
0 
0 
0 
0 
0 
0 
-1.441984464334089 
0 
0 
0.8715327502928846 
0 
1.838236577137756 
-2.38925769787358 
0 
0 
0 
0 
0 
0 
0 
0 
0 
0 
0 
-0.6410696460987482 
0 
0 
0 
0 
0 
0.6664194744857176 
0 
0 
0 
0 
0.2811899765866497 
0 
-0.6983688105565941 
0 
0 
0 
0 
0 
0 
1.552033092281899 
0 
0 
0 
0 
0 
-0.7183693258310163 
-0.8783937930153696 
0 
0 
0 
0 
0 
0 
0 
0 
-0.2948104907617246 
0 
0 
0 
0 
0 
0 
0 
0 
0 
1.797198694201096 
0 
0 
0 
0 
-0.6428160786238828 
0 
0 
0 
0 
0 
0 
0 
0 
0 
0 
2.460739939124565 
0.7156978366736253 
0.4344244198610137 
0 
0 
0 
0 
0.1857818993750787 
0 
0 
0.8438977169898796 
0.7003812806873095 
0 
0 
0 
0 
0 
0 
0 
0 
0 
0 
0 
0 
0 
1.031765303231757 
0.9323415427834746 
0 
0 
0 
0 
0 
0 
0 
0 
0 
0 
0 
0 
2.19912413555518 
0.8249076685745195 
0 
0 
0 
0 
0 
0 
0 
0 
0 
1.692505651946161 
0.178091269742363 
0 
0 
0 
0 
0 
0 
0 
0 
1.037007868293657 
1.215992248272287 
0 
0 
0.7809811933728932 
0 
0 
0 
-0.06286344642214405 
0 
0 
0 
0 
0 
0 
0 
1.009448542046324 
0 
0 
0 
0 
0 
0 
1.743205611924132 
1.820130061125263 
0 
0 
0 
0 
0 
0 
0 
0 
2.061619830260154 
0 
2.812502873114686 
0 
0 
0 
1.147428817216628 
0 
1.1062483121222 
0 
0.802326154060605 
0 
0 
0 
0.06976958589007304 
0 
0 
1.933336891004104 
0 
0 
0 
-0.02918500214724804 
1.282533575533017 
0 
0 
0 
0 
1.151249749232544 
0.1001685818851494 
0 
0 
1.517939799033285 
0 
0 
0.9723086241942571 
0 
0 
0 
0.5190350236617857 
0 
0 
0 
0 
1.704945508887183 
-0.1964290357398335 
0 
1.851238327652464 
0 
1.853617154076258 
0 
0 
1.316539390467671 
0 
0 
0 
0 
0 
0 
0 
0 
0.1047919770532658 
0 
0 
0 
2.287386859451801 
0.8917827022091896 
0 
0 
-0.7414315988413112 
-2.001421091117226 
2.300897667775924 
0 
1.175513441091298 
0 
0 
0 
0 
0 
0.782882829169556 
0 
0 
0 
1.846068603963765 
0 
0.2058346681831786 
0 
0 
0 
0 
0 
0 
0.8792158134255534 
0 
0 
0 
1.370195677498996 
0.170262317395041 
-0.5069719013495353 
0.4938117457229638 
2.056319607935416 
0 
0 
0 
0.1001769007470615 
1.307889360105831 
0 
0 
0.2319222563934776 
0 
0 
0 
0 
0 
0 
0 
0 
0 
0.4010297912347681 
0 
0 
0 
0.456684986837768 
0.2761130643213129 
2.914942812230597 
0 
0 
0 
-0.1404614356943809 
-0.1985277381989294 
-0.6133374691779032 
0 
0 
0 
0 
0 
0 
0 
0 
0 
0 
0 
0 
0 
0 
0 
0 
-0.3012491183834033 
2.47339075200698 
0.9667922423329288 
0 
0 
-0.1861633991934393 
0 
0 
0.7129826608686788 
0 
0 
0 
0 
0 
0 
0 
0 
0.6875375605335226 
-3.246198170496765 
0 
0 
0 
0 
0 
0 
0 
0 
0 
0 
0 
0.206804176733323 
2.298177775160106 
0 
0 
0 
0 
0 
-0.661549701179275 
0 
0 
0 
0 
1.196700996253378 
0 
1.00513900447386 
0 
0 
0 
0 
-0.3135838348547179 
0 
0 
0 
0 
0 
0 
3.225328870011039 
0 
0 
0 
0 
0 
0 
0 
0 
0 
0 
0 
1.393480591686268 
0 
0 
0 
0 
0 
0.8582247136924295 
0.8765239791470735 
0.09747007558998863 
0 
0 
0 
0 
0 
0 
1.033058182438878 
0 
0.09667970769693014 
0 
2.218497385303301 
0 
0 
0 
0 
1.176977394178005 
0 
0 
0 
0 
0 
0 
0 
0 
0 
0 
0 
0 
0 
0 
0 
0 
0 
0 
0 
0 
0 
0 
0 
0 
0 
0 
0 
0.4047081138124112 
-0.7475029139781392 
0 
0 
1.003584511005426 
-0.2371954284081132 
0 
0 
0 
0 
0 
0 
0 
0 
-2.045529258088925 
0 
0 
0 
0 
0 
0 
0 
0 
0 
1.195373713495021 
0 
0 
1.024281352226528 
0 
0 
0 
0.9864484050482096 
0 
0 
0.7738577152500422 
0.3078883162519073 
0 
0 
0 
0 
0 
0 
0 
0 
0 
1.055313613961792 
0 
0 
0 
0 
0 
0.4516326026025371 
0 
0 
0 
0 
0 
0 
0 
0 
0 
0 
0 
0 
0 
0 
0 
0 
0 
0 
0 
0.307986623587705 
0 
0 
0 
0 
0 
0 
0 
0 
0 
0 
0 
0 
0 
0 
0.9396675673917455 
0 
0 
0 
0 
0 
0 
0 
-0.2332567587750048 
0 
1.519424124740546 
0 
0 
-2.079612018093094 
0 
0 
0 
0 
0 
0 
0 
0 
0 
0 
0 
0 
0 
2.079464549781211 
0 
0.8676966326104579 
0 
0 
0 
0 
0 
0 
0 
0 
0.5221789448993195 
0 
0 
0.7812745573646365 
0 
0.6050198037450079 
0 
0.4709214200441414 
0 
0 
0 
0 
1.717194506057042 
0 
0 
0 
0 
0 
0 
0 
0 
0 
0.1702263803872841 
0 
0.4966342948149085 
1.75612121553543 
0.4228064295825652 
0 
0 
0 
1.514832492259965 
0 
0 
0 
0 
0 
0 
0 
0 
0 
0 
0 
0 
0 
0 
0 
0 
0 
0 
0 
0 
0 
0 
0 
1.529539241315725 
0 
1.349265582331212 
0 
0 
0 
0 
-0.05353677344741759 
0 
0 
0.3712230301227495 
0 
0.2927055890239967 
0 
0 
0.436892112273 
0 
0 
0 
0 
0 
0.06718053354865411 
0 
0 
0 
0 
0 
0 
0 
0 
1.083001890228803 
1.26928102532662 
2.119334781905422 
0 
0.7940943595014534 
0 
0 
0 
1.125343594893004 
0 
0 
0 
1.182134525650195 
0 
0 
0 
-0.19744191642235 
0 
0 
0 
2.475093228554524 
0 
0 
0 
0 
0 
0 
0 
0 
0 
0 
0 
0 
0 
0 
0 
0 
1.268057192405288 
0 
0 
0 
0 
0 
0 
1.438453094510191 
0.4323730277511488 
0 
0 
0.5010532754357347 
0 
0 
0 
0 
0 
0 
0 
0.28754487040615 
0 
0 
-0.249987096159642 
0 
0 
0 
0 
1.386294361119891 
0 
0 
0.1305297162653914 
0 
-1.007618227848919 
1.080563656921734 
0 
0 
0 
0 
0 
0 
0 
0 
0 
0 
0 
0 
-0.06431445090947706 
0 
0 
0 
0 
0 
0 
0 
0 
0 
0 
0 
0 
0 
0 
0 
0 
1.380465087261852 
0.5381440478917566 
0 
0 
0 
0 
0 
0 
0 
0 
0 
0 
0 
0 
0 
0.7640368544184883 
0 
0 
0 
0 
0.5074883263948039 
0 
0 
0 
0 
0 
0 
0 
0 
0 
1.313269394866086 
0.9829593216600682 
0.8289132475220338 
0 
0 
0 
0 
0 
0 
0 
0 
1.254805102097461 
0 
0 
0 
0 
0 
1.975209032072221 
0 
0 
0 
0 
0.4977480734205962 
0 
0 
0 
0 
0 
-0.2210216764555167 
0 
0 
0 
0 
0.06672414362238357 
0 
-2.102134968071813 
0 
0.1105106083285957 
0 
0 
0 
0 
0 
0 
0 
0 
0 
0 
0.5211216593928547 
1.844822754352226 
0 
0 
0 
0 
0 
0.1691536590753294 
0 
0 
0 
0 
0 
1.938351497624084 
0.4952849485833071 
0 
0 
0 
0 
0 
0 
0.3400012828208541 
0 
0 
0 
0 
0 
0 
0 
0 
0 
0 
0 
0 
0 
0 
0 
0 
0 
0 
0 
0 
0 
0 
0.6305731025889234 
0 
0 
0 
0 
0 
0 
0 
-0.0232454596730072 
0 
0 
0 
0 
0 
1.262205196181172 
1.10619768045253 
0 
0 
0 
0 
0 
-0.05736615425512177 
0 
0 
0.9952884419976237 
0 
2.21384865409942 
0 
0 
0 
0 
0 
0 
0 
0 
1.030579091364278 
0 
0 
1.295978510849484 
0 
0 
0 
0 
0 
0 
-0.5444273392592696 
0 
0.721548010614898 
0 
0 
0 
0 
0 
0 
0 
0 
0 
0.206263499763691 
0 
0 
0 
0 
0 
1.356747944129838 
0 
0 
0 
0 
0 
0 
0 
0 
0 
0 
0 
0 
0 
0 
0 
0 
0 
0 
0 
1.483871001394801 
0 
0 
0 
0 
0 
0 
0 
0 
0 
0 
0 
0 
0 
0 
0 
0 
0 
0 
0 
0 
0 
0 
0 
0 
0 
0 
0 
1.144913135827329 
0 
1.018967510617219 
0 
0 
0.7842596887908806 
0.4365466803769051 
0 
0 
0 
0 
0 
0 
0 
0 
0 
0 
0 
0 
0 
0 
1.909916045992141 
0 
0 
0 
0 
0 
0 
-1.317433374405133 
0 
0 
0 
0 
0 
-0.5289804807643876 
0 
0 
0 
0 
0 
0 
0 
0 
0 
0 
-0.04974744637717143 
0 
0 
0 
0 
0 
0 
0 
0.4470272003143246 
0 
0 
0 
0 
0 
0 
0 
0.4421595058437402 
0 
0 
0 
0.8707716194270175 
1.262562847961583 
0.1031485166906738 
0 
-1.105632904531913 
0 
0 
0 
0 
0 
0 
1.044823498654784 
0 
0 
0 
0 
0 
0 
0 
0 
0 
0.1755562098797869 
0 
0 
0 
0 
0 
0 
0 
1.103573576637647 
0 
-0.3920151818760412 
0 
0.6176192547431927 
0.4737199449341904 
0 
1.05852762048505 
0 
0 
1.580547569178814 
0.7817398478841238 
2.297131117419812 
0 
0 
0 
0 
3.419811988113403 
0.9160710589980728 
0 
0 
0 
0 
0 
0 
0.6676464383916636 
0 
0 
0 
0 
0 
0 
0 
0 
0.09536362820108031 
0 
0 
0 
0 
0 
0.3783014354904176 
0 
1.599538119133944 
0 
0.8055456033406182 
0 
0 
0 
0 
0 
0 
0 
0 
0 
0 
0 
1.662983967022392 
0 
0 
0 
0 
0 
0.4103285958705378 
0 
0 
0.86879635294797 
0 
0 
0 
0 
0 
0 
0 
0 
0 
0.1769319851884173 
1.20933621649428 
2.615943719328326e-05 
0 
0 
2.500973998789917 
0 
0 
0 
0 
0 
0 
2.421117376271838 
0 
-0.5457969189936979 
0 
0 
0 
0 
1.057924495474358 
0 
0 
0 
0 
0.5534008815695205 
0 
0 
1.442073645611489 
0 
1.423227054919525 
0 
0 
0 
0 
0 
0 
1.977754780488278 
0 
0 
0 
0 
0 
0 
0 
0 
0 
0 
0 
0.6451811166156294 
0 
0 
0 
2.126333756385979 
0 
1.020544721050973 
0 
0 
0 
0 
0.3637347148871581 
0 
0 
0 
1.94628206523484 
0 
0 
0 
0 
0 
0 
0 
0 
0 
0.5809960133416884 
0 
0.4528900584806446 
0 
0 
0 
0 
0 
0 
0 
0 
0 
0 
0 
0 
1.448791241014432 
0 
0 
2.47318016482246 
0.7922671347698775 
0 
0 
0.365749603404692 
0 
0 
0 
0 
3.190274696948518 
0 
0.202869559620721 
0 
2.01082167932762 
0 
0 
0 
0 
0 
0 
0 
0 
0 
0 
0 
0 
0 
0 
0 
2.793134315414239 
0 
0 
0 
0 
0 
0 
-0.3677923015865576 
1.060300840398454 
0 
0 
0 
-0.6948028329349925 
0.4807108941392738 
0 
0 
0 
0 
0 
0.2437712349725684 
0 
0 
0 
0 
0 
0 
0 
0 
0 
0 
0 
0 
0.2149442745385208 
0.3297493045172537 
0 
0 
0 
0 
0 
0 
0 
0 
0 
0.4757059407079775 
0 
0 
0 
0 
0 
0 
0 
0 
0 
0 
0 
0 
0 
0 
0 
0 
0 
0.1136590463005731 
-0.2315090915207835 
0 
0 
0 
0 
0 
0 
0 
0 
0 
0 
0 
0.8145885912815587 
0 
0 
0 
0 
0 
0 
1.351555830737095 
0 
-0.07223848813760249 
0 
0 
0 
0 
0 
0 
-0.3587247035133733 
0 
0 
0 
0 
0 
0 
0 
0 
0 
2.313888593965249 
0 
0 
0 
0 
0.6798250860549384 
0 
0 
0 
0 
0 
0 
0 
0 
0 
0 
-0.1188950540491969 
0 
0.6629737890553045 
0 
0 
-0.1844247161386819 
0 
0 
0 
-0.2459057395204071 
0 
2.022777490443013 
0 
0 
0 
0 
0 
0 
0 
0 
0 
0 
0 
0 
0 
0 
-0.7776621828187195 
0 
0 
0 
0.298739556426219 
0 
0 
0 
0 
1.513988212867617 
0 
0 
0 
0 
0 
0.6578064721980702 
0 
0 
0 
0 
0 
0 
0.9511212379033375 
0 
0 
0 
0 
0 
0.8278233052046333 
-1.439756065440283 
0 
0 
0 
0 
-0.06601259160374504 
0 
0 
0 
0 
0 
0 
0.2243998718197342 
0 
0 
0 
0 
0.05805989325558628 
0 
0 
0 
0 
0 
0 
0 
0 
0 
0 
0 
0 
0 
0 
0 
0 
0 
0 
0 
0 
0.6904068547466105 
0 
0 
0 
0 
0 
0 
0.551314409662951 
0 
0 
0 
0 
-0.1470458893926692 
0 
0 
0.551706666071587 
0 
0 
0 
0.03506760148498237 
0 
0 
0 
1.655223431738245 
0.1101654373659886 
0 
0.7344823604785273 
0 
0 
0 
0 
0 
0.390425852572961 
0 
0 
0 
0 
0 
0 
0 
0 
0 
0 
0.5309165319568028 
0 
0 
0 
0 
0 
0 
0 
0 
0 
0 
1.374220424792975 
0 
0 
0 
0 
2.873408203981464 
0 
0 
0 
0 
0 
0 
0 
0 
0 
0 
0 
0 
0 
0 
0 
0.1237718680465422 
0 
0 
0 
0 
0 
0 
0 
0 
0 
0 
0 
0 
0 
0 
0 
0 
0 
0 
0 
0 
0 
0.9291017594609422 
0.3658094322107356 
0 
0 
0 
0 
0 
0 
0 
0 
0 
0 
0 
0 
0 
0 
0 
0 
0 
0 
-0.3180943168813464 
0 
0 
0 
0 
0 
0 
0 
0 
0 
-1.226981045193173 
0 
0 
0 
0 
0.2810663066590067 
0 
0 
0 
0 
0 
0 
0 
0 
0 
0 
0 
0 
0 
0 
0.7732074833247983 
0 
0 
0 
0 
0 
0 
0 
0 
0 
0 
0 
0 
3.702417484920586 
0 
0 
0 
0 
-0.4714447441582466 
0 
1.647748461677439 
0 
0 
0 
0 
0 
0 
0 
2.037221447076701 
0 
0 
0 
0 
0 
0 
0 
0 
0 
0 
0 
0 
0 
0 
0 
0 
0 
0 
0 
0 
0 
0 
0.6825079031978679 
0 
0 
0 
0 
0 
0 
0 
1.188805495271623 
0 
0 
0.688512576920671 
0 
0 
0 
0 
0 
0 
0 
0 
0 
0.985623811299343 
0 
0 
0 
-1.165598529339249 
0 
0 
1.504466176766815 
0 
0 
0.8512241826018287 
0 
0 
0 
0 
0 
0 
0 
0 
0 
0 
0 
0 
0 
0 
0 
0 
0 
0 
0 
0 
0 
0 
0 
0 
0 
0 
0 
0 
0 
1.424170110946719 
0 
0 
0 
0 
0.3617482157844983 
0 
0 
0 
0 
0 
0 
0 
0 
0 
0 
0 
0 
0 
-0.5431828652949172 
0 
0 
0 
0.136118506553401 
0 
0 
0 
0 
0 
0 
0 
1.680960110674624 
0 
0 
0 
0 
0 
0 
0.2783210570650319 
0 
0 
0 
0 
0 
0 
0 
0 
0 
0 
0 
0 
0 
0 
0 
0 
0 
0 
0 
0 
0 
0.440788065949715 
0 
0 
0 
-0.4767492615708622 
0 
0 
0 
0 
0 
0 
0 
0 
0 
0 
0.1060050246498688 
0 
0 
0 
0.03638586478543668 
0 
1.055256175636074 
0 
0 
0 
0.5918466087738825 
0 
0 
0 
0.01136547851286404 
0 
0 
0 
0 
0 
0 
0 
0 
0 
0 
1.407609186239646 
0 
0 
0 
0.09577790746799769 
0 
0.8687075795751898 
0 
0 
1.074953494292237 
0 
0.5405883086049608 
0 
0 
0 
0.2998625013473885 
0.1578081061920412 
0.9220040871553932 
0 
0 
0 
0 
0 
0 
0 
0 
0 
0 
0 
0 
0 
0 
0 
0 
0 
1.351803039965266 
0 
0.01236175923099626 
0 
0 
0 
0 
0 
0 
0 
0 
0 
0 
0 
0.6531781606335992 
0 
2.260550212164581 
0 
0 
0 
0 
0 
0 
0 
0 
0 
0 
0 
0 
0.5066405587170423 
0 
1.711399056206421 
0.7275496757259496 
0 
0 
0 
0 
0 
0 
0 
0 
0.6058459610248568 
0 
0 
0 
0 
0 
0 
0 
0 
-0.002343567914792158 
0 
0 
0 
0 
2.798382276065181 
-0.4409927811449454 
0 
0 
0 
0 
0 
0 
0 
0 
0 
0 
0.2846859909553381 
0.3156227969693735 
0 
3.258170031686993 
0 
0.3769047642622084 
0 
0 
0 
0 
0 
0 
2.622077796527904 
0 
0.2161222547606819 
-0.4163251795364115 
0 
0 
0 
0.2185628479545984 
0 
-0.2263897768203013 
0 
0 
0 
0 
0 
0 
-0.07246306940855129 
0 
-1.462490671107024 
0 
0 
-1.092209188539546 
0 
0 
0.2153286982478902 
0 
0 
0 
0 
0 
0 
0 
0.5139752397335414 
0 
0 
0 
1.261792826507409 
0 
0 
1.583894020101266 
0 
0.1389195845202158 
0 
0 
0.4882525024403084 
0 
0 
0 
0.1973601357367777 
0 
0 
0 
0 
0 
1.054919112206503 
0 
0 
0 
0 
0 
0 
0 
0 
0 
0.2048383854927528 
0 
0 
0.4605758948138869 
0 
0 
0 
0 
0 
0 
0.5054814041367807 
0 
0.3809495141112961 
0.791026856754912 
0 
0 
0 
-0.3983232945163566 
0.1568851762214564 
0 
0 
0 
0 
0.683019397808861 
0.355992194646009 
0 
0 
-0.3059387169357499 
0.5077832374464386 
0 
0 
0 
0 
0 
0 
0 
0 
0 
1.524173960795477 
0.3206809390437919 
0 
0 
0 
0 
0 
0 
0 
0 
0.8343813187420932 
0 
1.738406400918678 
1.70977681646718 
0 
0 
0 
0 
0 
0 
0 
0 
0.7531507393081431 
0.413756986389348 
0 
0 
0 
0 
0 
0 
0 
0 
0 
0 
0 
0 
0 
0 
0 
0 
0 
0.7545122853740948 
0.1894968953639512 
0 
0.09543972826767107 
0 
0 
0 
0 
1.308634446782988 
0.9076931010433428 
0 
0 
0 
0 
0 
0 
0 
0 
0 
0 
0 
0 
0 
0 
0 
0 
0 
0 
0 
0 
0 
0 
0 
-0.03064299064854225 
0 
0 
0 
0 
0 
0.9771909656664395 
0 
0 
1.234570798532948 
0 
0 
0 
0 
1.317629459145511 
0.07529532111238277 
0.2737635140903047 
0 
0 
0 
0.4846955269987291 
0 
0 
0 
0 
1.850970401721718 
0 
0 
0 
0 
0 
0 
0 
0 
0 
0 
0 
0 
0.7692563003600315 
-0.2572796940049279 
0 
0 
0 
0 
0 
0 
1.777716562570583 
0 
0 
0 
0 
0 
0.9131837477675391 
1.674928280468072 
0 
0 
0 
0 
0.4142992630421024 
0 
0.5196835622621643 
0 
0 
0 
0 
0 
0 
0 
0 
0 
-0.04453241990995136 
0 
0 
0 
0 
0 
-0.1734079120073373 
0 
0.2634654441937441 
0 
0 
0 
0 
0 
0 
0 
0 
0 
0 
0.5937709807440209 
0 
0 
0 
0 
-0.5418301148620329 
0 
0 
0 
0 
0 
0 
0 
0 
0 
0 
0 
0 
0 
0 
0 
0 
0 
0 
0 
0 
0 
0 
0 
0 
0.2557041441052652 
0 
0 
0 
0 
0.8233712653738593 
0 
0 
0 
0.3559656671266069 
0 
0 
0 
0 
0 
0 
0 
-0.689691011260285 
0 
0 
0 
0 
0 
0.9811131681258571 
0.9743075413086192 
0 
-0.2909686071842159 
0 
0 
0 
0 
0 
0 
0 
0 
0 
0 
0 
0 
0 
0 
0 
0 
0 
0 
2.269421561661317 
0 
-0.8941434552585328 
0 
0 
1.556789982714983 
0 
0 
0 
0 
0 
-0.141209993557245 
0 
0 
0 
1.27200364129178 
0 
0 
0 
0 
0 
0 
1.569194110088473 
1.67588068917404 
0 
1.824452816634607 
0 
0 
0 
0 
0.1876552952339884 
0 
0 
1.394659045246922 
0 
0.0900312371769855 
0 
-0.006514788972001935 
0 
0 
0 
0 
0 
0 
0 
0.670942509773686 
0.3900884726973523 
0 
-0.5112238341166342 
0 
0 
0 
0 
0 
-0.8042363519357278 
0 
0 
0 
0 
0 
0 
0 
0 
0.897103234192371 
0 
0 
0 
0 
0 
1.800899359915842 
0 
0 
0 
0 
0 
0 
0.6645287843014686 
0 
0 
0 
0 
-0.6426143614446002 
0 
0 
0 
0 
0 
0 
0 
0 
0.6808992221086354 
0 
0 
0 
0.5855325275506993 
0.9502250853101467 
0 
0 
0 
-0.6401245079109572 
0 
0.543523167893264 
0 
0 
0 
0 
0 
0 
2.362577119533983 
0 
0 
0 
0 
0 
0 
0 
0.7046100459364638 
0 
2.19114624569423 
0.884058007098717 
1.779985880108728 
0 
0.4781751850090301 
0 
0 
0 
0 
-0.328866339329976 
0 
0 
0 
0 
0 
0 
-0.5245117148381181 
-0.2773345853684814 
-0.1975670557125115 
0 
0 
0 
0 
0 
-0.7021072687720485 
0 
0 
0 
-0.04312780810040998 
-0.6800996044333923 
0 
0 
-0.2858918655281127 
0 
0 
0 
0 
0 
0 
0 
0 
0 
0 
0.08426203661634195 
0.5083849634806507 
0 
1.236133113919766 
0 
0 
1.463195877760833 
0 
0 
0 
0 
0 
0 
0 
-0.04107899236764186 
0 
0 
0 
0.1325733619509767 
2.273458733990883 
0 
0 
0 
0 
0 
2.304396122042002 
0 
0 
0 
0 
0 
3.009963729225786 
0 
0 
0 
0 
0 
0 
0 
0 
0 
0 
0 
0 
0 
0 
1.519362252574155 
0 
0 
1.390433839353102 
0 
1.613510436304985 
0 
1.514882448616302 
1.509991057302402 
0 
0 
0.3255782937988222 
0 
0 
0 
0 
0 
0.9795228927076998 
0 
0 
0 
0 
0 
0 
0 
0.4804475718100976 
0.6893074435719164 
0 
0 
0 
0 
0 
0 
0 
-0.6546349849801543 
0 
0 
0 
-3.348487348581995 
0 
0 
0 
0 
2.451195919233928 
2.934585715554641 
0 
1.142263922284846 
0 
0 
0.1628987790728854 
0 
0 
0 
0 
0 
0 
0 
0 
0 
0 
0 
0 
0.7688445735278405 
0 
1.017813900829732 
0 
0 
0 
0 
-1.175254439592748 
0 
-1.068562146337045 
0.5114083703984225 
0 
0 
0 
0 
0 
0 
0 
0 
-0.4420061400704743 
0 
0 
0 
0 
0 
0 
0.830175190551573 
0 
-0.1605042162237777 
0 
0 
0 
0.7444718813240578 
0.9266432319550102 
0 
1.435439672575777 
0.4271418633195577 
0 
1.658765527496858 
0.3944633364160003 
0 
0 
0 
0.4370341095983487 
0 
0 
0 
0 
0 
0 
0 
0 
0 
0 
0 
0 
0 
0 
0 
0 
-0.8705076330887627 
0 
0 
0 
0 
0 
0 
0 
0 
0 
0 
1.781564710653315 
0 
0.6267470760911192 
0 
0 
0 
0 
0.4832822670017415 
0 
1.535102267968236 
0 
0 
0.8742319768540211 
0 
0 
0 
0 
0 
0 
0 
0 
-1.177263765900626 
0 
0 
1.780009120673913 
0 
-0.9077805251924135 
0 
0 
0 
0 
0 
0 
0 
0 
0 
0 
0 
0 
0 
0 
0 
1.013811657809724 
1.194332570632856 
0 
0 
0 
0 
0 
0 
-0.9059269662692555 
0.263907238474373 
0.4893357262976844 
0 
0 
0 
2.880642664216677 
0 
0 
0 
0 
0 
0 
1.027547957335947 
0 
0 
0 
0 
0 
0 
0 
0 
0 
0 
2.269313324997565 
0 
0 
0 
0 
0 
0 
0 
0 
0 
-0.3293000860211188 
0 
0 
0.6447803790827994 
0 
0 
0 
0 
0 
0 
0 
0 
0.006548312860242429 
0 
0 
1.781510422763763 
0 
0 
0 
0 
0 
0 
0 
0 
1.724048406424198 
0 
0.8791327215711532 
0 
0 
0 
0 
0 
0 
0 
0 
0 
0 
0 
0 
0 
0 
0 
0.6551647077895248 
0 
0 
0 
0 
0 
0 
0 
0 
0 
0 
0 
0 
0 
0 
0 
0.1714309122475531 
0 
0 
0 
0 
0.3867203603908746 
0 
0 
-0.7702705981930078 
0 
0 
0 
0 
0 
0 
0 
0 
0 
-0.709543152881669 
0 
0 
0 
0 
0 
0 
0 
0 
0 
0 
0 
0 
0 
1.334631014721154 
0 
0 
0 
0 
0 
0 
0.2672120090374603 
0 
1.49496618498133 
0 
0 
0 
0 
0 
0 
-0.5913700095050911 
0 
0 
0 
0 
0 
0 
0 
0 
0 
0 
0 
0 
0 
3.565787667583765 
0 
0 
0 
0 
0 
0 
0 
0 
0 
0 
0 
0 
0 
0 
0 
0.6618379079229426 
0 
0 
0 
0 
0 
0 
0 
0.1998228129077618 
0 
0 
0 
0 
1.394994676646376 
-0.09878592749876713 
0 
0 
0 
0 
0 
0 
-0.03601315928344067 
1.371709286442665 
0 
0 
0 
0 
0 
0 
0 
0 
0 
0 
0 
0 
-0.1888422963962138 
0 
0 
0 
0.6806303085807857 
0 
0 
0.7195496347322139 
-0.4556164834114746 
0 
0.4413846454768579 
0 
0 
0.2062752202316379 
0 
0 
1.269226289775893 
0 
0.7739314649928504 
0 
1.187918017973328 
0 
0.5222721326744491 
0 
-0.08443530297633449 
-0.04357842331514213 
0 
0 
0 
0 
0 
0.2221059252197292 
0 
0 
1.914516694561254 
0 
0 
0 
0 
0 
0 
0 
1.428820962238458 
0 
0 
0 
0.2944239370689548 
0 
0 
0 
0 
0 
0 
0 
0 
0 
0 
0 
0 
0 
0 
0 
0.6724855857549199 
0 
0 
0 
0 
0 
-0.7334337061863383 
0 
0 
0 
0 
0 
0.4572829532352056 
0 
0 
0 
0 
0 
0 
0.04346513501793752 
0 
0 
0 
0 
0 
0 
0.2019090968669844 
0 
0 
0 
0.6397682112759314 
0 
0 
0 
0 
0.4318030672996908 
0 
0 
0 
0 
0 
0 
0 
0 
0 
0 
0 
0 
0 
-0.665411493672218 
0 
0 
0 
0 
0 
0 
0 
0 
0 
0.8581584304561972 
0 
0 
0 
0 
0 
0 
0 
0 
0 
-0.35476894133322 
0 
0 
0.155953456678293 
0 
0 
0 
0 
0 
0 
0 
0 
1.343309433087159 
0 
0 
0 
0 
0 
0 
0 
-1.268279028463553 
0 
0 
0 
0 
0 
0 
0 
0 
0 
0 
0 
0.05942400924494854 
0 
2.756525998296724 
0 
0 
0.6109442248629714 
0 
0.07003543788541743 
0 
0 
0 
0 
0 
0 
0 
0 
0 
0 
0 
0 
0 
0 
0 
-0.05150196577950583 
0 
0 
0.7693063647056745 
0 
-0.9731079888195449 
0 
0 
0 
0 
0 
0 
0 
1.913791941098658 
0 
0 
0 
0 
0 
0 
1.94016879022361 
1.621352902222395 
-1.21217774200726 
0.1217338861297557 
0 
-0.07992400999842585 
-2.26964917623404 
0 
0 
0 
0.0114025213159809 
0 
0 
0 
0 
0 
0 
0 
0 
0.155805272073288 
1.839735678342147 
0 
0 
0.6033497703358716 
0 
0 
0 
0 
0 
0 
0 
0.7744227042375694 
0 
0.5951233841027349 
0 
0 
0 
0 
0 
0 
0 
0 
0 
2.428209586938602 
0 
0 
0 
0 
0 
0 
0 
-0.3385851088779913 
0 
0 
0 
0 
2.717874718338594 
0 
0 
0.02846528948738707 
0 
0 
0 
0 
0.02462770429489994 
0 
0 
0 
0 
0 
0 
0 
0 
0 
0 
0 
0 
1.613800867064253 
0 
0 
1.55387555364741 
-0.1288995289517856 
0 
0 
0 
0 
0 
0 
0 
0 
1.380205047345577 
0 
0 
0 
1.283558618866985 
0 
0 
0 
-0.1323981223361158 
0 
0 
0 
0 
0 
0 
0 
0 
1.267077787138454 
0 
0 
0 
0 
0 
0 
0 
0 
0.8190903505762968 
0 
0 
0 
0 
0 
0 
0 
0 
0 
0 
0 
0 
0 
0 
0 
0 
0 
0 
0 
0 
0 
0 
0 
0 
0 
0 
0 
0 
0 
0 
0 
-1.9853739977539 
0 
0 
0 
0 
0 
0 
0 
0 
0 
0 
0 
0 
0 
0 
0 
0.05222400794444888 
0 
0 
0.8733333375978257 
0 
0 
0 
0 
0 
0 
0.3286605434538588 
0 
0 
0 
1.976931138722718 
0 
0 
0 
0 
0 
0 
0 
0 
0 
0 
0 
0 
0 
0 
0 
0 
0 
0 
0 
0 
0 
0.1372577143923875 
0 
0 
0 
0 
0 
0 
0 
0 
0.3457836679886035 
-0.2714717855994205 
0 
0 
0 
0 
0 
1.023515893579683 
0 
0 
0 
0 
0 
0 
0 
0 
0.1928119969100243 
0 
0 
0 
0 
0 
0 
0 
0 
0 
0 
0 
0 
0 
0 
0 
0 
0 
0 
0 
0 
0 
0 
0 
0 
0 
0 
0 
0 
0 
0 
0 
0 
0 
0 
0 
0 
0 
-0.3317844225704366 
0 
0 
0 
0 
0 
0 
0 
0 
0 
0 
0 
0 
0 
0 
0 
0 
0 
0.8207951798850489 
0 
0 
1.905599901650644 
0 
1.266102296804655 
0 
0.3101677753856852 
0 
0 
0 
0 
0 
0 
0.08997848360611713 
0 
0 
0 
0 
0 
0 
0 
0 
0 
0 
0 
0 
0 
0 
0 
0 
0 
0 
0 
0 
0 
-0.3449093527492217 
0 
0 
0 
1.326856923606665 
0.05943743751322546 
1.111555921104915 
0 
0 
0 
0 
0 
0 
0 
0 
0 
0 
0 
0 
0 
0 
0 
0 
1.441910159991709 
0 
0 
0 
0 
0 
0 
0 
0 
0 
0 
0 
0 
0 
0 
0 
0 
0 
0 
-1.771148239769071 
0 
0 
0 
0 
0 
0 
0 
0 
0 
0 
0 
0 
0 
0 
0 
0 
0 
0 
0 
0 
0 
0 
0 
0 
0 
0 
0 
0 
0 
0 
0 
0 
0 
0 
0 
0 
0 
0 
0 
0 
0 
0 
0 
0 
0 
0 
0 
0 
0 
0 
0 
0 
0 
0 
0 
0 
0 
0 
0 
0.6378063871417865 
0 
0 
0 
0 
0 
0 
1.203813739001172 
0 
0 
0 
0 
0 
0 
0 
0 
0 
0 
0 
0 
0 
0 
0 
2.15061859363498 
0 
0 
1.806623139596883 
0 
0 
0 
0 
0.09556351675912123 
0 
0.5400041064506276 
0 
0 
0 
1.338204670969825 
0 
0 
0 
0 
0 
-0.04992380028693628 
0.4546182477554624 
0 
0 
0 
0 
0 
0 
2.691264744417083 
0 
0 
0 
0 
0 
0 
0 
0 
0 
0 
0 
0 
0 
0 
0 
0 
0 
0 
0 
0 
-0.2138824941039538 
0 
0 
0 
0 
0 
0 
0 
0 
0 
0 
0 
0 
0 
0 
0 
0 
0.5931844647368034 
0 
0 
0 
0 
0 
0 
0 
0 
0 
0 
0 
0 
0 
0 
0 
0 
0 
2.581131683806765 
0 
0 
0 
0 
0 
0 
1.339960988585775 
0 
0.4059108286706648 
0 
0 
0 
0 
0.7933101529255839 
0 
0 
0 
0 
0 
0 
0 
0 
0 
-2.362331455966067 
-1.601494470400043 
0 
2.9905728479224 
0 
0 
0 
0 
0 
0 
0 
0 
0 
0 
0 
0 
0.2848769687315318 
0 
0 
0 
0 
0 
0 
0 
0 
1.638373984081676 
0 
0 
0 
0 
0 
0.2206045708308324 
1.286387380723304 
0 
0.8460216453246012 
0 
0 
0 
1.799897330188157 
0 
0 
0 
0 
0.957867339469162 
0 
0 
0 
0.1953445616659264 
0 
0 
0 
0 
0 
0 
1.756170250066431 
0 
0 
0 
0 
0 
0 
0 
0 
-0.5308208003560181 
0 
0 
0 
0 
0 
0 
0 
0 
0 
0 
0 
0 
0 
0 
0 
0 
0 
0 
0 
0 
0.665622292645795 
0 
0 
0 
0 
0 
0 
2.006312777121528 
0 
0 
0 
0 
0 
0 
0 
0 
0 
0 
0 
0 
0 
0 
0 
0 
0 
1.646569944646985 
0 
0 
0 
0 
0 
0 
0 
0 
0 
0 
0 
0 
-1.271065160754495 
0 
0 
0 
0 
0 
0 
0 
0 
0 
0 
0 
0 
0 
0 
0 
0 
0 
0 
0.550185646656024 
0 
0 
0 
0 
0 
0 
0 
0 
0 
0 
0 
-0.1749455618964571 
0 
0 
0 
0 
0.5669809615067033 
0 
0 
0 
0 
0 
2.088274213575446 
0 
0 
0 
0 
0 
0 
1.46906892460499 
0 
1.753658291272537 
0 
0 
0 
0 
0.6974077792228082 
0 
0 
0 
0 
0 
0 
0 
0 
0 
0.9450989862432795 
0 
0 
0 
0 
0 
0 
0 
0 
0 
0 
2.30634231200936 
0 
0 
-0.8597575849600796 
0 
0 
0 
0 
0 
0 
1.335927384037336 
0 
0 
0 
0 
0 
0 
0 
0 
0 
0 
0.0626882939681819 
0 
0 
0 
0.6525184278205602 
0 
-2.567579566940739 
0 
0 
0 
0.3926453154644099 
0 
0 
0 
0 
0 
0 
0 
0 
0 
0 
0 
0 
0 
0 
0 
0 
0 
0 
0 
0 
0 
0 
0 
0 
0.3941441949200126 
0 
0 
0 
0.3632230683653306 
0 
0 
0 
0 
0 
0.8557504287682591 
0 
0 
0 
0 
0 
1.212286025570837 
-0.4084096990514471 
0 
0 
0 
0 
0.4078578119335985 
0 
0 
0 
0 
0 
0 
0 
-1.291381577558783 
0 
0 
0 
0 
0 
0 
0 
0 
0 
0 
0 
0.5293683640840198 
0 
0 
0 
0 
0 
0 
0 
0 
0 
0 
0 
0 
-0.8051644024370804 
0 
0 
0 
0 
0 
0 
0 
0 
0 
0 
0 
0 
0 
1.002586232796382 
0.4918487767273192 
0 
0 
0 
0 
0 
0 
0 
0 
0 
0 
0 
0 
0 
0 
0 
0 
0 
0 
0 
0.2734736624356085 
0 
0 
0 
0 
0 
0 
0 
0 
0 
0 
0 
0 
0 
0 
0 
0 
0 
-0.03905602370437522 
0 
0 
0 
0 
0 
0 
0 
0.1227958151365536 
0 
0 
0 
-0.07748266175041017 
0 
0 
0 
0 
0 
0.7600290687637992 
0 
-0.2144124776004585 
0 
0.7139145723052182 
0 
0 
0 
0 
0 
0 
0 
0 
0 
0 
0 
0 
0 
0 
0 
1.057478274948748 
0 
0 
0 
0 
0 
0 
0 
0 
0 
0 
0.2468380267831454 
0 
0 
0 
-2.593962069260628 
0 
0 
0.8373065763594667 
0 
0 
0 
0 
0 
0.9218985577551249 
0 
0 
0 
0 
0 
0 
0 
0 
0 
0 
0 
0 
0 
-0.03032528625146937 
0 
0 
0 
0 
0 
0 
0 
0 
0 
-0.9258168304768793 
0 
0 
0 
0 
0 
-1.247662836887957 
0 
0 
0 
0 
0 
0 
0 
0 
0 
0 
0 
0 
0 
0 
0 
0 
0 
0 
0 
0 
0 
0 
-3.054092615496864 
0.2790177300358099 
0 
0 
0 
0 
0 
0 
0 
0 
0 
0 
0 
0 
0 
0 
0 
0 
0 
0 
0 
0 
0 
0 
0 
0 
0 
0 
0 
-0.02841232815183712 
0 
0 
1.804408605318303 
0 
0 
0 
0 
0 
0 
0 
0 
0 
0 
0 
0 
0 
0 
0 
0 
-0.4810934027900017 
0 
0 
0 
0 
0 
0 
0 
0 
0 
0 
0 
0 
1.430819710049183 
0 
0 
0 
0 
0 
0 
0 
0 
0.8063605084337213 
0 
0 
0 
0 
0 
1.399199604222829 
0 
0 
0 
0 
0.1033579409958843 
0 
0 
0 
0 
0 
0 
0 
0 
0 
0 
0 
0.3617120101324565 
0 
0 
0 
0 
0 
0 
0 
0 
0 
0 
0 
-0.8305139432240598 
0 
0.3238943063670884 
0 
0 
0 
0 
0 
0 
0 
0 
0 
0 
0 
0 
0 
0 
0 
0 
0 
0 
0 
-0.4393481664008824 
1.28765392957193 
0 
0 
0 
0 
0 
0 
0 
0 
0 
0 
1.588963787868232 
0 
0 
0 
0 
0 
0 
3.343252320175594 
0 
0 
1.147101675043457 
0 
0 
0 
0 
0 
0 
0 
0 
0 
0 
0 
0 
4.205429976644998 
0 
0 
0 
0.3537166694430293 
0 
0 
0 
0 
1.547729918855496 
0 
0 
1.239138162646559 
1.130903549752363 
0 
0 
0 
0 
0 
0 
0 
0 
0 
0 
0 
0 
0 
0 
0.592047551270511 
-0.5033206150375833 
0 
0 
0 
0 
-0.08005889382048018 
0 
0 
0 
0 
0 
0 
0 
0 
0 
0 
0 
0 
0 
0 
0 
0 
0 
0.9692274889925883 
0 
0 
0 
0 
-0.138548819942465 
0 
0 
0 
1.72966943649838 
0 
0 
0 
0 
0 
0 
0 
0 
0 
0 
0 
1.302004085018994 
0 
0.2727656079254764 
0.9664829340093597 
0 
2.094382601134152 
0 
0 
2.678215428267785 
0 
0 
0.6962046773951835 
0 
0.5516854219381195 
0 
0 
0 
0 
0 
0 
0 
-0.03121210237704467 
0.5414494957592413 
0 
1.997308652839367 
0 
0 
0 
0 
0 
0.3848755312502471 
0 
0 
0 
0 
0 
0 
0 
0 
0 
0 
0.8070309108384854 
0 
0 
0 
0 
0 
0 
0 
0 
0 
0 
0 
-3.485715180727524 
0 
0 
0 
0 
0 
-0.3981976933368818 
1.358807394127268 
1.513500999799548 
0 
0 
0 
0 
0 
0.5457525562554861 
0.7341902721857955 
0 
0 
0 
0 
1.139774095985069 
0 
0.4003360331403996 
0 
0 
0 
0 
0 
0 
0 
0 
0 
0 
0 
0 
1.481667990625689 
0 
0 
0 
0 
0 
0 
0 
0 
0 
0 
0 
0 
0 
2.959538338550991 
0.3449463761761047 
0 
0 
0 
0 
0 
0 
0 
-1.502353952071659 
0 
0.3838932442845783 
0 
0 
0 
0 
0 
0 
-0.5434361651178342 
0 
0 
0 
0 
0 
-0.5224339902017033 
0 
1.112368353061417 
0 
0 
0 
-0.31283254400947 
-0.2237112595331922 
0 
0 
0 
0 
0 
0 
0 
1.375471299690212 
0 
0 
0 
1.993342222988527 
0 
0 
0 
0 
0 
0 
0 
0 
0.6583465119234162 
0 
0 
0 
0 
0 
0 
0 
0 
0 
0 
-0.07340659889132217 
0 
0.1339110316634186 
1.02221494700212 
0 
0 
0 
0 
0 
0 
0 
0 
0 
0 
0 
0 
0 
0 
0 
0 
0 
0 
0 
0 
0 
0 
0 
0 
0.2160376091907025 
0 
-1.079427966319237 
0 
0 
0 
0 
0 
0 
0 
1.242775275071552 
0 
0.5194073837928698 
0 
0 
0.5246183944591686 
0 
0 
0 
0 
0 
0 
-0.4415548107591363 
0 
0 
0.1543317548641834 
0 
0 
0 
0 
0 
0 
0 
0 
0 
0 
0 
0 
1.629630432372473 
0 
1.381842118561784 
-0.4010816483672319 
0 
0 
0 
0 
0.6028629962912093 
0 
0 
0 
0 
0 
0 
0 
0 
0 
0 
0 
-1.724283190216083 
0 
0 
0 
0 
0 
0 
0 
0 
1.190107194685991 
0 
0 
0 
0 
0.2748982360581002 
0 
0 
-1.397866420965168 
0 
0 
0 
0 
0 
0 
0 
0 
0.2968676888946163 
0 
0 
-1.306474445926565 
0 
0 
0 
0 
0 
0 
0 
0 
0 
0 
0 
0 
1.157203847682136 
0 
0 
0 
0 
2.19805096685306 
0.9533807805634935 
0 
0 
0 
0 
0 
0 
0 
0 
0 
0 
0 
0 
0 
0 
0 
-0.6114967103711579 
0 
0 
0 
0 
0 
0 
0 
0 
0 
0 
0 
0 
0 
0 
0 
0 
0 
-1.303249348847954 
0 
1.721990808157986 
0 
0 
0 
0 
0 
-0.7350026949374672 
0 
0 
2.195765063087947 
0 
0 
0 
0 
0 
2.05207259824472 
0 
0 
0 
0 
0 
0 
0 
0 
0 
0 
0 
0 
0 
0 
0 
0 
0 
0 
0 
0 
0 
-0.5643191553967487 
0 
1.051596024220076 
0 
0 
0.02881030066996212 
0 
0 
0 
0 
0 
0 
0 
0 
0 
0 
0 
0 
0 
0 
0 
0 
0 
0 
0 
0 
0 
0 
0 
0 
0 
0 
0 
0 
0 
0 
0 
0.02147718585329093 
0 
0 
0 
0 
0 
0 
1.779546879980925 
0 
0 
0 
0 
0 
0 
0 
0 
0 
0.24087932495682 
0 
1.667769522723598 
0 
0 
0 
0 
0 
-0.2042568082606503 
0 
0 
0 
0 
0 
0 
0 
0 
0 
0 
0 
1.136371749234055 
0 
-0.3383679053782612 
0 
0 
0 
0 
0 
0 
0 
0 
0 
0.9246047122986296 
-0.397700384544298 
0.2575607718772625 
0 
-0.9078445042129902 
0 
1.362515911330914 
-3.751540453323991 
0 
0 
0 
0 
0 
0 
0 
0 
0 
0 
0 
0 
0 
0 
0 
0 
0 
0 
0.3295749479035111 
0 
0 
0 
0 
0 
0 
0 
0 
0 
0 
0 
0 
0 
0 
0 
0 
0 
0 
0 
0 
0 
1.351546140136582 
0 
0 
0 
0 
0 
0 
-0.6686600778043064 
0 
0 
0.2052877251461966 
0 
0 
0 
0 
0 
0 
0 
0 
0 
0 
0 
0 
0 
0 
0.3140448244732137 
0 
0 
0 
0 
0 
0.3343055635612038 
0.3061405531819522 
0.3287873053723477 
0 
0 
0 
0.5911788097631053 
0 
0 
0 
0 
2.078293239550528 
0 
0 
0 
0 
0 
0 
0 
0 
0 
0 
-1.58140135460741 
0 
0 
0 
0 
0 
1.093577193937054 
0 
0.8203370248536205 
1.49580642322777 
0 
0 
0 
0 
0.337766785395554 
0 
1.98149386629125 
0 
0 
0 
0 
0 
0 
0 
0 
-0.211714631577523 
0 
0 
0 
2.455047822103385 
0 
0 
0 
0 
0 
0 
0 
0 
0 
0 
0 
0 
0 
0 
0 
0 
0 
0 
1.262702200875471 
0.1712670814834645 
0.1830856826611758 
0 
0 
0.2172724278617224 
0 
0 
0 
0 
0 
0 
0 
0 
0 
0 
0 
0 
0 
0 
0 
0 
0 
0 
0 
0 
-1.253544657936417 
0 
0 
0 
0 
0 
0 
0.369004426784857 
0 
0.5231156934018836 
0 
0 
0 
0 
0 
0 
0 
0 
0 
0 
0 
0 
0.1172721821589016 
0 
0 
0 
0 
0 
0 
0 
0 
0 
0 
0 
0 
0 
0 
0 
-0.1852163197499398 
0 
2.141412936477551 
0 
0 
0 
0 
0 
0 
0.1638469593352064 
2.152095674723423 
0 
0 
0 
0 
0 
0 
0 
0 
0 
0 
0 
1.241903689773876 
0 
0 
0 
0 
0.5396793847363076 
0 
0 
0 
0 
0 
0 
0 
0 
0 
0 
0 
0 
0 
1.889112523405913 
0 
0 
0 
0 
0.5024604309780725 
0 
0 
0 
0 
0 
0 
0 
0 
0 
0 
0 
0 
0 
0 
0 
0 
0 
0 
0 
0 
0 
0.3263921673602955 
0 
0 
0.5890190805383768 
0 
0 
0.5295801365170268 
0 
0 
0.632548961737583 
0 
0 
0 
0 
0 
0 
0 
0 
0 
0 
0 
0 
0 
0 
0 
0 
0 
0 
0 
1.66704634429665 
0 
0 
0 
0 
-0.3636350521244541 
0 
0 
0.6596532187045453 
0 
0 
0 
0.3349869008855544 
0 
0 
0 
0 
0 
0 
0 
0 
0 
0 
0 
-1.095189033190181 
0 
0 
0 
1.66541948948227 
0 
0 
0 
0 
0 
0 
0 
0 
0 
0 
0 
0 
0 
0 
0 
0 
0 
-0.9900010304393856 
0 
0.3397215763023538 
0.9017026327841545 
0 
0 
0 
0 
0 
0 
0 
0 
0 
0 
0 
0.7425054291317517 
0 
0 
0 
0 
0 
0 
0 
0 
0 
0 
0 
0 
0 
0 
0 
0 
0 
0 
0 
0 
0 
0.03086723776557105 
0 
0 
0 
0 
0 
0 
1.007501413510887 
0 
0 
0 
0 
0 
0 
0 
0 
0 
0 
1.620323633393855 
0.6456024126020007 
0 
0 
0 
0 
0 
0 
0 
0 
0 
0 
0 
0 
0 
0 
0 
0.6018561618399595 
0 
0 
0 
0 
0 
0 
0 
-0.5480849034055952 
0 
0 
0 
0 
0 
0 
0 
0 
0 
0 
0 
0 
0 
0 
0 
0 
0 
0 
0 
0 
0 
0 
0 
0 
1.356146707708128 
0 
0 
0 
0 
0 
0 
0 
0 
0.3031666292281737 
-0.2278455818691495 
0 
0 
0 
2.161812020321867 
0 
1.323308896919116 
1.049915982352108 
1.247676391433657 
0 
0 
0 
0 
0 
0 
0 
0 
0 
0.08018821354125219 
0 
0 
0 
0 
-0.7862901247301156 
0 
0 
1.142170513316001 
0 
0 
0 
0 
0 
0 
0 
0 
0 
0 
0 
0 
5.462027487486075 
0 
-1.612120471612096 
0 
-0.831718249511578 
0 
0 
0 
0 
0 
0 
1.19062049345769 
0 
0 
0 
0 
0 
0 
0.3469449310736274 
0 
-0.03362663160741548 
0.5681564806112933 
0 
0.7476915651149347 
0 
0 
0 
0 
0 
0 
0 
0 
0 
0 
0 
0 
0 
0 
0 
0.00397514943646744 
0 
0 
0 
0 
0 
0 
0 
0 
0 
0 
0 
0.1089321038534361 
1.921467922012275 
0 
0 
0 
0 
0 
0 
0 
1.921526482565674 
0 
0 
0 
0 
0.7279745101798698 
0 
0 
0 
0 
0 
0.5252370302233905 
0 
0.02926499342240088 
0 
0 
0 
0 
0 
0 
0 
0.2896399791246325 
0 
0 
0 
0 
2.39477505254544 
1.455892010149175 
0 
0 
0 
0 
-0.1748102811559953 
0 
0 
0 
0 
0 
-0.6490752707533004 
0 
1.668185246247457 
0 
0 
0 
0 
0 
0 
0 
0 
0 
0 
0 
0 
0 
0 
0 
0 
1.021695133791942 
1.358130885182784 
0 
0 
0 
0 
0 
0 
1.401942767086052 
0 
2.538675531853686 
1.460068957006749 
0 
0 
-0.7214919238693263 
0.9092964351571691 
0 
0 
0 
0 
0 
0 
0 
0 
1.641882705850349 
0 
0 
0 
0 
0 
0 
1.090973543184281 
0 
0 
0 
0 
0 
1.477198184046933 
0 
1.264041144983308 
0.03019882979226823 
0 
0 
0 
0 
0 
0 
0 
0 
0 
0 
0 
1.066674717218206 
0.09573741720293463 
0 
0 
0 
0 
-1.375764421324938 
0 
0 
0 
0 
0 
0 
0 
0 
0 
0 
0 
0 
0 
0 
0 
0 
-0.5223674349762383 
0 
0 
0 
0 
0 
0 
0 
0 
0 
0 
0 
0 
0 
0 
0 
0 
0 
0 
0 
0 
0 
0 
0 
0 
0 
0 
0 
0 
0 
0 
0 
0 
0 
0 
0 
0 
0 
0 
0 
0 
0 
0 
0 
0 
0 
0.6872357897548016 
0 
0 
1.003960734254389 
0 
0 
0 
0 
0 
0 
0 
0 
0 
0 
-0.5212213344630692 
0 
0 
0 
0 
0 
0 
0 
0 
0 
0 
0 
0 
0 
0 
0 
0 
0.3209453927007478 
0.315027616079949 
0 
0 
0 
0 
0 
0 
0.3134334709902675 
0 
0 
-0.4686076845668328 
0 
0 
0 
3.066216809869318 
0 
0 
0 
0 
0 
0 
0 
0 
0 
-0.047751084215186 
0 
0 
0 
-0.5701705487742493 
0 
0 
0 
0 
0 
0 
0 
0 
0 
0 
0 
0 
0 
0 
0 
0 
0 
0 
0 
0 
0 
0 
0 
0 
0 
0 
-0.0503602000251955 
0 
0 
0 
0 
0 
0 
0 
0 
0 
0 
1.493572883169422 
0 
0 
0 
0 
0 
0 
2.082027396293453 
0 
0 
0 
0 
0 
0 
0 
0 
0 
0 
0 
0 
0 
0 
0 
0 
-0.6187957371436548 
0 
0 
0 
0 
0.1429964344440522 
0 
0 
0 
0 
0 
1.526548493382114 
0.9349188545749401 
0 
0 
0 
0 
0 
0 
0 
0 
0 
1.52029442091456 
-3.390191472699953 
0 
0 
0.5227588436101929 
0 
0 
0 
3.272985925869752 
0 
0 
0 
0.05744919921754953 
0 
0 
0 
-3.306198762471047 
1.058177528463646 
0.8230097316424637 
0 
0 
0 
0 
1.385677058130056 
0 
0 
0 
0 
0 
0 
0 
0 
0 
0 
0 
0 
0 
0 
0.5290450685276007 
0 
0 
0 
0 
0 
0 
0 
0 
0 
-0.06288036567188099 
0.3384096479911048 
0 
0 
-0.8300185896073883 
0 
0 
0.432411797127576 
0 
0 
0 
2.477970350977277 
0 
0 
0 
0 
0 
0 
0 
0 
0 
0 
0 
0 
0 
0 
0 
0 
-0.2199022718801626 
0 
-0.6943000577645755 
0 
0 
0 
0 
0 
0 
0 
0 
0 
1.651109227335656 
0 
0 
0 
0 
0 
0 
0 
-0.136176376785518 
0 
0.9433912049281922 
0 
0 
0 
0.9214058001882185 
1.247561692120903 
0 
0 
0 
0 
0 
0 
0 
0 
0.8310325395991778 
0 
0 
0 
0 
0 
0 
0 
0 
0 
0 
0 
0 
1.563006430028599 
0 
0 
0 
0 
0 
0 
0 
0 
0 
0 
-0.08381306839285359 
0 
0 
2.140485205926933 
0 
-0.7832669931731249 
0 
0 
0 
0 
0 
0 
0 
0 
0 
0 
0.79886210419045 
0 
0 
0 
0 
0.779761273561324 
0 
0 
0 
1.949693194747971 
0 
0 
0 
3.291292899264872 
0 
0 
0 
0 
0 
0 
0 
-1.042310099579294 
0 
0 
-0.1916141315288857 
0 
0 
1.369411979352639 
0 
0 
0 
0 
0 
0 
1.851449601730277 
0 
0 
0 
0 
0.659897398774992 
-0.9026221957807028 
0 
0 
0.1969844274551992 
0 
0.8164385016012077 
-0.5194303562918264 
0 
0 
0 
1.389407642143247 
0 
0 
0.9600730960672209 
0 
0.9132238025594116 
0 
0 
0 
0 
0 
0 
0 
0 
0 
0.07406063842738921 
0 
0 
0 
0 
1.717319972352302 
0.6827498119107143 
0 
0 
0 
0 
0 
0 
0 
0 
0 
0 
0 
0 
0 
0 
0 
0 
0 
0 
1.116314301465506 
0 
0 
0 
0 
0 
0 
0 
0.3154951577608462 
0 
-0.8874136580584771 
0 
0 
0 
0 
0 
0 
0 
0.7210500941497334 
0 
0 
0 
0 
0 
0 
0 
0 
-0.6898984797174227 
0 
0 
0 
0 
0 
0 
0 
0 
0 
-0.1207532934213513 
0 
0 
0 
0 
1.469263106909845 
0 
0 
0 
1.825317585718814 
0 
0 
0 
0 
0 
-0.5959952440945129 
0 
0 
0 
0 
0 
0 
0 
0 
0 
0.0137688767842808 
0 
0 
1.339793871372104 
0 
-0.6564623981492315 
0 
0 
0 
0 
0 
0 
0 
0 
1.462956360115379 
-0.928262267119267 
0 
0.116548590197842 
0 
0 
0 
0 
0 
0 
0 
0 
0 
1.395505203336146 
0 
0 
0 
0 
-2.642141747560535 
0 
0 
0 
0 
0 
0 
1.012696283949732 
0 
0 
0 
1.708551427666169 
0 
0 
0 
0 
0 
0.1659040603955472 
0.3059575085882609 
0 
0 
0 
0 
0 
0 
0 
0 
0 
0 
0 
0 
0 
0 
0 
0 
0 
0 
0 
0 
0 
0 
0 
0 
0 
0 
0 
0 
0 
0 
0 
0 
0.3881160879139732 
0 
0 
0 
0 
0 
0 
0 
0 
0 
0 
0 
0 
0 
0 
2.331794318098174 
0 
0 
0 
0 
0 
0 
0 
0 
0 
0 
0 
0 
0 
0 
0 
0 
0 
0 
0 
0 
0 
0 
1.281135083247265 
0 
0 
0 
0 
0 
0 
0 
0 
0 
0 
0 
0 
0 
1.488581239523605 
0 
0 
0 
0.6879861042747732 
0 
0 
0 
0 
0 
0 
0 
0 
0 
1.797633071753487 
0 
0 
0 
0 
0 
0 
0 
0 
2.471515765313483 
0 
-2.521649890595068 
-0.06665252621774714 
0 
0 
0 
0 
0 
0 
0 
0 
0.252036171487764 
0 
0 
0.4265669042281349 
0 
0 
0 
0 
0 
-2.115479485877635 
0 
0 
0 
0 
0 
0 
0 
0 
0 
0 
0 
0.02490814824065646 
0 
0 
0 
0 
0 
0 
0 
0 
0 
0 
0.03403803754131567 
0 
0 
0 
0 
0 
0 
0 
0 
0 
0 
0.8681303779054046 
0 
0 
0 
0.445250291531945 
0 
0 
2.609600337620487 
0 
0 
0 
0 
0 
0 
0 
1.856148622804322 
0 
-1.514573912413541 
0 
0 
0 
0 
0 
0 
0 
0 
0 
0 
0 
0 
0 
0 
0 
0 
0 
0 
0 
0 
0 
0 
0 
0 
0 
0 
0 
0 
0 
0 
0 
0 
0.7266668134727698 
0 
0 
0 
0 
0 
0 
1.096887886079339 
1.61966582475124 
0 
0 
0 
0 
0 
0 
0 
-0.06460314734320233 
0 
0 
0.2256247301318923 
0.247418676780941 
0 
1.040273792676831 
1.386294361119891 
0 
0 
0 
0 
0 
0 
0 
0 
0 
0 
0 
0 
0 
0 
0 
0 
0 
0 
0 
0 
-0.1002504333530624 
0 
0 
0 
0.6204151533814788 
0 
0 
0 
1.682312539616607 
0 
0.4658754791574988 
0 
0 
0 
0 
0.5588944060805876 
0 
0 
0 
0 
0 
1.287999407031077 
0.2073686058799216 
0.3062424842647773 
1.200672341394978 
0 
0 
0 
0 
0.8785373032184514 
0 
0 
0 
0 
0 
0 
0 
2.174787946979991 
0 
0 
0 
0 
0 
0 
0 
0 
0 
0 
0 
0 
0 
0 
0 
0 
0 
0 
0.7344212194464421 
0 
0 
0 
0 
0 
0 
0 
0 
0 
0 
0 
0 
0 
0 
0 
0 
0 
0 
1.83022945030017 
0 
0 
0 
0 
0 
0 
0 
0 
0 
0 
0 
0 
0 
0 
0 
2.758019570113811 
0 
0 
-0.2263598989382864 
0 
0 
0 
0 
0 
0 
0 
0 
0 
0.5518494881174933 
0 
0 
0 
0 
0 
0 
0 
0 
0 
0 
0 
0 
0 
0 
0 
0 
0 
0 
0 
0 
0 
0.4187574437339968 
0 
-0.3749223323921492 
0 
0 
0 
-0.4165046488868441 
0 
0 
0 
0 
0 
0 
0 
0 
0 
0 
0 
0.8840547125488979 
0 
0 
0 
0 
0 
0 
0 
0 
0 
0 
0 
0 
0 
0.3482824285948864 
0 
0 
0 
0 
-0.2986003170727042 
0 
0 
0.01899541640533759 
0 
0.4960032372268284 
0 
0.4703706735618842 
0 
0 
0 
0 
0 
0 
0 
0 
0 
0 
0 
0 
0 
0 
0 
0 
0 
0 
0 
0 
0 
0 
0 
0 
0 
0 
0 
0 
-1.450427148739735 
0 
0 
0 
0 
0 
0 
0 
0 
0 
0 
0 
0 
0 
0 
0 
0 
0 
0 
0 
0 
0 
0 
0 
0 
0 
0 
0 
0 
0 
0 
0 
0 
1.154583510854219 
0.5954184660060674 
0 
0 
0 
0 
0 
0 
0 
1.71006309007028 
0 
0 
0 
0 
0 
0 
0 
0 
0 
0 
0 
0 
0 
0 
0 
0 
1.054386280390681 
0 
0 
0 
0 
0.5119509638727392 
1.379586044673843 
0 
0 
0 
0 
0 
0 
0 
0 
0 
0 
0 
0 
0 
0 
0 
0 
0 
0 
0 
0 
0 
0 
0 
0 
0 
0 
0 
0 
0 
0 
0 
0 
0 
0 
0 
0 
0 
0 
0 
0 
0 
0 
0 
-0.7658601728824248 
0 
0 
0 
0 
0 
0 
0 
0 
1.147337946357901 
0 
0 
0 
0 
0 
0 
0 
0 
0.1607019226457504 
0 
0 
0 
0 
0 
0 
0 
0 
0 
0 
0 
0 
0 
0 
0 
0 
0 
0 
0 
0 
0 
0 
0 
0 
0 
0 
0 
0 
0 
0 
0 
0 
0 
0 
0 
0 
0 
0 
0 
0 
0 
0 
0 
0 
0 
0 
0.2990218705003473 
0 
0 
0 
0 
0 
-0.3685890330654251 
0 
0 
0.813212014334324 
0 
0 
0 
0 
0 
0 
0 
0 
0 
0 
0 
0 
0.01987451647227492 
0 
0 
0 
0 
0 
0 
0 
0 
0 
0 
0 
0 
0 
0 
0 
0 
0 
1.308308496092789 
0 
0 
0 
0 
0 
0 
0 
0 
2.553572226750182 
0 
0 
0 
0 
0 
0 
0 
0 
0 
0 
0 
0 
-0.3475317182839532 
0 
0.7030273077554573 
0 
0 
0 
0 
0 
0 
0 
0 
0 
0 
0 
0 
0 
0 
0 
0 
0 
0 
0 
0 
0 
0 
0 
0 
0 
0 
-0.08616929384407013 
0 
0 
0 
0 
0 
0 
0 
0 
0 
0 
0 
0 
0 
-0.187327033863514 
0 
0 
0 
1.143070017887516 
0 
0 
0 
0 
2.869950112284247 
0 
0 
0 
0 
0 
0 
0 
0 
0 
0 
0 
0 
0 
0 
0 
0.4355357362445197 
0 
0 
0 
0 
0 
0 
0 
0 
0 
0 
0 
0 
0 
0 
0 
0 
0 
0 
1.18152248650194 
0 
0 
0 
0 
0.5308805621337915 
0 
0 
0 
0 
0 
-0.6273467908429918 
0 
0 
0 
0 
2.031940421536167 
0 
0 
0 
0 
0 
0 
0 
0 
0 
0 
0 
0 
0 
0 
0.5324654187062866 
0 
0 
0 
0 
0 
0 
0 
0 
0 
0 
0 
0 
0 
0 
0 
0 
0 
0 
0 
0 
0 
0 
0 
0 
0 
0.7404061787243118 
0.08697796268994303 
0.02469542574656894 
0.330314783181669 
0.9170281127355164 
0 
0 
0 
0 
0.237899628407738 
3.93082565522652 
0 
0 
0 
0 
0 
0 
0 
0 
0 
0 
0 
0 
0 
0 
-1.705840189801503 
0 
0.01697427314695037 
0.1688956427202643 
0 
0.8792152265221019 
0 
0 
0 
0.6102261211157944 
0 
0 
0 
0.4126299653212772 
0 
1.121026152729388 
0 
0 
0 
0 
0 
0 
0 
0 
0 
0 
0 
0 
0 
0 
0 
0 
0 
0 
0.5858346686907741 
0 
0 
0 
0 
0 
0 
0 
0 
0 
0 
0.347487132480175 
1.640612109516524 
-0.7530090644963751 
0 
0 
-0.5089887899469798 
0 
0 
0 
0 
0 
0 
0 
0 
0 
0 
0.2285819317810819 
0 
1.564256075763258 
0 
0 
0 
0 
0 
0.6018436510183809 
0 
0 
0 
1.29966887987701 
0 
0 
0 
0 
0 
0 
0 
0 
0 
0 
0 
0.1965590226689919 
0 
0 
0 
0 
-0.7944594492189084 
-0.0471460348080459 
0 
-0.2908931456563758 
0 
0 
0 
0 
0 
0 
0 
0 
0 
0 
0.618426282395157 
0 
0 
0 
0 
0 
0 
0 
0 
-0.4157204895271833 
0.7913911024487896 
1.116678806240611 
0.2468832597765185 
0 
-0.338897308456782 
0 
-0.4416027911030844 
-0.4723227928143902 
2.910709706722411 
0.3169529119652486 
0 
-1.835552132748234 
0.01865832150367672 
0 
0 
0 
0 
0 
0 
0 
0 
0 
0 
0 
0 
1.378480899450979 
0 
0 
-0.6914726014942094 
0 
0 
0 
0 
0 
0 
0 
0 
0 
0 
0 
0 
0 
0 
0 
0 
0 
0 
0 
0 
0 
0 
0 
0 
0 
0 
0 
0 
0 
0 
0 
0 
0 
0 
0 
0 
0 
0 
0 
0 
0 
0 
0 
0 
0 
0 
0 
0 
0 
0 
0 
0 
0 
0 
0 
0 
0 
0 
0 
1.889769938629965 
0 
0 
0 
0 
0 
0 
0 
0 
0 
0 
0 
0 
0 
0 
0 
0 
0 
0 
0 
0 
0 
0 
0 
0 
0 
0 
0.2245754946193153 
0 
0 
0 
0 
0 
0 
0.03065946578056036 
0 
0 
0 
0 
0 
0 
0 
0 
0 
0 
0 
0 
0 
0 
-1.346147211956503 
0 
0 
1.386294361119891 
0 
0 
0 
0 
0 
0 
0 
0 
0 
0 
0.3701500258301482 
0 
0 
0.6521308073876504 
0 
0.2857483077682431 
0 
0 
0 
0 
0 
0 
0 
0 
0 
0 
0 
0 
0 
0 
0 
0 
0 
0 
0 
0 
0 
0 
0 
-0.2554649736637626 
0 
1.23165158269694 
0 
0 
0 
0 
0 
0 
0 
0 
0 
0 
0 
0 
0 
0 
-0.2364839194081814 
0 
0 
0 
0 
0 
0 
0 
0 
0 
0 
0 
0 
0 
0 
0 
0 
3.99293190593741 
0 
0 
0 
0 
0.04364750255954822 
0 
0 
0 
0 
0.7164935930836828 
0 
0 
0 
0 
0 
0 
0 
0 
1.386294361119891 
0 
0 
0 
0 
0 
0 
0 
0 
0 
0 
0.6278428168268901 
0 
0 
0 
0 
0 
0 
2.103705863215937 
0 
0 
0 
0 
0.5609846392581338 
0.08434503401266126 
0 
0 
0 
0 
0 
0 
0 
0 
0 
0 
0 
0 
0 
0 
0 
0 
0 
0 
0 
1.124906847235475 
0 
0 
0 
-0.03110819269600988 
0 
0 
0 
0 
0 
0 
0 
-0.04338043341270942 
0 
0 
0 
0 
0 
0 
0.3728152785838069 
0 
0.5924376817590167 
0 
0 
0 
0 
0 
-0.07753326202207408 
0 
0 
0 
0 
-0.9298774247063871 
0 
0 
0 
-1.180422977484447 
0 
0 
0 
0 
0 
0 
0 
0 
0 
0 
0 
0 
0.1961050843931639 
0 
0 
1.079298613336976 
0 
0 
-1.782739545341473 
0.02037726572828375 
0 
0 
1.14601176971026 
-1.012677275609922 
0 
0 
0.3959481658884331 
0.9439655239040707 
0 
0 
0 
0 
0 
0 
0 
0.6324863301271505 
0 
-1.96987273629112 
0 
0 
0 
0 
0 
0 
1.833002424868881 
0 
0 
0 
0 
0 
0 
0 
0 
0 
0 
0 
0 
0 
0 
0 
0.04764441938405466 
0 
0.3173293798443184 
0 
0 
0 
0 
0 
1.212861973626388 
0 
0 
0 
0 
0 
2.35877295134767 
0.1394234645062069 
0 
0 
0 
0 
0 
0 
1.16567352606232 
0 
0 
0 
0 
0 
0 
0 
0 
0 
0 
0 
0 
0 
0 
0.3698738692475005 
0 
0 
0 
0 
0 
-0.9677269205513448 
-0.3748393403636761 
0 
1.166687359813876 
0 
0 
0 
0 
0 
0 
0 
1.508877717440562 
0 
0.7876058133441328 
0 
0 
0 
0 
0 
0.527618970402124 
1.035528571207802 
0 
0 
0 
0 
0 
0 
0 
-0.2441045348708721 
0 
0 
0 
0 
0 
0 
0 
0 
1.358969058620637 
0.7054249124513622 
0 
0 
0.2320982686986941 
0 
0 
0 
0 
0 
0 
0 
0 
0 
0 
-0.1156450609657643 
0 
0 
0 
0 
0 
0 
0 
0 
1.688492048594115 
0 
0 
0 
1.269825183615801 
0 
0 
0 
0 
0 
0.6357977419606412 
0 
0 
0 
-4.058103648636062 
0 
0.4638626546476992 
0 
0 
0 
0 
0 
0 
0 
0 
0 
0 
0 
0 
0 
0 
0 
0 
0 
0.5302774913124857 
0 
0 
0 
0 
0 
0 
0 
0 
0 
0 
1.841165728085835 
0 
0 
0 
0 
0.9138966123401898 
0 
0 
0 
0 
0 
0.4837280214883315 
0 
0 
0 
0 
0 
0 
0 
0 
0 
0 
0 
2.002001506845793 
0 
0 
0 
0 
0 
0 
0 
0 
0 
0 
0 
-2.510440392694371 
0 
0 
0 
0 
0 
0 
0 
0 
0 
0 
0 
0 
0 
0 
0 
0 
0 
0 
1.75121093315418 
0 
1.666347403122537 
0.09850057063259043 
0 
0 
0 
0 
0 
1.036200771932573 
0 
0 
0 
0.8695742439596732 
0 
0 
0 
0 
3.695191416466419 
0 
0 
0 
0 
0 
0 
1.509841862292205 
-0.9326440690303586 
0 
0 
0 
0 
0 
0 
0 
0 
-2.895525932722504 
0 
0 
0 
1.130310598212727 
0 
0 
0 
0 
0 
0 
0 
0 
0 
0 
0 
0 
1.954178787983275 
0 
0 
0 
0 
2.690601816796975 
0 
0 
-1.563873930425686 
0.5546953824792789 
0 
0 
0 
0 
0 
0 
0 
0 
0 
0.3885805921449925 
0 
0 
0 
0 
0 
0 
0 
0 
0 
0 
0 
0.9512802316687631 
0 
0 
0 
0 
0 
0 
0 
0 
0 
0 
0 
0 
0 
0 
0 
0.1757030211027998 
0 
0 
0 
0 
0 
0 
0 
0 
0 
0 
0 
0 
0 
0 
0 
1.184445644096642 
0 
0 
0 
0 
0 
0 
0 
0 
0 
0 
0 
0 
0 
0 
0 
0 
0 
0 
0 
0 
0 
0 
0 
0 
0 
1.257606912046887 
0 
0 
1.065254136394402 
0 
0 
0 
0 
0 
0 
0 
0 
-0.1923217846658884 
0 
0 
0 
0 
0 
0 
0 
0 
0 
0 
0 
0 
0.6974936147485102 
0.9767774663663729 
0 
0 
1.573148754534279 
0 
0 
0 
0 
0 
0 
-1.600998530424156 
0 
0 
0 
0 
0 
0 
0 
0 
-1.149334872075621 
0 
0 
1.078342782964198 
0 
0 
3.017978487780052 
-0.8466617389977595 
0.1758423025509704 
0 
0 
0 
0 
0 
0.07176384295628083 
0 
0 
0 
0 
0 
0 
0 
0 
0 
0 
0 
0 
0 
0 
0.2267300458148576 
-0.5299810514857097 
0 
0 
0 
0 
0 
0 
0 
0 
0 
0 
0 
0 
0 
0.02635311520488245 
0 
0 
0 
0 
0 
0 
0 
0 
0 
0 
0 
0 
0 
0 
0 
0 
0 
0.08546119261442112 
0 
0 
0 
0 
0 
0 
0 
0 
0 
0 
0 
0 
0 
0 
0 
0 
0 
0.2774401137584231 
0 
0 
0 
0 
0 
0 
0.259278070918304 
0 
0 
1.228952439707405 
0 
0 
0 
-1.173348941987395 
0 
0 
0 
0 
0 
0 
0 
0 
0 
1.848379847690514 
0 
0 
0 
0 
0 
0 
0 
0 
0 
0 
1.389423845257842 
0 
0 
0 
0 
0 
0 
0 
0 
0 
0 
0 
1.123035323054147 
0 
0 
0 
0 
0 
0 
0 
0 
0 
0 
2.434918120325557 
0 
0 
0 
0 
0 
0 
0 
0 
0 
0 
0 
0 
0 
0 
0 
0 
0 
0 
0 
0 
0 
0 
0 
0 
0 
0 
0 
0 
0 
0 
0 
0 
0.591274666231567 
0 
0 
0 
0 
0 
0 
-0.8376233890567127 
0 
0 
0 
0 
0 
1.891032182486944 
0 
0 
0 
0 
0 
0 
0 
0 
0 
0 
0 
0 
0 
1.22479013811275 
0 
0 
0 
0 
0 
0 
0 
0 
0 
0 
0 
0 
0 
0 
0 
0 
0 
0 
0 
0 
0 
0 
0 
0 
0 
0.6059780074829684 
0 
0 
0 
0 
0 
0 
0 
0 
1.196466841228569 
0 
0 
0 
0 
-0.1062730151046013 
0 
0 
0.6950617814820009 
0 
0 
0 
0 
0 
0 
0 
0 
0 
0 
0.04535860866365769 
0 
0 
0 
0 
0 
0.4638250282049744 
0 
0.1764030555403386 
0 
0 
0 
0 
0 
0 
0 
0 
0 
0 
0 
0 
0 
0 
0 
0 
0 
0 
0 
0 
0 
0 
0 
0 
0 
0 
2.299152083770799 
0 
0 
0 
0 
0 
0 
0.8529255937093282 
0 
0 
0 
0 
0 
0 
0 
0.9581609192907726 
0.6703055338767216 
-2.574059811818831 
0 
0 
0 
0 
0 
0 
0 
0 
0 
0 
0 
0 
0 
0 
0 
0.02184721398991656 
0 
0 
0 
0 
0 
0 
0 
0 
0 
0 
0 
0 
0 
0 
0 
0 
0 
0.8918463482838772 
0 
0 
0.3865045365300688 
0 
0 
0 
0.9003032024355946 
0 
0 
-1.847923562749588 
2.729639437127092 
0 
0 
0 
0.2404244554072756 
0.6480022954674793 
0 
0 
0 
0 
0 
0 
0 
0 
0 
0 
0 
0 
0.8729092928797547 
0 
0 
0 
0 
0 
0 
0 
1.948076218588725 
0 
0 
0.5521083386699643 
0 
0 
0 
0 
0 
0 
0 
0 
0 
-0.3438428523420635 
0 
0 
0 
0 
0 
0 
0 
0 
0 
0 
0 
0 
0.1524743081242926 
0 
0 
0 
0 
0 
0 
-0.1629289906401482 
0 
0 
0.6769404067811099 
0 
0 
-0.005857713964655406 
0 
0 
0 
0 
0 
0 
0 
0 
0 
0 
0 
0 
0 
0 
0 
0 
0 
0 
0 
0 
0 
0 
0 
0 
0 
1.152064598071367 
0 
0 
0 
-0.940938158625229 
0 
0 
0 
0 
0.4693831149643641 
0.03677950493806875 
0.09572660339263762 
0 
0 
0 
0 
0 
0 
-0.1579041770601524 
0 
0 
0.07545554337264994 
0 
0 
-0.6184069393778192 
0 
-0.595639468585231 
0.4548734747298357 
0 
0 
0 
0.5750144796003785 
-1.547464880609122 
0 
0.0242348056065779 
0.0273241467786434 
0 
0 
-0.05143058330059044 
0 
1.738334516005182 
0 
0 
0 
0 
0 
0.1128594161064269 
0 
0 
0 
0 
0 
0 
1.979126835318755 
0 
0 
0 
0 
0 
1.014842504613836 
0 
0 
0 
0 
0 
0 
1.589249709097667 
0 
1.389779233168402 
0 
0 
0 
0 
-0.4173766971355203 
0 
0 
0 
0 
0 
0 
0.6963871612739393 
0 
0 
0 
0 
0 
0 
0 
0 
0 
0 
0 
0 
0 
0 
0 
0 
0 
0 
-0.4099938874231492 
0.007937825543978965 
0 
0 
0 
0 
0 
0 
0 
0 
0 
0 
0 
0 
0 
0 
0 
0 
0 
0 
0 
0 
-0.1673410798275509 
0 
0 
-0.001650474766603077 
0 
0 
0 
0 
0 
0 
0 
0 
0 
0 
0 
0 
0 
0 
0 
0 
0 
0 
0 
0 
0 
0 
0 
0 
0 
0 
0 
0 
0 
0 
0 
0 
0 
0 
0 
1.300563509193971 
0 
0 
0 
0 
0 
0 
0 
0 
0 
0 
0 
0 
0 
0 
0 
-0.4430808502417772 
0 
0 
0.05020649080797588 
0 
2.949798432497679 
0 
0 
0 
0 
0 
0 
0 
0 
0 
0 
0 
0 
0 
-1.509438237955879 
0 
0 
0 
0 
0 
0 
0 
0 
0 
0 
0 
1.549141579426909 
0 
0 
1.065209971854423 
0 
0 
0 
0 
0 
0 
0 
0 
0 
0 
0 
0.06378859524508262 
0 
0 
0 
0 
0 
0 
0 
0 
-0.02790964566579495 
0 
0 
0 
0 
0 
0 
0 
0 
0 
0 
-0.3253916242731974 
-0.02380114213869512 
0 
0 
0 
0 
0 
0 
0 
-0.4755826633321436 
0 
0 
0 
0 
0 
0 
0 
0 
0 
0 
0 
0 
0 
0 
0 
0 
0 
0 
0 
0 
0 
0 
1.655720678911093 
0 
-0.2605885370971569 
0 
0 
0 
0 
0 
0 
0 
0 
0 
0 
0 
0 
0 
0 
0 
0 
0 
0 
0 
0 
0 
0 
0 
0 
0 
0.01724436327811029 
0 
0 
0 
0 
0.1698267546377322 
0 
0 
0 
0 
0 
1.007302679027829 
0.1356385756339953 
1.386294361119891 
0 
0 
0 
-0.2284456762670578 
0 
0 
0 
0.5966167821618751 
0 
0 
0 
0 
0 
0 
0 
0 
0 
0 
0 
0 
0 
0 
0 
0 
0 
0 
0 
0 
0 
1.764503662476324 
0 
0 
0 
0 
0 
0 
0 
0.1518190864681902 
-1.331358848443249 
0 
0 
0 
0 
0 
0 
0 
0 
0 
0 
0 
0 
0 
0 
0 
0 
0 
0 
0 
0 
0 
2.444262077087265 
0 
0 
0 
0 
0 
0 
0 
0 
0 
0 
0 
0 
0 
0 
0 
0 
0 
0 
0.8092221875893837 
0 
0 
0 
0 
0 
0 
0 
0 
0 
0 
0.4952310026707716 
0 
0 
0 
0 
0 
0 
0 
0 
0.7997985393249448 
0 
0 
0 
0 
0 
0 
0 
-0.5124345393765081 
0 
1.186847153329822 
0 
0 
0 
0 
0 
0 
0 
0 
0 
0 
3.959304937458275 
0 
0 
0 
0 
0 
0 
0 
0 
1.612214418494365 
0 
0 
0 
0 
0.7789694122609795 
0 
0 
0 
0 
0 
0.06558636604989672 
0.2782866731565993 
0 
0 
0 
0 
0 
0 
0 
0 
0 
0 
0 
0 
1.377855590281964 
0 
0 
0 
0 
0 
0 
0 
0 
0 
0 
0 
0 
0 
0 
0 
-1.100294779302308 
0 
0 
0 
0 
0 
0 
0 
0 
0 
0 
0 
0 
0 
1.957109671592132 
0 
0 
-2.829887392015432 
0 
0 
0 
0 
1.126599977096542 
0 
0 
0 
0 
0 
0 
0 
0 
0 
0 
0 
0 
0 
0 
0 
0 
0 
0 
0 
0 
0 
0 
0 
1.495162383134655 
0 
0 
0 
0 
0 
0 
0 
-0.5578578513180944 
1.683962106593902 
0 
0 
-0.6782502964081401 
0 
0 
0 
0 
1.033848421607781 
0.3493904317422826 
0 
0 
0 
0 
0 
0 
1.450227425145131 
0 
0 
0 
0 
0 
0 
0 
0 
0 
0 
0 
0 
0 
0 
0 
0.1362086202748285 
0 
0 
0 
0 
0 
0 
0 
0 
0 
0 
0 
0 
0 
0 
0 
0 
0 
0 
0 
2.191099975538823 
0 
0 
0 
0 
0 
0 
0 
0 
0 
0 
0 
0 
0 
0 
0 
0 
0 
0 
0 
0 
0 
0 
0 
0 
0 
0 
0 
0 
0 
0 
0 
0 
0 
1.120436306253754 
0 
0 
0 
0 
0 
0 
0 
0 
0 
0 
1.057633561699656 
0.0008940587852847432 
0 
0 
0 
0 
0 
0 
-0.2815955053606304 
0 
2.730207303282186 
0 
0 
0 
0 
0 
0 
0 
0 
0 
0 
0 
0 
0 
0 
0 
0 
0 
0.5853894187847923 
0 
0 
0.9354004893515959 
0 
0 
0 
0 
0 
0 
0 
2.165887604476882 
0.535499872424425 
-0.8588207456316749 
0 
0 
0 
0 
0 
0 
1.062454060057911 
-1.900056873332458 
0 
0 
0 
1.053568653373988 
0 
0 
0 
0 
0.02134679931404007 
0 
0 
0 
0.2887000903600631 
0 
0 
0.6550272355669523 
0.7343531690921838 
0 
0 
0 
0 
0 
0 
0 
0 
0 
0 
0 
0 
0 
0.8591193914148976 
0 
0 
0 
0 
0.902852844710322 
0 
0 
0 
0 
0 
0 
0.1962745932792328 
0 
0 
0 
0 
0 
0 
0 
0 
0 
0 
0 
0 
0 
0 
0.6718943571415982 
0 
0 
0 
0 
1.366021467615115 
0 
0 
0 
0 
0 
0 
0 
0 
0 
0 
0 
0 
0 
0 
0 
0 
0 
0 
0 
0 
0 
0.8725690607881971 
0 
0 
0 
0 
0 
0 
0 
0 
0 
0 
0 
0 
0 
0 
0 
0 
0 
0 
0 
0 
0 
0 
0 
0 
0 
0 
0 
0 
0 
0 
0 
0 
0 
0 
0 
0 
0.7675636865938918 
0 
0 
0 
0 
0 
0 
0 
0 
0 
0 
0 
0 
0 
0 
0 
0 
0 
0 
0 
0 
0 
1.432807291378864 
0 
0 
0 
0 
0 
0 
0 
0 
0 
0 
0 
0 
0 
0 
0.02152774272922748 
0 
0 
0 
0 
0 
0 
0 
0 
0 
0 
0 
0 
-0.03454222206061366 
0 
0 
0 
0 
0 
0 
0 
0 
0 
0 
0 
0 
0 
0 
0.6753018206569952 
0 
0 
0 
0 
0 
0 
0 
0 
0 
0 
0 
0 
0 
0 
0 
0 
0 
0 
0 
0 
0 
0 
0.814510557802245 
0 
0 
0 
0 
0 
0 
0 
0 
-0.8660650360906236 
0 
0 
0 
0 
0 
0 
0 
0 
0 
0 
0 
0 
0 
0 
0 
0 
0 
0 
0 
0 
0 
0 
0 
0 
0 
0 
0 
1.143949341925287 
-0.0907944869486372 
0 
0 
0 
0 
0 
0 
0 
1.063800276002593 
0 
0 
0 
0 
0 
0 
0 
0.03354816477140817 
0 
0 
0 
0 
0 
0 
0 
0 
0 
0 
0 
0 
0 
0 
0 
0 
0 
0 
0 
0 
0 
0 
0 
0 
0 
0 
0 
0 
0 
0.9209531968298245 
0 
0 
0 
0 
1.046162266176338 
0 
0 
0 
0 
0 
0 
0 
0 
0 
0 
0 
0 
0 
0 
0 
0 
0 
0.7791579072791435 
0 
0 
0 
0 
0 
0 
0 
0 
0 
0 
0.02325589055671375 
0 
0 
0 
0 
0 
0.2872878627770249 
0 
0 
0 
0 
0 
0 
0 
0 
0 
0 
0 
0 
0 
0 
0 
0 
0 
0 
0 
0 
0 
0 
0 
0 
0 
1.391639407503995 
0 
0 
0 
0 
0 
0 
0 
0 
0 
0 
0 
0 
0 
0 
0 
0 
0 
0 
0 
0 
0 
0 
0 
0 
0 
0 
0 
-0.5633252190373631 
0 
0 
0 
0 
0 
0 
-0.3662864765772484 
0 
0 
0 
0 
0 
0 
0 
0 
0 
0 
0 
0 
0 
0 
0 
0 
0 
0 
0 
0 
0 
0 
0 
0 
0 
0 
0 
0 
0 
0 
0 
0 
0 
0 
0 
0 
0 
0 
0 
0 
0 
0 
0 
0 
0 
0 
0 
0 
0 
0 
0 
0 
0 
0 
0 
0 
0 
0 
0 
0 
0 
0 
0 
0 
0 
0 
0 
0 
0 
0 
0 
0 
0 
0 
0 
0 
0 
0 
0 
0 
-0.4133749336302812 
0 
0.8417483238728812 
0 
0 
0 
0 
0 
0 
0 
0 
0 
0 
0 
0 
0 
0 
0 
0 
0 
0 
0 
0 
0 
0 
0 
0 
0 
0 
0 
0 
0 
0 
0.4300198774049725 
0 
0 
0 
0 
0 
0 
0 
0 
0 
0 
0 
0 
0 
0 
0 
0 
0.2900236780341972 
0 
0 
0 
0 
0 
0 
0 
0 
0 
0 
0.1352875324507485 
0 
0 
0 
0 
0.6555926758023957 
0 
0 
0 
-0.150062163134678 
0 
2.502129015554602 
0 
0 
0 
0 
0 
0 
0.2713551122996078 
0 
0 
0 
0 
0 
0 
0 
0 
0 
0 
0 
0 
0 
0.7914652869255234 
0 
0 
0 
0 
0 
0 
0 
0 
0 
0 
0 
0 
0 
0 
0 
0 
0 
0 
0 
0 
0 
2.261281635720678 
0 
0 
0 
0 
0 
0 
0 
0 
0 
0 
0 
-0.5156860153949329 
0.6163969490523681 
-0.6640916081728411 
0 
0 
0 
0 
0 
0 
0 
0 
0 
0.7372039198132607 
0 
0 
0 
0 
0 
0 
0 
0 
0 
0 
0 
0 
0 
1.31622798560036 
0 
0 
0 
0 
0 
0 
-0.1692223862828757 
0 
0 
0 
0 
0 
0 
0.5116669491625069 
0 
0 
0 
0 
0.2116867735992396 
0 
0 
0 
0 
0 
0 
0 
0 
0 
0 
0 
0 
0 
-0.681662100583912 
0 
0 
0 
0 
0 
0 
0 
0 
0 
0 
0 
0 
0 
0 
0 
0 
0 
0 
0 
0 
0 
0 
0 
0 
0 
0 
0 
0 
0 
0 
0 
0 
0 
0 
0 
0 
0 
0 
1.744058919747686 
0 
1.068358538415633 
0 
0 
0 
0 
0 
0.1374404646118052 
0 
0 
0 
0 
0 
0 
0 
0 
0 
0 
0 
0 
0 
0 
0 
0 
0 
0 
0 
0 
0.2331946625133328 
0 
0 
0 
0 
0 
0 
0 
0 
1.751862867923198 
0 
0 
0 
0 
0 
0 
0 
0 
0 
0 
0 
0 
0 
0 
0 
0 
0 
0 
0 
0 
-1.178605521296943 
0 
0 
0 
0 
0 
0 
0 
0 
0 
0 
0 
0 
0 
0 
0 
0 
0 
0 
0.3388761740379311 
0 
0 
0 
0 
0 
0 
0 
0 
0 
-0.3357840512646909 
0 
0 
0 
0 
0 
0 
0 
0 
0 
0 
0 
0 
0.485306327116105 
0 
1.793015450454671 
0 
0 
0.2294846954273415 
0 
0 
0 
0 
0 
0 
1.651353963175632 
0 
0 
0 
0 
0 
0 
0 
0 
-2.161873935387416 
0 
-0.1773123271459778 
0 
1.343397116609598 
0 
0 
0 
0 
0 
0 
0 
0 
0 
0 
0 
0 
0.3505473302108859 
0 
0 
0 
0 
0 
0.4875243204874641 
0 
0 
0 
0 
0 
0 
0 
0 
0 
0 
0 
0.1350374031585781 
0 
0 
0 
0 
0 
0 
0 
0 
0 
0 
0 
0 
0 
0 
-0.3243245670794385 
0 
0 
0 
0.006920968634668166 
0 
0 
0 
0 
0 
0 
0 
0 
0 
0 
0 
0 
0 
0 
0 
0 
0 
0 
0 
0 
0 
0 
0 
0 
0 
0 
0 
0 
0 
0 
0 
0 
0 
0 
0 
0.1512346809551778 
0.6178776589682213 
0 
0 
0 
0 
0 
0 
0 
0 
0 
0 
0 
0 
0 
0 
0 
0 
0 
1.318630549909132 
0 
0 
1.388804319449948 
0 
0 
0 
0 
0 
0 
0 
0 
0 
0 
0 
0 
0 
-0.03921447353646643 
0 
0 
0 
0.7241362792822723 
0 
0 
0 
0 
-1.265773785234127 
0 
0 
0 
0 
0 
0 
0 
0 
0 
0 
0 
0 
0 
0 
0 
0 
0 
0 
0 
0 
0 
0 
-1.249844369139452 
0 
0 
0 
0 
0 
0 
0 
0 
0 
0 
0 
0 
0 
0 
0 
0 
0 
0.5370422044489864 
0 
0 
0 
0 
0 
0 
0.1538390496283667 
0 
0 
0 
0 
-0.01389049679153845 
0.09091890964731608 
0 
0 
0 
0 
0.09882049947755812 
0 
0 
0 
0 
0 
0 
0 
0 
0 
0 
-0.00870340108010032 
0 
0 
0.5979245962923764 
0 
0 
0 
0 
0 
0 
0 
0 
0 
0 
0 
0 
0 
0 
0.5209910863807587 
0 
0 
0 
0 
0 
0 
0.3254659049462781 
0 
0 
0 
0 
0 
0 
0 
0 
0 
0 
0 
0 
0 
0 
0 
0 
0 
0 
0 
0 
0 
0 
0 
-1.268967217521235 
0 
0 
0 
0 
0 
0 
0 
-0.8745958358231648 
0 
0.8919593279226109 
0 
0 
0 
0 
0 
0 
0 
0 
0 
0 
0 
0 
0 
0 
0 
0 
0 
0.4851807886524032 
0 
0 
0.6425885707828698 
0.6883401373806789 
0 
0 
0 
0 
0 
0 
0 
0 
0.08689575376707656 
0 
0 
0 
0 
0 
0 
-0.8631265388860898 
0 
0 
0 
0 
0 
0 
0 
0 
0 
0 
0 
0 
-0.04239576697270576 
0 
0 
0 
0 
-0.4656002243982147 
0 
0 
0 
0 
0 
-0.7358392171771407 
0.2369500323566351 
0 
0 
0 
0 
0 
0 
0 
0 
0 
0.5688739317416041 
0 
0 
0 
0 
0 
0 
0 
0.9699864514318474 
0 
0 
0 
0 
0 
1.160716051328985 
0 
0 
0 
0 
0 
0 
0 
0 
0 
0 
0 
0 
0 
0.337449588262969 
-1.196257495047599 
0 
0 
0 
0 
0 
0.6970571707283345 
0 
0 
0 
0 
0.3112587688415694 
0 
0 
0 
0.8210381857113085 
0 
0 
0 
0 
0 
0 
0 
0 
0.9813497099963508 
0 
0 
0 
-0.8061552042441338 
0 
0 
0 
0 
0 
0.06929576889824396 
0 
0 
0 
0 
0 
0 
0 
0 
0 
0 
0 
0.07091238583099903 
0 
0 
0 
0 
0 
0 
-0.003862709012333017 
1.818157169801082 
0 
-0.2243365192912646 
0 
0 
0 
0 
0 
0 
0 
0 
0 
0.3571038996428277 
0 
0 
0 
0 
0 
0 
0 
1.346164388982016 
0 
0 
0 
-0.9530042463433205 
0 
0.4062956766336717 
0.5181297585086855 
0 
-0.1480049741610093 
0 
0 
0 
0 
0 
0 
0 
0.05091091957869057 
0 
0 
0 
0 
0 
0 
0 
0 
0 
0 
0 
0 
0 
0 
0 
0 
0 
0 
0 
0 
0.3744233069481748 
0 
0 
0 
0 
-1.9766760672948 
-0.2256404586194531 
0 
0 
0 
0 
0 
1.826251402328466 
0 
0 
0 
0 
1.933227306095572 
0 
0 
0 
0 
0 
0 
0 
0 
0 
0 
0 
0 
0 
0 
0 
0 
0 
0 
-1.749362548363053 
0 
0 
0 
0 
0 
-0.1193875418292354 
1.93652507927209 
0 
0 
0.04226856682593719 
0 
0.2174673604426832 
0 
0 
0 
0 
0 
0 
0 
0 
0 
0 
0 
0 
0 
0 
0 
0 
0 
0 
0 
0 
0 
0 
0 
0 
0 
0 
0 
0 
0 
0 
0 
0 
0 
0 
0 
0 
-0.3018445698824797 
0.1832737348109912 
0 
0 
0 
0 
0 
0 
0 
0 
0 
0 
-1.232466526368714 
-0.1361477778754223 
0.8970968062399073 
0 
0 
0 
0 
0 
0 
0 
0 
0 
1.210256729906063 
-0.5598439103479824 
0 
0.1847788587766949 
0 
0 
0 
0 
0 
1.585559872679592 
0 
0 
0 
0 
0 
0 
0 
0.6977898645347125 
0 
0 
0 
0 
0 
0 
0 
0 
0.9171104284808685 
0 
0 
0 
0 
0 
0 
0 
0 
2.676847541041323 
0 
0.5070572731669809 
0 
0 
0 
0 
0 
0 
0 
-0.09293878327653311 
0 
0 
0 
0 
0 
0 
0 
0 
0 
0 
0 
0 
0 
0 
1.501288697760792 
0 
0 
0 
0 
0 
0 
0 
0 
0 
0 
0 
0 
0 
0 
0 
0 
0 
0.9552467303530566 
0 
0 
0 
0 
1.015911786857755 
3.361744855580539 
0 
0 
0 
0 
0 
0 
0 
0 
0 
0.9186796271173835 
0 
0 
1.739513518608038 
0 
1.580208500659928 
0 
0 
0 
0 
0 
0 
0 
0 
0 
0 
0 
0 
1.789484201485654 
0 
0 
0 
-0.6862020136810184 
0 
0 
0 
0 
0 
0 
0 
0 
0 
0 
0 
1.120834301542021 
0 
0 
0 
0 
0 
0 
0.2994510885535355 
0 
0 
0 
0 
0 
0 
0 
0 
0 
0 
0 
0 
0 
0 
0 
0 
0 
0 
0 
0 
0 
0 
0 
0 
0 
0 
0 
0 
0 
0 
0 
0 
0 
0 
0 
0 
0 
0 
0 
0 
0.4734453691783111 
0 
0 
0.3379042679117847 
0 
0 
0 
0 
0 
0 
0 
-0.0991734239948536 
0 
0 
0 
0 
0 
0 
0 
0 
0 
0 
0 
0 
0 
0 
0 
0 
0 
0 
0 
0 
0 
0 
0 
1.155139387528684 
0 
0 
0 
0 
-0.465625007344974 
0 
0 
0 
2.225052246755012 
0 
0 
0 
0 
0 
0 
1.728498813475734 
0 
0 
0 
0 
0 
0 
0 
0 
0 
0 
0 
0 
0 
0 
0 
0 
0 
0 
0 
0 
0 
0.6671564620503392 
0 
0 
0 
0 
0 
0 
0 
0 
0 
1.610189822782685 
0 
0 
1.588628958638438 
0 
0 
0 
0 
0 
0 
0 
0 
0 
0 
0 
0 
0 
0.06463616238548606 
0 
0 
0 
0 
0 
0 
0 
0 
0 
0 
0 
0 
0 
0 
0 
0 
0 
0 
0 
0 
0 
0 
0 
0 
0 
0 
0 
0.7471098429187329 
0 
0 
0 
0 
0 
0 
0 
0 
0 
0 
0 
0 
0 
0 
0 
0 
0 
0 
0 
0 
0 
0 
0 
0 
0 
0 
0 
0 
0 
0 
0 
0 
0 
0 
3.176887713346081 
0 
0 
0 
0 
0 
0 
0 
0 
0 
0 
-0.144748539320832 
0 
0 
0 
0 
0 
0 
0 
0 
0 
0 
0 
0 
0 
0 
0 
0 
0 
0 
0 
0 
0 
0 
0 
0 
0 
0 
0 
0.672420216432371 
0 
0 
0 
0.8469002010246039 
-0.6816391009225872 
0 
0 
0 
0 
0 
0 
0.5640587900180466 
0 
0 
0 
0 
-0.5130539330326238 
0 
0 
0 
0 
0 
0 
0 
0 
0 
0 
0 
0 
0 
0 
0.5208010354157445 
0 
0 
0 
2.754493924725415 
0 
0 
0 
0 
0 
0 
0 
0.6609574477766551 
0 
0.0792125786063783 
0.01284300835693247 
0 
0 
0.6921268532908952 
0 
0 
0 
0 
0 
0 
0 
0 
0 
0 
0 
0 
0 
0 
0 
0 
0 
1.155313626003486 
0 
0 
0 
0 
0 
0 
0 
0 
0.1577777616108737 
0 
0 
0 
0 
0 
0 
0 
0.4584661198028797 
0 
0 
0 
0 
0 
0 
0 
0 
0.3166875363495019 
0 
0 
0 
0 
0 
0 
0 
0 
0 
0 
0 
0 
0 
0 
0 
0 
1.273212056304999 
0 
0 
0 
0.5879713649669218 
0 
0 
0 
0 
0 
0 
0 
0 
0 
0 
0 
-0.2993825391154117 
0.1783283142470432 
0 
0 
0 
0 
0 
0 
0 
0 
0 
1.338932309495558 
0 
0 
0 
0 
0.4828373619201098 
0 
0 
-1.02852585143872 
0 
0 
0 
0 
0 
0 
0 
0 
0 
0 
0 
0 
0 
0 
0 
0 
0 
0 
0 
0 
0 
0 
0 
0 
0 
0 
0.1533791414509296 
0 
0 
0 
0 
0 
0 
0 
0 
0 
0 
0 
0 
0 
0 
0 
0 
0 
0 
0 
0 
0 
0 
0 
0 
0 
0 
0 
0 
0 
0 
0 
0 
0 
0 
0 
0 
0 
0 
0 
0 
0 
0 
0 
0 
1.409346853659844 
0 
0 
0 
0 
0 
0 
0 
0 
0 
0 
0 
0 
0 
0 
0 
0 
0 
0 
0 
0 
0 
0 
0 
0 
0 
-0.3585843030170545 
0 
0 
0 
0 
0 
0 
0 
0 
-0.4144294402858039 
0 
0 
0 
0 
0 
0 
0 
0 
0 
0 
0 
0 
0 
0 
0 
0.01613641969607763 
0 
0 
-0.01618515953246163 
0 
0 
0 
0 
0 
0 
0 
0 
0 
0 
0 
0 
0 
0 
0 
0 
0 
0 
0 
0 
0 
0 
0 
0 
0 
0 
0 
0 
0 
0.01597949987058796 
0 
0 
0 
0 
0 
0 
0 
0 
0 
0 
0 
0 
0 
0 
0 
0 
0 
0 
0 
0.0981851661406503 
0 
0 
0 
0 
0 
0 
0 
0 
0 
0 
0 
0 
0 
0 
0 
0 
0 
0 
0 
0 
0 
0 
0 
0.2470685899565878 
0 
0 
0 
0 
0 
0 
0 
0 
0 
0 
0 
0 
0 
0 
0 
0 
0 
0 
0 
0 
0 
0 
0 
0 
0 
0 
0 
0 
0 
0 
0 
0 
0 
0 
0 
0 
0 
0 
0 
0 
0 
0 
2.334011170088417 
0 
0 
0 
0 
0 
0 
0 
0 
0 
1.067440189839097 
0 
0 
0 
0 
0 
0 
0 
0 
1.420581517134645 
0 
0 
0 
0 
0 
0 
0 
0 
0 
0 
0 
0.04192624677854359 
0 
0 
0 
0 
0 
0 
0 
1.832215275247235 
0 
0 
0 
0 
0 
0 
0 
0.5278215530781255 
0 
0 
0 
0 
0 
0 
0 
0 
0 
0 
0.3445737401293768 
0 
0 
0 
0 
1.869792162837334 
0 
0 
0 
0 
0.8312229900279923 
-1.372013304842363 
0 
0 
0 
0 
0 
0 
0 
-0.3447685748770109 
0 
0 
0 
0 
0 
0 
0 
0 
0 
0 
0 
0 
0 
0 
0 
0 
0 
0 
0 
0 
0 
0 
0 
0 
0 
0 
0 
0 
0 
0 
0 
1.386294361119891 
2.615943719328326e-05 
0.1769319849831221 
1.209336216699575 
0 
0 
0 
0 
0 
0 
0 
1.642245180995262 
0 
0 
0 
0 
0 
0 
0.7287227696952971 
0 
0 
0 
0 
0 
0 
0 
0 
0 
0 
0 
0 
0 
0 
0 
0 
0 
0 
0 
0 
0 
0 
0 
0 
0 
0 
0 
0 
0 
0 
1.09600761875394 
0 
0 
-0.6104362165163715 
0 
0 
0 
0 
0 
0 
0 
0 
0 
0 
0 
0 
0 
0 
0 
1.053523756042128 
0 
0 
0 
0 
0 
0 
0 
0 
0 
0 
0.01436111446377866 
1.371933246656142 
0 
0 
0 
0 
0 
0 
0 
0 
0 
0 
0.8376923258857817 
0 
0 
0 
0 
0.255819755566985 
0.02286055367399758 
0 
0 
0 
0 
0 
1.386294361119891 
0 
0 
0 
0 
0 
1.386294361119891 
0 
0 
0 
0 
0 
0 
0 
0 
0 
0 
0 
0 
0 
0 
0 
0 
0 
0 
0 
0 
0 
0 
0 
0 
0 
0 
0 
0 
0 
0 
0.1606753184774923 
0 
0 
0 
0 
0 
0 
0 
0 
0 
0 
0 
0 
0 
0 
0 
0 
0 
0 
0 
0 
0 
0 
0 
0 
0 
0 
0 
0 
0 
0 
0 
0 
0 
0 
0.2203488501950708 
0 
0 
0 
0 
0 
0 
0 
0 
0 
0 
0 
0 
0 
1.168671997233979 
0 
0 
0 
0 
0 
0 
0 
0 
0 
0 
0 
1.402387247812964 
0 
0 
0 
0 
0 
0 
0 
0 
0 
0 
0 
0 
0 
0 
0 
0 
0 
0 
0 
0 
0 
0 
0 
0 
0 
0 
0 
0.004115671910920997 
0 
0 
0 
0 
0 
0 
0 
2.754040505493348 
0 
0 
0 
0 
0 
0 
0 
0 
0 
0 
0 
0 
0 
0 
0 
0 
0 
0 
0 
0 
0 
0 
0 
0 
0 
0 
0 
0 
0 
0 
0 
0 
0 
0 
0 
0 
0 
0 
0 
0 
0 
0 
0 
0 
0 
0 
0 
0 
0 
0 
0 
0 
0 
0 
0 
0 
0 
0 
0 
0 
0 
0 
0 
0 
0 
0 
0 
0 
0 
0 
0 
0 
0 
0 
0 
0 
0 
0 
0 
0 
0 
0 
0 
0 
0 
0 
0 
0 
0 
0 
0 
0 
0 
0 
0 
0 
0 
0 
0 
0 
0 
0 
0 
0 
0 
0 
0 
0 
0 
0 
0 
0 
0 
0 
0 
0 
0 
0 
0 
0 
0 
0 
0 
0 
0 
0 
0 
0 
0 
0 
0 
0 
0.1401567058129966 
1.603187132541834 
0 
1.501750171340622 
0.4075185701668687 
0 
0 
0 
-0.07844294682964244 
0 
1.90983471471342 
1.257355912378944 
0.1741105675925789 
0 
1.50253248753287 
0 
0 
0 
0 
0 
0 
0 
0 
0 
0 
0 
0 
1.868656218699394 
0 
0 
0 
0 
0 
0 
0 
0 
0 
0 
0 
0 
0 
0 
0 
0 
0.9017553368904972 
0 
0 
0 
0 
0 
0 
0 
0 
2.127000804994425 
0 
0 
0 
1.00450076433286 
0 
0 
0 
0.3980695190153239 
0 
0.7893887200248106 
0 
0 
0 
0 
0 
0 
0 
0 
0 
0 
0 
0 
0 
0 
0 
0 
0 
0 
0 
0 
0 
0 
0 
0 
0 
0 
0 
0 
0 
0.4456476452946909 
0 
0 
0 
0 
0 
1.560132116604411 
0 
0 
0 
0 
0 
0 
0 
0 
0 
-1.030194005416517 
0 
0 
0 
0 
0 
0 
0 
0 
0 
0 
0 
0 
0 
0 
0 
0 
0 
0 
1.026969502538117 
0 
0 
0 
0 
0 
0 
0 
0 
0 
0 
0 
0 
0 
0 
0 
0 
0 
0 
0 
0 
0 
0 
0 
0 
0 
0 
0 
0 
0 
-0.719863699564838 
0.9404375070325559 
0 
0 
1.092507649330433 
0 
-0.3630816324246986 
0.1363032909707 
-1.442695000479922 
0 
0 
0 
0 
0 
0 
0 
0 
0 
0 
0 
0 
0 
0 
0 
0 
0 
0 
0 
0 
0 
0 
0 
0.7413476485007616 
0 
0 
0 
0 
0 
0 
0 
0 
0 
0 
0 
0 
0 
0 
0 
0 
0 
0 
0 
0 
0 
0 
0 
0 
0 
-0.6391195817053343 
0 
0 
0 
0 
0 
0 
0 
0 
0 
0 
0 
0 
0 
0 
0 
0 
0 
0 
0 
0 
0 
0 
0 
0 
0 
0 
0 
4.374076662326338 
0 
0 
0 
0 
0 
0 
0 
0 
0 
0 
0 
0 
0 
0 
0 
0 
0 
0 
0 
0 
0 
0 
0 
0 
0 
0 
0 
0 
0 
0 
0 
0 
0 
0 
0 
0 
0 
0 
0 
0 
0 
0 
0 
0 
0 
0 
0 
0 
0.8512581226859279 
0 
0 
0 
1.198114863932636 
0 
0 
0 
0 
0 
0 
0 
0 
0 
0 
0 
0 
0 
0 
0 
0 
0 
0 
0 
0 
0 
0 
0 
0 
0 
0 
0 
0 
0 
0 
0 
0 
0 
0 
0 
0 
0 
0 
0 
0 
0 
0 
0 
0 
0 
0 
0 
0 
0 
0 
0 
0 
0.03988304281513575 
0 
0.1820883285060515 
0 
0 
0 
0 
0.5791547485691 
0 
0 
0 
0 
0 
0 
0 
0 
0 
0 
0 
0.6521211891968616 
0 
0 
0 
0 
0 
0 
0 
0 
0 
0.1004896529332833 
0 
0 
0 
0 
0 
0 
0 
1.769236209376981 
0 
0 
0.149198907173053 
0 
0 
0 
0 
-0.4031786383810561 
0 
0 
0 
0 
0 
0.5696853414215632 
0 
0 
0 
0 
0 
0 
0 
0 
0 
0 
0 
0 
0 
0.5467899374834414 
0 
0 
0 
0 
0 
-1.076637543287522 
0 
0 
0 
0 
0 
-0.02587121566205423 
1.197409959679871 
0 
0.8430951702579279 
0 
0 
0 
0 
0 
0 
0 
0 
0 
0 
0 
0 
0 
0 
0 
0 
0 
0 
0.1865743752788638 
0 
0 
0.7030495864394189 
0 
0 
0 
0 
0 
0 
0 
-1.006168655486102 
0 
0 
0 
0 
0 
0 
0 
0 
0 
0 
0 
0 
0 
0 
0.4942269646746204 
0 
0 
0 
0 
0 
0 
0 
0 
0 
0 
0 
0 
0 
0 
0 
0 
0 
0 
0 
0.1761360356931997 
0 
0 
0 
0 
0 
0 
0 
0 
0 
0 
0 
0 
0 
0 
0 
0 
0 
0 
0 
0 
0 
0 
0 
-1.109771753454367 
0 
0 
0 
0 
0 
0 
0 
0 
0 
0 
0 
0 
0 
0 
0 
-0.1548099502732532 
0 
0 
0 
0 
0 
0 
0 
0 
0 
0 
0 
0 
0 
0 
0 
0 
0 
0 
0 
0 
0 
0 
0 
0 
0 
0 
0 
0 
0 
0 
0 
0 
1.502909459732113 
0 
0 
0 
0 
0 
0 
0 
0 
0 
0 
0 
0 
0 
0 
0 
0 
0 
0 
0 
0 
0 
0 
0 
0 
-1.086280095702348 
0 
0 
0 
0 
0.4968975207977315 
0 
0 
0 
0 
0 
0 
0 
0 
0 
0 
0 
0 
1.378702275070363 
0 
0 
0 
0 
0 
0 
0 
0 
0 
0 
0 
0 
0 
0 
0 
0 
0 
0 
0 
0 
0 
0 
0 
0 
0 
0 
0 
0 
0 
0 
0 
0 
0 
0 
0 
0 
0 
0 
0 
0 
0 
0 
0 
0 
0.8240384184749276 
0 
0 
0 
0 
0 
0 
0 
0 
0 
0 
0 
0 
0 
0 
0 
0.1635083746724674 
0 
0 
0 
0 
0 
3.495374415994456 
0 
0 
0 
0 
0 
0 
0 
0 
0 
0 
0 
0 
0 
0 
0 
0.391968017670993 
0 
-0.2775847824424837 
0 
0 
0 
0 
0 
-0.4580893464370643 
0 
0 
0 
0 
0 
0 
1.405525859562845 
0 
0 
0 
0 
0 
0 
0 
0 
0 
0 
0 
0 
0 
0 
0 
0 
0 
0 
0 
0 
0.9113523803292795 
0 
0.3522465508529817 
2.229552121028874 
0 
2.855586640635964 
0 
0 
0 
0 
-0.572754802822336 
0 
0 
0 
0 
0 
0 
0 
0 
0 
0 
1.501672581749541 
0 
0 
0 
0 
-0.08132463564286907 
0 
0 
0.01786511736469402 
1.183207087963714 
0 
0 
0 
0 
0 
0 
0 
0.08235989802494745 
0 
0 
0 
0 
0 
0 
0 
0 
-0.4426316244039783 
0.2165233009815229 
0 
0 
0 
-0.5989298300592936 
0 
0 
0 
0 
0 
0 
0.7169104547669444 
3.555628155431283 
0 
0 
0 
0 
0 
0 
0 
0 
0 
0 
0 
0 
0 
0 
1.529432442132092 
0 
0 
0 
0 
0 
0 
0 
0 
0 
0 
0 
-0.4397610625643344 
0 
0 
0 
0 
0 
0 
0 
0 
0 
3.5351239808345 
0 
0 
0 
1.928840231462586 
0 
0 
0 
0 
0 
-1.690762729784186 
0 
2.880082501871181 
0 
0 
0 
0 
0 
0 
0 
0 
0 
0 
0 
0 
0 
0 
0 
0 
0 
0.662966068654385 
0 
0 
0 
0 
0 
0 
0 
0 
0 
0.4471158179170261 
0 
0 
0 
0 
0 
0 
0 
0 
0 
0.2413694254952402 
0 
0 
0 
-3.009270347601296 
1.435341823361995 
1.468877094902735 
0 
0 
0 
0 
0 
0 
0 
0 
0 
0 
0.2365719119820388 
0 
0 
0 
0 
0 
0 
0 
1.495028338465336 
0 
0 
0 
-0.08404646783043244 
0 
0 
0 
0 
0 
0 
0 
0 
0 
0 
0 
0 
0 
0 
0 
0 
0 
0 
0.782025049478109 
1.614954472254144 
0 
0 
0 
0 
0 
0 
1.472306062667324 
0 
0 
0 
0 
0 
0 
0 
0 
0 
0 
0 
0 
0 
0 
0 
0 
0 
0 
0 
0 
0 
0 
0 
0 
0 
0 
0 
0 
0 
0 
0 
0 
0 
0 
0 
-1.507217398086609 
0 
0 
0 
0 
0 
0 
-0.008240451226834165 
0 
0 
0 
0 
0 
0 
0 
0 
0 
0 
0 
0 
1.622556863864256 
0 
0 
0 
0 
0 
0 
0 
0 
0 
0 
0 
0 
0 
0 
0 
0 
0 
0 
0 
0 
0 
0 
0 
0 
0 
0 
0 
1.079570450737466 
0 
0 
0 
0 
0 
0 
0 
0 
0 
0 
0 
0 
0 
0 
0 
0 
0 
0 
0 
0 
0 
0 
0 
0 
1.070600542093013 
0 
0 
2.137125501176004 
0 
0 
0 
0 
0 
0 
0 
0 
0 
0 
0 
0 
0 
0 
0 
0 
0 
0 
0 
0 
0 
0 
0 
0 
-0.1621844168651531 
0 
0 
0 
0 
0 
0.2346908872424599 
0 
0 
0 
0 
0 
0 
0 
0.8078018420464073 
0 
0 
0 
0 
0 
0 
0 
-0.4414434079653327 
0 
0 
0 
0 
0 
0 
0 
0.7204985053662647 
0 
0 
0 
0 
0 
0 
0 
0 
0 
0 
0 
0 
0 
0 
0 
0 
0 
0 
0 
0 
0 
0 
0 
0.6018378095231327 
-0.3640909256024507 
0 
0 
0 
0 
0 
0 
0 
0 
0 
0 
0 
0 
0 
0 
0 
0 
0 
0 
0 
1.700565267309823 
0 
0 
0 
0 
0 
0 
0 
0 
0 
0 
0 
0.5161762617886776 
0 
0 
0 
0 
0 
0 
0 
0 
0 
0 
0 
0 
0 
0 
0 
0 
0 
0 
0 
0 
0 
0 
0.9934147652169462 
0 
0 
0 
0 
0 
0 
0 
0 
0 
0 
0 
0 
0 
1.386427690666742 
0 
0 
0 
0 
0 
0 
1.002195020696714 
0 
0 
0 
0 
0 
0 
0 
0 
0 
0 
0 
0 
0 
0 
0 
0 
0 
0 
0 
0 
0 
0 
0 
0 
0 
0 
0 
0 
-2.496553843587243 
0 
0 
0 
0 
0 
0 
0 
0 
0 
0 
0 
0 
0 
0 
0 
0 
0 
0 
0 
0 
0 
0 
0 
0 
0 
0 
0 
0 
0 
0 
0 
0 
0 
0 
0 
0 
2.242672965299835 
0 
0 
0 
0 
0 
0 
0 
0 
0 
0 
0 
0 
0 
1.182926183546555 
3.21291809508008 
0 
0 
0 
0 
0 
0 
0 
0 
0 
0 
0 
0 
0 
0 
0 
0 
0 
0 
0 
0 
0 
0 
0 
0 
0 
0 
0 
0 
0 
0 
0 
0 
0 
0 
0.701994798920302 
0 
0 
0 
0 
0 
0 
0 
0 
0 
0 
0 
0 
0 
0 
2.379825290085683 
0 
0 
0 
0.268323981064943 
0 
0 
0 
0 
0 
0 
0 
0 
0 
0 
0 
0 
-0.04142634430454395 
0 
0 
0 
0 
0 
0 
0 
0 
0 
0 
0 
0 
0 
0 
0 
0 
0 
0 
0.5107989780165273 
0 
0 
0 
0 
0 
0 
0 
0 
0 
0 
0 
0 
0 
-1.408803770735661 
0 
0 
0 
0 
0.9334232858012301 
0 
0 
0 
0 
1.613357190321454 
0 
-0.8590585222111033 
1.511533903224776 
0 
0 
0 
1.636146278830323 
0 
0 
0 
0 
0 
0 
0 
0 
0 
0.4380873134445775 
0 
0 
0 
0 
0 
0 
0 
0 
0 
0 
0 
0 
0 
0 
0 
-0.7172907995677847 
0 
0 
0 
0 
0 
0 
0 
0 
0 
1.121132202950402 
0 
0 
0 
0 
0 
0 
0 
0 
0 
0 
0.1393975528403999 
1.61787946249947 
0 
0 
0 
0 
0 
0 
0 
0 
1.032011715697932 
0 
0 
0 
0 
0 
0 
0 
0 
0 
0 
0 
0 
-0.330051294333346 
1.86218708091175 
0 
0 
0 
0 
0 
0 
1.003184928247723 
0 
0.4747748577293958 
0.2089746459070635 
0 
0 
0 
0 
0 
0 
0 
0.2561116923899567 
0 
0 
0 
0 
0 
0 
0 
0 
0 
0 
0 
0 
0 
0.04599322913418666 
0 
0 
0 
0 
0 
0 
0 
0 
0 
0 
0 
0 
0 
0 
0 
0 
0 
0 
0 
0 
0 
0 
0 
0 
0 
0 
1.644024164049933 
0 
0 
0 
0 
0 
0 
0 
0 
0.3893490906390037 
0 
0 
0 
0 
0 
0 
0 
0 
0 
0 
0 
0 
0 
0 
0 
0 
0 
0 
0 
1.473404844801701 
0 
0 
0 
0 
0 
0 
0 
0 
0 
0 
0 
0 
0 
0 
0 
0 
0 
0 
0 
0 
0 
0 
0 
0 
0 
0 
0 
0 
0 
0 
0 
0 
0 
0 
0 
0 
0 
0 
0 
0 
0 
0 
0 
0 
0 
0 
0 
0 
0 
0 
0 
0 
0 
0 
0 
0 
0 
0 
0 
0 
0 
0 
0 
0 
1.040408963353609 
2.888391425842967 
0 
0 
0 
0 
0 
0 
0 
0 
0 
0 
0 
0 
0 
2.225541655861687 
0 
0 
0 
0 
0 
0 
0 
0 
0 
0 
0 
0 
0.4673545843074915 
0 
0 
0 
0 
0 
0 
0 
0 
0 
0 
0 
0 
0 
0 
0 
0 
0 
0 
0 
0 
0 
0 
0 
0 
0.8207886116094604 
0 
0 
0 
0 
0 
0 
0 
0 
0 
0 
0 
0 
0 
0 
0 
0 
0 
0 
0 
0 
0 
0 
0 
0 
0 
0 
0 
0 
0 
0 
0 
0 
0 
0 
0 
0 
0 
0 
0 
0 
0 
0 
0 
0 
0 
0 
0 
0 
0 
0 
0 
0 
0 
0 
0 
0 
0 
0 
0 
1.436021094805031 
0 
0 
0 
0 
0 
0 
0 
0 
0 
0 
0 
0 
0 
0 
0 
0 
0 
0 
0 
0 
0 
0 
0 
0 
0 
0 
0 
0 
0 
0 
0 
0 
0 
0 
0 
0 
0.8031880618410305 
0 
0 
0 
0 
0 
0 
0 
0 
0 
0 
0 
0 
0 
0 
0 
0 
0 
0 
0 
0 
0 
0 
0 
-1.054407460389872 
0 
0 
0 
0 
0 
0 
0 
0 
0 
0 
0 
0 
0 
0 
0 
1.374897864842216 
0 
0 
0 
0 
0 
0 
0 
0 
0 
0 
0 
0.1521414431857196 
0 
0 
0 
0 
0 
0 
0 
0 
0 
0 
0 
0 
0 
0 
0 
0 
0 
0 
0 
0 
0 
0 
0 
0 
0 
0 
0 
0.09769227597313547 
0 
0 
0.07638048717056127 
0 
0 
0 
0.5347533019898967 
0 
0 
0 
0 
0 
0 
0 
-0.1630359447714292 
0 
0 
0 
0.949841036903728 
0 
0 
0 
0 
0 
0 
0 
0 
0 
0 
0 
0 
0 
0 
0 
0 
0 
0 
0 
0 
0 
0 
0 
0 
0 
0 
0 
0 
0 
0 
0 
0 
0 
0 
0 
0 
0 
0 
0 
0 
0 
0 
0 
0 
0 
0 
0 
0 
0 
0 
0 
0 
0 
0 
0 
0 
0 
0 
0 
0.2133306603008962 
0 
0 
0 
0 
0 
0 
0 
0 
0 
0.353178045927312 
0 
0 
0 
-0.4476313273036057 
0 
0 
0 
0 
0 
0 
1.614267146352324 
0 
0 
0 
0 
0 
0 
0 
0 
0 
-1.381493388716691 
0 
0 
0 
0 
0 
0 
0.2091852068751231 
0 
0 
0 
0 
0 
0 
0 
0 
0 
0 
2.747164362563283 
0 
0 
0 
0 
0 
0 
0 
0 
0.6361918977356769 
0 
0 
0 
0 
0 
0 
0 
0 
0 
0 
0 
0 
0 
0 
0 
0 
0 
0 
0 
0 
0 
0 
0 
0 
0 
0 
0 
0 
0 
0 
0 
0 
0 
0 
0 
0 
0.88487858401611 
0 
0 
0 
0 
0 
0 
0 
0 
0.9975384662429952 
0 
0 
0 
0 
0 
0 
0 
0 
0 
0 
0 
0 
0 
0 
0 
0 
0 
0 
0 
0 
0 
0 
0 
0 
0 
0 
0 
0 
0 
0 
0 
0 
0 
0.5534928982953196 
0 
0 
0 
0 
0 
0 
0 
0 
-0.8986602524034817 
0 
0 
0 
0 
0 
1.656134489374213 
0 
0 
0 
0 
0 
0 
0 
0 
0 
0 
0 
0 
-0.2609411423118081 
0 
0 
0 
0 
0 
0 
0 
1.834343256519388 
0 
0 
0 
0 
0 
0 
0 
0 
0 
0 
0 
0 
0 
0 
0 
0 
0 
0 
0 
0 
0.4193139186805765 
0.3583514732213325 
0 
0 
0 
0 
0.4485900246342852 
0 
0 
-0.02045546814931647 
0 
0 
0 
0 
0 
0 
0 
0 
0 
0 
-0.3222286324061447 
0 
0 
0 
0 
0 
0 
0 
0 
0 
0.1967162109754088 
0 
0 
0 
0 
0 
0 
0 
0 
0 
0 
1.518078203528904 
0 
0 
0 
0 
0 
0 
0 
0.3387842088770228 
0 
0 
0 
0 
0 
0 
0 
0 
0 
0 
0 
0 
0 
0 
0 
0 
-0.1805026099200865 
0 
0 
0 
0.5917007149743861 
0 
0 
0 
0 
0 
0 
0 
0 
0 
0 
0 
0 
0 
2.692234245601588 
1.096436858332392 
0 
0 
0 
0.6353518409636603 
0 
2.148287374017567 
0 
0 
0 
0 
0 
0 
0 
0 
0 
0 
0 
0 
-3.219758060852751 
0 
0 
0 
0 
0 
0 
0 
0 
0 
0.1367979615512333 
0 
0 
0 
0 
0 
0 
0 
0 
0 
0 
0 
0 
0 
0 
0 
0 
0 
0 
0 
0 
0 
0 
0 
0 
0 
0 
0 
0 
0 
0 
0 
0 
0 
0 
0 
0 
0 
0 
0 
0 
0 
0 
0 
-4.106816006652165 
0 
0 
0 
0 
0 
0 
0 
0 
0 
0 
0 
0 
0 
0 
0 
0 
0 
0 
0 
0 
0 
0 
0 
0 
0 
-0.424633527551726 
0 
0 
0 
0 
0.8144390104646647 
0 
0 
0 
0 
0 
0 
0 
0 
0 
0 
0 
0 
0 
0 
-0.8649447408094123 
0 
0 
0 
0 
0 
0 
0 
0 
0 
0 
0 
0 
0 
0 
0 
0 
0 
0 
0 
0 
0 
0 
0 
0 
-0.7238335312620572 
0 
0 
0 
0 
0 
0 
0 
0 
0 
0 
0 
0 
0 
0 
0 
0 
0 
0 
0 
0 
0 
0 
0 
0 
0 
0 
0 
0 
0.1177375634730608 
0 
0 
0 
0 
0 
0 
0 
0 
0 
0 
0 
0 
0 
-6.548181653989007 
0 
0 
0 
0 
0 
0 
0 
0.4688351585010627 
0 
0 
0 
0 
0 
0 
0 
0 
0 
0 
0 
0 
0 
0 
0 
0 
0 
0 
0 
1.98318777328696 
0 
0 
0 
0 
1.316716786751372 
0 
0 
0 
0 
0 
0 
0 
0 
0 
0 
0 
0 
0 
0 
0.2343630448811543 
0 
0 
0 
0 
0 
0 
0 
0 
0 
0 
0 
-2.019330211336632 
0 
0 
0 
0 
0 
0 
-1.015726653883111 
0 
0 
0 
0 
0.7859126341375869 
0 
0 
0 
0 
0 
0 
0 
0 
0 
0 
0 
0 
0 
0 
0 
0 
0 
0 
0 
0 
0 
0 
0 
0 
0 
0 
0 
1.233408343755315 
0 
0 
0 
0 
0 
0 
0 
0 
0 
0 
2.477455599230141 
0 
0 
0 
0 
0 
0 
0 
0 
0 
0 
0 
0 
0 
0 
0 
0 
0 
0 
0 
0 
0 
0 
0 
0 
0 
0 
0 
0 
0 
0 
0 
0 
0 
0 
0 
0.03946502452163864 
0 
0 
0 
0 
0 
0 
0 
0 
0 
0 
0 
-1.227553101638705 
0 
0 
0.8501793361750805 
0 
0 
0 
0 
0 
0 
0 
0 
0 
0 
0 
0 
0 
0 
0 
0 
0 
-0.6677577112540334 
0 
0 
0 
0 
0 
0 
-0.431870422231018 
1.530304914871397 
0.4977605684934918 
0 
0 
0 
0 
0 
0 
0 
0 
0 
0 
0 
0 
0 
0 
0 
0.4497029876271688 
0.6493052088492522 
0.6336235424738089 
0 
-1.369700475355837 
0 
0 
0 
0 
0 
0 
0 
0 
0 
0 
0 
0 
0 
0 
0 
0 
0 
0 
0 
0 
0 
0 
2.303950924069584 
0 
0 
0 
0 
0 
0 
-0.1920348079947577 
0 
0 
0 
0 
0 
0 
0 
0 
0 
0 
0 
0 
0 
0 
-0.3138173513365683 
0 
0 
0 
0 
0 
0 
0 
0 
0 
0 
0 
0 
0 
0 
0 
0 
0 
0 
0 
0 
0 
0 
0 
0 
0 
0 
0 
0 
0 
0 
0 
0 
0 
0.5861850277890305 
0 
0 
0 
0 
0 
0 
0 
0 
0 
0 
0 
0 
0 
0 
0 
0 
0 
0 
0 
0 
0 
0 
0 
0 
0 
0 
0 
0 
0 
0 
0 
0 
0 
0 
0.3925083190923471 
0 
0 
0 
0 
0 
0 
0 
0 
0 
0 
0 
0 
0 
0 
0 
0 
0 
0 
0 
0 
-0.1341464277693997 
0 
0 
0 
0 
0 
0 
0 
0 
0 
0 
0 
0 
0 
0 
0 
0 
0 
0 
0 
-0.01553571415253055 
0 
0 
0 
0 
0 
0 
0 
0 
0 
0 
0 
0 
0 
0 
0 
0 
0 
0 
0.05819174680259118 
0 
0 
0 
0 
0.03710205344413181 
0 
0 
0 
0 
-0.05332116899724722 
0 
0 
0 
1.398561236494877 
0 
3.311274203299451 
0 
0 
0 
0 
0 
0 
0 
0 
0 
0 
0 
0 
0 
0 
0 
0.3839472494504458 
0 
0 
0 
0 
0 
0 
0 
0 
0 
0 
0 
0 
0 
0 
0 
0 
0 
0 
2.123130638116273 
0 
0 
0 
-1.008792137006804 
0 
0 
0 
0 
0 
0 
0 
0 
0 
0 
0 
0 
0 
0 
0 
0 
0 
0 
0 
0 
0 
0 
0 
0 
0 
0 
0 
0 
0 
0 
0 
0 
0 
0 
0 
0 
0 
0 
0 
0 
0 
0 
0 
0 
0 
-0.3001711872858326 
0 
0 
0 
0 
0 
0 
0 
0 
1.311316232415203 
0 
0 
0 
0 
0 
0 
0.2494267710495443 
0 
0 
0 
0 
0 
0 
0 
1.905333946541858 
0 
0 
0 
0 
0 
0 
0 
0 
0 
0 
0 
0 
0 
0 
0 
0 
0 
0 
0 
0 
0 
0 
0 
0 
0 
0 
0 
0 
0 
0 
0 
0 
0 
0 
0 
0 
0 
0 
0 
0 
0 
0 
0 
0 
0 
0 
0 
0 
0 
0 
0 
0 
0 
0 
0 
0 
0.0166889313918253 
0 
0 
0 
0.1940425618402674 
0 
0 
0 
1.459647872170509 
0 
0 
0.02696731454315307 
0 
0 
0 
0 
0 
0 
0 
0 
0 
0 
0 
0 
0 
0 
0 
0 
0 
0 
0 
0 
0 
0 
0 
0 
0 
0 
0 
0 
0 
0 
0 
0.3412508333606772 
0.06956516378229753 
0 
0 
0 
0 
0 
0 
0 
0 
0 
0 
0 
0 
0 
0 
0 
0 
0 
0 
-0.9558263616582235 
0 
0 
0 
0 
0 
0 
0 
0 
0 
0 
0 
0 
0 
0 
0 
0 
0 
0 
0 
0.09716889343798576 
0 
-0.07079320134692633 
0 
0 
0 
0 
0 
0 
0 
0 
0 
0 
0 
0 
0 
0 
0 
0 
0 
0 
0 
0 
0 
0 
0 
0 
0 
0 
0 
0 
0 
0 
0 
0 
0 
0.0529251764986056 
0 
0 
0 
0 
0 
0 
0 
0 
0 
0 
0 
0 
0 
0 
0 
0 
0 
0 
0 
0 
0 
0 
0 
0 
0 
0 
0 
0 
0 
0 
0 
0 
0 
0 
0 
0 
0 
0 
0 
0 
0 
0 
0 
0 
0 
0 
0 
0 
1.581805372496633 
0 
0 
0 
0 
0 
0 
0 
0 
0 
0 
0 
0 
0 
0 
0 
0 
0 
0 
0 
0 
0 
0 
0 
0 
0 
0 
0 
0 
0 
0 
0 
0 
0 
0 
0 
0 
0 
0 
0 
2.617451248056116 
0 
0 
0 
0 
0 
0 
0 
0.6461972355616779 
0 
0 
0 
0 
0 
0 
0 
0 
0 
0 
0 
0 
0.4450052255866583 
0 
0 
0 
0 
0 
0 
0 
0 
0 
0 
0.1925283147892373 
0 
0 
0 
0 
0 
0 
0 
0 
0 
0 
0 
0 
0 
2.489957407640266 
0 
0 
0 
0 
0 
0 
0 
0 
0.9635990214288928 
0 
0 
0 
0 
0 
0 
0 
0 
0 
0 
0 
0 
0 
0 
0 
0 
0 
0 
0 
0 
0 
0 
0 
0 
0 
0 
0 
0 
0 
0 
0 
0 
0 
0 
0.5153971722131181 
0 
0 
0 
0 
0 
0 
0 
0 
0 
0 
0.04056064256920809 
0 
0 
0 
0 
0 
0 
0 
0 
0 
0 
0 
0 
0 
0 
0 
0 
0 
0 
0 
0 
0 
0 
0 
0 
0 
0 
0 
0 
-2.375826908895207 
0 
0 
0 
0 
0 
0 
0 
0 
0 
0 
0 
0 
0 
0 
0 
0 
0 
0 
0 
0 
0 
0 
0 
0 
0 
-1.484000539952929 
0 
0 
0 
0 
0 
0 
0 
0 
0 
0 
0 
0 
0 
0 
0 
0 
0 
0 
0 
0 
0 
0 
0 
0 
0 
0 
0 
0 
0 
0 
0 
0 
0 
0 
0 
0 
0 
0 
0 
0 
0 
0 
0 
0 
0 
0 
0 
0 
0 
0 
0.1834263989801808 
0 
0 
0 
0 
0 
0 
0 
0 
0 
0 
0 
0 
0 
0 
0 
0 
0 
0 
0 
0 
0 
0 
0 
0 
0 
0 
0.2523301308432136 
0 
0 
0 
0 
0 
0 
0 
0 
0 
0 
0 
0 
0 
0 
0 
-1.381065393032879 
0 
0 
0 
0 
0 
0 
0 
0 
0 
0 
0 
0 
0 
0 
0 
0 
0 
0 
0 
0 
0 
1.970595813916741 
0 
0 
0 
0 
0 
0 
0 
0 
0 
0 
0 
0 
0 
0 
0 
0 
0 
0 
0 
0.5999173927893637 
0 
0 
0 
0 
0 
0 
-0.3137292741184715 
0 
0 
0 
0 
0 
0 
0 
0 
0 
0 
0 
0 
0 
0 
0 
0 
0 
0 
0 
0 
0 
0 
0 
0 
0 
0 
0 
0 
0 
0 
0 
0 
0 
0 
0 
0 
0 
0 
0 
0 
0 
0 
0 
0 
0 
0 
0 
0 
0 
0 
0 
0 
0 
0 
0 
0 
0 
0 
0 
0 
0 
0 
0.2222642368673181 
0 
0 
0 
0 
0 
-0.8423887873555987 
0 
0 
0 
0 
0 
0 
0 
0 
0 
0 
0 
0 
0 
0 
0 
0 
0 
0 
0 
0 
1.986735566754533 
0 
0 
0 
0 
0 
0 
0 
0 
0 
0 
0 
0 
0 
0 
0 
0 
0 
0 
0 
0 
0 
0 
0 
0 
0 
0 
0 
0 
0 
2.815048694858356 
0.9189775398855426 
0 
0 
0 
0 
0 
0 
0 
0 
0 
0 
0 
0 
0 
0 
0 
0 
0 
0 
0 
0 
0 
0 
0 
0 
0 
0 
0 
0 
0 
0 
0 
0.00375995813066459 
0 
0 
0 
0 
0 
1.519862494026782 
0 
0 
-0.5725871937356903 
0 
2.173558394171709 
0 
0 
0 
0.6996689442752666 
0 
0 
0 
0 
0 
0 
0 
-1.156908293048071 
0 
0 
0 
0 
0 
0 
0 
0 
0 
0 
0 
-0.4080071341724758 
0 
0 
0 
0 
0 
0 
0.78352929729245 
0 
0 
1.509213423057726 
0 
0 
0 
1.729385221293082 
0 
-2.225278977703353 
0 
0 
0 
0 
0 
0 
0 
0 
0 
0 
0 
0 
0 
0 
0 
0 
0 
0 
0 
0 
0 
0 
0.1796212449231316 
0 
0 
0 
0 
0 
0 
0 
0 
0 
0 
0 
0 
0 
0 
0 
0 
0 
0 
0 
0 
-0.2211390008735076 
0 
0 
0 
0 
0 
0 
0 
0 
0 
0 
0 
0 
0 
0 
-3.51685293597254 
0 
0 
0 
-0.1012239974637035 
0 
0 
0 
0 
0 
0 
0 
0 
0 
0 
0 
0 
0 
0 
0 
0 
0 
0 
0 
0 
0 
0 
0 
0 
0 
0 
0 
0 
0 
0 
0 
0 
0.09342305166341361 
0 
0 
0 
0 
0 
0 
0 
0 
0 
0 
0 
0 
0 
0 
0 
0 
0 
0.5991760919289456 
0 
-0.4527855527012675 
0 
0 
0 
0 
0 
0 
0 
0 
0 
0 
0 
0 
0 
0 
0 
0 
-0.3216089777354926 
0 
0 
0 
0 
-1.205699762306761 
0 
0 
0 
0 
0 
0 
0 
0 
0 
0 
0 
0 
0 
0 
0 
0 
0 
0 
0 
0 
0 
0 
0 
0 
0 
0 
0 
0 
0 
0 
0 
0 
0 
0 
0 
0 
0 
0 
0 
0 
0 
0 
0 
0 
0 
0 
-0.6566579963609646 
0 
0 
0 
0 
0 
0 
0 
0 
0 
0 
0 
0 
0 
0 
0 
0 
0 
