solver_type L1R_LR
nr_class 2
label 1 -1
nr_feature 531742
bias -1
w
2.384315585102565 
1.175510665868574 
0 
0 
1.856672691897173 
0 
0 
0 
-0.4810415180612802 
3.563537107649458 
1.764048525685593 
0 
0 
0 
-0.4210449969837944 
0 
0 
0 
0 
-1.837385445742292 
0 
6.478703556165193 
0.2724321779576043 
0 
0 
-0.1657342691279506 
0.4575399774060609 
0 
0 
0 
2.515675049628765 
1.126198833197341 
0 
0 
0 
0.9998694784328646 
-0.2423680190481178 
0.382994106459199 
0 
4.14458471261957 
0 
0 
0 
0 
0.6066943922736573 
0.8632814843324454 
-0.5313642930693461 
0 
0.3871024341460512 
-1.214539231150508 
0 
-0.4039544843488397 
0 
0 
0 
1.985360623479501 
1.038570406670086 
0 
-0.8860381729913011 
0 
0.5037910512512311 
-0.509783238727004 
-0.6068931326021028 
-0.04557078255336132 
0 
1.823582763241821 
0.2262491535631613 
0 
3.089904877696723 
0.8342890535547938 
0 
4.178494371518703 
-0.8011981183486311 
0 
0 
-0.5013621286141031 
0 
0.3510571670348301 
-0.67165209863178 
0 
-0.2947115460280254 
0 
0 
0 
0 
0.2902003025915288 
0 
4.000155607511909 
0 
0 
0.3198918107739727 
0.7198366800145226 
0 
0.098330430525359 
0.4237507631537755 
0 
0.124187160356891 
0 
0.8422444548442387 
0 
0.3002340751192537 
0 
0 
0 
1.09539270905768 
-0.6846187699733896 
3.715921383257675 
0 
0.09041697687219068 
0 
-0.512797365821695 
0 
0 
4.346137551077131 
-0.9544728423714252 
0 
3.414435244598859 
0.6481001240564522 
2.152952618448685 
0.4396362162214133 
0 
0 
0 
0 
0 
0 
0 
0 
0 
-0.07614407897268721 
0.6986886463328331 
0 
0 
-0.3354550230056256 
0 
-0.5703353923085113 
0 
-0.1572497185971183 
0 
0.05595309893015452 
1.594704625340587 
0.8195642144457889 
-0.324854268103767 
0 
-0.5430081850831981 
0 
0 
0 
0.5402300713193029 
0 
2.758123511688254 
2.30953907421569 
4.036925316335449 
0 
2.141531654019651 
0 
1.421861670027349 
-0.3718482913057861 
0 
0 
1.751323866219369 
1.023386749596047 
1.186089271008817 
1.784026898787132 
-0.3786447532687535 
-0.2023865709414388 
0 
0 
-2.596343127263052 
1.72443624952925 
3.008668556662558 
0 
0.7009305915425645 
0 
1.515629617830976 
-0.7072757697125087 
0 
2.375874242087233 
0 
0 
0 
0 
1.528178238688816 
1.396590012742116 
3.778522978917938 
0 
0 
4.769093569120357 
-1.345263630538764 
0 
0 
0 
-0.02005040605334533 
0 
1.302287227882306e-13 
-0.2399096766312661 
-1.641178525651879 
0.3684330437407349 
0 
0 
-0.1795447023934925 
0 
0 
-1.469699607249015 
0 
-0.8643916480849667 
-0.3842003180338175 
0 
3.389817574123918 
0 
0 
0 
0.234421020723844 
0 
0 
0 
0 
0 
0 
0 
0 
0 
0 
1.487165252774697 
0.03239282217600108 
0 
1.48890096476012 
0.9394987413346829 
0 
0 
1.343843174366291 
0 
1.034203836850009 
0.6038517583679452 
1.067757471470553 
1.247493089611395 
0 
0 
0.6506137591173135 
0 
0 
0 
0 
0 
0 
0 
0 
0 
0 
0 
0 
-0.02570022938624537 
1.06074135154021 
-0.5132473173967912 
0 
1.946384110757859 
2.759917082324226 
-0.8071136275607816 
1.050041008861841 
0 
0 
0 
0 
0 
-1.46424234528444 
0 
0 
-0.6220561350299831 
0 
0 
-1.151758670838371 
0 
0 
-1.960197495462009 
0 
0 
0 
0.04140546427989318 
3.518472136494783 
1.67448610897447 
0 
0 
2.192215962150779 
0 
0 
0 
2.717865703349141 
0 
0 
0.1831184815126049 
0.03812489624546483 
0 
0 
0 
0 
0 
0 
0 
0 
0 
0 
0.1692525123147707 
0 
-0.6191147466683903 
0 
0 
-1.242276332266846 
0.01799726202226431 
0 
2.180571855713743 
0.5073527106761433 
0 
1.645524101130045 
0 
0 
0.9201493423581791 
0 
0 
0 
0 
0 
0 
0 
0 
0 
0 
0 
0 
0 
0 
1.691716240465192 
0.4989805742951652 
-0.4204326163986573 
-0.1949222352497364 
0 
0.388649912885278 
0 
0 
0 
0 
0 
0.2267579169303319 
0 
0 
-1.573015659764044 
0 
1.034982774890237 
0 
0 
0 
0.9637281921642505 
3.957033765817221 
-0.8302172541076146 
0 
0 
0 
0 
0 
0 
-0.7547130023541723 
0.08381030478796224 
0 
0 
1.384346618813276 
0 
0 
0 
0 
1.090842847323708 
0 
0 
0 
0 
0 
0 
0 
0 
0 
0 
-1.215244010135117 
0 
0.1009438243502307 
0 
0 
0 
0 
0 
2.678973207538266 
0 
1.083614065852441 
0.6960107348317489 
0 
-0.6765018412888603 
1.401528070066689 
0 
0 
0 
1.792320681377037 
0 
0 
3.483566862074323 
0 
0 
0 
0 
0 
4.695190900517056 
0 
-1.03746377522331 
1.703552434915854 
0 
0 
0 
-1.622768231196604 
0 
0 
-0.04280724800259338 
-0.2587987542712098 
-0.0181539481104741 
0.3069800730595251 
0 
0 
0 
0 
2.368979302444315 
2.206941532019256 
0 
0 
0 
4.695492141927787 
0 
0 
-0.932359074829527 
0 
-1.800730693438048 
-0.7864783260280381 
2.462361302163485 
0 
3.555715169637089 
0 
0.4825132364960627 
0 
0 
-0.2989689186291286 
0 
0 
0 
0 
0 
0.5905397381800075 
0 
0.5210617837580087 
2.197379011965948 
0 
0 
-0.5958443953926135 
0.8494009499717776 
0 
-0.9340338164909036 
0 
-0.16133619984348 
0 
0 
-1.017411640609661 
0 
0.3827191727652235 
0 
0.05487688448441836 
0.4418354544851429 
1.047752806089788 
0 
0.6938539436172111 
0.01167643335470672 
0.3582069788821636 
2.056843153812221 
0 
0 
0 
0 
0 
0 
-0.5417527778107181 
-0.3474111096075883 
0 
1.526705412961228 
0 
1.966402865550746 
0 
0 
2.045295073582435 
0 
0 
0 
0 
0 
0 
-0.2464077582134174 
0.4239798080537467 
0 
3.673644684765001 
0 
1.665454599286331 
0 
0 
0 
0.04833205616480669 
-1.453080637370768 
0 
0 
0 
1.512687234737456 
0 
2.998785600616643 
0 
0 
0 
1.952775406418325 
0 
0 
-1.275714785865109 
0 
3.137739228949419 
0.03600894145484171 
-0.6257246606677157 
0 
0 
1.705043821305809 
-2.719134077378924 
0 
0 
0.8926655720300141 
-1.17867687957146 
0 
0 
0.08254867836211932 
0 
0 
2.451714618891005 
0 
3.471856804387111 
0 
0 
0 
0 
0 
0 
0 
0 
0 
0 
0.1914153866833126 
0 
1.166285162691688 
0 
0 
0.1136587280681076 
2.105030642430861 
0 
0 
0 
0 
0 
0 
0 
2.622763356967203 
0 
0 
0 
0 
-0.1059520963190661 
0 
0 
0 
0 
0 
0 
1.342373232205698 
2.118573313886802 
-0.1830378385672858 
0.3028746952233162 
0 
0 
0 
-0.9289420011876863 
0 
0 
0 
0 
0 
0 
-0.2193139623830717 
0 
0 
0.3813612603862629 
0 
0.4967782176335694 
0 
0 
0 
1.023804355525087 
0 
0.8673685757510732 
0 
0 
0 
0.6312998740940826 
0 
0.04516614114355563 
0 
0 
0 
0 
0 
0 
0.02830448461395815 
0 
0 
0 
0 
0 
0 
0 
0 
-0.1899767351291936 
0 
0 
0 
-0.3803003859598251 
0.362686950638937 
0 
-0.1076483363067717 
0.4112225251350349 
0 
1.213980571371684 
-0.0527564449974581 
2.655566705829845 
0 
0 
0 
0 
0 
0 
0 
0 
0 
0 
0 
-0.5015625022278419 
2.314307007209356 
0.715891581053389 
0 
0 
0 
0 
0 
0 
0 
0 
1.560260590657606 
0 
0 
1.539681691342436 
0 
3.453846926232524 
0 
2.375937180815253 
0 
-0.2824534451971324 
0 
0 
0 
0 
0.6024464054625257 
0 
0 
-0.3511617613288382 
0 
0 
-1.643516603763813 
0 
0 
-0.7435408710677713 
1.850879068783329 
0 
1.339566044801293 
0 
0 
0 
0 
0 
0 
0 
0 
0 
2.204148191108115 
0.1176408384921393 
-0.1552257752375294 
0 
0 
1.386294361119891 
0 
0 
0 
0 
0 
0 
0 
0 
-0.2569673796204399 
0.2699799180571454 
0 
0 
0 
0 
-0.4877449968712183 
0 
0 
0.9424980005151264 
2.661917992661249 
0 
-0.7473389054742119 
0 
0 
0 
0 
0 
0 
0 
2.027504743247269 
-0.4717675279559416 
0 
0 
0 
0 
0.2846930871000103 
1.840799207188299 
0 
0 
0 
0 
0 
0 
0 
0 
0.2055739154809963 
2.951550860372067 
2.586311123766566 
0.7311314115542519 
0 
0 
0 
0 
0 
0 
0 
0.4571313693960454 
0 
0 
0 
-0.3358811923805738 
0 
0 
0.99739153064533 
-0.807566518261934 
0 
0.03487272242355902 
0 
-0.2306749412019151 
0.7849927828877329 
0.03115310794014038 
0 
0 
0 
0 
0 
0 
-1.007222389379181 
-0.02409567626458228 
0.580206259275087 
0 
0 
0 
0 
0 
-0.6566476222753876 
0.8068067446516896 
2.277282585865629 
0 
0 
0 
0.7707512230097341 
0 
0.1763961328262366 
0 
-1.688892497925645 
0 
0 
0 
0 
0 
0 
0 
0 
0 
-1.081910232826527 
0 
4.524111530878821 
0.3556560201422039 
0 
0 
-1.85885350210392 
0 
0 
0 
0 
1.591067053620704 
0 
0 
0.652838788339463 
0 
-0.1660285928957503 
0 
0 
0 
0 
-0.6028407816197191 
0 
0 
0 
0 
0 
0 
0 
0 
-0.670519535766753 
0 
0.2827636235539715 
0 
1.121207290712321 
0 
1.9519480696405 
1.507240924085979 
0.4576526223865767 
0 
0 
0 
0 
0.1677612892051051 
0 
0 
0.1178201986803366 
0 
1.326159210393903 
0 
0 
0 
0 
0 
-0.2862438014983075 
0.8175917532491285 
0 
0 
0 
0 
0 
0 
-0.3507330383180123 
0 
0 
-1.12206027983986 
0 
0 
0 
1.806870398332115 
0 
0 
2.234468359210716 
0 
-0.3283229287487227 
0 
0 
0 
-0.4061597223433664 
0 
0 
0 
0 
0 
0.8110156371643161 
0 
1.566950177799973 
0 
0 
0.1173790940165948 
0 
0 
0 
-1.879562459386802 
0 
0 
-0.09892434852559015 
0 
0 
0 
0 
0 
0 
0.9638579997740049 
1.965250463023694 
0 
0 
0 
0 
0 
0 
0 
0 
0 
0 
0 
0.5696874724252446 
0 
-0.5434021701829883 
0.01500672510702823 
0 
0 
0 
0 
0 
0 
0 
0 
0 
0 
1.325274826027648 
0.3749449480096073 
0.7873208960466387 
-0.1580788496245429 
0.5226516220730013 
0 
0.8544648525346364 
-0.1810872930791688 
-0.1908564694041253 
0 
0 
0 
2.199558940980035 
-0.6427003531849822 
1.981601683951303 
0 
-1.215783794430884 
0 
0 
1.409519798841182 
0 
0 
0 
0 
2.460593413049665 
0 
0 
0 
0 
0 
1.073916336894681 
0 
2.032861118502115 
0 
0 
0 
0 
0 
0 
3.015623978623882 
0 
0 
0 
0 
-0.7523651756940757 
-0.3414589318570694 
0 
2.35093849356833 
0 
0 
0 
1.585330131681997 
0 
2.007191507175489 
0 
0 
-0.43724173866157 
0 
0 
-0.6514933516339027 
0 
-0.1787423361871002 
0 
0 
-0.4216658925497486 
0 
0 
0 
0 
0 
0 
0 
0.4526105852430758 
0 
-1.082534770329042 
0 
0.6598649719258876 
0 
0.2173584314499897 
0 
0 
0 
-0.05533686072964114 
1.065578933905942 
0 
0 
2.523845154947812 
-1.496431796117929 
1.413190420038797 
0 
0 
-1.023502268500991 
0 
-0.545516796148774 
0 
-0.8549222077355917 
0 
0 
0 
0 
4.282834746563916 
0 
0 
0 
0 
0 
0 
1.499911081800739 
0 
0 
0 
-0.2769576249139412 
0 
0 
0 
0 
0 
0 
-0.279447654420568 
0 
0 
0 
-1.290839977168825 
0 
-1.685495431839899 
0 
0 
0 
0 
0 
2.860848377989416 
0 
0 
0 
0 
0 
0 
0.077072095892389 
0 
0 
0 
0 
0.3350733954087853 
0 
0 
0 
0 
2.182846198740128 
0 
1.092216930911477 
0 
0.8898692328973126 
1.550961834594844 
1.092280693615258 
0 
0 
0 
0 
0 
0 
3.603584842334571 
-0.5770776364919089 
0 
0 
0 
0 
0 
-1.461183311594229 
0 
0 
-0.4775655053600208 
0 
0 
0 
0 
-0.7017416198913372 
0 
0 
-0.5872891989424386 
0.09014880546824158 
0 
0 
0 
0 
3.110761505713691 
-0.5253163877090127 
-0.4900233737539061 
0 
0 
0 
0 
0 
0 
0 
0 
0 
0 
0 
0 
0 
0.07410987700571615 
0 
0 
1.637056358817887 
0 
-0.3701489209614309 
0 
0 
0 
0 
0 
0 
0 
0 
0 
-1.43209021406912 
0 
0.01030543010381459 
3.685294697689538 
0 
2.041316448938147 
0 
0 
0 
0 
0 
0 
0 
-1.814728386790522 
0 
-0.8619532058230935 
0 
3.146078710252129 
0 
-1.533011152904697 
0 
-0.1062716162256494 
0 
0 
0 
0 
0 
1.099116827219675 
0 
-0.6873038992480688 
0 
0 
0 
1.89037419885087 
0 
0 
0 
0 
0 
0 
0 
0 
0 
0 
0 
0 
0 
-0.6167639001691725 
0 
0 
5.512865881504247 
-2.772874668273209 
0 
0 
0 
0 
0 
1.220440566702273 
0 
0 
0 
0 
0.6321522457601875 
0 
0 
0.4694938320453691 
0 
0 
0 
-0.3599280474784882 
0.1617136196969756 
0 
0 
-0.03513808590028064 
0 
-0.44031596467275 
0 
0 
0 
0 
-1.577055966565944 
0 
0.6094346379620023 
0 
-1.52076821476037 
0 
0 
2.813834331627674 
0 
0 
0 
0 
0 
0 
0.9655217689268686 
5.394725562913779 
0 
0 
0 
0 
0 
0 
0 
0 
0 
3.910300335670031 
0 
0.3163732254842894 
0 
0.1804044275425699 
0 
0 
0 
0.218119350597951 
1.5980526033771 
-0.4298775928552127 
0 
0 
0 
0 
-0.4937298257160254 
0 
0 
0 
1.597684618183873 
0 
0 
-1.526443908068945 
0 
0 
0 
1.658151483845525 
0 
0 
0 
0 
0 
-0.5581268694618557 
-0.3542241754985558 
3.087527517633995 
1.368006048036995 
0.1174022892668278 
-1.038577938932542 
0 
2.011609835151968 
1.619510933998842 
-2.687124079077698 
0.1370731465810425 
-2.728354908557378 
0.4435323576300416 
0 
0 
0 
0 
0 
0 
-0.09478036583055147 
0 
1.977767586350715 
0 
0 
0 
0 
0.9976042449261603 
-0.352825170203856 
0.2349842672624788 
0 
-0.2220158750003994 
0 
0.03142416046877351 
0.1130189077415428 
-0.04293204604837503 
0 
2.192815269263612 
0 
0 
0 
-0.2510647073256267 
0 
0 
0 
0 
0 
-0.2920623932407051 
0 
0 
0 
2.614381851261582 
-0.1307651906433492 
-1.129042231249575 
-0.310093640898001 
0 
0 
0 
-1.053072667299599 
0 
-0.4751393842575989 
0 
0 
0 
1.862226390148792 
0 
0 
0 
0 
0 
0 
0.4989616266169161 
0 
0 
0 
0 
0 
0 
0 
0 
-1.558606395189661 
2.48065637260641 
0 
0 
2.247519586613885 
0 
0 
2.971597450840724 
-0.7297829102065871 
0 
-0.045429624800777 
0 
0 
0 
-0.08391965843150528 
0.9685333121267279 
2.80566693215336 
0 
0 
0 
0 
0.8710358519753841 
0.9837839520279881 
0 
0 
0 
0 
0 
0 
1.963047104440672 
1.800982851435358 
0 
0 
0 
1.031332935129915 
0 
0 
0 
0 
0 
0 
0 
1.637274383102685 
0 
0 
0 
0 
0 
-0.4851399068091398 
0 
0 
0 
0 
-0.6374180754385375 
0 
0.1324449222498718 
0 
-0.7362883458437744 
-1.157387459109955 
0 
0 
-1.257891212866659 
0 
0 
0 
-2.762742637363768 
0 
5.531265579262876 
0 
3.187668162408715 
0 
0 
0 
0 
-0.2463921342199515 
0 
0 
0 
-0.9724840651843462 
2.859602763422554 
0 
1.191747018766996 
0 
0 
0 
0 
0 
0 
0 
0 
0.7760894742782323 
0 
-0.01798796312919617 
0 
0.2425479391776548 
0 
-0.5064938497080926 
0 
0 
0 
0 
0 
0 
0 
0 
0 
0 
0 
0.1450594874646921 
0 
0 
0 
1.026231114641606 
-0.6730779168853153 
0 
-0.07010007978554586 
0 
-1.017726899139912 
0 
0.3350046992558925 
0 
0 
0 
0.5193537580923911 
0 
0 
0 
0 
0 
0 
0 
0 
0 
0 
0 
0.79566856171094 
0 
0 
0 
0 
-0.08903759873022604 
0 
0 
0 
0 
0 
0 
0 
0 
0 
0 
0 
0 
0 
0 
0 
0 
0 
-0.2494535622410307 
0 
0 
0 
0 
0 
0 
0 
-0.7136064549167378 
0 
0 
0 
0 
1.347110306185542 
0 
0 
0 
0 
0 
0 
0 
0 
0 
0 
0 
0 
0 
0.7823169236850832 
0 
0.9391235756226487 
0.6389056140496177 
-0.7695384269778186 
0 
0 
0 
-1.281607258975681 
0 
0 
1.054970835490882 
0 
-1.50897105683143 
0 
0 
0 
0 
0 
0 
0 
0.8045820278900359 
0 
0.6256381588234466 
0 
-0.4157509736828398 
0 
0 
0 
0 
0 
0 
0.4285031200743218 
0.6544537125266843 
0 
0 
-1.783137093275648 
-1.151357077059137 
0 
-2.171536239713428 
0 
0 
0 
0 
0 
0 
0 
3.656732440434284 
0 
0 
0 
0 
0 
0 
0 
0 
0 
0 
0 
2.132118080379832 
0 
0 
0 
0 
1.322033035070678 
0 
0 
0 
0 
2.189879008572535 
1.524973064954686 
0 
0 
0 
0 
0 
0 
0 
0.006100589226257272 
0 
0 
0 
0 
0.07993432113461139 
0.533449863588387 
1.968771085057312 
0 
1.646702589033534 
0 
1.160424614955185 
-0.4855143181534472 
0 
0 
0 
0 
-0.1203121418414317 
0 
0 
0 
1.072409276340095 
0 
0 
0 
-1.201358390251143 
0 
0 
0.8751896827514005 
0 
0 
0 
0 
0 
2.400529594969013 
0 
0 
0 
0 
3.654880834630142 
0 
1.837108977840575 
0.515091842624027 
0 
-2.897231469134109 
0 
0 
1.623989217519475 
0 
0 
0 
0 
0 
-0.7176146457304219 
0 
0.165826251274734 
1.505699234625629 
-1.366031626823709 
0 
0 
-0.3178769047032264 
0.1401301296634856 
0 
1.821935071586487 
0 
0 
0 
0 
0 
0 
0 
1.470491336856931 
0 
0 
0.5264778284301546 
0 
-1.512067427098176 
0 
0 
0.07815626975792911 
0 
0 
0 
0 
0.2674105049641681 
0 
0 
0 
0 
0 
0.2888332978430904 
0 
0 
0 
0 
0 
0 
0 
0 
0 
3.885735996122785 
4.233127862523807 
0 
0 
0 
0 
0 
1.827945254205339 
0.2143800344855917 
0 
0 
0 
0 
0 
0 
0 
0 
0 
0 
0 
0.04999765085268301 
0 
0 
1.509860186149583 
-1.311205512019224 
4.58835012155148 
0.2014178516978708 
0 
0 
0.4393103930585048 
0 
0 
0 
0 
0 
0 
0 
2.568201857021279 
-0.005227342593235468 
0 
0 
-1.24621510500153 
2.456303415399919 
0 
1.049484483975725 
0 
0 
0 
2.620957211882004 
0 
5.293654145419485 
0 
0 
0 
0 
-0.297506756447454 
-0.5114797041786748 
0.7591893581893383 
0 
1.778982946384548 
1.063535400714552 
0 
0 
-1.341578642853182 
0 
1.710908951318141 
0 
3.265512585041141 
-0.1856353058327739 
0 
0 
-0.8076466241298116 
0 
0 
-1.620715440107713 
-0.503176476304221 
0 
0 
-1.330700912789265 
0 
0 
3.993393817619806 
0 
0 
0.8760207120149935 
1.599406568783496 
0 
0 
0 
0.4344263162141976 
0 
0 
2.007249626047088 
0.95951284997237 
3.720508134160024 
0 
-1.143073719948971 
0 
0 
0 
0 
0.7574225368392626 
0 
0 
0 
-0.3853968173572853 
0 
0 
0 
0 
0 
0 
0 
0 
0 
0 
0 
0 
0 
0 
-0.5557261367408516 
0 
0 
0.03176171109875899 
0 
-1.275065955529934 
0 
0 
0 
0 
2.312500681475786 
0 
2.114053858731982 
1.313325326596308 
0 
0 
0 
0 
0 
0 
3.653126059452501 
0 
0 
0 
0 
0 
0 
0 
0.8276209190672108 
0 
0 
0 
-1.033475535694897 
0 
1.722010621578519 
0 
0 
0 
0 
0 
0 
0 
0 
-0.8769677436940859 
5.174337381731968 
0 
-0.3591464970006537 
0 
0 
0 
0 
0 
0.9410146918951868 
0 
0 
0 
-0.4509445701297179 
0 
0 
0 
0 
0 
0 
0 
0 
0.5489348448793242 
0 
0 
-1.149820114390476 
0.2228639816716289 
0 
-0.9945979515336622 
0 
2.277911546006671 
0 
0 
0 
0 
0 
0 
0 
0 
0 
0 
0 
0 
2.030413216956958 
1.189135579237848 
0 
0 
0 
0 
0 
0 
0 
-1.309166180774659 
0 
-0.2649920840390345 
0 
0 
0 
1.754604216476707 
0 
0 
0 
0 
0 
0 
0 
0 
0 
0 
0.5779248081228778 
-0.3871497457881416 
0 
0 
-0.9638774566364032 
1.890471148712468 
0 
0 
0 
0 
0 
0 
1.043857662051153 
1.861838594725385 
0 
-0.5799133464188165 
0 
0 
1.423418997474452 
-0.3812384004787309 
0 
0 
0.1094205146470954 
0 
0 
0 
0 
0 
0 
0 
0 
0 
0 
0.7731905027889782 
0 
-0.1732559266882313 
0 
0 
0.3062955987594912 
0 
0 
1.34285682789635 
0 
-0.1393381278286313 
0 
0 
0 
0 
0 
0 
0 
0 
0 
0 
0 
0 
0 
0 
0 
0 
0 
0 
3.058086882178442 
0 
0 
-0.1397292937504124 
0 
0 
0 
0 
2.163139559724932 
0 
0 
0 
0 
0 
0.4283446224331531 
1.386294361119891 
1.020464290112176 
0.01348263073110213 
0.3420915695083958 
0 
-0.8706478151732673 
0 
0 
0 
0 
0 
0 
0 
0 
-1.219690721744784 
0 
0 
0 
0 
0.987715106449346 
0 
-0.6191216582231385 
0.4851149875760406 
0 
0.5325858169277466 
0 
0 
0 
0 
0 
0 
1.539727579868978 
0 
0 
0 
0 
-0.6527666435102786 
0 
0 
0 
1.31505039026077 
0 
0 
0 
0.9406281939244507 
1.498004109479917 
-1.052337942284632 
1.386294361119891 
0.28235301499858 
0.1262825745993198 
0 
0 
1.044115040171592 
1.386294361119891 
1.386294361119891 
0 
0 
0 
0 
0.3450651238489674 
2.683271404539474 
0.6395675750863081 
3.525698409180664 
0 
0 
0 
0 
0.5845286225436861 
0 
0 
0 
0 
0.3914977712372364 
0 
-1.75375981196155 
0 
2.368235137578225 
0 
0 
0 
0 
0 
0 
0 
0 
0 
0 
0 
-0.3781182954525397 
0 
0 
0 
0 
-1.261285477774324 
0 
0 
0 
0 
0.2458219666428124 
0 
0 
0 
-1.144824118628941 
0 
0 
0 
-0.3704652755517245 
0 
0 
0 
0 
1.080418311584806 
0 
0.149115520409678 
0 
0 
0 
0 
0 
0 
-0.3752600871873493 
0 
0 
-0.09125787432470772 
0 
0.5512353781347409 
0 
0 
-0.08823741130746526 
0 
0 
0.2729135749939092 
0 
2.318689507416378 
0 
-1.168508671667069 
-1.348611620938234 
1.853726021134932 
0 
0 
0 
0 
0 
0 
0 
0 
0 
0 
0 
1.962786244899875 
0 
0 
-0.7158389260394266 
-0.3770639590154463 
0 
1.104285151985978 
0 
0 
0 
0 
0 
0 
0 
0.5016052805302332 
0 
1.654644771866785 
0.6520031914300862 
-0.1319638249428474 
-0.9568001804132999 
0 
0 
0 
0 
-0.6671139140633441 
2.459130872696561 
0 
0 
0 
0 
0 
-0.1143664139279191 
1.909680774254671 
1.860399175997197 
0 
0 
0 
3.89270046896653 
0 
0 
0 
0 
0 
0 
0 
5.089534216003665 
0 
-0.8036812078659371 
0 
0 
0 
0 
-0.8925876357887577 
3.182254002783246 
1.331500235158508 
0 
0 
0 
0 
-0.7629710826531716 
-0.06604429744603839 
0 
0 
0 
1.622170282911156 
0 
0 
0 
0 
0 
0 
0 
-0.7696313097221805 
1.396582637610258 
1.798776755860623 
0 
0.2246318423503268 
0 
0 
0 
0 
0 
-0.6262512383522146 
0 
2.493007831189155 
0 
0 
0 
0.8121389386110949 
0 
0 
0 
0 
0 
0 
0 
0 
0 
0 
0 
0 
0 
2.812120931083006 
0 
0 
0 
0 
0 
-1.074015803522482 
0 
0 
0.5024930874404694 
0 
0 
0 
0 
0 
0 
0.7956044804350864 
0 
0 
0 
0 
0 
0 
0 
0 
0 
0 
0.3412761647025083 
2.360197583361858 
1.087117145529882 
0 
0.7674450153942403 
1.953638151938268 
0 
-1.324239676641544 
0 
0 
0 
-0.3959285029660978 
0 
0 
0 
0 
0 
0 
0 
0 
0 
0 
0 
0 
-0.2714885033220182 
0 
0 
0 
0.2216616189353928 
0.9160229119576506 
0 
0 
0.5567335510578416 
0.2041047523737711 
1.131696148457019 
0.0386404586950462 
0 
-0.5169048105779386 
0 
0 
0 
0 
0 
0 
-0.1958381495848583 
4.224198977313093 
-0.1889559426286367 
0 
0 
0 
0 
0 
0 
0 
0.4868688354836149 
0 
0 
0 
-1.971337935089672 
0 
0 
0 
0 
0.2062825799125254 
1.332381567064936 
0.00155329920601743 
0.009496265688784538 
0 
0.5255883477334431 
-0.9136329108727389 
-1.114867584251067 
0.02964870479063637 
0 
-1.359952419218451 
0.9655914955944068 
0.7913922320040363 
-0.5746080472348659 
0 
-2.135189921130292 
1.131762189921476 
1.313980519247373 
0 
0 
0.03469967555871523 
-1.608866167221 
0 
0.1190868950911191 
0.2349694373276012 
0 
0.2411372520642549 
1.516809395869619 
1.28946200740351 
-0.1601450751730897 
0.1155517827419748 
0 
-0.3790190209186616 
0 
0 
4.553503388568048 
0 
3.228912459546387 
0 
0 
0 
0 
0 
0 
0.03414097867078866 
0 
0 
0 
0 
0.2438546334788859 
0.6053262828755259 
-1.556115445508071 
0 
0.5254272504454097 
-1.02121505819017 
1.066080058821611 
0.3176453342274536 
0 
1.242519634393377 
-3.616004526286838 
0 
0.08726933593603473 
0.318075122619443 
-0.8989089144297193 
-1.33486685900828 
0 
-0.354976056320443 
0.6019494746098808 
1.268767337985958 
0.2889188853112403 
1.34463678238702 
0 
-1.81724195380417 
0 
0 
-1.547447474374694 
0 
0 
0 
0 
0 
0 
0 
0 
5.204814703103683 
0 
-2.109414651884731 
0 
0 
0 
0 
0 
0 
0 
0 
0 
0 
0 
1.029446441870061 
0 
0 
0 
0 
0 
2.418769316223482 
0 
0 
0 
0 
0 
0 
0 
0 
0 
0 
-0.4930973738375883 
-2.155936634923786 
0 
4.180509018746373 
0 
0 
0 
-2.411329536580903 
0 
0 
0 
0 
0 
-0.2980651170774929 
0 
0 
0 
0 
0 
0 
0 
0 
-0.2101086292436599 
0 
0.05668475407780062 
0 
-0.03185383711925704 
0.4890063523441567 
0.2560773861695305 
0.2642551119372012 
0 
0.1107809802670128 
0 
3.765973274222543 
0 
0.8345422737092041 
0 
0 
0.6137993770971437 
0 
0 
0 
0 
4.503525303559093 
0 
0 
0 
0 
0 
0 
0 
0 
0 
0 
-0.6968756350953536 
0 
0 
0 
0 
0 
0 
0 
0.05781398944999058 
0 
0 
-0.295104358615155 
0 
0 
0 
-0.4594299317831957 
0 
0 
0 
0 
0 
0.2461825507772736 
0 
0.08246899715847235 
0 
0.336718239833493 
2.1582786186188 
0 
0 
0 
-0.7030512628625167 
3.29715798557771 
0 
0 
0 
0 
0 
-1.303637321646526 
0 
0 
0 
0.7459645502180812 
0.0521726758539531 
0 
-0.55870014607653 
0 
0 
0 
0 
0 
-0.5502858749649914 
0 
0 
0 
0 
0 
0 
-0.7756756560744416 
0 
0 
0 
0 
0 
0 
-1.588400735238441 
-0.9669390623493487 
0 
3.191382569275922 
0.2114471074600905 
-0.2321219975618002 
0 
1.326092739136247 
0 
0 
0 
-0.3002395200263441 
0 
0 
0 
0 
0 
0 
0 
0 
0 
0.5914908440811705 
0 
0 
0 
0 
0 
-0.8092993661980502 
0 
0 
0 
0 
0 
0 
0 
0 
0 
0 
0 
0 
0 
0 
-1.439946829081169 
-0.8575843370987394 
0 
0 
-1.12607491719329 
0.936740228866208 
0 
0 
0 
0 
0 
0 
-1.746822645222851 
0 
0 
0 
0 
0 
0 
0 
0 
0 
-0.276670734948623 
0 
3.258663685722988 
0.1013332503236451 
0 
0 
0 
0 
-2.115165404283236 
0 
0 
1.108663803572531 
0 
0.020547511004559 
-2.142358395791682 
0.1662880091296367 
-1.582480859585649 
0 
0 
0.3257171716849602 
0 
0 
0 
0 
0 
0 
0 
0 
0 
0.6000440263512672 
0 
0 
0 
0 
0 
0 
0.004394523816058224 
-1.137391672957082 
0 
0 
0 
1.537642622061847 
0 
0 
-0.7838862301316319 
0 
0 
0 
0 
0 
0 
0 
0 
0 
0 
0 
0 
0 
0.6769332767512677 
0 
0.587593544956638 
0 
0 
-0.1026445495884428 
0 
0 
0.3140261898688535 
0 
0 
0 
0 
0 
0 
-1.260232696408865 
0 
0 
0 
0 
0 
-1.760459541554606 
0 
0 
0 
0 
0 
0 
0 
0.07224141728172065 
0 
0 
0.03396180599641023 
0 
0 
0 
0.03623505859071328 
0 
0 
-0.4074368608612322 
0 
0 
0 
0 
0 
0 
0 
0 
0 
0 
-1.124182506517384 
0.318836133436032 
0 
-0.5941780140780391 
0 
0 
-0.4609998239938918 
0 
0 
0 
0 
0 
0.610545990534427 
0 
0 
0 
3.465991373995199 
0.1918434653632797 
0 
0.9711483369030515 
2.151074497715884 
0 
-0.5710005771400404 
1.248132684247723 
0.3481859405411504 
-1.802930667437348 
0 
0 
0 
0 
0 
0.5996807889323371 
0 
0 
-0.06118262787233929 
0 
0 
1.937863603009309 
0 
0 
0 
-1.066230858079572 
0 
0 
0 
0 
0 
0 
-0.4132173632322562 
0.3348807864544698 
0 
0.01573177593724631 
-2.008660648437812 
0 
0 
0.9577293548898682 
-0.6201725577421021 
0.5581326599924673 
0 
0 
3.270492421908393 
0 
0 
0 
0 
0.05960126660240325 
0 
0 
0 
0 
-1.161737308828024 
0 
0 
0 
0 
0 
0.4250712038863824 
0 
0 
0.2293981130950627 
0 
0 
1.880668728270489 
0 
0 
0 
0 
0 
0 
0.4496234976390486 
-0.7931131436305121 
0 
0 
0 
0 
0 
-1.366088034701533 
1.930291912069834 
0 
0 
2.366701226150436 
0 
0 
2.004716166949177 
0 
0 
0 
0 
0 
0 
0 
0 
0 
0.8399037951103818 
0 
0 
0 
0 
0 
0 
-1.683193766918106 
0 
0 
-0.3070842799308681 
0 
0.7799624505769082 
0 
0 
0 
0 
0 
0 
0 
0 
0 
0 
0 
-1.732102138807787 
0 
0 
-0.590875508116268 
0 
0 
-2.99045433172887 
0 
0 
0 
0 
0 
0 
0 
0 
0 
0 
1.321752992107647 
-0.9645657337711195 
0 
0 
0 
0 
0 
1.608248013507692 
0 
0 
0 
0 
-1.241401627921028 
0 
-0.6260791174085405 
0 
0 
0 
0 
0 
-0.6181551286476052 
0 
0 
0 
0 
0 
0 
0 
-2.044115213058052 
0 
0 
0 
0 
0 
0 
0 
0 
0 
0 
0 
0 
0 
1.305349479083407 
0 
0 
0 
1.892968505189404 
1.763462717768804 
0 
0 
0 
0 
-1.949323235396832 
0 
1.496195986082385 
0 
0 
0 
0 
0 
0 
0 
0 
3.32984548231024 
0 
-0.7355669153533515 
0 
0 
0 
0 
0 
0 
0 
0 
0.7710523228868826 
0 
0 
0 
0 
0 
0 
0 
0 
0 
0 
0 
0 
0 
0 
0.8950084333839382 
0 
0 
0 
0 
0 
0 
0 
0 
0 
0 
0 
0 
1.269855065131059 
-1.790805179256556 
0 
0 
0 
0 
0 
0 
1.734473668727939 
0 
0 
-1.824373798172853 
-0.1789025174478333 
0 
0 
0 
0 
0 
0 
0 
0 
-1.439124567393743 
1.748873231278239 
0.09413056286285815 
0.3621336214188423 
-0.4245162463418077 
0 
0 
0 
-1.752006268214439 
0 
0.2366628796286503 
0 
0 
0.07459630043363445 
0 
0 
-1.066667842431415 
0 
0 
0 
0 
1.120706480904768 
0.5560868396918376 
0 
-0.9433303876033187 
0 
0 
0.1943565917015963 
0.6248001247405179 
0 
0.06833227709064002 
0 
0 
-1.473283072358774 
0 
-0.922499769211744 
-1.615332854899125 
4.74164038906618 
0 
2.056567275241638 
0 
0 
0 
-0.4172590052377236 
0 
0 
0 
0 
0 
0 
-2.417231824056259 
0.0872670495602571 
0.1557126317822337 
0 
0.05737188199284421 
-1.208947932481219 
0 
0.7166193938204664 
0 
0 
0.5430943573142121 
0.06265173017386294 
0 
0 
0.4119789006206995 
0 
0 
-0.08023519184478609 
0 
0 
0 
0.9687570077800406 
0 
0 
0 
0 
1.007019360945939 
0.5462347647231504 
0 
0.2042146533162417 
0 
1.549158175955274 
0 
0 
2.646356083805014 
0 
0 
0 
0 
1.579034355167816 
0.532150801583082 
0 
0 
-0.02088861857585049 
0 
0 
0 
1.730754232639509 
-1.707575583561006 
0 
0 
-1.54173248873531 
0 
2.320812865966826 
0 
0.1348004729264277 
0 
0 
0 
0 
0 
0.7461330333537861 
-0.6234008390884402 
0 
0.06040789369953023 
1.556755637166085 
0 
0 
0.1354165425527001 
0 
0 
0 
0 
0 
-0.2731851076842106 
0 
0 
0 
-0.1743865902333608 
1.148329927504148 
-1.094974790170238 
0.9061006079627675 
0.8361783631957931 
0.0711818342315121 
0 
0 
0 
1.053805961815297 
0 
0 
0 
0 
0 
0 
0 
0 
0 
0 
0.4350800890046007 
0 
0.9008759220184008 
0 
0 
0 
1.449223790769439 
-0.614971204572456 
3.301677404811702 
0 
0 
0 
-0.6678003739687668 
-1.718883745847998 
-0.4188629410979477 
0 
0 
0 
0 
0 
0.07561823836272963 
0 
0.7121899344452507 
0 
0 
0 
0 
0 
0 
0 
0 
0.1122351412797647 
-2.465914597557813 
-1.300478890879421 
0 
0 
-0.8903426334401443 
0 
0 
0 
0 
0 
0 
0 
0 
0 
0 
0 
0.3282532347255285 
0 
0 
0 
0 
0 
0 
0 
0 
0 
0.4702585614138592 
0.4366038683794933 
0 
0 
4.137705008420429 
0 
0 
0 
0 
0 
0.5945548603569513 
0 
0 
0 
0 
0.1891556623742677 
0 
0.7846062054823455 
0 
0 
0 
0 
0.3586476290489612 
0 
0 
0 
0 
0 
0.3626676785995557 
-3.285013756289975 
0 
0 
0 
0 
0 
0 
0 
0 
0 
0 
0 
1.424054740760408 
0.6147072353234981 
0 
0 
0 
0 
1.432813438429082 
0.9933115078688138 
-0.7202687717453435 
0 
0 
0 
0 
0 
0 
0.4392311079619109 
0 
0 
0.1161531644980318 
-0.2458110092120387 
0 
0 
0 
0 
1.311446772556176 
0 
0 
0 
0 
0 
0 
0 
0 
0 
0 
0 
0 
0 
0 
0 
0 
0 
1.106559853313583 
0 
0 
0 
0 
0 
0 
0 
0 
0 
0.265100172788826 
0 
0 
0 
-0.2663237840468882 
0 
0 
0 
0 
0 
0 
0 
0 
0 
-0.347118853046792 
0 
0 
0 
0 
0 
0 
0 
0 
0 
-0.08765002472163189 
0 
0 
-0.3727847745638432 
0 
0 
0 
-0.6279473600465083 
0 
0 
-0.1410584232025695 
-0.8112102506651383 
0 
0 
0 
0 
0 
0 
0 
0.3279473923815072 
0.05989268178675283 
-0.4357002489485535 
0.09392864175759567 
0 
0 
0 
-0.2248367722049643 
0.6131215530357794 
0 
0.1513025176770079 
0.01559883892879897 
0 
3.506505361233339 
0 
0 
0 
0 
-0.6148113331723348 
0 
0 
0 
0 
1.495623118020028 
0 
0 
0 
0 
0.2316553344510165 
0 
0 
0 
0 
0 
0 
0 
-0.4048944832640995 
0 
0 
0 
0 
0 
0 
0 
0 
0 
0 
0 
-0.6005400743673576 
0 
0 
-0.9263721208916943 
0 
-1.513905365896742 
0 
0 
0 
0 
0 
0 
0 
0 
0 
0 
0 
0 
0 
2.569802940911824 
1.5800535291002 
0 
3.227200860518284 
0 
-0.7300236261243018 
0 
0 
0 
0 
0 
0 
0 
0 
0.636788583158599 
0 
0 
-0.1207856715142528 
0.00999540794117338 
1.497084574271039 
0 
-0.1983253765794057 
0 
0 
0 
0 
2.892642200122216 
0 
0 
0 
0 
0 
0 
0 
0 
0 
0 
0 
0.3102028939344921 
1.026962474597928 
0 
0 
1.316634769160286 
0 
0.6406209710301136 
-0.8852979880570467 
0 
0 
0 
0 
0 
0 
0 
0 
0 
0 
1.404987096405597 
0 
0 
0 
0 
0 
0 
0 
0 
0 
0 
0 
2.355993126265768 
0 
-0.5951754190575368 
0 
0 
0 
0 
0.565502583613131 
0 
0 
3.121408910188239 
0 
-0.947041668589294 
0 
0 
1.173887241139538 
0 
0 
0 
0 
1.444293053233458 
-1.114578005821403 
0 
0 
0 
0 
0 
0 
0 
0 
0.07626755280010142 
0.6435506953462772 
0 
0 
0 
0 
0 
0 
-0.4955386746288767 
0 
0 
0 
0 
0 
0 
0 
-0.209789178174754 
0 
0.1166991201100745 
0 
0.7569188563973696 
0 
0 
0 
0 
0 
0 
0 
0 
0 
0 
0 
0 
0 
0 
0 
0.1221283089876679 
-1.298828160440006 
0 
0 
0 
0 
0 
0 
0 
2.1411631193329 
0 
0 
-1.438453640754358 
0 
0 
0 
0 
0 
2.441235175644752 
0 
0 
0 
0 
0 
0 
0 
0 
0 
1.386294361119891 
0 
0 
0 
0 
0 
-0.314631196615225 
0 
0 
0 
0 
0 
0 
0 
0 
0 
0 
0 
0 
-0.6760112159431906 
0 
0 
0 
0 
0 
0 
0 
0 
0 
0 
0 
0 
0 
0 
0 
0 
-0.1939532523679658 
-0.7031709145950241 
0 
0 
0 
0 
0 
0 
0 
0 
0 
0.06817716042256849 
0 
0 
0 
0.5394842706500832 
0 
0 
0 
0 
-0.6985263439840345 
0 
0 
0.7915700143499248 
0 
0 
0 
0 
0 
0 
2.100514367291089 
0 
-0.4297526564505435 
0 
0 
0 
0 
0 
0 
0 
0 
-0.7862085419045846 
0 
0 
-0.5451763202422227 
0 
0 
1.129833287324569 
0 
0 
0 
0 
-0.6523908010150569 
0 
0 
0 
0 
0 
-0.9838302963203088 
0 
0 
0 
0 
0.2207735202969512 
0 
0 
0 
0.08657215176567351 
0 
0 
0 
0 
0 
0 
0 
0 
0 
0 
0.6764505659445269 
0 
0 
0 
0 
0 
0 
-0.7813416714855821 
0 
0 
0 
0 
0 
0.8233029356732583 
0 
0 
0 
0 
0 
0 
0 
0.07921401333054828 
0 
0 
0 
0 
0 
0 
0 
0 
0 
0 
0 
0 
0 
0 
0 
0 
0 
0 
0.7456349314251426 
0 
0 
0 
-0.7457895051913749 
0 
0 
0 
3.006779606392837 
0 
0 
0 
-0.7958671202843756 
0 
0 
0 
0 
0 
0.4389234425968838 
2.905270788120681 
0 
0 
0 
0 
0 
0.123592680705241 
0 
0 
-0.8343590661292224 
0 
0 
0.05744451711027249 
0 
0 
0 
0 
0 
0 
0 
-0.7121434326725348 
0 
0 
0 
0 
0 
0 
0 
0 
0 
-0.2675066080432444 
0 
-0.8404194260670558 
0 
0 
0 
1.959366713428254 
0 
0 
0 
0 
0 
0 
0 
0 
0 
0 
0 
0.1052871600669245 
0 
0 
0 
0 
0 
0 
0 
0 
0 
0 
0 
0 
0 
0 
0 
0 
0 
0 
0 
0.588223534006408 
0 
0 
0 
0 
0 
0 
0 
0 
0 
0 
0 
0 
0 
0 
0.2575156341075652 
0 
0 
0 
0 
0 
0 
0 
0 
0 
0 
0 
0 
0.9344668605655886 
0 
0 
0 
0 
-1.393503559318394 
0.3412221893592264 
0 
0 
0 
0 
0 
0 
0 
0 
0 
0 
0 
0 
0 
0 
-0.5096002578551444 
0 
0 
0 
0 
0 
0 
0 
0 
0 
0 
0 
0 
0 
-0.9220695092832112 
0 
0 
0 
-0.09654333878531411 
0 
0 
0 
-0.1011067340830061 
0 
0 
0 
0 
0 
0 
0 
0 
0.5303035679842467 
0 
0 
0 
0 
0 
0 
0 
0 
-1.050880800876788 
0 
0 
0 
-0.7034733185048585 
0 
1.027419459915955 
0 
0 
0 
0 
0 
0 
0 
0 
0 
0 
0 
0 
0 
0 
1.780746566012368 
0 
0 
0 
0 
0 
0 
0 
0 
0 
-0.407965088309831 
0 
4.686010565206989 
0 
-1.159404623816095 
0 
-0.8015367400250438 
0.6321323115959624 
0.9882589610236083 
0.05636901355454572 
0 
0 
2.219872951683083 
0 
2.447361578028788 
0 
0 
0 
0 
3.231017940870026 
-1.102261510730784 
0 
0 
0 
0 
0 
0 
0.3459770455820643 
0 
0 
0.1427118926116814 
0.4721476825500394 
0 
0.008650762193589687 
0.4963705826810808 
0 
0.6401343504987229 
0 
0.0590774813253123 
0.4109027097990846 
0.7815288176149909 
0.009029692211700611 
1.736121406302627 
0 
1.21296862701598 
0 
2.551290250356797 
0 
0 
0 
0 
0 
0 
0 
0 
0 
0 
0 
2.3142150217156 
0 
0 
0 
0 
0 
0.3316416070255977 
0 
0 
0 
0 
0 
0 
0 
0 
0 
0.2535736691104318 
0 
0 
0.009336216700535483 
1.376931984982162 
2.615943719328326e-05 
0 
0 
2.708749936740899 
0 
0.0123839715540426 
0.7868050908841251 
0 
0 
0 
3.499917249006511 
0 
-1.750265714831877 
0 
0 
0 
0.02942944442899536 
-0.9044951336421293 
0.6033613979994052 
1.001668619657692 
0 
0.3999441772968196 
0.7306778771067995 
0 
0 
1.452949119578061 
0 
1.197048753855094 
0 
0 
0 
0 
0 
0 
0 
0 
0 
0 
0 
0 
0 
0 
1.857095650212218 
0 
0 
0 
3.020974871089578 
0 
0 
0 
0 
0 
1.365267635746192 
0 
0 
0 
0.001113869408782967 
0.06377261677691545 
1.567601950596074 
0.378398831242818 
0.2363674359231847 
0.7715280882918686 
0 
0 
0 
0 
0 
0 
0 
1.199481005982057 
0 
-0.3798735856279798 
0 
-0.3431750433449831 
0 
0 
0 
0 
0 
0 
0 
0 
0 
0 
0 
0 
0 
0 
0 
-0.2335198334363754 
0.04848883544645174 
0 
0.007295265940142558 
0 
0 
0 
0.2681675309089683 
0 
-2.353259644211124 
0 
0 
0 
1.562397146266091 
1.276593931442425 
0 
0 
0 
0 
0 
0 
0 
0 
0 
0 
0 
0 
0 
0 
3.04425613406647 
0 
0 
0 
0 
0 
0 
0 
2.617386615169773 
0 
0 
0 
-0.3678001318542392 
0.375807790752272 
0 
0 
0 
0 
0 
-0.5955172270431737 
0 
0 
0 
0 
0 
0 
0 
0 
0 
0 
0 
0 
-0.2466003656266593 
-0.8657873197909115 
0 
0 
0 
0 
0 
0 
0 
0 
0 
1.172089884571362 
0 
0 
0 
0 
0 
0 
0 
0 
0 
0.1658507350495112 
0 
0.3090767977932866 
0.5408069181118317 
0.02389282241329341 
2.229612761447514 
0.4207251125980376 
0.09753509490614351 
0 
-1.192900135670138 
0 
0 
0 
0 
0 
0 
0.003577835482527431 
0.1756006654425428 
0 
0.02860960867796836 
0.2966579117089888 
-0.7936893450376254 
0 
0.4566319100355605 
3.407979245584283 
0 
0.2779324133735261 
0.08512666966744822 
0.3773746647044181 
0 
-1.366156312606954 
0.7797938351425938 
0.004292806749140145 
0 
0 
0 
0 
-1.626422006013929 
1.838642442188597 
0 
0 
0 
0 
0 
-0.3263921756808086 
0 
0.3734326439366757 
2.150211447198586 
0 
0 
0 
0 
-0.07513687667810363 
0 
0 
0 
0 
0 
0 
0 
0 
0 
0 
-0.955653476601949 
0 
0 
0 
0.1714810148510508 
-0.5165825831182627 
0 
0 
0 
0.09841979796859995 
0 
0 
0 
0 
0 
0 
0 
0 
0 
0 
0 
0 
0 
0 
0 
0 
0.0969861932507855 
0 
0 
0 
0.2576421579006311 
0 
0 
0 
0 
-0.3763758667571179 
0 
0 
0 
0 
0 
0.6027932037481432 
0 
0 
0 
0 
0 
0 
2.998415128170175 
0 
0 
0 
0 
0 
2.399068491598429 
-0.8506575321729549 
0 
0 
0 
0 
-0.06704061586639921 
0 
0 
0 
0 
0 
0 
-0.003858591771763586 
0 
0 
0 
0 
0 
0 
0 
0 
0 
0 
0 
0 
0 
0.3404122168145933 
0 
0 
0 
0 
0 
0 
0 
0 
0 
0 
0 
0.1636570755095911 
0 
0 
0 
0 
0 
0 
0.4750840932516776 
0 
0 
0 
0 
0 
0 
0 
-0.2492558751118481 
0 
0 
0 
-1.1236143739435 
0 
0 
0 
-0.8006795830610258 
-0.1112609138161296 
0 
-1.255619573891508 
0 
5.319194425697974 
2.580782394550067 
0 
0 
0.3947082192202608 
0 
0 
0 
0 
0 
0 
-0.8927324425910684 
0 
0 
0 
-0.3973642269906775 
0.0501838800441457 
0 
0 
0 
0 
0 
0 
0 
0 
0 
2.299316804865105 
0 
0 
0 
0 
0 
0 
0 
0 
-0.6213636986237864 
0 
0 
0 
0 
0 
0 
0 
0 
0.134250789249403 
0 
0 
0.874673401813941 
0 
0 
0.5353292030590242 
-0.396679063059903 
0 
0 
0 
0 
0 
0 
0 
0 
0 
0 
0.5606176689306701 
0 
0 
0 
0 
1.071912148188561 
0 
-0.07752994295771368 
0.3019552966125466 
0 
0 
0 
0 
0 
0 
0 
0 
0 
0 
0 
0 
0 
0 
0 
0 
0 
0 
0 
0 
0 
0 
0 
0 
0 
0 
0 
0 
-1.137850929378974 
0 
0 
0 
0 
0.9037995188509182 
0 
0 
0 
0.6314936738158604 
0 
0 
0 
0 
0 
0 
0 
0 
0 
0 
-0.6815860584389405 
0 
0 
0 
0 
0 
0 
0 
0 
0 
0 
0 
0 
0 
0 
0 
0 
0 
-0.5571299229214756 
0 
3.413608638970162 
0 
0 
0 
0 
0 
0 
0 
3.492951606925869 
0 
0 
0 
0 
0 
0 
0 
0 
0 
0 
0 
0 
0 
0 
0 
0 
0 
0 
0 
0 
0 
0 
-0.9462194940948729 
0 
0 
0 
0 
0 
0 
0 
0 
0 
0 
3.534196502912799 
0 
0 
0 
0 
0 
0 
0 
0 
0 
-0.02491111829159512 
0 
0 
0 
-1.170723016013285 
0 
0 
3.270815406262218 
0 
0 
1.912518601207076 
0 
0 
0 
0 
0 
0 
0 
0 
0 
0 
0 
0 
0 
0 
0 
0 
0 
0 
0 
0 
0 
0 
0 
0 
0 
0 
0 
0.0498433195564604 
0 
1.907567259811395 
0 
0 
0 
0 
0.2492412683264748 
0 
0 
1.177406643400255 
0 
0 
0 
0 
0 
0 
0 
0 
0 
0 
-0.7812248075739303 
0 
0 
0 
-0.4509179738332367 
0 
0 
0 
0 
0 
0 
0 
0 
0 
0 
0 
0.6765857245508886 
0 
0.0006322026780860761 
0.4731472517262251 
0 
0 
0 
0 
0 
0 
0 
0 
0 
0 
0 
0 
0 
0 
0 
0 
0 
0 
0 
0 
0 
-0.3460444889368263 
0 
0 
0 
0 
0 
0 
0 
3.128687240118746 
0 
0 
0 
0 
0 
0 
2.684782549293199 
0 
0 
0 
-0.6700546980291906 
2.959334204319722 
-0.2103959238169012 
0 
0 
0 
-0.3527295812598143 
0 
0 
0 
-0.1612669595900023 
0 
0 
0 
0 
0 
0 
-0.3099754282491738 
0 
0 
0 
0 
0 
0 
0 
-0.3170431513998392 
0 
-0.1528789968003466 
0 
0 
0 
0 
0 
0 
0 
0 
-0.9538307818127876 
1.61625501447967 
0.647789586931394 
0 
0 
0 
0 
0 
0 
0 
0 
0 
0 
0 
0 
0 
0 
0 
0 
0 
0.6853898086456098 
0 
1.111180527912127 
0 
0 
0 
0 
0 
0 
0 
0 
0 
0 
0 
0 
0 
-0.05567543682569653 
0 
0 
0 
0 
0 
0 
0 
0 
0 
0 
0 
0 
0 
0 
0 
2.309050885462078 
0 
0 
0 
0 
0 
0 
0 
0 
-0.2709556636173853 
0 
0 
0 
0 
0 
0 
0 
0 
-0.223328277830035 
0 
0 
0 
0 
-2.226566185712991 
-0.5832940317136475 
1.576493806479682 
0 
0 
0 
0 
0 
0 
0 
0 
0 
0 
0 
0 
1.834503772207536 
0 
0 
0 
0 
0 
0 
0 
0.2845088238179009 
3.211650791737657 
0 
-1.332545063360237 
0.06816928782134962 
0 
0 
0 
-1.022599259127514 
0 
0 
0 
0 
0 
0 
0 
0 
0 
0 
-2.382280084670666 
0 
0 
0 
0 
0 
-0.2156690490897267 
0 
0 
0 
0 
0.0160765711081142 
0 
0 
-0.1062563800344519 
0 
0 
0 
-0.3899523212430659 
0 
0 
2.192507974425805 
0 
-0.7255110454214515 
0 
0 
0.8940107652184769 
0 
-0.6350788376519538 
0 
4.631849974346633 
0 
1.288792133038872 
0 
0 
0 
0 
0 
2.736668436960473 
0 
0 
0 
0 
0 
0 
0 
0 
0 
0 
0 
0 
0 
0 
0 
0 
0 
-1.143151206353131 
0 
0 
0.3447230184161074 
0 
0 
0 
-0.2121684097297097 
-1.897738661222716 
0 
0 
0 
0 
-1.251577743510717 
-0.4491425727018316 
0.1116161805192029 
0 
-0.740009208951304 
0 
0 
0 
0 
0 
0 
0 
0 
0 
0 
-2.149909577340836 
-1.693282650341892 
2.658118146426288 
0 
0 
0.1901872607665667 
0 
0 
0 
0 
0 
0 
2.732031975626934 
-2.995136956258546 
0 
0 
0 
0.4192351757902866 
0 
0 
0 
0.004046447403965974 
-0.3300498814689355 
0.9818578979781745 
0 
0 
0 
0 
0 
0 
0 
0 
0 
0 
0 
0 
0 
0.578791330616179 
0 
0 
0.2941307339927476 
-1.146772841891169 
0.3707534321260769 
0.2536674165447408 
0.363934797777722 
0.01923014448560194 
0 
0 
0 
2.393068709199887 
0.7083908268511877 
0 
0 
0 
0 
0 
0 
0 
0 
0 
0 
0 
0 
0 
0 
0 
0 
0 
0 
0 
0 
0 
0 
0 
0 
0 
0 
0 
0 
0 
-0.4084461061039558 
0 
0 
3.298359007622627 
0 
0 
0 
0 
0.3630011011278904 
0.2158361345033952 
0.05725321438768023 
1.157429270359331 
0 
0 
0.8033117574806098 
0 
0 
0 
0 
1.193093895893218 
2.629372274268542 
0 
0 
0 
0 
1.651521271192123 
0 
0 
0 
0 
0 
0 
-0.338222815690271 
0.587478701348874 
0 
0 
0 
0 
0 
0 
2.541237032658279 
0 
0 
0 
0 
0 
-0.5199271003170882 
-1.35719501272931 
0 
0 
0 
0 
0.1715114466157941 
2.850853844626454 
-0.3929733935007657 
0 
0 
0 
0 
0 
0 
0 
0 
0 
-0.6340722518229083 
0 
0 
0 
0 
0 
-0.3679885405683109 
0 
2.314159273650951 
0 
0 
0 
1.714826006991026 
0 
0 
0 
0 
0 
0 
-0.1777138448646626 
0 
0 
0 
0 
0 
0 
0 
0 
0.3940662119196005 
0 
0 
0 
0 
0 
0 
0 
0 
0 
0 
0 
0 
0 
0 
0 
0 
0 
0 
0 
0 
0 
0 
0 
0 
0 
-0.2255261010492962 
0 
0 
0.967445169326947 
0 
0 
-1.182593973349711 
0 
0.3082330361126756 
0 
0 
0 
-0.8509878201349323 
0 
0 
0 
0 
0 
-1.137687905058262 
-0.3793082329513452 
0 
0 
0 
0 
0 
0 
0 
0 
0 
0 
0 
0 
0 
0 
0 
0 
0 
0 
0 
0 
0.6858467185035449 
0 
-0.8561529106186369 
0 
0 
0 
0 
0 
0 
0 
0 
-1.637471504827203 
0 
0 
0 
0 
0 
0 
0 
0 
0 
0 
2.228942821906937 
-1.524563496211642 
0 
0.4050165883193942 
0 
0 
0 
0 
-0.5783654412941543 
0.3148340092865868 
0.3125992792910281 
0 
0 
0.08856302924027599 
0.07490444393377148 
0 
0 
0 
0 
0 
0.4565651283615694 
0 
0 
0.1992441224222919 
-0.6501450086419218 
0 
-0.8621542685707203 
0 
0 
0 
0 
0.4920575669926328 
0 
0 
0 
0 
0 
0 
0 
0 
0 
0.435580789743947 
0 
0 
0 
0 
1.079175970751596 
1.641006380958938 
0 
0 
0 
0 
0 
0 
-0.3811053731575185 
0 
0 
0 
0 
-0.6140360617726214 
0 
0 
0 
0 
0.7686277272168108 
0 
0 
0.04374551471106931 
1.034496814559354 
0 
0 
0 
3.984880830790763 
0.8437211187568822 
0 
0 
0 
-1.728579765979576 
0 
0 
0 
0 
0 
0 
0 
0 
-2.254538166204264 
0 
0.05815424852372099 
0 
0 
0 
0.2697631174643347 
0.139677129056495 
-1.774349265677865 
3.172114505791533 
-2.279261155804687 
-1.525452998613753 
-0.7942517363099654 
0.01627886603574336 
-0.8985061988647703 
-0.0957328437984717 
0.8798573345463236 
1.561617019112782 
0 
-1.33552485625652 
0 
0 
0 
3.073079983353079 
0 
0.3269846709565659 
-1.625372401811242 
-1.605201875945747 
0 
0 
0 
0 
0 
0 
0 
0 
0 
0 
-0.8487613970269404 
-2.829720627635592 
0 
0 
-0.7184424119039153 
0 
0 
0 
0 
0 
0 
0 
0 
2.363032588803223 
0.8101481611210878 
-0.5111706926727589 
-0.5924237822520091 
0.6464386423908792 
-1.222684180314523 
0.458727160115656 
0.4653559606942902 
-0.7509086998718999 
0.07731519481639106 
0 
0 
0 
0 
0 
0 
0 
0 
0 
2.180754230398122 
0 
0.92693192560522 
0 
0 
0 
0 
1.199702591822006 
0 
0 
0.4545045548981128 
0 
0.151139839872687 
0 
4.077186914992367 
0 
0 
0 
0 
0 
0 
0 
0 
0 
0 
0 
0 
0.32284876735471 
0 
0 
0 
0 
2.300874117299311 
0 
-1.066211521133833 
0 
-0.5307053330619312 
-0.276151465716013 
0.720697564211685 
0 
0.07059986110541606 
0 
0 
0 
0 
0 
-1.307748372994268 
0 
0 
0 
0 
0 
0 
-1.543490138922049 
1.052456186384232 
0 
0 
0 
0 
0 
0 
0 
0 
0 
0 
0 
2.817766405728493 
-2.209190885902928 
0.07719338137686704 
0.0188000670071571 
0.1556092103912628 
0.1034153736181972 
-0.4202008317018117 
-1.674051268624698 
0 
1.101802793493992 
0 
0 
-0.9652822481921591 
0 
0 
0 
0 
0 
0 
0 
0 
-0.3658980195822044 
0 
0 
0 
1.691784056462364 
0 
2.844619684214575 
0 
0 
0 
0 
0 
0.3069769883244134 
-1.241783199068561 
-0.6615937031252374 
0 
0 
0 
0 
0 
0 
0 
-0.3684230576052981 
-1.491136024071118 
0 
0 
5.092022380138338 
0 
0 
0 
-2.772547223248891 
0 
-0.01530143129806845 
0 
0 
0 
-1.1926622264287 
-0.596477864244185 
0 
1.729067778846747 
0 
2.613611266831599 
0 
-1.503931499856699 
0 
0.02511786815290406 
0 
1.289993249735484 
0.04807956084318314 
0.1311066970651213 
0 
0 
0 
0 
0 
0 
0.8364664332732511 
0 
0 
0 
0 
0 
0 
0 
-0.3617805423570372 
0 
0 
0 
0 
0 
0 
0 
0 
0 
0 
4.318983446766691 
0 
0 
0 
0 
0 
0 
0 
0 
0 
0 
0 
0 
0 
0 
0.1495774671309849 
0 
0 
0 
0 
0 
0 
0 
0 
-0.4610629531210951 
0 
-0.6695142843163401 
0 
0 
0 
0 
0 
0 
0 
0 
0 
0 
0 
0 
0 
0 
0 
1.05564101840018 
0 
0 
0.4258591601857363 
0 
0 
0 
0 
-0.3842926402641878 
-2.180005579802241 
0.7097369964346486 
0 
0 
0 
5.015761031005433 
0 
0 
0 
0 
0 
0 
0 
0 
0 
0 
0 
0 
0 
0 
0 
0 
0 
3.335628437816907 
0 
0 
1.655428859927107 
0 
0 
0 
0 
0 
0 
-0.5437555113999687 
-0.882137637691181 
0 
0 
0 
1.2680593752561 
0 
0.05467828259263486 
0 
0 
0.3225728072719079 
0 
-1.740898016335859 
0.1910433118829383 
0 
1.418597045048204 
0 
0 
0 
0 
0 
0 
0.9325495808554783 
0 
1.2390942491649 
0 
0 
0 
0 
0 
0 
0 
0 
0 
0 
0 
0 
0 
0 
0 
0 
0 
0.01407828563930093 
0 
0 
0 
0 
0 
0 
0 
0 
0 
0 
0.3491275303491445 
0 
0 
0 
0 
0.09672541754122657 
0 
0 
0 
0 
-0.5131314845931734 
0 
0 
0.440937021933907 
0 
0 
0 
0 
0 
-0.4980937114984225 
0 
0 
0 
-1.832516956764358 
0 
0 
0 
-0.3183563509186118 
0 
0 
0 
0 
0 
-2.030945381710593 
0 
0 
-2.067710205412603 
0.1122330638391717 
0 
0 
0 
0 
0 
0 
0 
2.018875397336975 
-0.5139067555709577 
0 
0 
0 
0 
0 
0 
0 
0 
0 
0 
0 
2.555439234930646 
0 
0 
0 
0 
0 
0 
0 
0 
2.209248388825789 
0 
0 
0 
0 
0 
0 
0 
0 
0 
0 
0 
0 
1.936294119445976 
0 
0 
-0.2952534471724491 
0 
0 
0 
0 
0 
0 
0 
0.3616679021104495 
0 
0 
0 
0 
0.9222820593249549 
0 
0 
0 
0 
0 
0 
0 
0 
-1.785808977866243 
0 
0 
0 
0 
0 
0 
0 
0 
1.819514791260492 
0 
0 
0 
0.8474022981958065 
0 
0 
0 
1.166924946149386 
0 
0 
3.234649589975516 
-1.145079899578025 
0.6510391385418416 
0.2325877151661035 
0 
0 
0 
0 
0 
-1.459634451278293 
0 
1.609160253331561 
0 
-0.09814748914523277 
0 
1.830132711728661 
1.692461141276711 
0.9990307998689322 
-0.1127349800915302 
0 
0.07521142162062969 
0 
0 
0 
4.162816311014014 
0 
0 
1.744471748537068 
0 
0 
0 
0 
0 
0 
0 
2.587832300718879 
0 
0 
0 
-0.6038597383255961 
0 
0 
0 
0 
0 
0 
0 
0 
0 
0 
0 
0 
0 
0 
0 
0.51694806391165 
0 
0 
0 
0 
0 
-1.665573658942079 
0 
0 
0 
0 
0 
0.2139634289033293 
0 
0 
0 
0 
0 
0 
-0.9698610085853988 
0 
0 
0 
0 
0 
0 
-0.2853630163438916 
0 
1.087043480900982 
0 
0.7181298823664486 
0 
0 
0.6952964943104941 
0 
-0.048307704979333 
0 
0 
0 
0 
0 
0 
0 
0 
0 
0 
0.6680883036146134 
0 
0.1146380726102085 
-2.072492187331095 
0.02824912502760752 
0 
0.03265979082717527 
0 
0 
0 
0 
0 
1.086165656703602 
-0.6947547398296497 
0 
0 
0 
0 
0 
0 
0 
0 
0 
-1.278244697347546 
0 
0 
1.102805736892023 
0 
-1.608835269611606 
0 
0 
0 
0 
0 
0 
-1.322102718855198 
0 
0 
0 
0 
0 
0 
0 
-1.61181277829574 
0 
0 
0 
0 
0 
0 
3.615984758789529 
0 
0 
0 
0 
0 
0 
0.5184133340029268 
0 
0 
-0.3014132090754126 
0 
1.534424967481939 
0 
1.296501118277168 
0 
0 
0 
0 
0 
0.1751463170357865 
0 
0.0149694251932566 
0 
1.994614470957732 
0.8454842371230517 
0.1185720199785382 
0 
0.1893768446283009 
0 
0 
-0.2320110497676266 
0 
-1.309854015600767 
0 
0 
0 
0 
0 
0 
0 
2.649129222832214 
0 
0 
0 
0 
0 
0 
-1.615439236677322 
0 
0 
0 
2.716243872497945 
0 
-2.854969206588791 
1.137371141223255 
0 
0 
0.4497114261770879 
0 
0.0622080282706872 
0 
0 
0 
0 
0 
0 
0.705490933098645 
1.287649752000317 
0 
0 
0 
0 
0 
0 
0 
0 
0 
0 
-1.329114106860085 
0 
0 
0 
0 
0 
0 
0 
0 
0 
0 
0.3346733763296751 
2.744752548976905 
0 
0 
0 
0 
0 
0 
0 
-0.5066687542464285 
0 
0 
0 
0 
2.152747818204321 
0 
0 
0.05809131929300292 
0 
0 
0 
0 
0.04651851525357337 
0 
0 
0 
0 
0 
0 
0 
0 
0 
0 
0 
0 
1.904097207531068 
0 
0 
1.911249230678004 
-0.2977250309457321 
0 
0 
0 
0 
0 
0 
0 
0 
3.32669082042753 
0 
0 
-1.151087220067555 
0.3852300348105129 
0 
0 
0 
-0.6708121163526528 
0 
0 
0 
0 
0 
0 
0 
0 
-0.5034846490659763 
0 
0 
0 
0 
0 
0 
0 
0 
-0.1249840721409662 
0 
0 
0 
0 
0 
0 
0 
0 
0 
0 
0 
0 
0 
0 
0 
0 
0 
0 
0 
1.061402640775948 
0 
0 
0 
1.647964432071984 
0 
0 
0 
0 
0 
0 
0.06271514918244647 
-0.9833898067087276 
0 
0 
0 
0 
0 
0 
0 
0 
0 
0 
0 
0 
0 
0 
0 
0 
0 
0 
-1.085195013092223 
0 
0 
0 
0 
0 
0 
0 
0 
0 
0 
-0.3032800840539707 
0 
0 
0 
0 
0 
0.5217101852127124 
0 
0 
0 
0 
0 
0 
2.268005802529912 
0.2969391812100159 
0 
0 
0 
0 
0 
0 
0 
-1.074450987175686 
0 
0 
0 
0 
0 
0 
0 
0.322423367824374 
0 
-0.1130501310357213 
0 
0 
0 
0 
0 
2.398680927720046 
0 
0 
0 
0 
0 
0 
0 
0 
0.4412145261525054 
0 
0 
0 
0 
0 
0 
0 
0 
0 
0 
0 
0 
0 
0 
0 
0 
0 
0 
0 
0 
0 
0 
0 
0 
0 
0 
0 
0 
0 
0 
0 
0 
0 
0 
0 
0 
0 
0 
0 
0 
0 
0 
0 
0 
0 
0 
0 
0 
0 
0 
0.2222900011971129 
0 
0 
0 
0 
0.6401501041067328 
0 
0 
0 
0 
-1.706261735231086 
0 
-0.1017755880353252 
0 
0 
0 
0 
0 
0 
0.1159185597440045 
0 
0 
0 
0 
0 
0 
0 
0 
0 
0 
0 
0 
0 
0 
0 
0 
0 
0 
0 
0 
0 
0 
0 
0 
0 
1.360118958411021 
0.02617155358423457 
2.341628981371541 
0 
0 
0 
0 
0.3764068456075924 
0 
0 
0 
0 
0 
0 
0 
0 
0 
0 
0 
1.975265911077148 
0 
0 
0 
0 
0 
0 
0 
0 
0 
0 
0 
0 
0 
0 
0 
0 
0 
0 
0 
0 
0 
0 
0 
0 
0 
0 
0 
0 
0 
0 
0 
0 
0 
0 
0 
0 
0 
0 
0 
0 
0 
0 
0 
0 
0 
0 
0 
0 
0 
0 
0 
0 
0 
0 
0 
0 
0 
0 
0 
0 
0 
0 
0 
0 
0 
0 
0 
0 
0 
0 
0 
0 
0 
0 
0 
0 
0 
0 
1.005251858750422 
0 
0 
0 
0.2746761107953781 
0 
0 
-0.469029535203571 
0 
0 
0 
0 
1.511438263558753 
0 
0 
0 
0 
0 
0 
0 
0 
0 
0 
-1.265069398455447 
0 
0 
1.667482658086892 
0 
0 
0 
0.01185622376319896 
0.01312043196536987 
1.552174174759713 
0 
0 
0 
0 
-2.070506072264713 
0 
0 
0 
0 
0 
-0.5930023780000883 
0.8739783759551248 
0 
0 
0 
0 
0 
0 
3.852827329788791 
0 
0 
0 
0 
0 
0 
0 
0 
0 
0 
0 
0 
0 
0 
0 
0 
0 
0 
0 
0 
0.3499564698039763 
0 
0 
0 
0 
0 
0 
0 
0 
0 
0 
0 
0 
0 
0 
0 
0 
0.6768045502657609 
-0.859484711716204 
0 
0 
0 
0 
0 
0 
0 
0 
0 
0 
0 
0 
0 
0 
0 
0 
0 
0 
0 
-0.1962939095962622 
0 
0 
0 
-1.322319269725539 
0 
-0.8528587433752278 
0 
0 
0 
0 
0 
0 
0 
0 
0.8075541271941566 
0 
0 
0 
0 
0 
0 
0 
0 
2.973173364043338 
0 
0 
0 
0 
0 
0 
0 
0 
0 
0 
0 
0 
-0.672824247161557 
0 
0 
0 
0 
0 
0 
0 
0 
0 
0 
0 
0 
0 
0 
1.386294361119854 
0 
0 
0.6511481553366338 
0 
0.5346655008819498 
0 
2.258060780759071 
0 
0 
0 
0 
1.614375130281369 
0 
0 
0 
-0.5554778349638457 
0 
0 
1.858879690546386 
0 
0 
0 
2.144859872603996 
0 
0 
0 
0 
0 
0 
0 
0 
0 
0 
0 
0 
0 
0 
0 
0 
0 
0 
0 
0 
0 
0 
0 
0 
0 
0 
0 
0 
0 
1.438360083763185 
0 
0 
0 
2.058365013499158 
0 
0 
-0.9572042250312607 
0 
0 
0 
0 
0 
0 
0 
0 
0 
0 
0 
0 
0 
0 
0 
0 
0 
0.357995921331332 
0 
0 
0 
0 
0 
0 
0 
0 
0 
0 
0 
0 
-1.085710708797518 
-1.475603926547607 
0 
0 
0 
0 
0 
0 
0 
0 
0 
0 
0 
0 
2.130780134031618 
0 
0 
0 
0 
-0.3915537985668643 
0 
0 
0 
0 
0 
0 
0 
0 
0 
0 
0 
-0.4008345365831929 
0 
0 
0 
0 
-0.4403906419295172 
0 
0 
0 
0 
0 
2.53071006055538 
0 
-0.6242442069700793 
0 
0 
0 
0 
0 
0 
2.880302359311266 
0 
0 
0 
0 
1.007565777911269 
0 
0 
0.006658662510112404 
0.2055648470914095 
0.007390776288124364 
0.3754839006781583 
0.320943341199427 
0.0825949991961013 
0 
1.098018560461181 
0 
0 
0 
0 
0 
1.713531139001749 
0 
0 
0.3817063975632137 
0 
-0.5432217770367972 
0 
0 
0.7131925682055901 
0 
0 
0 
0 
0 
0 
-0.1889937816682035 
0 
0 
0 
0 
0 
0 
0.4782005647582647 
0 
0 
0 
-0.5502083442378963 
0 
0 
0 
-0.4951189169442599 
0 
-1.85167512915441 
0 
0 
0 
-0.6029682309667822 
0 
0 
0 
0 
0 
0 
0 
0 
0 
0 
0 
0 
0 
0 
0 
0 
0 
0 
0 
0.03199959352490158 
0 
0 
0 
0 
-1.150281995838348 
0 
0.8148691159417213 
0 
-0.6365799336183853 
0 
0 
0 
0 
0 
2.291611756663766 
0 
0 
0 
0 
0 
-0.4863861907149944 
-1.091626915512134 
0 
0 
0 
0 
-0.2119304606436282 
0 
0 
0 
0 
0 
0.7462884948723356 
0 
-0.9036683026162975 
0 
0 
0 
0 
0 
0 
0 
0 
0 
0 
0 
-0.5978384491057707 
0 
0 
0 
0 
0 
0 
0 
0 
0 
0 
0 
0 
-0.5646821942153671 
0 
0 
0 
0 
0 
0 
0 
0 
0 
0 
0 
1.026755135431938 
0 
0.05118145152713865 
-0.87713242063746 
0 
0 
0 
0 
0 
0.06087806103032584 
0 
0 
0 
0 
0 
0 
0 
0 
0 
0 
0 
0 
0 
0 
0 
0 
0 
0 
0 
0 
0.2411967545871668 
0 
0 
0.2376114183249126 
0 
0 
0 
0.6819578448684419 
1.158939782599982 
0 
0 
0 
0 
0 
0 
0 
0 
0 
0 
-1.670084574403205 
0 
0 
0 
-0.2471010019870094 
0 
0 
0 
0 
0 
0 
0 
-0.4198759555469882 
0 
2.16574623287019 
0 
0 
0 
0 
0 
0 
0 
0 
0 
0 
0 
0 
0 
0 
0 
0.6427810198597415 
0 
0 
0 
0 
0 
0.2037739007441569 
0 
0 
0.06075312002517502 
0 
-0.2738189504331302 
0 
0 
0 
0 
0 
0 
0 
0 
0 
0 
0 
0 
-0.346843345541222 
0 
0 
0 
0 
0 
0 
0 
0 
0 
0 
1.595498371771807 
0 
0 
-2.147384575254101 
0 
0 
0 
0 
0 
0 
0 
0 
0 
0 
0 
0 
0 
0 
0 
0 
0 
0 
0 
0 
0 
0 
0 
0 
0 
0 
0 
0 
0 
0 
0 
0 
0 
0 
0 
0 
0 
0 
0 
-1.580247271931154 
0 
0 
0 
0 
0 
0 
0 
0 
0 
0 
0 
0 
0 
0 
0 
0 
0 
0 
0 
0 
0 
0 
-0.09272696106527738 
0 
0 
0 
0 
0 
1.416777492918908 
0 
0 
0 
0 
0 
0 
0 
0 
0 
0 
0 
0 
0 
0 
0 
0 
0 
0 
0.7851470852075325 
0 
0 
0 
0 
0 
0 
0 
0 
0 
0 
0 
0 
0 
0 
0 
0 
0 
0 
0 
0 
0 
-0.3047177650726156 
0 
0 
0 
0 
0 
2.565633419229175 
0 
0 
0 
0 
-0.5968645740994892 
0 
0 
0 
0 
0 
0 
0 
0 
0 
0 
0 
-0.04566845314846305 
0 
0 
0 
0 
0 
0 
0 
0 
0 
0 
0 
-1.835663635976501 
0 
1.696263398381644 
0 
0 
0 
0 
0 
0 
0 
0 
0 
0 
0 
0 
0 
0 
0 
0 
0 
0 
0 
-1.126103755789997 
-0.2809455598127615 
0 
0 
0 
0 
0 
0 
0 
0 
0 
0 
5.306932602461725 
0 
0 
0 
2.074758375107164 
0 
0 
-1.729384047326994 
0 
0 
-1.635919218880831 
3.378439932208412 
0 
0 
0 
0 
0 
0 
0 
0 
0 
0 
0 
-2.779299464706544 
0 
0.4556834468429838 
0 
-0.9315935588662212 
2.236983914751078 
0 
0 
0 
-1.014423329531088 
0 
0 
0.5819205439261461 
0 
0 
0 
0 
0 
0 
0 
0 
0 
0 
0 
0 
0 
0 
0 
-1.480622374461976 
-1.314891698567924 
0 
0 
0 
0 
0 
0 
0 
0 
0 
0 
0 
0 
0 
0 
0 
0 
0 
0 
0 
0 
1.106216868578909 
1.173244645450291 
0 
0 
0.6395690883780769 
0.02083594667479807 
0 
0.3289992152909786 
2.257105748405289 
0 
0 
-1.107900272571554 
0.2247697047160866 
0.8759863418719616 
1.024188408135573 
3.095789633092375 
0 
0 
0 
0 
0 
0 
0 
2.299102043878426 
0 
-2.040760527273838 
-1.427162168258589 
0 
-1.726044825426028 
0 
0 
6.457106883561447 
0 
0 
-0.7919874485310655 
0 
2.288523365154703 
0 
0 
0 
0 
0 
0 
0 
-1.436631003987519 
3.86108331215385 
0 
0.4929254003282156 
0 
0 
0 
0 
0 
0 
0 
0 
0 
0 
0 
0 
0 
0 
0 
0 
0 
-1.610192877561219 
0 
0 
-1.03354827327287 
0 
0 
0 
0 
0 
0 
0 
-3.051090703235546 
0 
0 
0 
0.7499131737978514 
0 
0.1065208521675693 
0 
2.421377577993324 
1.066781129785707 
0 
0 
0 
0 
-0.119194699891076 
0.8993088306993829 
0 
0 
0 
0 
-1.080632997983375 
0 
-0.5266496507296833 
0 
-0.4312875958827377 
0 
0 
0 
0 
0 
0 
0 
0 
-1.448727661302437 
0 
1.38504994404029 
0 
0 
0 
0 
0 
0 
0 
0 
0 
0 
0 
0 
0 
2.212803541146681 
-1.382951944419905 
0 
-0.4432390736663324 
0 
0 
0 
0 
0 
0 
0 
-0.8139993774516227 
-0.3613370342538588 
0 
0 
0 
0 
0 
0 
0 
0 
0 
0 
0 
0 
0 
-1.441436616202852 
1.718600037027609 
0 
0 
-2.235834218031888 
-1.656826821590482 
0 
0 
0 
0 
0 
0 
0 
-1.530959466822019 
0 
0.9076776773997927 
0 
-1.934726050231776 
0 
0 
0 
0 
0 
0 
0 
0 
1.178369599808246 
0 
0 
0 
2.24392726329777 
0 
0 
0 
0 
0 
0 
0.1167102146730691 
0 
0 
-0.7639727539418791 
0 
0 
0 
0 
0 
0 
0 
1.995846407518713 
0 
0 
0 
0 
0 
0 
0 
0 
0 
-0.2494139082620744 
0 
0 
0 
0 
-1.124650022890788 
0 
-0.2628052843366728 
0 
0 
0 
0 
0 
0 
0 
0 
0 
-1.524239259050962 
0 
0 
0 
0 
0 
0 
0 
0 
0 
0 
0 
-1.098088858981462 
0 
0.06520679158612713 
-0.0705191161697758 
0 
0 
0 
0 
0 
0 
0 
0 
0 
0 
0 
0 
-1.451885450461722 
0 
-1.191396460471388 
-1.011688780451353 
0 
0.5594187588316367 
0 
0 
-1.08977226692156 
0 
0 
0 
0 
-0.1734793799521068 
0 
0 
0 
0 
0 
0 
0 
0 
0 
0 
0 
0 
0 
0 
0 
-0.6327324646203797 
0 
0 
0 
0 
0.8225076794294049 
0.8584919063965224 
0 
-2.53705612798529 
0 
0 
0 
0 
0 
0 
0 
0 
0.3511690028864566 
0 
0 
0 
0 
0 
0 
0 
0 
0 
0 
0 
0 
0 
0 
0 
0 
0 
0 
1.177366112935275 
0 
-1.732596792776375 
-0.7243530869376981 
0 
0 
0 
0 
0 
0 
0 
0 
0 
0 
0 
0 
0 
0 
0 
-2.124097846534853 
1.633118475376119 
0 
0.3424749371188689 
0 
0 
0 
0 
0 
0 
0 
0.09389050450387115 
0 
0 
0 
0 
0 
0 
-0.7446279159554369 
0 
0.978422862722238 
0 
0 
0 
4.836846631108638 
0 
0 
0 
0 
-1.111148778663565 
0 
0 
0 
0 
0 
-1.820614537370107 
0 
0 
0 
0 
0 
0 
0 
0 
0 
0 
0 
0 
0 
0 
0 
0 
0 
0 
0 
0 
0 
-0.2326827781028916 
0.1299845729738708 
-1.918352517008779 
0 
0 
0 
0 
0 
0 
0 
0 
0 
0 
0 
0 
0.4818339359672483 
0 
0 
0 
0 
0 
0 
0 
0 
1.225410067049641 
0 
0 
0.6229037010036182 
0 
0 
0.1161619402619844 
0.2550366657263318 
0.1797083570665892 
0.03253707974150068 
0.1274841229264226 
0.0008370175508141256 
0.05349747452571864 
1.295579766455185 
0.001613826480888061 
0.1913745171321529 
0.3055657267563514 
0 
0 
1.542757782737123 
0 
0 
0 
0 
0 
0 
0 
0 
0 
0 
-0.6934618379763763 
0 
-0.7678159358501596 
0 
0 
0 
0 
0 
0 
0 
0 
0.5719004038597404 
0 
0 
0 
0 
0 
0 
0 
0 
-0.1571489151141935 
0 
-1.223759828773846 
0 
0 
0 
0 
0 
0.4494054629288133 
0 
1.597567674399366 
2.432944735087894 
0.9026623760247684 
-0.7248911619471607 
0.1883498984947716 
0 
-1.427212074531211 
0 
2.057665837299369 
0 
0 
0 
0 
0 
0 
0 
0 
0 
0 
0 
0 
0 
0 
0 
0 
0 
0 
0 
0 
0 
0 
-0.02148411920245832 
0 
0 
0 
0 
0 
0 
0 
0 
0 
0 
0 
0 
0 
0 
0 
0 
0 
0 
0 
0 
0 
0 
0 
0 
0 
-0.4497985949749093 
0 
0 
0.05015488596031692 
0.8818003650069698 
0.7820653286161524 
0 
1.401920911248427 
0 
0.3176506931971525 
0.2247081364524218 
0.4615917339778889 
0.1086222782858333 
0 
0 
0 
0 
0 
0.08875583547243043 
0 
0 
0 
0 
0 
1.9373865109917 
0 
2.187247727770097 
0 
0 
0 
-1.316289902234462 
0 
0 
0 
0 
0 
0 
0 
0 
0 
0 
3.764764139204112 
0 
0 
0 
0 
0 
0 
0 
0 
0 
0 
-0.5043156534229465 
0 
1.329746842761839 
0 
0 
0 
0 
0.3493207434097849 
-1.616741101184633 
2.267985961546219 
1.328194427298194 
0 
0 
0 
0 
0 
0 
0 
0 
-0.238653026109164 
0 
0 
0 
2.22754915284351 
0 
0 
0 
0 
0 
0 
0 
0 
0 
0 
0 
0 
0 
1.423063832990517 
0 
0 
0 
0 
0.908315471581661 
0.6293229018392773 
0.114504097764239 
0.241460391829645 
0.2172585874475623 
0 
1.613127698151961 
0 
0 
0 
0 
0.8846557324560166 
0 
0 
0 
0 
0 
0 
0 
0 
0 
0 
0 
0 
0 
0 
-0.9749650774498962 
0 
0 
0 
0 
0 
0.01220258050646975 
0.3861435652839429 
0.009668507304671789 
0 
0.1430064154220051 
0 
0 
0 
0 
0 
0 
0 
0 
0 
0 
0 
0.3475523348648773 
0 
0 
0 
0 
0 
0 
0 
0 
0 
0.1919205322665061 
0.7164791178843616 
1.863158539998133 
0 
1.093203681950565 
0.7898693618936572 
0 
0 
-1.171253928843736 
0.3689151889404365 
0 
0.1281773125502558 
1.90339049614839 
1.410077598780893 
0 
-1.681251668236878 
-1.864733184226181 
0 
0 
0 
0 
0 
0 
0 
0 
0 
0 
0 
-1.637814843159917 
0 
0 
0 
0 
0 
0.03218720673111083 
0 
0 
0 
0 
0 
0 
0 
0 
0 
0 
0 
0 
2.155367125340731 
0 
0 
0 
0 
0.3125201085478988 
0 
0 
0 
0 
0 
0 
0 
0 
0 
0 
0 
0.08154485267036883 
0 
0 
0 
0 
0 
2.220972028779129 
0 
0.2734186528500467 
0 
-0.02144607663402814 
1.118335581196473 
0 
0.3803436785563892 
0 
0 
0 
0.4803738902672633 
0.3053617650584755 
-0.2628772660275192 
0 
0 
0 
0 
0 
0 
0.02500948576482535 
0 
0 
0 
0 
0 
0 
0.2220952940986487 
0 
0 
0 
0 
0 
1.591434301869593 
0 
-5.370136501444209 
0 
0 
0 
0 
0 
0 
0 
0.4217160719085882 
0 
1.246148291893534 
0 
0 
0 
0 
0 
1.639500739898149 
0 
0 
0 
0 
0 
-0.603615552287046 
0 
0 
0 
0 
0.05497244661703479 
2.121006982925376 
0.0002704704952739656 
0.04291697035500217 
0.4856930821309578 
0.2411603051109921 
0 
0 
0 
0 
0 
0 
0 
0 
0 
0 
0 
-0.09718496127544644 
0 
0 
-0.1783093976981965 
0 
0 
0 
0.173596236925442 
-0.7162223057817954 
0 
0 
1.034070658744847 
0 
1.163867249454219 
0 
0.4014051230083598 
0 
0 
0 
0 
0 
0 
0 
0 
0 
0 
0 
0 
0 
0 
2.17570781279397 
-2.265873139621453 
0 
0 
0 
0 
0 
2.190769876252606 
0 
0 
0 
0 
0 
0 
0.4747637453210788 
0 
0 
0 
0 
0 
-0.1216997722171515 
0 
0 
0 
3.666668505396469 
0.08869695550212554 
2.007118393950504 
0 
0 
0 
0 
0 
0.2060148055655792 
0 
0 
0 
0 
0 
0 
0 
0 
0 
0 
0.2671199375469716 
0 
0 
0 
0 
0 
0 
0 
0 
0 
0 
0 
0 
0 
0 
0 
0.1591222294100208 
0 
0 
0 
0 
0 
0 
0 
0 
0 
2.786759054946984 
0 
0 
0 
0 
0 
0 
0.2602263780280744 
0 
0 
0 
0 
0 
0 
0 
0.8760075897092591 
-0.1834229066666006 
1.103414345153087 
2.109209723834893 
0 
0 
0 
0.4026917950707486 
-1.457614911685962 
-0.6063531975533073 
0 
0 
0 
0 
0 
0 
0 
0 
0 
0 
0 
0 
0.2768897039849433 
0 
-1.746571875004545 
0 
0 
3.32173855597016 
0 
0 
0 
1.003936586854036 
0 
0 
0 
0 
0 
0 
0 
0.6651561692576893 
5.095841646940301 
0.5835075505426442 
0 
0 
-1.215458721258108 
0 
0 
0 
0 
0 
0 
3.566808794365753 
0 
0.5637484576833272 
0 
0 
0 
0 
1.606159455628516 
0 
-0.3296672269796008 
1.388529346434094 
0 
0.3107391949761044 
0 
0 
0 
0 
1.537906523287078 
0 
0 
0 
0 
0 
0 
0 
0 
0 
0 
0 
0 
0 
0 
0 
0 
0 
0 
0 
0 
0 
0 
-0.02158299472012963 
1.582715943316898 
0 
0 
0 
0 
0 
0 
0 
4.988427443468712 
0 
0 
0 
0.7772496286707149 
0.8319312514936258 
0 
0 
0 
0 
0 
0.8228025853247958 
0 
0.8370988418304174 
0 
0 
0 
0 
0 
0 
0 
0.1721122515970394 
0 
0 
0 
0 
1.170629459489526 
3.205032866460307 
0 
0 
0.5079273450470605 
0 
-0.4175791329543179 
0 
0 
0 
0 
0 
0 
0 
1.478589104717637 
0 
0 
0 
0 
0 
0 
0 
0 
0 
0.7439832541066737 
0 
0 
0 
0 
0 
0 
0.9320606012611513 
1.377808516372776 
0 
0 
0 
0 
0 
0 
0 
0 
3.294567800748398 
2.069011778234023 
0 
0 
-1.06532415527428 
-0.3316594716663231 
0.6358292506643514 
0 
0 
0 
0 
0 
0 
0 
-1.548763067511661 
0 
0 
0 
0 
0 
0 
2.35015839846578 
0 
0 
0 
0 
0 
1.389681344135192 
0 
-1.998010360210042 
1.565187545410736 
0 
0 
0 
0 
0 
1.651644527414504 
0 
0 
0 
0 
0 
-2.376347097736562 
-0.153759243630969 
0.3956529967353911 
0 
0 
0 
-1.638537115811624 
0 
0 
0 
0 
0 
0 
0 
0 
0 
0 
0 
0 
-0.6325854378371731 
0 
0 
0 
-1.254630196005988 
0 
0 
0 
0.08882301470462815 
0.07475581578056639 
-1.023424915416109 
0.8252174333865868 
0 
0 
0 
0 
0 
0 
0 
0 
0 
0 
0 
0 
0 
0 
0 
0 
0 
0 
0 
0 
0 
0 
0 
0 
0 
0 
0 
0 
0 
0 
0 
0 
0 
0 
0 
0 
0 
0 
0 
1.653524693822359 
0 
0 
0 
0 
0 
0.5645763526517048 
0 
0 
0 
0 
0 
0 
0 
0 
0 
0 
0 
0 
0 
0 
0 
0 
0 
0 
0 
0 
0 
1.517460187279796 
0 
-0.5452478171920786 
-1.199762951940824 
0 
0 
0 
0.0630014383721078 
0 
0 
0 
0 
0 
-1.137558265926366 
0 
0 
0 
2.601405012929772 
0 
0 
0 
0 
0 
3.379088808333302 
0 
0 
0 
0.07481011642301408 
0 
0 
0 
0.7772775191346135 
0 
0 
0 
0 
0 
0 
0 
0 
0 
0 
0 
0 
0 
0 
1.058627715573915 
0 
0 
0 
0 
0 
0 
0 
0 
0 
0 
0 
0 
0.1065103565041885 
0 
0 
1.193380785555713 
0 
-0.2165040811225621 
0 
0 
1.359411792283665 
0 
-2.003283432511062 
0 
0 
0 
0 
0 
0 
2.251897687367508 
0 
0 
0 
0 
0 
0 
0 
0 
0 
0 
0 
0 
0 
0 
0 
0 
-1.071876757425708 
0 
0 
0 
0 
-0.3278719596854588 
-0.9172556109702655 
0 
0 
0 
0.4045077104144264 
4.106093315384914 
-0.2253983714856407 
0 
0 
0 
0 
0 
0 
0 
0 
0 
-0.6418094745661094 
-3.272129804549762 
0 
0 
-0.6940924310004574 
0.5206751770343789 
0 
0 
-1.750982180515717 
0 
0 
0 
0 
0 
0 
0.6794363201025121 
0 
2.262082308304343 
0 
0 
0.5687745946943934 
0.8706114885546459 
0.7630738757862492 
-1.943571031597893 
0 
0 
0 
0 
0 
0 
0 
0 
0 
0 
0 
0 
0 
0 
-0.9995832129972645 
0 
0 
0 
0 
0 
0 
0 
0 
0 
0 
0 
0 
0 
-1.242360167789617 
0 
0 
0 
0 
0 
0 
1.892653099561118 
0 
0 
0 
0 
0 
0 
0 
0 
0 
0 
0 
0 
0 
0 
0 
0 
0 
0 
-0.05862735210120117 
0 
0 
0 
0 
0 
0.8072584812567608 
0 
2.256343644893378 
0 
-0.799583486211737 
0 
-1.486804318708316 
0 
0 
0 
0 
0 
-0.987778902578013 
0 
1.247938470140108 
0 
0 
0 
0 
0 
0 
0 
0 
0 
0 
0 
0.03475203785638994 
0 
-1.034949307657929 
0 
0 
0 
0 
0 
0 
0 
0 
0 
0.9642353724390186 
0 
0 
4.420464879502045 
-1.156468715272481 
0 
0 
0 
0 
0 
0 
0 
0 
0 
0 
0 
0 
6.272528286730329 
0 
0 
0 
0 
0 
0 
0 
0 
0 
0 
0 
0 
-1.153026787801539 
0 
0 
0 
0 
0 
0 
0 
0 
1.909594705829908 
-2.374474489761114 
0 
0.01843567012774175 
0 
0 
0 
0 
0 
0 
0 
0 
0 
0 
1.436229062064974 
-0.6998478638535256 
0 
-0.2635795808648908 
1.30831065082304 
0 
0 
0 
0 
0 
0.5978620252939445 
-1.023150432527913 
1.752892955347826 
0 
0 
0 
0.5652035468779346 
-1.410252180810044 
0 
0 
0.09878453373985197 
0 
-0.5236664790610673 
0.02994732391865595 
0.4925702847157167 
0 
0 
-0.04183967050480954 
0 
0.0747667882014639 
-0.5020033711893643 
1.52115928797911 
-1.295401693986241 
0 
0 
0 
0 
0 
0 
0 
0 
0 
-0.7534786823220966 
0 
0 
0 
0 
0.005641149659235367 
2.770682010858849 
0 
0.5544882717951622 
0 
0 
0 
0 
0.2803285561163655 
0 
0 
0 
0 
0 
0 
0 
0 
0 
0 
0 
2.037055236449697 
0 
0 
0 
0 
0 
0 
0 
2.899097617044333 
0 
1.012869056903204 
0 
0 
0.03938411259966049 
0 
1.295481988704062 
0.5726828755928567 
0 
-1.372241808806922 
0 
0 
0 
0 
0 
0 
0 
0.7293634625537023 
1.227243629014694 
0 
0 
0 
0 
0 
0 
0 
1.331635944009773 
0 
-0.8021558302927143 
0 
0 
0 
0 
0.3021028096472259 
0 
0 
0 
-1.961060374310497 
0 
0 
0 
0 
0 
2.777039251478126 
0 
0 
0 
0 
0 
0.04035176600218992 
0 
0 
0 
0 
0 
0 
0.2989113705995771 
0 
-2.513709989394766 
0 
0 
0 
0 
0 
0 
0 
0 
0.4854666002496208 
0 
0 
0.3171293282538681 
0 
0 
0 
0 
0 
0 
0 
0 
-0.512759217382374 
-1.284755364395088 
0 
0 
0 
0 
0 
0 
0 
0 
0 
0 
0 
0 
0 
0 
0 
4.193811941338776 
0 
0 
0 
0 
0 
1.385794227302527 
0 
0 
0 
0 
0 
0 
0 
0 
3.274059533830775 
0 
0 
0 
0 
0 
0 
0 
0 
0 
0 
0 
0 
0 
0.1771116089260432 
0 
0 
0 
0 
0 
0 
0 
0 
0 
-0.02754241000609638 
0 
0 
0 
0 
0 
0 
0 
0 
0 
0 
0 
0 
0 
0 
0 
-2.609266055358684 
0 
0 
0 
0 
0 
0 
0.3851829542132245 
0 
0 
0 
0 
0 
0 
0 
0 
0 
0 
0 
0 
0 
0 
0 
0.4519762249382147 
0 
0 
0 
0 
0 
0 
1.099171258932846 
0 
0.2848909947098142 
0.2607318178307209 
0.0163147368581548 
0.2939421865269037 
0.1352822435613945 
2.781175044920623 
0 
0 
0 
0 
0 
0 
0 
0 
0 
0 
0 
0 
0 
-1.24843992198457 
0 
0 
0 
0 
0 
0 
0 
0 
0.6842848180895483 
0 
-2.346932122504811 
-1.644345621224799 
0 
0 
0 
0 
0 
0 
0 
0 
2.026497873861296 
0 
0 
0 
0 
0 
0 
0 
0 
-0.2339797585182839 
0 
0 
0 
0 
0 
0 
0 
0 
0 
0 
0 
0 
0 
0 
0 
0 
0.8783443647993774 
0 
0 
0 
0 
0 
1.654535511230946 
0 
0.3426561857124824 
0 
0 
0 
0 
0 
0 
0 
0 
-0.8726732539431695 
0 
0 
0 
1.279735474473763 
0 
0 
-1.08520450103581 
0 
0 
0 
0 
0 
0 
0 
0 
0 
0 
0 
0 
0 
0 
0 
0 
0.7117336349381861 
0 
0 
0 
0 
-1.948680595614087 
0 
0 
0 
0 
0 
0 
0 
0 
1.489601345156958 
0 
0 
0 
0 
0 
0 
0 
0 
0 
0 
0 
0.3383208138680949 
0.5628538034612841 
0 
0 
0 
0 
0 
3.536063901381834 
-1.22487363782834 
0 
0 
0 
0 
0 
0 
0 
0 
0 
0 
0 
0 
0 
0 
1.386294361119891 
0 
0 
0 
0 
0 
0 
0 
0 
0 
0 
0 
0 
0 
0 
0 
0 
0 
0 
0 
0.09646037959630338 
0 
0 
0 
0 
0 
1.035121799740231 
0 
0 
-1.856807119933347 
0 
-0.2395398339874327 
0 
0 
0 
0 
1.610070675370553 
0 
0 
0 
0 
0.100920184172652 
1.517603500591155 
0 
0.06817912980904052 
1.318115231310849 
0 
0 
1.708019037175065 
0 
0 
0 
0 
0 
0 
0 
0 
0 
0 
0 
0 
0 
0 
0 
0 
0 
0 
0 
0 
0 
0 
0 
0 
0 
0.4064627219342182 
0 
0 
-0.78369651953585 
0 
0 
0 
0 
0 
0 
0 
0 
0 
0 
0 
0 
2.104240589909244 
0 
0 
0 
0 
0 
-3.156142528670711 
0 
0 
0 
0 
0.8646763006792669 
0 
0.0885724427409318 
0 
0 
0 
0 
0 
-0.6875825216899086 
0 
0 
-1.735180847985607 
0 
0 
-0.9193984508388782 
2.978848728897427 
0 
0 
0 
0 
0 
0 
0 
0 
2.677230243236673 
0 
0 
0 
0 
0 
0 
0 
0 
0 
0 
0 
1.061238152932268 
0 
0.09748374880503197 
0 
0 
0 
0 
0 
0 
0 
0.695868831663533 
0 
0 
0 
0 
0 
0 
0 
0 
0 
0 
0 
0 
0 
0 
0 
0 
0 
0 
0 
0 
0 
0 
0 
0 
0 
0 
0.1765212739855827 
0 
0 
0.08497313852375571 
0 
0 
0 
0 
1.081134814516058 
0 
0 
0 
0 
1.016231469506143 
0 
-0.5713061126683314 
0 
1.807780981516379 
0 
0 
0 
0 
0 
0 
1.441641320032058 
0 
0 
0 
0 
0 
0 
0 
0 
0 
0 
0 
0 
0 
0 
0 
0 
0 
0 
0 
0 
0 
-1.215414163744652 
0 
0 
0 
0 
0 
0 
0 
0 
0 
0 
0 
0 
0 
0 
0 
0 
0 
0 
0 
0 
0 
0 
0 
0 
0 
0 
0 
0 
0 
0 
0 
0 
0.7348673569784736 
1.579649630604588 
0 
0 
0 
0 
0 
0 
0 
1.787924094083352 
0 
0 
0 
0 
0 
0 
0 
0 
0 
0 
0 
0 
0 
0 
0 
0 
0 
0 
0 
0 
0 
0.3726689352340012 
-2.33680994144464 
0 
0 
0 
0 
0 
0 
0 
0 
0 
0 
0 
0 
0 
0 
0 
0 
0 
0 
0 
-0.2917757981411414 
0 
0 
0 
0 
0 
0 
0 
0 
0 
0 
0 
0 
0 
0 
0 
0 
0 
0 
0 
0 
0 
0 
0 
-0.9007758419092982 
0 
0 
0 
-0.9861173261911177 
0 
0 
0 
0 
-2.072952697052612 
0 
0 
0 
0 
0 
0 
0 
0 
-0.7490685631761606 
0 
0 
0 
0 
0 
0 
0 
0 
0 
0 
0 
0 
0 
0 
0 
0 
0 
0 
0 
0 
0 
0 
0 
0 
0 
0 
0 
0 
0 
0 
0 
0 
0 
0 
0 
0 
0 
0 
0 
0 
0 
0 
0 
0 
0 
0 
1.044556063498063 
0 
0 
0 
0 
0.08119535188746671 
-0.4615259335426589 
0 
0 
0.4773817905017438 
0 
0 
0 
0 
0 
0 
0 
0 
0 
0 
0 
0 
0 
0 
0 
0 
0 
3.153432913410052 
0 
0 
0 
0 
0 
0 
0 
0 
0 
0 
0 
0 
-2.330108454016474 
0 
0 
0 
0 
0 
0 
0 
0 
0 
0 
0 
0 
0 
0 
0 
0 
0 
0 
0 
0 
0 
-0.5162169787954014 
0 
1.259807524063939 
0 
0 
0 
0 
0 
0 
0 
0 
0 
0 
0 
0 
0 
0 
0 
0 
0 
0 
0 
0 
0 
0 
0 
0 
3.367034565315828 
0 
0 
0 
0 
0 
0 
1.703302505681898 
-0.5737763986980531 
0 
0 
0 
0 
0 
0 
0 
-0.8144124105635386 
0 
0 
0 
0.04546353886025903 
0 
0 
0 
0 
1.625644582229323 
0 
0 
0 
0 
0 
0 
0 
0 
0 
0 
0 
0 
0.2098120845012056 
0 
0 
-1.360903116554311 
0 
0 
0 
0 
0 
0 
0 
0 
0 
0 
0 
0 
0 
0 
0 
0 
0 
0 
0 
0 
0.2281293195990882 
0 
0.3970382372786154 
-1.276767383671167 
0 
0.1732281739057606 
0 
0 
0.1316756545535257 
-0.9376919543659356 
0 
0 
0 
0 
-0.3876848863570725 
0 
0 
2.197780505158118 
0 
0 
0 
0 
0 
0 
0.522759915334305 
0 
0 
0.2677671240831402 
0.03291743513121268 
0.1268741483196281 
0 
0 
0 
0 
0 
0 
0 
0 
0 
0 
0 
0 
0 
0 
0 
0 
0 
0 
0 
0 
0 
0 
0 
0 
0 
0.3299994571414532 
0.002856748942901097 
0.2220097010740966 
0.31531929756907 
0.8517294136930726 
1.100602515830976 
0 
0.05092117569196018 
0 
0 
7.82743770148991 
0 
0 
0 
0 
0.3620860908579049 
0 
0 
0 
0 
0.01187918678946312 
0 
0.7928484501736172 
1.256946005844379 
0 
-1.26790056994647 
0.03764518571216519 
0 
1.479562152078563 
0 
0.6038800344168371 
0 
-0.8634614357626748 
2.797605436202304 
-2.51781959185974 
0 
0 
2.8169189701517 
1.191211525297147 
0 
-0.6480126153641417 
0 
0 
0 
0 
0 
0 
0 
1.021269636362966 
0 
0 
0 
0 
0 
0 
0 
-0.1925740266083082 
0 
0 
-2.127064378569558 
4.423438311321404 
0 
0 
0 
0 
0 
0 
0 
0 
0 
-1.15823649904367 
1.720907021914073 
-1.602084301237583 
0.3082610123744614 
0 
-0.5244349717070076 
0.01807139024213648 
0 
0 
0 
0 
0 
0 
0 
0 
0 
-0.1962988593693495 
0 
0 
0 
0 
3.350120639599551 
0 
0 
-0.5136058749075849 
0 
0 
0.8447931546978389 
0.1204345643006003 
0 
0 
0 
0 
0 
0 
0 
0 
0 
0.07843006918184645 
0.4083532110361581 
0 
1.276787934585093 
0.1242979861708189 
0 
0.1995880261768477 
-1.438945685760625 
-0.6624339335549568 
0 
0 
0 
0 
0 
0 
0 
0 
0 
0 
0 
0 
0 
0 
0 
0 
0 
0 
0.5592928228602626 
0 
0 
-0.5050888762300705 
2.119263613454007 
0.6216630005934859 
0 
-0.1992373068006742 
-0.5368639502725107 
0 
0 
0 
1.129729120439057 
0 
0 
-1.327421087831798 
0.1570331392510199 
0 
0 
0 
0 
0 
0 
0 
0 
0 
0 
0 
0 
-2.095755499596105 
0 
0 
-1.190458748568172 
0 
0 
0 
0.5735853737629967 
0 
0 
0 
0 
0 
0 
0 
0 
0 
0 
0 
0 
0 
0 
0 
0 
0 
0.7710578471250171 
0 
0 
0.448438850308609 
0 
0 
0 
0 
0 
0 
0 
0 
0 
0 
0 
0 
0 
0.580650199117994 
0 
0 
0 
0 
0 
0 
0 
0 
0 
0 
0 
0 
0 
0 
0 
0 
0 
0 
0 
0 
0 
0 
0.2547080220732968 
1.169113851202547 
0 
0 
0 
0 
0 
0 
0 
0 
0 
0 
0 
0 
0 
0 
0 
0 
0 
0 
0 
0 
0 
0 
-0.4872561515493719 
0.2099054901461193 
0 
0 
0 
0 
0 
0 
-0.5117344148040744 
0 
0 
3.812844701926604 
0 
0 
0 
0 
0 
0 
0 
0 
0 
0 
0 
0 
0 
0 
1.386294361119891 
0 
0 
0 
0 
0 
0 
0 
0 
0 
0 
0 
1.044114420980048 
0 
1.385575527869535 
0 
0 
0 
0.0847266742245274 
0.01056716314788886 
0 
0.00336135007664719 
0 
1.280033969916759 
0 
0 
0 
0 
0 
0 
0.2585258117595333 
0.7856769798519487 
0 
0 
0 
0 
0 
0 
0 
0 
0 
0 
0 
0 
0 
0 
0 
0 
0 
0 
-0.3323366506671411 
0.4303342146257154 
0 
0 
0 
0 
0 
0.3396062460553122 
0 
0 
0 
0 
0 
0 
0 
0 
0 
0 
0 
0 
0 
0 
0 
0 
0 
0 
0 
0 
0 
0.08617459370009312 
0 
0 
0 
0 
-0.1697331983359197 
0 
0 
0 
0 
0 
0 
0 
0 
1.386294361119891 
0 
0 
0 
0 
0 
0 
0 
-0.1464101958648068 
0 
0 
0 
0 
0 
0 
0 
0 
0 
0 
0 
0 
0.02805191245192608 
0 
-1.060731668674087 
0.4894117221100081 
0 
0.008568826110046409 
0.0124802899008348 
-0.2923564875926709 
1.0325182407373 
0 
0 
0 
0 
0 
0.8874452566013986 
0 
0 
0 
0 
0 
0 
0 
0 
0 
0 
0 
0 
-0.07857667719296117 
0 
0 
0 
0 
0 
0 
0 
0 
0 
0 
0 
1.08451493578485 
0 
0 
-2.240517161448411 
0 
0 
0 
0 
0 
0 
0 
-0.6778965366812915 
0 
0 
0 
0 
1.036538019234431 
0 
0 
0 
0 
0 
0 
0 
0 
0 
0 
0 
0 
0 
0 
0 
0 
-0.2585217601612804 
0 
0 
1.486990583438679 
0 
0 
-0.8760729731756 
0.1456964045811645 
0 
0 
-1.472943816548631 
0 
0 
0 
0 
0 
0 
0 
0 
0 
0 
0 
0 
0 
0 
0 
0 
0 
0 
0 
0 
0 
0 
0 
0 
0 
0 
0 
0 
0 
0 
0 
0 
0 
0 
0 
0 
0 
0.2959879218981289 
0 
0.7264480592571244 
0 
0 
0 
0 
0 
0 
0 
0 
0 
0 
0 
2.874435286699365 
0.1395895603500635 
0 
0.1746633698344465 
0 
0 
0.5597868223370969 
0.09176729983524923 
0.3016566966451996 
0 
0 
2.107936966555745 
0 
0 
0 
0 
0 
0 
0 
0 
0 
0 
0 
-0.2014078953691096 
0 
0 
0 
0 
0 
-0.7906640654912761 
-1.233750726157541 
0 
1.359433806758928 
0 
0 
0 
0 
0 
0 
0 
0.160353853097719 
0 
1.368070584474079 
0 
0 
0.3981373837039662 
0 
0 
1.802293725110078 
-1.046314933966867 
0 
0 
0 
-0.2783680046444754 
0 
0 
0 
0 
0 
0 
0 
0 
0 
0 
0 
0 
2.641290694913475 
0.2235214669243474 
0 
0 
-0.5337978505705434 
0 
0 
0 
0 
3.388467353217345 
0 
0 
0 
0 
0 
0 
0 
0 
0 
0 
0 
0 
0 
0.230267870956415 
-1.895081445502738 
1.470788406168822 
0.7673243020716852 
0.791827912198001 
-3.080536772611701 
0 
0.3927766253132617 
0 
0 
0 
2.236117166005614 
0 
0 
0 
0 
0 
0 
0 
0 
0.3464107923561479 
0 
0 
0 
0 
0 
0 
0 
0 
0 
0 
0 
0 
0 
0 
0 
0 
0 
0 
0 
0 
0 
0 
0 
0.4179202875396429 
0 
0 
0 
0 
0 
0 
-0.967200218824421 
0 
0 
0 
0 
0 
-0.518199989527055 
0 
0 
0 
0 
0 
0 
0 
0 
0 
0 
0 
1.495065665953916 
0 
0 
0 
0 
0 
0 
0 
0 
0 
0 
0 
-0.4250509579854995 
0 
0 
0 
0 
0 
0 
0 
0 
0 
0 
0 
0 
0 
0 
0 
0 
0 
0 
0.07215359817729139 
0 
-1.641384883297277 
0 
0 
0 
0 
0 
0 
0 
0 
0 
2.162328365019233 
0 
0 
0 
0 
0 
0.1363439699782513 
0 
0 
0 
0 
0 
0 
0 
0 
0 
0 
0 
0 
0 
0 
0 
0 
-1.183608064711238 
0 
0 
0 
-0.4646305356766698 
0 
0 
0 
0 
1.925330788577061 
0 
0 
0 
0 
0 
0 
0 
-1.658978516100487 
0 
0 
0 
0 
0.1643964639373302 
0 
0.3747073440996735 
-1.525643646036322 
-0.09319357441784955 
0 
1.031272178647673 
0.1900657004313798 
0 
0 
0 
0 
0 
0 
1.178363697347139 
0 
0 
0 
0 
0 
0 
0 
0 
0 
0 
0 
-0.7956986993223554 
0 
0 
0 
0 
-0.3889264534834266 
0 
0 
0 
0 
0 
0 
0 
0 
0 
0 
-0.6112934878124991 
0 
0 
0 
0 
0 
0 
0 
0 
0 
0 
0 
0 
0 
0 
0 
-0.5035022809858146 
0 
0 
0 
0 
0 
2.133350995872031 
0 
0 
0 
0 
0 
0 
0 
0 
0 
0 
0 
0.03224048871661993 
0.03248726712851192 
0 
0 
0 
0 
0 
0 
-0.3848310177214376 
0 
0 
0 
0 
0 
0 
0 
0 
0.6576160724284992 
0 
0 
-0.3368582594191953 
0 
0 
0 
0 
0 
0 
0 
0 
0 
0 
0 
0 
1.120497580471165 
1.71191633182229 
0 
0 
-0.3890251254384766 
0 
0 
0 
0 
0.8638155312515995 
0 
0 
0 
0 
0 
0 
0 
0 
0 
0 
-1.303147340858598 
0 
3.615452123419139 
0 
0.7873571218228714 
0 
-0.1111600779962143 
0 
-0.6380248436456242 
0 
0 
0 
0 
0 
-1.013438940506267 
0 
0 
0 
0 
0 
0 
0 
0 
0 
0 
0.6737308307186369 
0 
0 
0 
0 
0.4152534552361619 
0 
0 
0 
0 
0 
0 
0 
0 
0 
0 
0 
0 
0 
-1.596465649897084 
0 
0 
0 
0 
0 
0 
0 
0 
0 
0 
0 
0 
0 
0 
0 
0 
0 
0.4790654476492717 
0 
0 
0 
0 
0 
0 
0 
0 
0 
0 
0 
0 
0 
0 
0 
0 
0 
0 
0 
0 
0.3631855661120785 
0 
0 
0 
0.8439713622863935 
0 
0 
-1.448324882330465 
0 
0 
0 
0 
0 
0 
0 
0 
0 
0 
0 
0 
0 
1.519342378378145 
0 
0 
0 
0 
0 
0 
0 
0 
0 
0 
-1.155810860794862 
0 
0 
0 
0 
0 
0 
0 
0 
0 
0 
0 
0 
0 
0 
0 
0 
0 
0 
0 
0 
0 
0 
0 
0 
0 
0 
0 
0 
0 
0 
0 
0 
0 
0 
0 
0 
0 
1.307978163042508 
0 
0 
0.04434157394820454 
0 
0 
0 
0 
0 
0 
0 
0 
0 
0 
0 
0 
0 
0 
0.3587105253644746 
0 
0 
0 
0 
0 
0 
0 
0 
0 
0 
0 
0 
1.91429103861966 
0 
1.751871633715107 
0 
0 
0 
0 
0 
0 
0 
0 
0 
0 
0 
3.398162755020812 
0 
0 
0 
0 
0 
0 
0.4612511608801217 
0 
0 
0 
0 
0 
0 
0 
0 
0 
0 
0 
0 
0 
0 
0 
0 
0 
1.468314355288194e-13 
0.08010071783855301 
0 
0 
0 
0 
0 
0 
0 
0 
0 
0 
0 
0 
0 
-0.1792321960970647 
0 
0 
1.969981249531012 
0 
0 
0 
0 
0 
0 
0 
0 
0 
0 
-0.7602544593295749 
0 
0 
0 
0 
0 
0.1361534701939796 
0 
0 
0 
0 
0 
0 
0 
0 
0 
0 
0 
0 
0 
0 
1.414524898620555 
0 
0 
0 
0 
0 
0 
0 
0 
0 
0 
0 
0 
0 
3.415719263039595 
0 
0 
0 
0 
0 
0 
-0.1544094778925446 
0 
0 
0 
2.917810481727521 
0 
0 
0 
0 
0 
-2.647214406677624 
0 
0 
0 
0 
0 
0 
0 
0 
0 
0 
2.596216645088327 
0 
0 
0 
0 
-1.952201576454965 
0 
0 
0 
0 
0 
0 
0 
0 
0 
0 
0.1805842136737736 
0 
0 
1.250704992689603 
0 
0 
0 
2.824107303901484 
0 
0 
0 
0.4069170431373898 
0 
0 
-1.30619707375896 
0 
0.2359373769127367 
0 
2.141496194213615 
0.02528325488014337 
1.049649667595414 
1.123887869797507 
-0.8597621740567631 
-1.383782727637193 
0.1918440801171163 
0.08863329121955443 
0 
0 
0 
0 
0 
0 
0 
0 
0 
0 
-1.287912793686045 
0 
0 
0 
0 
0 
0 
0 
-1.64477072795528 
4.875518802029401 
-0.1879447304395194 
-0.7065434429759939 
0 
0.9315247610030742 
0 
0 
0 
0 
0 
0 
0 
0 
0 
0 
0 
0 
0 
0 
0 
0 
0 
0 
0 
0 
0 
0 
0 
0 
0 
0 
0 
-0.9398913942382934 
0 
0 
2.077971681094272 
0 
0 
1.744435160870359 
0 
0 
0 
0 
0 
0 
0 
0 
0 
0 
0 
-0.2665899609491195 
0 
0 
0 
0 
0 
0 
0 
0 
0 
0 
0 
0 
0 
0 
0 
0 
0 
-0.5922692564861097 
0 
0 
0 
0 
0.06745136608182009 
0.1859423953063974 
0 
0.02835683446347783 
0 
0.08708712577433593 
0 
0 
0 
0 
0 
0.003360106163824334 
0.4309217982167292 
-0.7579324865537829 
0 
-0.8133319579444347 
0.548604259780078 
-0.932640116920926 
0.2922030311898993 
0 
0.06275991865745124 
0 
0 
-1.272763537754459 
0 
2.526653182297247 
-1.557413940423668 
0 
0.0788355221450627 
0.1410516726105829 
0.8256873861814102 
0 
0.07114542632245428 
0 
0 
0 
0 
0 
0 
0 
0 
0 
0 
0 
0 
0 
0 
0 
0 
0 
3.592648275913559 
0 
0 
0 
0 
0 
0 
0 
0 
3.481636621588396 
0 
0 
0 
0 
-1.55199274736651 
0 
0 
0 
0 
0 
0 
0 
0.6895728432453586 
0 
0 
0 
0 
0 
0 
0 
0 
0 
0 
0 
0 
0 
0 
0 
0 
0 
0.1835220885442398 
0 
0 
0 
0 
0 
0 
0 
0 
0 
0 
1.366066707489828 
0 
0 
0.3178586357706635 
0 
0 
0 
0 
0 
1.223233645042245 
0 
0 
0 
0 
0 
0 
0 
0 
0 
0 
0 
0 
0.05695558009393046 
0.03928179885910464 
2.015065020103352 
0 
0 
0 
0 
0 
0 
0 
0 
0 
0 
0 
0 
0 
0 
0 
0 
0 
0 
0 
0 
0 
0 
0 
0 
0 
0 
0 
0 
0 
0 
0 
0 
0 
0 
0 
0 
0 
0 
0 
0 
0 
-1.272989686807232 
0 
0 
0.189484504388286 
0 
0.05751833070192781 
0 
0 
0 
0 
0 
0 
0 
0 
0 
0 
0 
0 
0 
-1.333428656394896 
0 
0 
0 
0 
0 
0 
0 
0 
0 
1.917815270705802 
0.6701132770044878 
-0.1235019682308842 
0.4003038813392679 
0 
-0.6442200020086853 
0 
0 
0 
0 
0 
0 
0 
0 
0 
0 
0 
-1.797322990553506 
0 
0 
0 
0 
0 
0 
0 
0 
0 
1.481697183376597 
0 
0 
0 
0 
0 
0 
0 
0 
0 
-1.681301880618409 
-1.677835991320116 
0 
0 
0 
0 
0 
0 
0 
-0.3154699215838474 
0 
0 
0 
0 
0 
0 
0 
0 
0 
0 
0 
1.492339848910234 
0 
0 
0 
0 
0 
0 
0 
0 
0 
0 
-1.949181482319784 
0 
-0.4581483617533398 
0 
0 
0 
0 
0 
0 
0 
0 
0 
0 
0 
0 
0 
0 
0 
0 
0 
0 
0 
0 
0 
0 
0 
0 
0 
0.4155033464922313 
0 
0 
0 
0 
0.3723970688369717 
0 
0 
0 
0 
0 
1.352018379410848 
0.5461866692930243 
1.386294361119891 
0 
0 
0 
-2.270293208039919 
0 
0 
0 
0 
0 
0 
0 
0 
0 
0 
-0.4208906173018042 
0 
0 
0 
0 
0 
0 
0 
0 
0 
1.870928642534543 
0 
0 
0 
0 
-0.9699296129621117 
0 
0 
0 
0 
0 
0 
0 
0 
-1.887376234140023 
0 
0 
0 
0 
0 
0 
0 
0 
0 
0 
0 
0 
0 
0 
0 
0 
0 
0 
0 
0 
0 
-0.7600810946690281 
0 
0 
0 
0 
0 
0 
0 
0 
0 
0 
0 
0 
0 
0 
0 
0 
0 
0 
1.041507569023756 
0 
-1.745420898223101 
0 
0 
0 
0 
0 
-0.4514002427167877 
0 
0 
2.493683027524383 
0 
0 
0 
0 
0 
0 
0 
0 
-1.534545516650516 
0 
0 
0 
0 
0 
0 
0 
0 
0 
-1.12462831660487 
0 
0 
0 
0 
0 
0 
0 
0 
0 
0 
-0.9287589908542666 
0 
0 
0 
0 
0 
0 
0 
0 
-0.4822209952324912 
0 
0 
0 
0.398486702155075 
0 
0 
0 
-0.149674068620595 
0 
0 
-0.04212758002955098 
0 
0 
0 
0 
0 
0 
0 
0 
0 
0 
0 
0 
0 
0 
0 
0 
0 
0 
0 
0 
0 
0 
0 
0 
0 
0 
0 
0 
0 
-1.061694832422655 
0 
0 
0 
0 
0 
0 
0 
0 
0 
0 
0 
0 
0 
0.08280515884211169 
0 
0 
0 
0 
0 
0 
0.4770811121436789 
-1.085455875028123 
0 
0 
0 
0 
0 
0 
0 
0 
0 
0 
0 
0 
0 
0 
0 
0 
0 
0 
0 
0 
0 
0 
0 
-0.3608472311045896 
0 
0 
0 
0 
0 
0 
-0.1514445575083211 
-1.041457346959846 
2.793878716113339 
0 
0 
-1.039959512524906 
0 
0 
0 
0 
1.26210800495045 
0.1624291684100056 
0 
0 
0 
0 
0 
0 
1.450036218183507 
0 
0 
0 
0 
0 
0 
0 
0 
0 
0 
0 
0 
0 
0 
0 
0.9532487434202885 
0 
0 
0 
0 
0 
0 
0 
0 
0 
0 
0 
0 
0 
0 
0 
0 
0 
1.183453884164178 
0 
-0.7479104125911999 
0 
0 
0 
0 
0 
0 
0 
0 
0 
0 
0 
0 
0 
0 
0 
0 
0 
0 
0 
0 
0 
0 
0 
0 
0 
0 
0 
0 
0 
0 
0 
0 
0.9587853946562149 
-1.641424854348335 
0 
0 
0 
0 
0 
0 
0 
0 
0 
0 
1.044629313579909 
0 
1.242680563867937 
0 
0 
0 
0 
0 
-1.368965694017542 
0 
-0.5141675507220195 
0 
0 
0 
0 
0 
0 
0 
0 
0 
0 
0 
0 
0 
0 
0 
0 
0 
0 
0 
0 
-0.8655788691070141 
0 
0 
0 
0 
0 
0 
0 
2.697402924475607 
-0.4948744497174986 
0 
0 
0 
0 
0 
0 
0 
0.1853359476026682 
-1.235989433365956 
0 
0 
0 
-1.474400023789986 
0 
0 
0 
0 
0 
0 
0.7424729017293386 
0 
1.307334627130361 
0 
0.606273422466722 
0 
0.7800209385019952 
0 
0 
0 
0 
0 
0 
0 
0 
0 
0 
0 
0 
0 
0 
0 
0.3462990323613407 
0 
0 
-0.4155625990521936 
0 
0 
0 
0 
0 
0 
0 
0 
0 
0 
0 
0 
0 
0 
0 
0 
0 
0 
0 
0 
0 
-0.8621730628890062 
0 
0 
0.4769596845780722 
0 
1.800030336776753 
0 
0 
0 
1.053893728795393 
0 
0 
0 
0 
0 
0 
0 
0 
0 
0 
0 
0 
0 
0 
0 
0 
0 
2.265325455977194 
0 
0 
0 
0 
0 
0 
0 
0 
0 
0 
0 
0 
0 
0 
0 
0 
0 
0 
0 
0 
0 
0 
0 
0 
0 
3.254938496972457 
0 
0 
0 
0 
0 
0 
0 
0 
0 
0 
0 
0 
0 
0 
0 
0 
0 
0 
0 
0 
0 
0 
0 
0.08846756553684693 
0 
0 
0 
0 
0 
0 
0 
0 
-0.3785881417331846 
0 
0 
0 
0 
0 
0 
0 
0 
0 
0 
0 
0 
0 
0 
0 
0 
0 
0 
0 
0.9207592491316454 
0.0899990150035873 
0 
0 
0 
0 
0 
0 
0 
0 
0 
-0.1744889020354584 
0 
0 
0 
0 
0 
0 
0 
0 
0 
0 
0 
2.428512570392337 
0 
0 
0 
0 
0 
0 
0 
0 
0 
0 
0 
0 
0 
0 
0 
0 
0 
0 
0 
0 
0 
0 
-0.6304367621259449 
0 
0 
0 
0 
0 
0 
0 
0 
-2.239088750947914 
0 
0 
0 
0 
0 
0 
0 
0 
0 
0 
0 
0 
0 
0 
0 
0 
0 
0 
0 
0 
0 
0 
0 
0 
0 
-0.3852575220346787 
0 
-0.8754503073884643 
0 
0 
0 
0 
0 
0 
0 
0 
1.623591249610393 
0 
0 
0 
0 
0 
0 
0 
-1.415312753281664 
0 
0 
0 
0 
0 
0 
0 
0 
0 
-0.03550731198526776 
0 
0 
0 
0 
0.1947076178351597 
0 
0 
0 
0 
1.408846800880168 
0 
0 
0 
0 
0 
0 
0 
0 
0 
0.402930422010053 
1.970236957131964 
0 
0 
0 
0 
0 
0 
0 
0 
0 
0 
0 
0 
0.2801814860726928 
0 
0 
0 
0 
0 
0 
0 
0 
0 
0 
0 
0 
0 
0 
0 
1.087172568311879 
1.339237126573001 
0.03583676027412671 
0.1595998236028137 
0.5469297393796599 
0 
0 
0.1134496886781655 
0.1989917141771992 
0 
-0.9800951766008968 
0 
0 
0 
0 
0 
0 
0 
0 
0 
0 
0.7969998645394543 
0 
0 
0 
0 
0 
0 
0 
0 
0 
0 
0 
0 
0 
0 
-1.346836724049838 
0 
0 
0 
0 
0 
0 
0 
0 
0 
0 
0 
0 
0 
0 
0 
0 
0 
0 
0 
0.3447637689030399 
0.3134402504879861 
0.4129242417384417 
0 
0.4552229525318306 
0.05020979855601304 
0 
0 
-2.067987587992391 
0 
0 
0 
0 
0 
0 
0 
0 
0 
0 
0.2118692046662749 
0 
0 
0 
0 
0 
0 
0 
0 
0 
0 
0 
0 
0 
0 
0 
0 
0 
0 
0 
0 
0 
0 
0 
0 
0 
0 
0 
0 
0 
0 
0 
0 
0 
0 
0 
0 
0 
0 
0 
0 
0 
0 
0 
0 
0 
0 
0 
0 
0 
0 
0 
0 
0 
0 
0 
0 
0 
0 
0 
0 
0 
0 
0 
0 
0 
0 
0 
0 
0 
0 
0 
0 
0 
0 
0 
0 
-0.1796112439745483 
0 
0.4643331700878255 
0 
0 
0 
0 
0 
0 
0 
0 
0 
0 
1.255229129188213 
0 
0 
0 
0 
0 
0 
0 
0 
0 
0 
0 
0 
0 
0 
0 
0 
0 
0 
0 
-0.9272119607931737 
0 
0 
0 
0 
0 
0 
0 
0 
0 
0 
0 
0 
0 
0 
0 
0 
0 
0 
0 
0 
0 
0 
0 
0 
0 
0 
0 
0 
0 
0 
0 
0 
-0.7434749403869684 
0 
0 
0 
0 
0 
0 
0.5013457299694125 
0 
0 
0.3604736857472152 
0.6440421923164458 
0 
-0.1996661837279384 
0 
0 
0 
0 
0 
0 
0 
0 
0 
0 
0 
0 
0 
0 
0 
1.313888578270123 
0 
0 
0 
0 
0 
0 
0 
0 
0 
0 
0 
0 
0 
0 
0 
0 
0 
0 
0 
-0.4397671775209669 
0 
0 
0 
0 
0 
0 
0 
0 
0 
0 
0 
0 
0 
0 
0 
0 
0 
0 
0 
0 
0 
0 
0 
0 
0 
1.919459453218161 
0 
0 
0 
0 
0 
0 
0 
0 
0 
0 
0 
0 
0 
0 
0 
0 
0 
0 
0 
1.72833951049794 
0.6104381706282723 
0.6759770910785982 
0.01143733270471058 
0.6800820753906396 
0 
0 
0 
0 
0 
0 
-0.2140483517358022 
0 
0 
0 
0 
0 
0 
0 
0.6513307739809919 
0 
0 
0 
0 
0 
0 
0 
0 
0 
0 
0 
0 
0 
0 
0 
0 
0 
0 
0 
0 
0 
0 
0 
0 
0 
0 
1.059861876335073 
0 
0 
0.6649170661499986 
0 
0 
0 
0 
0 
0 
0 
0 
0 
0 
0 
0 
0 
0 
0 
0 
1.921038991672287 
0 
0 
0 
0 
0 
-0.5706001992060121 
0 
0 
0 
0 
0 
0 
0 
0 
0 
0 
0 
0 
0 
0 
0 
0.1106342523019654 
0.2244489157275899 
1.802783196507765 
0.0721327463290735 
0 
-0.6600902672848288 
0 
0 
0 
0 
0 
0 
0 
0 
2.682122556900479 
0 
0 
0 
0 
-0.6345223357128129 
0 
0 
0 
0 
0 
0 
0 
0 
0.4333617241304048 
0 
0 
0 
1.206206711106744 
0 
0 
-2.712952866135684 
0 
0 
0 
0 
1.298640792175122 
0 
0 
0 
0 
0 
0 
0 
0 
0 
0 
0 
0 
0 
-0.2310466228865416 
0 
0 
0 
0 
0 
0 
0 
0 
0 
0 
0 
0.3952205050064393 
0 
0 
0 
0 
0 
0 
0 
0 
1.562881046109162 
0 
3.378536774775133 
0 
0.02261813767045774 
0 
0 
0.09741812820170222 
0 
0 
0 
0.02854558814770343 
0 
0 
0 
0 
0 
0 
0 
0 
0 
0 
0 
0 
0 
1.951610053832168 
0 
-1.124454557297158 
0 
0 
0 
0 
0 
0 
0 
0 
0 
0 
0 
0 
-0.8727832116379257 
0 
0 
0 
0 
0 
0 
0 
0 
0 
0 
0 
0 
0 
0.2370629084191544 
0.03282653812130792 
0 
0 
-0.9752432128695774 
0 
0 
0 
0 
0 
0 
0 
0 
0 
0 
0 
0 
0 
0 
0 
0 
0 
0 
0 
0 
0 
0 
0 
0 
0 
0 
0.6198657176403926 
0.93860725119627 
0.2715688555138008 
0.1823541321738952 
0 
0 
0 
0 
0 
0 
0 
0 
0 
0 
0 
0 
0 
0 
0 
0 
0 
0 
1.485065933123299 
0 
0 
0 
0 
0 
2.205399567858597 
0 
0 
0 
0 
0 
0 
0 
0 
0 
0.07682586812958983 
0 
0 
0 
0 
1.164665128335977 
0 
0 
0 
0.05132227371644989 
0 
0 
-2.151149014166201 
0 
0 
0 
0 
0 
0 
0 
0 
0 
0 
0 
0 
0 
-0.002323925959695878 
0 
0 
0 
0.7569802581428933 
0 
0 
0 
0 
0 
0 
0 
0 
0 
0 
0 
0 
0 
0 
0 
0 
0 
0 
0 
0 
0 
0 
0 
0 
0 
0 
0 
0 
0 
0 
0 
0 
0 
0 
0 
0 
0 
0 
0 
0 
0 
0 
0 
0 
0 
1.090692173529795 
0 
0 
0 
0 
0 
0 
1.575206633274181 
0 
0 
0 
0 
0 
0 
0 
0 
0 
0 
-0.7754765451743009 
0 
0 
0 
0 
0 
0 
0 
0 
0 
0 
0 
0 
0 
0.09249685238423302 
0 
0 
0 
0 
0 
0 
0 
0 
0 
0 
0.2906447348523427 
0 
0 
0 
0 
0 
0 
0 
0 
0 
0 
-0.8404220814819374 
0 
0 
0 
0 
0 
0 
0.01945360548533711 
0.1822162148035699 
0.3543204391090427 
0.1662602768401229 
-0.4927325709838398 
-0.9065742777916506 
0.8870210432148939 
0.122265456907339 
0.4163700444140778 
0.9658814269975097 
0.1765224329467481 
0 
0 
0 
0 
0 
0 
-2.755349621457047 
0 
0 
-1.072531472860694 
0 
0 
0.3929212915779921 
0 
-0.9543911506563362 
0 
-0.08803556527365089 
0 
0 
0.04316141737253538 
0.5379139217322919 
0 
0 
0 
0 
0 
0 
-0.04085396014372043 
0 
0 
0 
0 
0 
-0.8178314699967496 
0 
0 
0 
1.832845612144959 
1.944150345282497 
0 
0 
0 
0 
0 
0 
0 
0 
2.027204085644015 
0 
0 
0 
0 
0 
0 
-1.844498202685137 
0 
0 
0 
0 
0 
0 
0 
0 
0 
0 
0 
0 
-0.9743798046580492 
0 
0 
0 
0.7127150016913895 
-1.884758871843597 
0 
0 
0.4311281646961075 
0.5496289239451373 
0.5359253694028162 
-0.7731469117827661 
-0.8275013715399737 
1.051776800266211 
0 
0 
0 
0 
0 
0 
0 
0 
-2.162552613184519 
0 
0 
0 
0 
0 
0 
0 
1.880483640545633 
0 
0 
0 
0 
0 
2.357635673605409 
0 
0 
0 
0 
0 
0 
0 
0 
0 
0 
0 
0 
0 
-0.3394142487804536 
-0.2604894565004647 
0 
0 
0 
0 
0.02814371824523512 
0 
0 
0 
0 
0 
-0.5379639612044906 
0 
0 
0 
2.642506501018508 
0 
0 
0 
0 
0 
0 
0 
0 
-0.8375611108837362 
0 
0 
0 
-0.498961508095731 
0 
0 
0 
0 
0 
0.4692448268061423 
0 
0 
0 
0 
0 
0 
0 
0 
0 
0 
0 
-1.244325888384861 
0 
0 
0 
0.9445334439158263 
1.09710724505323 
0 
0.5098389872743004 
0 
0 
-1.157633732593071 
0 
0 
0 
0 
0 
0 
0 
0 
0 
3.74927649777633 
0 
0 
0 
0 
0 
0 
0 
1.708567807751477 
0 
0 
0 
-0.8318724044168241 
0 
-0.2142234580926513 
-0.4327460793205153 
0 
-0.5625079517277767 
0 
0 
0 
0 
0 
0 
0 
1.353545336630464 
0 
0 
0 
0 
0 
0 
0 
0 
0 
0.2021642158800896 
0 
0 
0 
0 
0 
0 
0 
0.3629376930277884 
0 
0 
-0.2140172209663321 
0 
0 
2.751168124511296 
0 
-1.912748507790973 
-0.9626093590924953 
0 
0 
0 
0 
-0.2914515771850945 
-1.245604749943438 
0 
0 
0 
0 
-0.9275506987064949 
0 
0 
0 
0 
0 
0 
0 
0 
0 
0 
0 
0 
0 
0 
0 
0.8089623416099703 
0 
0 
-3.187513082858151 
0 
0 
0 
0 
0 
0 
-1.156077167184942 
0 
0 
-1.328880099000795 
0 
0.1574759648026215 
0 
0 
1.564833503107769 
0 
0 
0 
0 
0 
0 
0 
0 
0 
0 
0 
0 
0 
0 
0 
0 
0 
0 
0 
0 
0 
0 
0 
0 
0 
0 
0 
0 
0 
0 
0 
0 
0 
-2.507257578350527 
-1.231438114817323 
-0.7429824045485834 
0 
0 
0 
0 
0 
0 
0 
0 
0 
-1.615604722587848 
-0.7911533576568432 
2.363386722678511 
0 
0 
0 
0 
0 
0 
0 
0 
0 
-0.7223030892669077 
-0.4528458181375136 
0 
2.05984982968388 
0 
0 
0 
1.488626490836667 
0 
2.028268227571601 
0 
0 
0 
0 
0 
0 
0 
0.124459035688847 
0 
0 
0 
0 
0 
0 
0 
0 
0 
0 
0 
0 
0 
0 
0 
0 
0 
-0.999263522297321 
0 
1.096767944490485 
0 
0 
0 
0 
0 
0 
0 
-1.650619977614256 
0 
0 
0 
0 
0 
0 
0 
0 
0 
0 
0 
0 
0 
0 
2.374518838083508 
-0.01893421854743279 
0 
0 
0 
0 
0 
0 
0 
0 
0 
0 
1.177958121316821 
0 
0 
0 
0 
0 
3.594818937774312 
0 
0 
0.3961618502591944 
1.221457819093267 
0 
0.707470632424804 
0 
0 
0 
0 
0 
0 
0 
0 
0 
0.03296341649221302 
0 
0 
-0.2366568843847942 
0 
-1.356144370302968 
0 
0 
0 
0 
0 
0 
0 
0 
0 
0 
0 
0 
0.3605393841321375 
0 
0 
0 
-0.2312054653828028 
1.075782007962357 
0 
2.053487471369224 
0 
0 
0 
0 
0 
0 
3.134515028404307 
0 
-1.523960143668021 
0 
0 
0 
0 
-0.9809431454694038 
0 
1.124701275771828 
0 
0 
0 
0 
0 
0 
0 
0 
0 
0 
0 
0 
0 
0 
0 
0 
0 
0 
0 
0 
0 
0 
0 
0 
0 
0 
0 
0 
0 
-1.908407373947916 
0 
0 
0 
0 
0 
0 
0 
0 
0 
0 
1.447091103446094 
0 
0 
-0.3006747737152656 
0 
0 
0 
0 
0 
0 
0 
0 
0 
0 
0 
0 
1.114134498126979 
0 
0 
0 
0 
0 
0 
0 
0 
0 
0 
0 
0 
0 
0 
0 
0 
0 
0 
0.0237375594034868 
0 
0 
0 
0 
0 
0 
0 
0 
0 
0 
0 
0 
0 
0 
0 
-1.969767700966905 
0 
0 
0 
0 
0 
0 
0 
0 
0 
0 
0 
0 
0 
0 
0 
0 
0 
0 
0 
0 
0 
2.716860238620047 
0 
0 
0 
0 
0 
0 
0 
0 
0 
0.2075852161074079 
0 
0 
0.7976297520193192 
0 
0 
0 
0 
0 
0 
0 
0 
0 
0 
0 
0 
0 
-0.6962845168197551 
0 
0 
0 
0 
0 
0 
0 
0 
0 
0 
0 
0 
0 
0 
0 
0 
0 
0 
0 
0 
0 
0 
0 
0 
0 
0 
0 
0 
0 
0 
0 
0 
0 
0 
0 
0 
0 
0 
0 
0 
0 
0 
0 
0 
0 
0 
0 
0 
0 
0 
0 
0 
0 
0 
0 
0 
0 
0 
0 
0 
1.348084479854863 
0 
-1.634435912421367 
0 
0 
0 
0 
0 
0 
0 
0 
0 
0 
-0.5853630173281276 
0 
0 
0 
0 
0 
0 
0 
0 
0 
0 
0 
0 
0 
0 
0 
0 
0 
0 
0 
1.575442409642737 
0 
0 
0 
0 
0 
0 
0 
0.455978472558529 
0 
0 
0 
0.9766998302523588 
-0.05959125270781934 
0 
0 
0 
0 
0 
0 
0 
0 
0 
0 
-0.51428523806542 
-2.912287207760031 
0 
0.04799302877742766 
0 
0 
0 
0 
0 
0 
0 
0 
0 
0 
0 
0 
0.3291870238378711 
0 
0 
0 
-0.5715181041633409 
0 
0 
0 
0 
0 
0 
0 
0 
0 
0.264896648291583 
0 
0 
0 
-1.142412750993941 
0 
0 
0 
0 
0 
0 
0 
0.9905828172866885 
0 
0 
0 
0 
0 
0 
0 
0 
0 
0.2168678593506599 
0 
0 
0 
0 
0 
0 
0 
0 
-0.007554385268996953 
0 
0 
0 
0 
0 
0 
0 
0 
0 
0 
0 
0 
0 
0 
0 
0 
-0.280582499986141 
0 
0 
0 
0 
0 
0 
0 
0 
0 
0 
0 
0 
0 
0 
0 
0 
1.481782463801618 
0 
0 
0 
0 
0 
0 
0 
0 
0 
0 
0 
0 
0 
0 
0 
0 
0 
0 
0 
0 
0 
0 
0 
0 
0.4579096569017381 
0 
3.666028992003996 
-1.683812072099746 
0.1887087904994838 
0 
0 
0.3514727114653322 
0 
0 
-1.298996510649452 
0 
0 
0 
0 
0 
0 
0 
0 
0 
0 
0 
0 
0 
0 
0 
0 
0 
0 
0 
0 
0 
0 
0 
0 
0 
0 
-0.9801012342366994 
0 
0.05162322208681095 
0.01637356497537248 
0.4585210018428384 
0.01037562224318881 
0 
0 
0.2063667045033805 
0.05187318549904549 
0.6041716330474752 
0.06538612126441613 
0 
0 
0 
0 
0 
0 
0 
0 
0 
0 
0 
0 
0 
0 
0 
0 
0 
0 
0 
0 
0 
0 
0 
0 
0 
0 
0 
0 
0 
0 
0 
1.432488035957778 
0.2055611580817598 
-0.2545285782904959 
0 
0 
0 
0 
0 
0 
0 
0 
0 
0 
0 
0 
0 
0 
0 
0 
0 
0 
0 
0 
0 
0 
0 
0 
0 
-0.5880767159356992 
0 
0.1020540649236326 
0 
0 
0 
0 
0 
0 
0 
0 
0 
0 
0 
0 
0 
0 
0 
0 
0 
-1.122518333292365 
0 
0 
0 
0 
1.210859664878907 
0 
0 
0 
0 
0 
0 
0 
0 
0 
0 
0 
0 
0 
0 
0 
0 
0 
0 
0 
0 
0 
0 
0 
0 
0 
0 
0 
0 
0 
0 
0 
0 
0 
0 
0 
0 
0 
0 
0 
0 
0 
0 
0 
-1.486500750356176 
0 
0 
0.4393082107049879 
0 
0 
0 
0 
0 
0 
0.6431131545662626 
0 
0 
0 
0 
0 
0 
0 
0 
0 
0 
0 
0 
0 
0 
0 
0 
0 
0.9271947869275157 
1.510412065565301 
0.3419193984296396 
1.42561336316891 
0 
0.2992509836505227 
0 
-1.052126339477731 
0 
0 
0 
0 
0 
0 
0 
0 
0 
0 
0 
0 
0 
0 
0 
0 
0 
0 
0 
0 
0 
0 
0 
0 
0 
0 
0 
0 
0 
0 
0 
0 
0 
0 
0 
0 
0 
0 
0 
0 
-2.221250401822811 
0 
2.384883895261201 
0.6303304912381262 
0 
0 
0 
0.74391655308864 
0 
0 
0 
0 
0 
0 
0 
0 
0 
0 
0 
0 
0.5635903800258071 
0 
0 
0 
0 
0 
0 
0 
0 
0 
0 
1.969422661073264 
0 
0 
0 
0 
0 
0 
0 
1.886148054431793 
0 
0 
0 
0 
0 
0.4009219514456648 
0 
0.8521141691983045 
0 
0.1521244645764341 
0 
0.05533717211074034 
0.07027780782220641 
1.056216258086884 
0 
0 
0 
0 
1.887835012583044 
0 
0 
0 
0 
3.137821773128267 
0 
0 
0 
0 
0.02226850958091428 
0 
0 
1.480712455444141 
0.01160747644818281 
0 
0 
0 
0 
0 
0 
0 
0 
0 
0 
0 
0 
0 
0 
0 
0 
0 
0 
0 
0.7304693083007429 
-0.4415251257245683 
0.5116899246993984 
0 
0 
0 
0 
0 
0 
0 
0 
0 
0 
0 
0 
0 
0 
1.386294361119891 
0.009362375932433541 
0.1769319849831221 
1.200000000204335 
0 
0 
0 
0 
0 
0 
0 
-1.356219001217612 
0 
0 
0 
0 
0 
0 
0 
0 
0 
0 
0 
0 
0 
0 
0 
0 
0 
0 
0 
0 
0 
0 
0 
0 
0 
0.8729910900369224 
0 
0 
0 
0 
0 
0 
0 
0 
0 
0 
0 
0 
0 
-1.597617198298906 
0 
0 
0 
0 
0 
0 
0 
0 
0 
0 
0 
0 
1.361094153649644 
0 
0 
0 
-1.196539567922551 
0 
0 
0 
0 
0 
0 
0 
0 
0 
0 
0.128721808922581 
2.529938050689768 
0 
1.045355115989574 
0 
0 
0 
0 
0 
0 
0 
0 
1.028653374322773 
0.5609978582409537 
-1.692932898266541 
0.6300033310780891 
2.118652793345209 
-1.336500573521943 
0.2558490308785163 
0.1475366967808761 
0 
0 
0.1302468621019829 
0 
1.386294361119891 
0 
2.489562979385018 
0 
0 
0 
1.386294361119891 
0 
0 
0 
0 
0 
0 
0 
0 
0 
0 
0 
0 
0 
0 
0 
0 
0 
0 
0 
0 
0 
0 
0 
0 
0 
0 
0 
0 
0 
0 
-0.2153246568577874 
0 
0 
0 
0 
0 
0 
0 
0 
0 
0 
0 
0 
0 
0 
0 
0 
0 
0 
0 
0 
0 
0 
0 
0 
0 
0.1863132070920443 
0 
0 
0 
0 
0 
0 
0 
0 
0 
0 
0 
0 
0 
0 
0 
0 
0 
0 
0 
0 
0 
0 
0 
0 
0 
0 
0 
0 
0 
0 
0 
0 
0 
0 
0.2779998778782329 
0 
0 
0 
0 
0 
0 
0 
0 
0 
0 
0 
0 
0 
0 
0 
0 
0 
0 
0 
0 
0 
0 
0 
0 
0 
0 
0 
-1.363321993935039 
0 
0 
0 
0 
0 
0 
0.9335052986292108 
0.2190053707695709 
0.06075562337381574 
0 
0 
0 
0 
0 
0 
0 
0 
0 
0 
0 
0 
0 
0 
0 
0 
0 
0 
1.777584013000366 
0 
0 
0 
0 
0 
0 
0 
0 
0 
0 
0.1415993147368229 
0 
0 
0 
0 
0 
0 
0 
0 
0 
0 
0 
0 
0 
0 
0 
0 
0 
0 
0 
0 
0 
0 
0 
0 
0 
0 
0 
0 
0 
0 
0 
0 
0 
0 
0 
0 
0 
0 
0 
0 
0 
0 
0 
0 
0 
0 
0 
0 
0 
0 
0 
0 
0 
0 
0 
0 
0 
0 
0 
0 
0 
0 
0 
0 
0 
0 
0 
0 
0 
0 
0 
0 
0 
0 
0 
0 
0 
0 
0 
0 
0 
0 
0 
0 
0 
0 
0 
0 
0 
0 
0 
0 
0 
0 
0 
0 
0 
0 
0 
0 
0.5490776635852339 
-0.6999398259595437 
-1.881299767839652 
0.202228380139331 
-0.3669132395392609 
0 
3.806591574075553 
0 
0 
-1.022115272358442 
1.526624714588755 
-0.2553550399515254 
0 
0 
0 
-2.609432704395272 
0 
0 
0.4788595372945026 
0 
0 
0 
0 
0 
0 
0 
0 
0 
-0.3372288338882853 
0.348450961819854 
0 
0 
0 
0 
0 
0 
0 
0 
0 
-1.1529978052619 
0 
0 
0 
0 
0 
2.240409399433533 
0 
0 
0 
0 
0 
0 
0.168364266614256 
0.3495738381721172 
0 
1.61240523306524 
0 
0 
0.8816623867200376 
0 
0 
0 
-0.6098300094776609 
0 
-0.01596051403215757 
0 
0 
0 
0 
0 
0 
0 
0 
0 
0 
0 
0 
0 
0 
0.8221244696639687 
0 
0 
0 
0 
0 
0 
0 
0 
0 
0 
0 
0 
0 
0 
-1.340247551506847 
0 
0 
0 
0 
0 
0 
0 
0 
0 
0 
0 
0 
0 
0 
0 
0 
0 
0 
0 
0 
0 
0 
0 
0 
0 
0 
0 
0 
-0.324572163111115 
0 
0 
0 
0 
0 
0 
0 
0 
0 
0 
0 
0 
0 
0 
0 
0 
1.165945290232955 
0 
0 
0 
0 
0 
0 
0 
0 
0 
0 
0 
0 
0 
0 
0 
1.426188425601883 
0 
0 
0 
0 
0 
0.1373782340821787 
0 
0 
-0.2224234865035131 
0 
-1.255976591429693 
0 
0 
0 
2.346204639057674 
0 
0 
0 
0 
0 
0 
0 
0 
0 
2.157401788238815 
0 
0.5817646659944629 
0 
0 
0 
0 
0 
0 
0 
-2.319814745120829 
0 
0 
0 
0 
0 
0 
0 
0 
0 
0 
0 
0 
0 
0 
0 
0 
0 
0 
0 
0 
0 
0 
0 
0 
0 
-1.877885240632404 
0 
0 
0 
0 
0 
0 
0 
0 
0 
0 
0 
0 
0 
0 
0 
0 
0 
0 
0 
0 
0 
0 
0 
0 
0 
0 
0 
2.311826262910751 
0 
0 
0 
0 
0 
0 
0 
0 
0 
0 
0 
0 
0 
0 
0 
0 
0 
0 
0 
0 
0 
0 
0 
0 
4.24429960712312 
0 
0 
0 
0 
-1.082498504760641 
0 
0 
0 
0 
0 
0 
0 
0 
0 
0 
0 
0 
0 
0 
0 
0 
0 
0 
0 
0 
0 
0 
-2.134985602164603 
0 
0 
0 
0 
0 
0 
0 
0 
0 
0 
0 
0 
0 
0 
0 
0 
0 
0 
0 
0 
0 
0 
0 
0 
0 
0 
0 
0 
0 
0 
0 
0 
0 
0 
0.04486343905644075 
0 
0 
0 
0 
0 
0 
0 
0 
0 
0 
0 
0 
0 
0 
1.975674379259175 
0.9181325584234153 
0.691575248549564 
-1.006661406525587 
0.2931064840375511 
0.3620462159824048 
0 
0 
0 
0 
-0.898793709486956 
0 
0 
0 
0 
0 
0 
0 
0 
0 
0 
0 
-1.617705551671338 
0 
0 
0 
0 
0 
0 
-1.165078456586498 
0 
0 
-1.238984240946786 
0 
0 
0 
0 
0 
0 
0 
0 
0 
0 
-0.4096352119263696 
0 
0 
0 
0 
-1.608742272835284 
0.01902042029608309 
0 
0 
0 
0 
-1.208414488285461 
0 
0 
0 
0 
0 
0 
0 
0 
0 
0 
0 
0 
0 
0.4754523555643212 
0 
0 
0 
0 
0 
-1.570960933873339 
0 
0 
0 
0 
0 
-1.783233167484166 
-1.463020828618577 
0 
-0.9434847396976569 
0 
0 
0 
0 
0 
0 
0 
0 
0 
0 
0 
0 
0 
0 
0 
0 
0 
0 
-0.3392534971289039 
0 
0 
-0.5686615433712914 
0 
0 
0 
0 
0 
0 
0 
-0.2671630929441662 
0 
0 
0 
0 
0 
-0.7567511840748518 
0 
0 
0 
0 
0 
-0.5850502821998863 
0 
0 
-0.7933197070626592 
0 
0 
0 
0 
0 
0 
0 
0 
0 
0 
0 
0 
0 
0 
0 
0 
0 
0 
0 
0.1121606255677442 
0 
0 
0 
0 
0 
0 
0 
0 
0 
0 
0 
0 
0 
0 
0 
0 
0 
0 
0 
0 
0 
0 
0 
0 
0 
0 
0 
0 
0 
0 
0 
0 
0 
0 
0 
0 
0 
0 
0 
0 
0 
0 
0 
0 
0 
1.64814731106387 
0 
0 
0 
0 
0 
0 
0 
0 
0 
0 
0 
-0.2989962933314779 
0 
0 
0 
0 
0 
0 
0 
0 
0 
0 
0 
0 
0 
0 
-0.594843403011624 
0 
0 
0 
0 
0 
0 
0 
0 
0 
0 
0 
0 
0 
0 
0 
0 
0 
0 
0 
0 
0 
0 
0 
0 
0 
0 
0 
0 
0 
-0.769193601578022 
0 
0 
0 
0 
0 
0 
0 
0 
0 
0 
0 
0 
-1.681816067776222 
0 
0 
0 
0 
0.511781808461222 
0 
0 
0 
0 
0 
0 
0 
0 
0 
0 
0 
-0.2473023285589028 
0 
0 
0 
0 
0 
0 
0 
0 
0 
0 
0 
0 
0 
0.1688507859531184 
0 
0 
0 
0 
0.6496483998947609 
0 
0 
0 
0 
0 
0 
0 
0 
0 
0 
0 
0 
0 
0 
0 
0 
0 
0 
0 
0 
0 
0 
0 
0 
-0.2480322164191504 
0 
0 
0 
0 
0 
5.465714016501864 
0 
0 
0 
0 
0 
0 
0 
0 
0 
0 
0 
0 
0 
0 
0 
-0.3205746302658349 
0 
-1.807233594709664 
0 
0 
0 
0 
0 
-2.025369441784129 
0 
0 
0 
0 
0 
0 
0 
0 
0 
0 
0 
0 
0 
0 
1.194688104189919 
0 
0 
0 
0 
1.684431856902168 
0 
0 
-1.252790655353214 
0 
0 
0 
0 
-1.853121851929568 
0 
0 
4.15515865391249 
0 
0 
0 
0 
0 
0 
-1.478634100281601 
0 
0 
0 
0 
0.2389813139126838 
0 
0 
0 
0 
1.793525242224164 
0.9278944665144251 
0 
0 
0 
0 
0 
0 
0 
5.848082058917485 
1.137382275243584 
0 
0 
0 
0 
0 
0 
0 
0 
0 
0 
-0.6215502152877945 
0 
0 
0 
0 
0 
-0.4171485960766779 
0 
0 
0 
0 
0.3195241303355353 
0 
0 
0 
0 
0 
0.004546589218683742 
0.9049438719275198 
5.156316868332051 
0 
0 
0 
0 
0.7270748353560309 
0 
0 
0 
0 
0 
0 
0 
0 
0 
0 
0 
0 
0 
0 
0 
0 
0 
0 
0 
0 
0 
0 
0 
0 
0 
0 
0 
0 
0 
0 
0 
-1.254192036293521 
0 
0 
0 
2.113896300504751 
0 
0 
0 
-0.03509908769979469 
0 
-2.281421341462017 
0 
-0.6565894671912471 
0 
0 
0 
0 
0 
0 
0 
0 
0 
0 
0 
0 
-0.7840525630174014 
0 
0 
0 
0 
0 
0 
0 
0 
0 
0 
0.6507067414267865 
0 
2.493683882019583 
0 
-1.622424556128309 
0 
0.3127578545049378 
0 
0 
0 
0 
0 
0 
0 
-0.8941561893337215 
0 
0 
0 
0 
1.086834571709743 
0 
0 
0 
0 
0 
0 
0 
0 
0 
0 
0 
0 
0.002956439234339798 
0.5385024373718909 
0.9367174887454008 
0 
0 
0 
0 
0.7251389895834612 
0 
0 
0 
-2.135871594229031 
0 
0 
0 
0 
0 
0 
0 
0 
0 
0 
0 
0 
1.196294871564186 
0 
1.652038592350982 
0.4985617752332192 
2.531815860105326 
0 
1.006793428661986 
0 
0 
0.06273283720892985 
0 
0 
0 
0 
-1.683210971916479 
0 
0 
0 
0 
1.649514861538504 
0 
0 
0 
0 
0 
0.2524748552024443 
0 
0 
0 
0 
0 
0 
0 
0 
0 
0 
2.276492097656877 
0 
0 
0 
0 
1.998043754827048 
0 
0 
0 
0 
0 
0 
0 
0 
0 
0 
0 
0 
0 
0 
0 
0 
0.9577238046089873 
0 
0 
0 
0 
0 
0 
0 
0 
0 
0 
0 
1.914694350884942 
0 
0 
0 
0 
0 
0 
0 
0 
0 
0 
0 
0 
0 
0 
0 
0 
0 
0 
0 
0.2117699114300076 
0 
0 
0 
0 
0 
0 
0 
0.5518281598436571 
0 
0 
0 
0 
0 
0 
0 
0 
0 
0 
0 
0 
0 
0 
0 
0 
0 
0 
0 
0 
0 
0 
0 
0 
1.025398146961845 
1.407979666106673 
0 
4.196272793585491 
0 
0 
0 
0 
0 
0 
0 
0 
0 
0 
0 
0 
0 
0 
0 
0 
0.582016634207264 
0 
0 
0 
0 
0.5480099554236469 
0 
0.3390583635948986 
-1.738918129363199 
0 
0 
0 
0 
0 
0 
0 
0 
0 
0 
0 
0 
0 
1.702112364977762 
0 
0 
0 
0 
0 
0 
0 
-0.9828243607914691 
0 
0 
0 
0 
0 
0 
0 
-1.694076039762224 
0 
0 
0 
0 
0 
0 
-1.700569811257915 
0 
0 
0 
0 
0 
0 
0 
0 
0 
0 
0 
0 
0.3786468750861431 
0 
0 
0 
2.137018808146784 
-0.6677649674438332 
0 
0 
-1.258977208999398 
0 
0 
0 
0 
0 
0 
0 
0 
0 
0 
0 
0 
0 
0 
0 
0 
0 
0 
0 
0 
0 
0 
0 
0 
0.2362818640196651 
0 
0 
0 
0.6872869738708586 
0 
0 
0 
0 
0 
1.901638392096383 
0 
0 
0 
0 
0 
0 
0 
0 
0 
0 
0 
0 
0 
0 
0 
0 
-3.158000507486695 
0 
0 
0 
0 
0 
0 
0 
0 
0 
0 
0 
0 
0 
0 
0 
0 
0 
0 
0 
0 
-0.04668385228021352 
0 
0 
0 
0 
0 
0 
0 
0 
0 
0 
0 
0 
0 
0 
0 
0 
0 
0 
1.856754550012278 
0 
0 
0 
0 
0 
0 
0 
0 
0 
-2.835202498557548 
0 
0 
0 
0 
0 
0 
0 
0 
0 
0 
0 
0 
0 
0 
0 
0 
0 
0 
0 
0 
0 
0 
0 
0 
0 
0 
0 
0 
0 
0 
0 
0 
0 
0 
0 
0 
3.927236509794618 
0 
0 
0 
0 
0 
0 
0 
0 
0 
0 
0 
0 
0 
-2.183189949213359 
6.013018252187605 
0 
0 
0 
0 
0 
0 
0 
0 
0 
0 
0 
0 
0 
0 
0 
0 
0 
0 
0 
0 
0 
0 
0 
0 
0 
0 
0 
0 
0 
0 
0 
0 
0 
0 
-2.186394916199306 
0 
0 
0 
0 
0 
0 
0 
0 
0 
0.1336947407838266 
0 
0 
0 
0 
0 
0 
0 
-1.517629222451673 
-1.208934220090541 
0 
0 
0 
0 
0 
0 
0 
0 
0 
0 
0 
0 
0 
0 
0 
0 
0 
0 
0 
0 
0 
0 
0 
0 
0 
0 
0 
0 
0 
0 
0 
0 
0 
0 
0 
-0.9626760617882827 
0 
0 
0 
0 
0 
0 
0 
0 
0 
0 
0 
0 
0 
0 
0 
0 
0 
0 
0 
0 
0 
0.3192562607818846 
4.404023835181064 
0 
0 
0 
3.493620697816024 
0 
0 
0 
0 
0 
0 
0 
0 
0 
4.550537742331014 
0 
0 
0 
0 
1.669546973960797 
0 
1.213551330643418 
0 
0 
0 
0 
0 
0 
0 
0 
-0.8620565493610394 
0 
0 
0 
0 
0 
0 
0 
0 
0 
0.02901150643357417 
0 
0 
0 
0 
0 
0 
0 
0 
0 
0 
-1.14241541181733 
0 
0 
0 
0 
0 
0 
0 
0 
0 
0 
0 
0 
0 
0 
0 
0 
0 
0 
0 
0 
0 
0 
0 
3.699998421986698 
0 
0 
0 
0 
0 
0 
-1.225369751491025 
0 
0.9006942937958848 
4.173226695467481 
0 
0 
0 
0 
0 
0 
0 
2.520625877692199 
0 
0 
0 
0 
0 
0 
0 
1.273345805809784 
0 
0 
0 
0.2107938620164832 
1.849057818266495 
0.7894896061806103 
0 
0 
0 
0 
0 
0 
0 
0 
1.239147631768148 
0 
0 
