solver_type L1R_LR
nr_class 2
label -1 4
nr_feature 531742
bias -1
w
1.126051934218103 
0.7096174188623454 
0 
0.4189648936647241 
0.7375065183994594 
0 
0 
0 
0.228799551917453 
2.934714611439881 
0 
0 
0 
0 
-0.0008797288258795261 
0 
0 
0 
0 
1.300950060627155 
0 
2.717287274291254 
0.7524181000867896 
0 
0 
0.4413731503243797 
0 
0 
0 
0 
0.5543436605880284 
1.410192875052768 
0 
0 
0 
0.1404574554807533 
0.873818226742668 
0.9187678750018475 
0 
0 
0 
0 
0 
0 
1.717432241353262 
1.465207829882077 
0.3324350340881204 
0 
0 
0.2718651601228047 
0 
0.3935467813982474 
0 
0 
0 
1.675050798077801 
0 
0 
-1.030921778405671 
0 
-0.4800315228757842 
0.7150950412497269 
1.037651941379943 
0.195076972059659 
0 
0 
0.5395816707733754 
0 
0 
1.312001159827873 
0 
0 
1.84571067174293 
0 
0 
0 
0 
0.5991505727749902 
0.2410044935816379 
0 
-0.08905364547285731 
0 
0 
0 
0 
1.837000366710665 
0 
0 
0 
0 
1.301240300898848 
0.931970860918756 
0 
0 
0 
0 
2.090685015230835 
0 
3.044173923298042 
0 
1.012135266422485 
0 
0 
0 
2.945757139066201 
-0.0196174256792301 
0 
0 
-0.2084399567767111 
0.3935141170901277 
0.8391088783074959 
0 
0 
2.096273582384116 
1.484982309035794 
0 
2.303056407981537 
0.784156074416022 
1.073515548532663 
1.047659925922187 
0 
0 
0.3666023931689389 
0 
0 
0 
0 
0 
0 
0.309877025821257 
-0.6156668395549303 
0 
0 
0.7955408661126829 
0 
1.740318302757933 
0 
-0.1707377803964613 
0 
-0.07003620077741059 
1.776796790663411 
0.04677321083889984 
0.3944257989411039 
0 
0.1869145297182391 
0 
0 
0 
1.293387375295146 
0 
1.78423307304046 
0.4099612828951958 
0.1221972757377613 
0 
2.076082255761728 
0 
1.86808075573969 
0 
0 
0 
0.3627264800320954 
1.210259712478284 
1.126326777116592 
1.220098728135256 
0.2024508498310215 
0 
0 
0 
0 
2.407801181277262 
2.28704345623287 
0 
0.4120073550318151 
0 
1.525250291942327 
2.619796235998217 
0 
0 
0 
0 
0 
0 
0.7954686897480225 
0.9042377844747113 
0.6405280975326646 
1.271746094414479 
0 
3.464326932440106 
-1.039883784140036 
0 
0 
0 
0.208385366940352 
0 
0 
1.788548473558629 
0.8666030220470023 
1.480054390804666 
0 
0 
0.5014739170972873 
-0.3561261323225718 
0 
0.6144322461474313 
0 
-0.1756255255058664 
0.3297213431316334 
0 
0 
0 
0 
0 
0 
0 
0 
0 
0.7066034934637299 
0 
0 
0 
0 
0 
0 
0.6009643002030212 
-0.3181193974746394 
0 
0.3699873411091224 
1.765137381986528 
0 
0 
0.3850292640026887 
0 
0.1394422050468704 
0 
1.375752762802756 
-0.4275153837163224 
0 
0 
1.592905735598363 
1.265172369643198 
0 
0 
0 
0.7420965543877298 
0.0002580980811369719 
0 
0 
0 
0 
0 
0 
0.5140441272485233 
2.057530752021687 
1.565837708844086 
0 
1.327315152460843 
0.2992180259121462 
1.533855271958377 
0.3228359946665177 
0 
0 
0 
0 
0 
1.134042236907929 
0 
0 
0.3487133719249897 
0 
0 
0 
0 
0 
0.7635024842303942 
0 
0 
0 
1.281701115209418 
3.043273635623645 
1.060571768337575 
0 
0 
1.26432798500172 
0 
0 
0 
0.8870939870038635 
0 
0.8059969678363649 
1.617101165127343 
0 
0 
0 
0.005997129757536929 
-0.2953635032979301 
0 
0 
0.6566007270114164 
0 
0 
0 
0 
-0.3587446111035292 
1.106237335398716 
0 
0 
0.5333029822389515 
0 
0 
1.188074032989841 
0 
0 
1.439869429324849 
0 
0 
1.250356131303163 
0 
0 
0 
0.6771281064262872 
0 
0 
0 
0 
0 
0 
0 
0 
0 
0 
0.8554079951683586 
0 
0.6697512714593449 
1.658372962026999 
0 
0.7723536605211669 
0 
0 
0 
0 
0 
0.4106339967929548 
0 
0 
1.017022044708426 
0 
0.8835410728757364 
0 
0 
0 
1.261991973056491 
0.7384801650248046 
0.7702456891522452 
0 
0 
0 
0 
0 
0 
0.4834366392962609 
0 
0 
0 
0.001204937166600076 
0 
0 
0 
0 
0.5404909673357977 
0.4234297383603516 
0 
1.372214483528259 
0 
0 
0 
0 
0 
0 
0 
0.7843783786474423 
0 
0.8591545442960308 
0 
0 
0 
0 
0 
1.288613173527611 
0 
1.404364138245927 
0 
0 
1.178726278251702 
0.08162341380410658 
-0.1479930553788998 
0 
1.090378304168326 
2.239518986961717 
0 
0 
3.478596742848662 
0 
0 
0 
0 
0 
3.746688588427131 
0 
-0.6629693638501007 
1.400207983494143 
0 
0 
0 
-0.143714336086666 
0 
0 
0.6886334332275263 
0.3672255006533987 
0.6218910809458498 
0.3280456471798394 
0 
0 
0 
0 
3.127833192984685 
2.000978240436904 
0 
0 
0 
1.008327809051306 
0 
0.8103918816956717 
-0.07539842510969876 
0 
1.395322206165506 
-0.4692024738747488 
0.2911493280817537 
0 
1.716425301601036 
0 
0 
0 
0 
0.2560975757694205 
-0.4767872664204393 
0 
0 
0 
0 
0 
0 
1.473736556812908 
0 
0 
0 
0.6950781428531349 
1.925656255725427 
0 
-0.2329816089332131 
0 
1.054449746764598 
0 
0 
0.4006565686095995 
0 
0 
0 
1.239465776652465 
0 
0.51362451554752 
0 
0.8809041913992284 
0 
0 
0.8902872826704894 
0 
0 
0.4455298807615157 
0 
1.26323329818908 
0 
0.2437774034300942 
0.09095789639377592 
0 
2.664478058397223 
0 
0.5360002325432544 
0 
0 
0.8648419205021318 
0 
0 
0 
0 
0 
0 
1.113092575880761 
0.6618586617433421 
0 
2.562090558780768 
0.9715634053642218 
1.202555959873862 
0 
0 
0 
0.3151926703854856 
-1.591064693506176 
0 
0 
0 
1.354130884617375 
0 
3.360752204377255 
0 
0 
0 
0 
0 
0 
0.5017780113511948 
0 
2.830852404708556 
0 
1.353650520056397 
0 
0 
1.04355385581938 
0.7277873254228416 
0 
0 
0.4992006553690057 
0.5772912064735209 
0 
0 
0 
0 
0 
1.49469012175104 
0 
2.284228860041138 
0 
0 
0 
0 
0 
0 
0 
0 
0 
0 
0 
0 
1.597189024524835 
0 
0 
-0.436668390266357 
1.766874674489399 
0 
0 
0 
0 
0 
0 
0 
0.9772876243414376 
0 
0 
0 
0 
2.605724351418908 
0 
0 
0 
0 
0 
0 
2.320755216150681 
0 
0.6866432914614879 
0.2632229988623988 
0 
0.6544219842901985 
0 
2.593516283692419 
0 
0 
0 
0 
0 
0 
0.5910428785979834 
0 
0 
0 
0 
0.8108052439128217 
0 
0 
0 
1.891455649898557 
0 
0.000565612316561195 
0 
0 
0 
0 
0 
-0.2556954817069422 
0 
0.7601613810323861 
0.5373173683693953 
0 
0 
0 
3.180575894061641 
0 
0 
0 
0 
0 
0 
0 
0 
-0.2449262626167734 
0 
0 
0 
0.9782284479608132 
0 
0.291700406029866 
0.5763812082329859 
-0.1352602202803085 
0 
0.5192478484236058 
1.917920584115383 
2.538898175626374 
0 
0 
0.637197696894668 
1.939070503420759 
0 
0 
0 
0 
0 
0 
0 
0 
1.861743611881245 
0.7637874572444364 
0 
0 
0 
0 
0 
0.4488961083844055 
0 
0 
0 
0 
0 
2.668212205578493 
0 
1.001433528933856 
0 
0.864940714703583 
0 
0.9551929740858218 
0 
0 
0 
1.295037590612706 
1.295418410639878 
0 
0 
0.7462654215415621 
0 
-1.468006439171444 
0 
0 
0 
0.613480763027045 
1.811731952311083 
0 
1.777994833011116 
0 
0 
0.5996368010508503 
0 
0 
0 
0 
-0.7108021205048524 
0 
1.997190057216085 
1.641737806908657 
0 
0 
0 
1.386294361119891 
0 
0 
0 
-0.9716142999242028 
0 
0 
0 
0 
0 
0.635696679988539 
0 
0 
0 
0 
0.9444301710404397 
0 
0 
0.347270321355321 
0 
0 
2.729230001637151 
0 
0 
0 
0 
0 
0 
0 
1.952296006933653 
0.3224686841246753 
0 
0 
0 
0 
1.049963123994794 
0.5029571139662838 
0 
0 
0 
0 
0 
0 
0 
0 
0.9809722938408967 
0 
2.204842099060907 
2.067386876944008 
0 
0 
0 
0 
0 
0 
0 
0.3985322958492815 
0.09611121360580727 
0 
0 
1.350580009050413 
0 
0 
0 
-0.9342526167149785 
0 
0 
0 
-0.327667622931102 
1.10766712263994 
0 
0 
0 
0 
0 
0 
0 
0.06402868410912156 
0.658388181280969 
0.1113769773896809 
0 
0 
0 
0.175750160886191 
0 
0.07799362561295735 
0 
0.2483498497051427 
0 
0.2885559731409585 
0 
0.4346476396881107 
1.206876054473279 
0 
1.685356825217712 
0.2766898531503866 
0 
0 
0 
0 
0 
0 
0 
0 
0 
1.143181878364768 
0 
3.885644249949759 
0 
0 
0 
-0.2271918379227782 
0 
0 
0 
0 
0.8799734946189296 
0 
0 
0 
0 
0.3015036465282098 
0 
0 
0 
0 
0.6718137522824609 
0 
0 
0 
0 
0 
0 
0 
0 
-0.6713463094309213 
0 
1.579184687069413 
0 
0.5295175028850803 
0 
0.4248235448991756 
0.302164289009356 
0.1854273511317098 
0 
0 
0 
0 
0.7524203339031384 
0 
0.08413838818194766 
0 
0 
0.7681155131941196 
0 
0 
0 
0 
0 
0.9914153000219803 
0 
0 
0 
0 
0 
0 
0 
0 
0 
0 
0 
0 
0 
0 
1.588885308007307 
0 
0 
0.6133263686301095 
0 
0.2861423900624035 
0 
0 
0 
0.7761700694849718 
0 
0 
0 
0 
0 
2.147367718039105 
1.00351465730507 
0 
0 
1.957964603308983 
1.028960505967609 
0 
0 
0 
0.4407261143414213 
0 
0 
0.9005909290585813 
2.144005558793995 
0 
0 
0 
0 
0 
2.778256691045722 
0.909714806080606 
0 
0.9371981463044256 
0 
0 
0 
0 
0 
0 
0 
0 
0 
1.38890222431292 
0 
0.2468453124556259 
0.5092091820329006 
0 
0 
0 
0 
0 
0 
0 
0 
0 
0 
1.851314519471173 
2.300640204159876 
0 
0.03107360844361609 
0 
0 
1.948060235372941 
0.6826777552890424 
0.5767524545097604 
0 
0 
0 
0 
0.8105816839685435 
0.1690698830414289 
0 
-0.4274388634603546 
0 
0 
1.304269744363263 
0 
0 
0 
0 
1.307866243107853 
1.049248722129171 
0 
0 
0 
0 
0 
0 
0 
-0.482117135823623 
0 
0 
0 
0 
0 
1.753288858848361 
0 
0 
0 
0 
-0.4175168539793587 
0.09609956192736641 
-0.3264128160347407 
1.547079123598757 
0 
0 
0 
0 
0 
0.4144404253158446 
0 
0 
-3.296354186192822 
0 
0 
0.8577914864481978 
0 
0.6023757910736247 
0 
0 
0.2161580941111645 
0 
0 
0 
0 
0 
0 
0 
2.183720146316294 
0 
0.5043949632567054 
0 
3.545327229191899 
0 
0 
0 
0 
0 
1.713537833601083 
0.3709244457777225 
0 
0 
1.462348329766979 
2.012724525607981 
1.082616713040442 
0 
0 
0.1925498697858289 
0 
-0.1314674091950407 
0 
0.1871122156728798 
0 
0 
0 
0 
1.240993903920019 
0 
0 
0 
0 
0 
0 
1.159261151451568 
1.274216300116011 
0 
0 
-0.5773898111386931 
0 
0 
0 
0 
0 
0 
2.531721647002677 
0 
0 
0 
-0.0758614460206853 
0 
-1.485634440642023 
0 
0 
0 
0 
0 
1.686312718515716 
0.3157800512059688 
0 
0 
0 
0 
0 
0 
0 
0 
0 
0 
1.092871606588009 
0 
0 
0 
0.06749121721332985 
2.648635438082874 
0 
1.044489032712307 
0 
1.179792615028825 
0.2100342077191975 
2.551083925454879 
0 
0 
0 
1.460936996221757 
0 
0 
2.819759440615644 
0.5069498373318473 
0 
0 
0 
0 
0 
-0.6758835378464307 
0 
0 
0.5878361660058228 
0 
0 
0 
0 
1.044310739334964 
0 
0 
-0.001934117013228983 
1.654621309183612 
1.389232866252338 
0 
0 
0 
1.730611882862322 
0.5511430127018015 
-0.1616622382152513 
0 
0 
0 
0 
0 
-0.7893555878222358 
0 
0 
0 
0 
0 
0 
0 
0.6240456647527638 
0 
0 
0 
0 
0.7666310927119611 
0.01702697007526189 
0 
0 
0 
0 
0 
0 
0 
0 
0.1869592749777428 
0.4114429279260539 
1.091886466958314 
0 
0 
1.799778642143073 
0 
0 
0 
0 
0 
0 
0 
-2.412529200673021 
0 
0.01940367048285306 
0.3695105607392946 
1.16683789473671 
0 
-0.1007329847339435 
0 
0.3680077833974051 
0 
0 
0 
0 
0 
0 
0 
0 
0 
0 
0 
0 
0 
0 
0 
0 
0 
0 
0 
0 
0 
0.2309796601734904 
0 
0 
0 
2.276692369849382 
0 
0 
4.013357294903907 
2.151188799225532 
0 
0 
0 
0 
0 
1.416551537879573 
0 
1.391456323878088 
0 
0 
0.1078796580537073 
0 
0 
0.8698762391776333 
0 
0 
0 
-0.2797259378041323 
0.03568332399815482 
0 
0 
1.415427094978942 
0 
-0.5205997736662306 
0 
0 
0 
0 
2.480117410950151 
0 
0 
0 
-0.8822053426377235 
0 
0 
2.355605806079734 
0 
0 
0 
0 
0 
0 
0.9263273393792397 
2.7325334981873 
0 
0 
0 
0 
0 
0 
0 
0 
0 
2.046096766485519 
0 
0.3732320022894511 
0 
0 
0 
0 
0.3566713161965356 
0.9006405824303175 
0 
0.4993203453475939 
0 
0 
0 
0 
0.03179966561046729 
0 
0 
0 
0 
0 
0 
0.5305130539449929 
0.3064119277716243 
0 
0 
0 
0 
0 
0 
0 
0 
0.4468351849679416 
0 
0 
-0.313011917146392 
0.2294751968844937 
0.3363243816470466 
1.72818061553174 
0 
0 
-1.911923831773203 
0.9429072393699116 
0.6494732835325328 
0 
0 
0.6261113203666886 
0 
0 
0 
0 
1.202830165798134 
0 
0.867700674633199 
0 
0 
0 
0 
0 
1.097282274007599 
0 
0 
0.03703987953033937 
0.6860733104792859 
0 
0 
0.2020186222510606 
0 
0.8213642120113692 
0 
1.358413023065356 
0 
0.5589992462060953 
0 
0 
0 
0 
0 
-0.6493626577713929 
0 
0 
0 
1.775629754301748 
0.6039383566033621 
-0.9876505067987226 
0.7242800747340046 
0 
0 
0 
0.1879790203106424 
0 
0.3236239976309995 
0 
0 
0 
0.6861972988452432 
0 
0 
0 
0 
0 
0 
1.375421303526959 
0 
0 
0 
0 
0 
0 
0 
0 
1.585229254225877 
1.129706938571332 
0 
0 
0 
0 
0 
2.550897543061322 
0.9738057400470925 
0 
0.6137048209479069 
0 
0 
0 
0.8232356159271667 
1.956880844728449 
2.599480073938532 
0 
0 
0 
0 
0 
0 
0 
0 
0 
0 
0 
0 
0.2538887447781168 
1.881331031120806 
0 
0 
0 
1.278103920061376 
0 
0 
0 
0 
2.084658055812107 
0 
0 
2.392516886940768 
0 
0 
0 
0 
0 
1.068720243025065 
0 
2.087685157385182 
0 
0 
1.512165709960899 
0 
0 
0 
0.1506989622717188 
0.5500737808579437 
0 
0 
2.276049630391842 
0 
0 
0 
0.2852602336632205 
0 
3.820350966982005 
0 
2.036490619025204 
0 
0 
0 
0 
1.34777098897532 
0 
0 
0 
1.0566845963059 
1.298595894100796 
0.3580592143178032 
1.628431497279269 
0 
0 
0 
0 
0 
0 
0 
0 
0.2255313449553581 
-0.8221792468227994 
1.447261685925995 
0 
0.07031098197525908 
0 
0.02810397599872001 
0 
0 
0 
0 
0 
0 
0 
0 
0 
0 
-0.2444704881355344 
0 
0 
0 
0 
0.5248661401455238 
0.4767222697472635 
0 
0.3546831262200978 
0 
-0.06222273971188908 
1.782228573799548 
0 
0 
0 
0 
0 
0 
0 
0 
0.5686920543932795 
0 
0 
0.5442974068302221 
0 
0 
0 
0 
1.061994742233236 
0 
0 
0 
0 
0.3736888433587024 
0 
0 
0 
0 
0 
0 
0 
0 
0 
0 
0 
0 
-0.8003016976917456 
0 
0 
-0.2897362323017395 
0 
0 
0 
0 
0 
0.0309429892596261 
0 
0 
0 
-0.5064471370492839 
0 
0 
0 
0 
1.745268188232324 
0 
0 
0 
0 
0 
0 
0 
0 
0 
0 
0 
0 
0 
1.166562511337379 
0 
1.026661841781596 
0.2652493270241522 
0.7738844928297347 
0.5855178208806838 
0 
0 
0.5823011835285271 
0 
0 
0 
0 
0.4489394357186876 
0 
1.6576581018236 
0 
0 
0 
0 
0 
0 
0 
0 
0 
0.1482095875893953 
0 
0 
0 
0 
0 
0 
0.7602830365175495 
0.6288970252217894 
0 
0 
1.900890381242947 
-0.09024317556814083 
0 
0.1880949575400648 
0 
0 
0 
0 
0 
0 
0 
0.8128433880769017 
0 
0 
0 
0 
0 
0 
0 
0 
0.2387279678510292 
0 
0 
1.778096519357473 
0.03960231022572906 
0.7076969023311493 
0 
0 
1.229068844144613 
0 
0 
0 
0 
0 
0 
0 
0 
0 
0 
-0.6983320034030168 
0 
0 
1.64062099014562 
0 
0 
0 
0 
0.6534879764052972 
0 
0 
0 
0.5352430580241615 
0 
2.133161836703815 
-0.05926650836499621 
0 
0 
0 
-1.401077750562412 
-0.004000717519505911 
0 
0 
0 
0.7950061605996689 
0 
0 
0 
-0.33558032117446 
0 
0 
0 
0 
0 
0.3853756423792083 
0 
0 
0.1744440721761598 
0 
0 
0 
0 
2.676187048796057 
0 
1.127985632659199 
0.6185258810024249 
0 
1.35742507979063 
0 
0 
0.5219270638119977 
0 
0 
0 
0 
0 
-0.007441499946041402 
0 
0 
0 
0.6410908769873024 
0 
0 
-1.061514588473296 
0 
0 
0 
0 
0 
0 
0 
0 
0 
0 
0 
0 
0 
0.6452736356105072 
0 
0.9448699293716204 
0 
0 
0 
0 
0 
0 
0 
0.7271560666059332 
2.225523331594813 
0 
0 
0 
0 
0.7573755582568288 
0 
0 
0 
0 
0 
0 
0 
0 
0 
2.776260305652067 
3.745874554755287 
0 
0 
0 
0 
0.05956248879467874 
2.006822307389954 
1.013834945063964 
0 
0 
0 
0 
0 
0 
0.4705655091563697 
0 
0 
0 
0 
0 
0 
0 
1.942123288777496 
0.9540742095096351 
0 
0 
0 
0 
0 
0 
0 
0 
0 
0 
0 
0 
1.274716838808154 
1.262181038623755 
1.086402359129292 
0 
0 
0 
0 
0 
0 
0.319256923409752 
0 
1.749450657675271 
0 
0 
0 
0 
0 
0 
0 
0.1350712873195437 
0 
0 
1.725472892391617 
1.777881390029217 
-0.2911147698489228 
0 
0.4090256092809263 
0 
0 
0 
2.495587241281109 
-2.214711072145438 
0 
0 
1.293053659748712 
0 
0 
0.8572214009629735 
0.5803968078232824 
0 
0 
-0.0007249484727132167 
0 
0 
2.831778830946139 
0 
0 
0.2651721613095477 
1.126825337697424 
0 
0 
0 
1.31321992373771 
0 
0 
0.4628195691945171 
1.324360898202068 
3.480936513868938 
0 
1.09109993759037 
0 
3.533346987634283 
0 
0 
0 
0 
0 
0 
0 
0 
0 
0 
0 
0.2506209623812611 
-0.0561783923980742 
0 
0 
0 
0 
0 
0 
0 
0 
0.8093986926028721 
0 
0 
1.010681866126817 
0 
-0.1022551296541252 
0 
0 
0 
0 
0 
0 
0 
0.7414404084136097 
0 
0 
0 
0 
0 
0 
2.042856084755841 
0.9482389832564641 
0 
0 
0 
0 
0 
0 
0.2786782871122073 
0 
0 
0 
-0.2332711907549169 
0 
0.1123419210666303 
0.5971834081639809 
0 
0 
0 
0 
0 
0 
0 
0.276762089667618 
0 
0 
1.5802419827628 
0 
0 
0 
0 
-7.783197834721418e-05 
1.187751806494166 
0 
0 
0 
0.1048698981989821 
0 
0 
0 
0 
0 
0 
0 
0 
0.5806755352607574 
0 
0 
0.6499770114307059 
0.963293408122834 
0 
1.347507017914611 
-0.3010593437372995 
0.5684166305905981 
0 
0 
0 
0 
0 
0 
0 
0 
0 
0 
0 
0 
2.407797087334945 
0 
0 
0 
0 
0 
0 
0 
0 
-0.3747600154487353 
0 
-0.8213184950241578 
0 
0 
0 
2.188389589791281 
0 
0 
0 
0 
0 
0 
0 
0 
0.6660105493476082 
0 
0 
-0.6857164142710093 
0 
0 
0.4734474195864221 
1.085010438252871 
0 
0 
0 
0.09667383854836489 
0 
0 
0.9868570970400209 
0.8468288085896208 
0 
0.786402980070585 
0 
0 
0.5400209464230489 
0 
0 
0 
0.365205281156821 
0 
0 
0 
0 
0 
0 
0 
0 
0 
0 
0 
0 
0.2098656204271885 
0 
0 
0 
0 
0 
0 
0 
0.3362531962376619 
0 
0 
0 
0 
0 
0 
0 
0.1655118916286407 
0 
0 
0 
0 
0 
0 
0 
0 
0 
0 
1.592721763564126 
0 
0 
0.9887142032733118 
0 
0 
0 
0 
0.7788798238428531 
0 
0 
0 
0 
0 
0 
1.386294361119891 
0 
0.7579964289850165 
0.6549520132770268 
0 
0 
0 
0 
1.214079776973039 
0 
0 
0 
0 
0 
-0.4726509852311843 
0 
0 
0 
0 
0 
0.2076835715997182 
0.6605570784192092 
0.593417423012599 
0 
0 
0 
0 
0.3268286601487174 
0 
0 
0 
0.491439771600602 
0 
0 
0 
0 
-0.1064057922760498 
0 
0 
0 
1.975312294174646 
0 
0 
0 
0.7222895925548634 
2.453365444784299 
-1.789360699408227 
1.386294361119891 
0 
0 
0 
0 
0.7313423478238849 
1.386294361119891 
1.386294361119891 
0 
0 
0 
0 
0.3078372545210718 
0 
1.109855387374006 
0.6462292100615907 
0 
0 
0 
0 
1.312754133458461 
0 
0 
0 
0 
0 
0 
-0.5612287168317243 
0 
2.034207993880359 
0 
0 
0 
0 
0 
0 
0 
0 
0 
0 
0 
0 
0 
0 
0 
0 
0.7730482493754243 
0 
0 
0 
0 
0 
0 
0 
0 
0.3336660623710264 
0 
0 
0 
0.7930148737572369 
0 
0 
0.6594774019915011 
0 
0.8015581562941 
0 
0 
0 
0 
0 
0 
0 
0 
0.3496996557603603 
0 
0 
0.7740139952810824 
0 
0 
0 
0 
0.2766421896803618 
0 
0 
0 
0 
0 
0 
1.800754414999206 
1.151699608243488 
1.215252120923643 
0 
0 
0 
0 
0 
0 
0 
0 
0 
0 
0 
0.6185068233102471 
0 
0 
0.7467469338779303 
0.5824616247338259 
0 
0 
0 
0 
0 
0 
0 
0 
0 
0 
0 
0 
0 
1.38044889069098 
-0.1831812770602811 
0 
0 
0 
0 
0.02281327242259842 
1.85724381879113 
0 
0 
0 
0 
0 
-2.377347369123603 
0.8146770116744378 
2.183225369567358 
0 
0 
0 
2.29366629613764 
0 
0 
0 
0 
0 
0 
0 
2.539710167185746 
0 
0.4053900825444792 
0 
0 
0 
0 
0.9403141147050056 
0 
0.5836588141359749 
0 
0 
0 
0.1260356028535293 
0.8539934647845332 
-0.1761954509595181 
0 
0 
0 
0.3720758427357207 
0 
0 
0 
0 
0 
0 
0 
0 
0 
1.514649843106855 
0 
0 
0 
0 
0 
0 
0 
-0.239935895885082 
0 
0.4631372583187263 
0 
0 
0 
0 
0 
0 
0 
0 
0 
0 
0 
0 
0 
0 
0.8414991965448726 
0 
0 
1.257509559909359 
0 
0.8535108547451691 
0 
0 
0 
-0.8976492272428387 
0 
0 
0 
0 
0 
0 
0 
0 
0 
0.1595182024594721 
0 
0 
0 
0 
0 
0 
0 
0 
0 
0 
0.5907607155186779 
0.8148763161988911 
0 
0 
1.314480676095286 
0.8877974753835701 
0 
1.411268379046731 
0 
0 
0 
0.7421731499093259 
0 
0 
0 
0 
0 
0 
0 
0 
0 
0 
0 
0 
0 
0 
0 
0 
0 
0.8598984404098989 
0 
0.9214031709797633 
0 
0 
0 
0 
0 
0.5496067562640233 
0 
0 
0 
0 
0 
0 
-0.1555296516710281 
2.836165051685071 
0.5240467769188972 
0 
0 
0 
0 
0 
0 
0 
0 
0 
0 
0 
0.461689801798885 
0.8744229411638682 
0 
0 
0 
0.4974659231485514 
0 
0 
0 
2.235359027030011 
0 
-1.413355667328725 
-0.3671394906274414 
0 
0 
1.653439248921563 
0 
0 
2.495722270991819 
0 
0.9680069305778722 
0 
0 
0 
0 
0 
0.5626734428987701 
0 
0 
0 
0 
0 
0.2616637476174948 
0 
0 
0 
0 
0.5811947708540723 
0 
0 
2.757184945561876 
0 
1.609468919436277 
0 
0 
0 
0 
0 
0 
0 
0 
0 
0 
0 
0 
0 
-1.076545796152289 
0 
0 
-0.05752569018017709 
0 
0 
0 
0 
0 
0 
0 
0 
1.416200426087051 
0.7614806683027169 
-2.634550248448718 
0 
0 
0 
0 
0 
0.9930378105339526 
0 
0 
0 
0.7224386570858975 
0 
0 
0 
0 
0 
0 
0 
0 
0 
0 
0.6681164372877794 
0 
0 
0 
0 
0 
0 
0 
0 
0 
0 
0 
0 
0 
0 
0 
0 
0 
1.574502637887248 
0 
0 
0 
0 
0 
0 
0 
0 
0 
0 
0.4853493338591998 
1.065470888407359 
0 
0.7807437989009153 
0 
0 
0 
1.078854319219033 
0 
0 
0 
0 
0 
0.8107016185829272 
0 
0 
0 
0 
0 
0 
0 
0 
-1.03358365926297 
0 
0 
0 
0.5436032466045506 
0.7148481663836878 
0 
0 
0 
0 
0 
0.5829815919513636 
0.7662771103512941 
0 
0 
0 
0.5502256996028503 
0 
0 
0 
0 
1.661527862455476 
0 
0 
0 
0 
0 
0 
0 
0 
0 
0 
-0.6417463975163259 
0 
0 
0 
0 
0 
0 
0.129268859478537 
0 
0 
0 
1.218107438469355 
0 
0 
0 
0.102862315623346 
0 
0 
0 
0 
0 
0 
0 
1.283597820753402 
0 
0.7238936075070588 
0 
0 
0 
0 
-0.1090679229378073 
2.40693071221346 
0 
0 
0 
0 
0 
1.532340360274822 
0 
0 
0 
-0.3983480863535479 
0 
0 
0.4467902116060679 
0 
0 
0 
0 
0 
0.2036527534997551 
0 
0 
0 
0 
0 
0 
-0.2624903852125391 
0 
0 
0.2275356725491999 
0 
0 
0 
0 
-0.4458931401455578 
0 
0.9103833753971058 
1.72911485779935 
1.146789993192879 
0 
2.333580852223127 
0 
0 
0 
0.5015340862736658 
0 
0 
0 
0 
0 
0 
0 
0 
0 
0 
0 
1.920961313669392 
0 
0 
0 
1.316436588772395 
0 
0 
0 
0 
0 
0 
0 
0 
0 
-0.883755492507317 
0 
0 
0 
0 
0.7827732186381292 
1.298153668967777 
0 
0 
1.673012195715724 
0 
0 
0 
0 
0 
0 
0 
-0.6590085417493226 
0 
0 
0 
0 
0 
0 
0 
0 
0 
0.5957405793636141 
0 
0 
0 
0 
0 
0 
0 
2.457286761949195 
0 
0 
0 
0 
0 
0.5691057391875362 
0.7545166091653307 
-0.2317503998201318 
0 
0 
0.5880905061605929 
0 
0 
0 
0 
0 
0 
0 
0 
0 
0.8152733339501472 
0 
0 
0 
0 
0 
0 
-0.2942114931666276 
-0.9488405650263816 
2.206964477150572 
0 
0 
1.750350894218165 
0 
0 
1.044233972934168 
0 
0 
0 
0 
0 
0 
0 
0 
0 
0 
0 
0 
0 
0 
0 
1.319406731459786 
0 
0 
0.5531578368628386 
0 
0 
0 
0 
0 
0 
0 
0 
0 
0.3830920387704708 
0 
0 
0 
0 
0 
0.07311193044789209 
0.3708499245271644 
0 
0 
0 
0 
0 
0 
1.189577435836545 
0.9023921745357557 
0 
1.561262877057128 
0 
0 
0 
1.727924679643551 
0 
0 
1.719993503692164 
0 
0 
0 
0 
0 
0 
0 
0 
0 
0 
0.08871091659995997 
1.978712050889512 
0 
0.6175650599528951 
0 
0 
2.039849047036454 
0 
0 
0 
0 
0 
1.873117166205448 
0 
0 
0 
0.7887020534901055 
0 
0 
0 
0.1773231868027971 
0 
0.397623538491694 
1.267030744560323 
0.6145434236266225 
-1.451113142573283 
0 
0 
0 
0 
0 
0 
0 
0 
0.5318617800430038 
0 
0 
0.5232897080471706 
0 
0 
0 
-0.1570438842153143 
0 
0 
0 
0 
0 
0 
-0.2138491494564619 
0 
0 
0 
1.245011709931123 
0 
0 
0 
-0.4200579489060056 
0 
0 
0.4995393204058526 
0 
0 
0 
0 
0 
0 
0 
0 
0 
-1.364786718605524 
2.19214681551819 
0 
0 
0 
0 
0 
0.460280597400953 
0 
0 
0 
0 
0 
1.05694915173307 
0 
0 
0 
0 
0 
0 
0 
0.5863470357783289 
0 
0 
0 
0 
0 
0.2271768223805817 
0.6205340181628143 
0 
0 
1.029182841053722 
0 
0 
0.5887372289929258 
0 
0 
0 
0 
0 
0 
0 
0 
0 
0 
0 
0 
0 
0 
0 
0 
1.531339699862869 
0 
0 
-0.3710230865455943 
0 
0.5053518340915776 
0 
0 
0 
0 
0 
0 
0 
0 
0 
0 
0 
1.665602374487651 
0 
0 
0.08939104210869603 
0 
0 
1.329947198899977 
-2.505414610626933 
0 
0 
0 
0 
0 
0 
0 
0 
0 
0 
0.3737861815556643 
0 
0 
0 
0 
-0.404892272579338 
2.155474082176081 
0 
0 
0 
0 
0.6402062029326573 
0 
0.5344530456497512 
0 
0 
0 
0 
0 
0.2060236836765904 
2.106755296434953 
0 
0 
0 
0 
0 
1.036511437658711 
1.037936289857143 
0 
0 
0 
0 
0 
0 
0 
0 
0.394648610531174 
0 
0 
0 
0 
0.6976114352830909 
0 
0 
0 
0.6091895342848529 
0.3260482960358531 
0 
0 
0 
0 
0.7682454313664652 
0 
0 
0 
0 
0 
0 
0 
0 
0 
0 
1.690427848507314 
-0.5649826483094834 
1.044690347699527 
0 
0 
0 
0 
0 
0 
0 
1.075897119142398 
0 
0 
0 
0 
0 
0 
0 
0 
0 
0 
0 
0 
0 
0 
-0.1795608235814239 
-1.312299321689699 
0 
0 
0 
0 
0 
0 
0 
0 
0 
0 
0 
0 
0.2280628531547094 
-0.3097451781285316 
0 
0 
0 
0 
0 
0 
0 
0 
0 
0.01532796356543028 
0 
0 
0 
0 
0 
0 
0 
0 
0 
0.6250643728003774 
0 
0 
0 
0.5774781600532645 
0 
0 
0 
1.836108793302261 
0 
0 
0 
0 
0 
0 
0 
-0.2529670842440029 
0 
0 
0 
0 
0 
0.1178925135490883 
0 
1.177318699700174 
0 
0 
0 
0 
0 
0 
0 
1.115730215081172 
2.218544034279727 
0.1760268081196524 
-5.352837294644686 
0.5505767712543134 
2.336476705605056 
0 
0.7708976522709742 
0.9992331359703754 
0.7015441034607744 
0 
-0.03304046059996167 
0 
0 
0 
0 
0 
0 
0.06324516082680272 
0.6010451770982986 
0 
0 
0 
0.6942281190004811 
0 
0 
0 
0 
0.8083965369748974 
0.6796976639966834 
-0.01594643790379054 
0 
1.54627669954623 
0 
0 
-0.527858930161205 
0 
0 
0 
0.4522638890493317 
0 
0 
0 
0 
1.329081142481864 
1.430141868054367 
0 
1.733704898112191 
0 
3.118385148573502 
0 
0 
0 
0 
0 
0 
0 
0 
0.5932059483554826 
0 
0 
1.330915803092729 
0 
0 
0 
1.308181675758958 
-0.691561784410983 
0 
0 
0 
0.5139957428755015 
2.561564629646076 
0 
0 
0 
0 
0 
0 
0 
0.5181502849415113 
0.5657895349164126 
0 
1.069205981328702 
2.085177836551948 
0 
0.5421316777163376 
0 
0 
0 
0 
0 
0 
0 
0 
0 
0 
0.2306871299669247 
1.65702957741146 
0.7855775193021519 
1.334012882557072 
0 
0.3587100861422744 
0 
0 
1.089426489771363 
0 
0 
0 
0 
0 
0 
0 
0 
0 
0 
0 
-0.5463199382460625 
0 
0 
0 
0 
0 
0 
-0.07671336852058905 
1.392003307052637 
0 
0 
0 
0.3770444614874282 
1.983445798357675 
0.9963109665954112 
0 
0 
0 
0 
0 
0 
0 
0 
0 
0 
0 
0 
-0.593106477579889 
0 
0 
0 
0.468079059569398 
-0.9750377738395387 
0.3590105996973765 
0 
0 
-0.1208172027105606 
0 
0 
0.1765658153388609 
0 
0 
0 
0 
0 
0 
0 
0 
0.5359394910285763 
2.596987586344869 
0 
0 
0 
0 
0 
0 
0 
0 
0 
0 
0 
-1.189035340983202 
3.474960557961239 
0 
0 
0 
0 
0 
0.1405146277930234 
0 
0 
0 
0 
0.594027896160322 
0 
-0.6628270768807035 
0.2662980116385528 
0 
0 
0 
0.2222734309676674 
0.3679107405794806 
0 
0 
0 
0 
0.1900709743745291 
-2.307425992479317 
0 
0 
1.283522289132851 
0 
0 
0 
0 
0 
0 
0 
0 
1.398299637627596 
0.4872488635915078 
0 
0 
0 
0 
0.2298669080900164 
0 
0.3476919786689443 
0 
0 
0 
0 
0 
0 
0.3737039535607677 
0 
-0.2533249904506151 
0 
1.209513808515554 
0 
0 
0 
0 
0.6207791816318596 
0 
0 
0 
0 
0 
0 
0 
0 
0 
0 
0 
0 
0 
0 
0 
0 
0 
1.639839191380233 
0 
0 
0 
0 
0 
0 
0 
0 
0 
1.351725968144601 
1.637323614323704 
0 
0 
0.2666184655774735 
0.7594237136697004 
0 
0 
0 
0 
0 
0 
0 
0 
1.494822743596828 
0 
0 
0 
0 
0 
0 
0 
0 
0 
0.6064466852974172 
0 
0.02990168783451322 
1.215734571252314 
0 
0 
0 
0.769856390633788 
0 
0 
-0.9016641764559101 
0.1415517044935479 
0 
0 
0.5233382254480597 
0 
0 
0 
0 
0 
0 
0.7399235166851212 
0 
0 
0 
0.2543325259674332 
0 
0.9173460134519568 
0 
0 
0.5228173909744606 
0 
0 
0 
0 
0 
0 
0 
0 
0 
0 
0 
0 
0 
0 
0 
0 
0.8486321729396613 
0 
0 
0 
0 
0 
0 
0 
0.05575563494588442 
0 
0 
0 
0 
0 
0 
-1.255976806247921 
0 
0 
0 
0 
0 
0 
0 
-0.4053683711808521 
0 
-0.1651630188750007 
0 
0 
0 
0 
0 
0 
0 
0 
0 
0 
0 
0 
0 
1.458605215040685 
0.8886105735513734 
0 
0 
0 
0 
0 
0 
0 
0 
0 
0 
0 
0 
1.285000620755531 
0 
0 
-0.02071998958948006 
1.22423993154406 
0.182774419165317 
0 
0 
0 
0 
0 
0 
2.683345184156586 
0 
1.229894856750854 
0 
0 
0 
0 
0 
0 
0 
0 
0 
0 
0 
0 
0 
0.3002665268059262 
0 
0.7384263647545383 
-0.8396840212893983 
0 
0 
0 
0 
0 
0 
0 
0 
0 
0 
0 
0 
0 
0 
0 
0 
0 
0 
0 
0 
0 
0 
1.977856963780137 
0 
0.5349492721461455 
0 
0 
1.004802393158537 
0 
0.1399520671852932 
0 
0 
1.527772815189629 
0 
0 
0 
0 
0.7301367582125254 
0 
0 
0 
0 
0 
0.4093199449242107 
0 
0 
0 
0 
0 
0 
0 
0 
-0.3358349870582418 
1.074591589735119 
-1.393862922273257 
0 
0.8269443912041711 
0 
0 
0 
0.6861023816486974 
0 
0 
0 
0.6571527484416841 
0 
0 
0 
0.3095644477685885 
0 
0 
0 
1.951790254146838 
0 
0 
0 
0 
0 
0 
0 
0 
0 
0 
0 
0 
0 
0 
0 
0 
-0.4645327362625664 
0 
0 
0 
0 
0 
0 
0.8616021742479775 
0.7916896027038339 
0 
0 
0.4854957282452097 
0 
0 
0 
0 
0 
0 
0 
0 
0 
0 
0 
0 
0 
0 
0 
1.386294361119891 
0 
0 
0.2112620957001927 
0 
1.485368844185991 
0.6737208684771514 
0 
0 
0 
0 
0 
0 
0 
0 
0 
0 
0 
0 
0.6858948120181275 
0.3191000560918881 
0 
0 
0 
0 
0 
0 
0 
0 
0 
0 
0 
0 
0 
0 
0 
0.4087553698401734 
0.6766305758487526 
0 
0 
0 
0 
0 
0 
0 
0 
0 
0.3916614139161737 
0 
0 
0 
0.2107745706530543 
0 
0 
0 
0 
0.01644144261402739 
0 
0 
0 
0 
0 
0 
0 
0 
0 
1.523479301690318 
0 
0.3487176035700862 
0 
0 
0 
0 
0 
0 
0 
0 
0.09712676367397263 
0 
0 
0 
0 
0 
1.113184543389504 
0 
0 
0 
0 
-0.3924055199061189 
0 
0 
0 
0 
0 
0 
0 
0 
0 
0 
0.7033036883161906 
0 
2.387313395734341 
0 
0.4422652978236529 
0 
0 
0 
0 
0 
0 
0 
0 
0 
0 
0 
0 
0 
0 
0 
0 
0 
-0.439004822718193 
0 
0 
0 
0 
0 
0 
0 
0 
0 
0 
0 
0.3689544089575913 
0 
0 
0 
0 
0 
0 
0 
0 
0 
0 
0 
0 
0 
0 
0 
0 
0 
0 
0 
0 
0.7901668657158157 
0 
0 
0 
0 
0 
0 
0 
0 
0 
0 
0 
1.137547354292355 
0 
0 
0 
0 
0 
2.003941805490595 
2.23949567602384 
0 
0 
0 
0 
0 
0 
0 
0 
0.8324417613196362 
0 
0.6589748421259443 
0 
0 
0 
0 
0 
0 
0 
0 
0 
0 
0 
0.3681273858274233 
0 
0 
0 
0 
0 
0 
0.9590669001006639 
0 
-1.104350755462866 
0 
0 
0 
0.005824870010701892 
0 
0 
0 
0 
0 
-0.1516284471106154 
0 
0 
0 
0 
0 
0.03339359836209746 
0 
0 
0 
0 
0 
1.392924442599934 
0 
0 
0 
0 
0 
0 
0 
0 
0 
0 
0 
0 
0 
0.6714423059802905 
0 
0 
0 
0 
0 
0 
0 
0 
0 
0 
0 
0 
0 
0 
0 
0 
0 
0 
0 
0 
0 
0 
0 
0 
0 
0 
0 
1.110024877714845 
0 
0 
0 
0 
0.107237647630588 
2.344435485980794 
0 
0 
0 
0 
0 
0 
0 
0 
0 
0 
0 
0 
0 
0 
-1.305564434357536 
0 
0 
0 
0 
0 
0 
0 
0 
0 
0 
0 
0 
1.058680962896968 
1.046449832031523 
0 
0 
0 
2.426381779612069 
0 
0 
0 
0 
0 
0.2442431150439025 
0 
0 
0 
0 
0 
0 
1.509089423698541 
0 
0 
0 
0 
0 
0 
0 
0 
-0.16072712309205 
0 
0 
0 
-0.04946682129471099 
1.368406483889767 
0.01788787723012404 
0 
0 
0 
0 
0 
0 
0 
0 
0.3556494378192515 
0 
0 
0 
0 
0 
0 
0 
0 
0 
-1.321678782423244 
0 
0 
0 
0 
0 
0.77308506225281 
0 
0.6369171955903945 
0 
0.3409995897165229 
0 
0.7132875876346839 
0 
0 
0 
0 
0 
0.6438079468420008 
0.5826570034388107 
2.117413654228069 
0 
0 
0 
0 
2.920910567194278 
-0.2023304519523227 
0 
0 
0 
0 
0 
0 
0.3967240145370444 
0 
0 
0 
0 
0 
0 
1.434177074745878 
0 
0 
0 
0 
0 
0 
0 
1.252755033160955 
0 
1.268255457607949 
0 
0.7633140875147232 
0 
0 
0 
0 
0 
0 
0 
0 
0 
0 
0 
1.570442263278173 
0 
0 
0 
0 
0 
0.969107423538907 
0 
0 
0 
0 
0 
0 
0 
0 
0 
0.1516049458348644 
0 
0 
1.200000000204335 
0.1862943609155556 
0 
0 
0 
2.255539228570175 
0 
0 
0 
0 
0 
0 
1.432083645360401 
0 
0.9632008095989436 
0 
0 
0 
0.1624625448405071 
0.3831454257624745 
0 
0 
0 
0 
0 
0 
0 
1.69030894237544 
0 
1.0011211215357 
0 
0 
0 
0.05669115834911938 
0 
0 
1.360059413584209 
0 
0 
0 
0 
0 
0 
0 
0.4640312268038861 
0 
0 
0 
0.9585076881269761 
0 
0 
0 
-0.1780847210229566 
0 
2.001034967822919 
0 
0 
0 
0 
0 
0 
0 
0 
2.381127259256832 
0 
0 
0 
0 
0 
0 
0 
0.6778185826528682 
0 
0.37052767432558 
0 
-0.495649125794279 
0 
0 
0 
0 
0 
0 
0 
0 
0 
0 
0 
0 
-1.143419856782378 
0 
0 
1.089948045248485 
0.5802408988674822 
0 
0 
0 
0 
0 
0 
0 
-2.525748219652662 
0 
0 
0 
0.3319659037436828 
0 
0 
0 
0 
0 
0 
0 
0 
0 
0 
0 
0 
0 
0 
0 
0.5721848214833909 
0 
0 
0 
0 
0 
0 
1.332145537372583 
1.333712231923485 
0 
0 
0 
1.491822987148496 
1.065699018610756 
0 
0 
0 
0 
0 
0.5407485450005313 
0 
0 
0 
0 
0 
0 
0 
0 
0 
0 
0 
0 
0.8865014675920393 
-1.055653788147485 
0 
1.096991142678564 
0 
0 
0 
0 
0 
0 
0 
2.631338990944575 
0 
0 
0 
0 
0 
0 
0 
0 
0 
0 
0 
0 
0 
0 
0 
0 
0 
0 
0.2370718028353777 
0 
0 
0.1007722515206622 
0.5760470473113319 
0.2022257226043999 
0 
0 
0 
0 
0 
0 
0 
0 
0 
0 
0.7838782518152829 
0 
0 
-0.2977148246734055 
0 
0.2739949319664449 
0 
0.01516209983034091 
0 
0.1477273728921377 
0 
0 
0.6103205273228988 
0 
0 
0 
0 
0 
0 
0.4358290703868574 
0 
0 
1.510962978725394 
0 
0 
0 
0 
-0.4760305720786371 
0 
0 
0.3853409162070571 
0 
0 
0 
0 
0 
0 
0 
0.03808416643387375 
0 
-0.008719971431883947 
0 
0 
0.4654017304948688 
0 
0 
0 
1.563830389921884 
0 
1.893855714163309 
0 
0 
0 
0 
0 
0 
0 
0 
0 
0 
0 
0 
0 
0 
0.3497695328202314 
0 
0 
0 
1.263370251607807 
0 
0 
0 
0 
0.1543480428475683 
0 
0 
0 
0 
0 
0.3887842242473401 
0 
0 
0 
0 
0 
0 
2.314015165408554 
0 
0 
0 
0 
0 
0 
0 
0 
0 
0 
0 
0.7581449567390312 
0 
0 
0 
0 
0 
0 
-0.1937452893435629 
0 
0 
0 
0 
0 
0 
0 
0 
0 
0 
0 
0 
0 
0 
0 
0 
0 
0 
0 
0 
0 
0 
0 
0 
0 
0 
0 
0 
0 
1.242868176208617 
0 
0 
0.02565620397374774 
0 
0 
0 
0 
0.4154265463283985 
0 
0 
-0.5841449638021861 
0 
0 
1.328832348680126 
-0.3598977990406126 
0 
0.005706163207147016 
0.2738626725514559 
-0.9237413743470938 
0 
0 
-0.5675418509235483 
0 
1.422020398668752 
0 
0 
0.5903136339518337 
1.706407930258444 
0 
0 
0 
-0.241599768882599 
0 
0 
0.9593313227257532 
0 
0 
0 
-0.6474668279301782 
0.1706492866177977 
0 
0 
0 
0 
0 
0 
0 
0 
0 
0.9543301893324853 
0 
0 
0 
0 
-0.5842647291185816 
0 
0 
0 
-0.9251999425350094 
0 
0 
0 
0 
0 
0 
0 
0 
0 
0 
0 
0 
0 
0 
0 
-0.282842111157345 
0 
0 
0 
0 
0 
0 
0 
0 
0 
0 
0 
0 
0 
0 
0 
0 
0 
0.8556331043893062 
0 
0 
0 
0 
0 
0 
0 
0 
0 
0 
0 
0 
0 
0 
0 
0.2951723159911191 
0 
0 
0 
0 
0 
0 
0 
0 
0 
0 
0 
0 
0 
0.9441236846627773 
0 
0 
0 
0 
0.6637838339851744 
0 
0 
0 
0 
0 
0 
0 
0 
0 
0 
0 
0 
0 
0 
1.37731133253423 
0 
0 
0 
0 
1.374430462796185 
0 
0 
0 
0 
0 
0 
0 
0.9060555250212431 
0 
0 
0 
0 
0.1270269868659163 
0 
0 
0 
0 
0 
0 
0 
0 
0 
3.332171299624265 
0 
0 
0 
0 
0 
0 
0 
0 
0 
0 
0 
0 
0 
0 
0 
0 
0 
0 
0 
0 
0 
0 
0.9421328498581265 
0 
0 
0 
0 
0 
0 
0 
0.9582365172239943 
0 
0 
0.6519806320277463 
0 
0 
0 
0 
0 
0 
0 
0 
0 
0.7206465042154906 
0.1418609378550677 
0 
0 
1.352502728426004 
0 
0 
0.9603557084222153 
0 
0 
0 
0 
0 
0 
0 
0 
0 
0 
0 
0 
0 
0 
0 
0 
0 
0 
0 
0 
0 
0 
0 
0 
0 
0 
0 
0 
0 
0 
0 
0 
0.6052126249002588 
0 
0 
0 
0 
1.603832383935603 
0 
0 
0 
0 
0 
0 
0 
0 
0 
0 
0 
0 
0 
1.288458572282762 
0 
0 
0 
0.8867255916632339 
0 
0 
0 
0 
0 
0 
0 
0.7532990641629583 
0 
0 
0 
1.309838383949726 
0 
0 
0.8290847393703549 
0 
0 
0 
0 
0 
0 
0 
0 
0 
0 
0 
0 
0.05543562314147527 
0 
0 
0 
0 
0 
0 
0 
0 
1.065440962610817 
0 
0 
0 
0.7961323337951903 
0 
0 
0 
0.7551268015134077 
0 
0 
0 
0 
0 
0 
1.558328430532916 
0 
0 
0 
0.7826765432694094 
0 
-1.109097103940751 
0 
0 
0 
0.919746576471649 
0 
0 
0 
0.217959879900798 
0 
0 
0 
0 
0 
0 
0 
0 
0 
0 
0 
0 
0 
0 
-0.02026502715236479 
0 
0.9654507505667039 
0 
0 
0 
0 
-0.1751803546826049 
0 
0 
0 
0.4821804527576428 
0.9153725199462043 
0 
0 
0 
0 
0 
0 
0 
0 
0 
0 
0 
0 
0 
0 
0 
0 
0 
0 
0 
0 
0 
0 
0 
0 
0 
0 
0 
0 
0 
0 
0 
0 
0 
0 
-0.9259307492524455 
0 
0 
0 
0 
0 
0 
0 
0 
0 
0 
0 
0 
0 
0 
0 
0 
0 
0 
0 
0 
0 
0 
0 
0 
-0.5013554113104624 
0 
0 
0.7249816156722606 
0 
0 
0 
0 
0 
0 
0 
0 
0 
0 
2.934405293147119 
0.8934884926019835 
0 
0 
0 
0 
0 
0 
0 
0 
0 
0 
-0.1307244746135491 
-0.8490183136087354 
0 
2.235931782730727 
0 
0 
0 
0 
0 
0 
0 
1.236894562878837 
0 
0 
1.937867795527882 
1.77326950219208 
0 
-0.1436161287454221 
0 
0.720724586938209 
0 
0 
0 
0 
0 
0 
0 
0 
-0.08242063798720888 
0 
1.362226998689589 
0 
0 
0 
0 
0 
0.2745047124429211 
0 
0 
0 
0 
0 
0 
0 
0.4585862980548332 
0 
0 
0 
0.2409350644048397 
0 
0 
0.4282106468073754 
0 
0.3029908506862829 
0 
0.435450482229745 
0 
0 
0.3857930300743896 
0 
1.345441082439322 
0 
0 
0 
0 
0 
1.387858936538637 
0 
0 
0 
0 
0 
0 
0 
0 
0 
0 
0 
0 
0 
0 
0 
0 
0 
0 
0 
-0.9801826545538618 
0 
-0.1125720010722235 
0 
0 
0 
0 
1.630793610158584 
-0.4196811540961508 
0 
0 
0 
0 
-0.1512632811316998 
0.8324530076003818 
0 
0 
0.389732175516348 
-0.4912498055357246 
0 
0 
0 
0 
0 
0 
0 
0 
0 
-0.6289835821639304 
-0.316407319597746 
0 
0 
0 
0 
0 
0 
0 
0 
0.9900482605266464 
0 
1.563382936024813 
-2.684213973469974 
0 
0 
0 
0 
0 
0 
0 
0 
0.05476375328506018 
0.959428929824956 
0 
0 
0 
0 
0 
0 
0 
0 
0 
0 
0 
0 
0 
0 
0 
0 
0 
-1.500654145190023 
1.1402061976183 
0 
0.5796098078502832 
0 
0 
0 
0 
3.173149468389318 
0.6201367195159182 
0 
0 
0 
0 
0 
0 
0 
0 
0 
0 
0 
0 
0 
0 
0 
0 
0 
0 
0 
0 
0 
0 
0 
1.198725201628692 
0 
0 
0 
0 
0 
0.6973000652668477 
0 
0 
0.820261688496528 
0 
0 
0 
0 
0 
0 
0 
0 
0 
0 
0 
0 
0 
0 
0 
1.358660009294841 
0 
0 
0 
0 
0 
0 
0 
0 
0 
0 
0 
0 
0 
0.5233977542279957 
0 
0 
0 
0 
0 
0 
0.7585297167352852 
0 
0 
0 
0 
0 
0.5673900548916044 
0.2657800873600052 
0 
0 
0 
0 
0 
0 
0 
0 
0 
0 
0 
0 
0 
0 
0 
0 
0.6441516376685451 
0 
0 
0 
0 
0 
0.02329070025496458 
0 
0.1865184095343753 
0 
0 
0 
0 
0 
0 
0 
0 
0 
0 
-0.1417654829802383 
0 
0 
0 
0 
1.53734427882031 
0 
0 
0 
0 
0 
0 
0 
0 
0 
0 
0 
0 
0 
0 
0 
0 
0 
0 
0 
0 
0 
0 
0 
0 
0 
0 
0 
0 
0 
-0.6108801933749495 
0 
0 
0 
0 
0 
1.958680377398646 
0 
0 
0 
0 
0 
0.4668822104778661 
0 
0 
0 
0 
0 
0.2015780827455516 
0 
0 
1.044542930169782 
0 
0 
0 
0.03902852371759042 
0 
0 
0 
0 
0 
0 
0 
0 
0 
0 
0 
0 
0 
0 
1.77057785118623 
0 
0.6796396914359771 
0 
0 
-1.645574482577644 
0 
0 
0 
0 
0 
-0.1989851074230614 
0 
0 
0 
2.252795637643961 
0 
0 
0 
0 
0 
0 
2.429458826263631 
0.4574050707982301 
0 
-0.5242227787478757 
0 
0 
0 
0 
-0.2941305351508886 
0 
0 
0.9208672817194026 
0 
0 
0 
-0.0217423901763538 
0 
0 
0 
0 
1.260283218982632 
0 
0 
0 
0.1762510142771467 
0 
1.167116874610025 
0 
0 
0 
0 
0 
0 
0 
0 
0 
0 
0 
0 
0 
0 
0 
0 
0 
0 
0 
0 
1.112720607413699 
0 
0 
0 
0 
0 
0 
0.8636889980647373 
0.5442611460884793 
0 
0 
0 
-0.2626223162309236 
0 
0 
0 
0 
0 
-1.987894720426542 
0 
0 
1.225282049395146 
0 
0 
0 
0 
0.4681567177883521 
0 
0 
0 
0.7801034287474047 
0 
0 
0 
0 
0 
0 
0 
0 
-3.157447876378507 
0 
0 
0 
0 
0 
0 
0 
0 
0 
-3.305999871094424 
0 
1.109044693693093 
0 
-0.1226384024019516 
0.02913675699016847 
0 
0 
0 
0.5160953899270108 
0 
0 
0 
0 
0 
0 
0.1331072791577869 
0.4336443347762737 
1.128039982686504 
0 
0 
0 
-0.9503135427201934 
0 
0.1332922067581589 
0 
0 
0 
0.6889847775232847 
0.7214737195449626 
0 
0 
-0.04849890189460215 
0 
0 
0 
0 
0 
0 
0 
0 
0 
0 
0.8458316103667299 
2.693888391674177 
0 
-0.09806377747055664 
0 
0 
-1.145843329418292 
0 
0 
0 
0 
0 
0 
0 
0 
0 
0 
0 
0 
1.112653100469637 
0 
0.3082707987592765 
0 
0 
0.03488388621088603 
-0.1817988230734141 
0 
0.6668774793902317 
0 
0 
0 
2.23410999596106 
0 
0 
0 
0 
0 
0 
0 
0 
0 
0 
0 
0 
0 
0 
1.39285337086385 
0 
0 
2.188538251954389 
0 
0.8928130469132768 
0 
1.491556566191199 
0.9711819339245755 
0 
0 
0.5362806657052431 
0 
0 
0 
0 
0 
0 
0 
0 
0 
0 
0 
0 
-0.26087916329921 
0.3747355859168079 
-0.5659133015541201 
0 
0 
0 
0 
0 
0 
0 
1.210945724824341 
0 
0 
1.7145368372421 
4.14790725758652 
0 
0 
0 
0 
0.911529927079021 
-2.99661806049942 
0 
0.1323498113882635 
0 
0 
0.2309472854198124 
0 
0 
0 
0 
0 
0 
0 
0 
0.241711879066455 
0 
0 
0 
1.68329836502315 
0 
0 
0 
0 
0 
0 
1.792651345153848 
0 
1.121131807289989 
0 
0 
0 
0 
0 
0 
0 
0 
1.567990752420236 
0 
0 
0 
1.31416330303658 
0 
0 
0 
-1.298879246121178 
0 
0 
0 
0 
0 
0.8032504927477981 
0.9332407092512617 
0 
1.912027672857914 
0 
0 
1.252809431603643 
-0.7417145443029053 
0 
0 
0 
0.5891886388401096 
0 
0 
0 
0 
0 
0 
0 
0 
0 
0 
0 
0 
0 
0 
0 
0 
0.7876848336051196 
0 
0 
-0.3153643586013615 
0 
0 
0 
0 
0 
0 
0 
1.69303055629324 
0 
0.04306675567191647 
0 
0 
0 
0 
0 
0 
0.9347013386858549 
0 
0 
0 
0 
0 
0 
0 
0 
0 
0 
0 
0 
0 
0.5393847272234512 
-0.7383313106311402 
0 
3.175502314441483 
0 
0 
0 
0 
0 
0 
0 
0 
0 
0 
0 
0 
0 
0 
0 
1.378470003953777 
0 
0 
0 
0 
0 
0 
0 
0.4963358957090712 
0.5641424891548459 
0.5081723401467004 
0 
0 
0 
2.58774602778601 
0 
0 
0 
0 
0 
0 
0 
0 
0 
0 
0 
0 
0 
0 
0.5557599495656522 
0 
0 
1.760236840887122 
0 
0 
0 
0 
0 
0 
0 
0 
0 
1.410464201433602 
0 
0 
-0.6303549562881803 
0 
0 
0 
0 
0 
0 
0 
0 
0.3716125202770087 
0 
0 
1.690196883123464 
0 
0 
0 
0 
0 
0 
0 
0 
0.3265285028132829 
0 
0 
0 
0 
0 
0 
0 
0 
0 
0 
0 
0 
0 
0 
0 
0 
0 
0.4835029688520437 
0 
0 
0 
0 
0 
0 
0 
0 
0 
0 
0 
0 
0 
0 
0 
0 
0 
0 
0 
0 
-0.9907959268643103 
0 
0 
0.003251787820527595 
0 
0 
0 
0 
0 
2.026395433297541 
0 
0 
0 
-0.07515351252015048 
0 
0 
0 
-0.2647831768544724 
0 
0 
0 
0 
0 
0 
0 
0 
-1.537853472402389 
0.127422058813743 
0 
0 
0 
0 
0 
0 
1.164649788361964 
0 
0.7607523543259017 
0 
0 
0 
0 
0 
0 
0.2009152913902034 
0 
0 
0 
0 
0.06875311570801627 
0 
0 
0 
0 
0 
0 
0 
0 
0.9314656139045885 
0 
0 
0 
0 
0 
0 
0 
0 
0 
0 
0 
0 
0 
0 
0 
0.4488536121687398 
0 
0 
0 
0 
0 
0 
0 
0 
0 
0 
0 
0 
0.4857557190998832 
1.957402088699643 
0 
0 
0 
0 
0 
0 
0 
-0.281252114268463 
0 
0 
0 
0 
0 
0 
0 
0 
0 
0 
0 
0 
0.6896479335835436 
0 
0 
0 
0 
0 
0 
0.4600426237538964 
0.1278657246789018 
0 
1.052680675170923 
0 
0 
0 
0 
0 
1.407042618140917 
0 
2.43074157181036 
0 
-0.0913459218647279 
0 
0 
0 
1.296707903086406 
1.29583745286371 
0 
0.05249335263114611 
0 
0 
0 
0 
0 
0 
1.489383752525886 
0 
0 
0 
0 
0 
0 
0 
1.212939019887193 
0 
0 
0 
0.3256652499768761 
0 
0 
0 
0 
0 
0 
0 
0 
0 
0 
0 
0 
0 
0 
0 
1.529139062035888 
0 
0 
0 
0 
0 
0 
0 
0 
0 
0 
0 
1.119992398281283 
0 
0 
0 
0 
0 
0 
0.06507603856382348 
0 
0 
0 
0 
0 
0 
0.4400109697058896 
0 
0.490274819714623 
0 
0.001194959109407588 
0 
0 
0 
0 
0.2133251863152873 
0 
0 
0 
0 
0 
0 
0 
0 
0 
0 
0 
0.4918760920014265 
0 
1.140276142535481 
0 
0 
0 
0 
0 
0 
0 
0 
0 
1.371623688228372 
0 
0 
0 
0 
0 
0 
0 
1.178440340541416 
0 
0.283465864054194 
0 
0 
0 
0 
0 
0 
0 
0 
0 
0 
0 
-1.155957112581841 
0 
0 
0 
0 
0 
0 
0 
-0.5390668102330677 
0 
0 
0 
0 
0 
0 
2.220029065672452 
0 
0 
0 
0 
0 
0 
1.393522309442164 
0 
0 
0.186054718447996 
0 
0.5234056760913193 
0 
0 
0 
0 
0 
0 
0 
0 
0 
0 
1.053743808128409 
0 
0 
0 
0 
2.080922166058679 
0 
0 
0 
0 
0.6542126807969534 
0 
0 
0 
0 
0 
0 
0 
2.34766135609048 
-0.6116991205703127 
0 
0 
0 
0 
0 
0.8698991948357742 
0 
0.3060961097131089 
0 
0 
0.4000636880882007 
1.934850406098522 
0 
0 
0 
1.913357895230979 
0 
0 
0 
0 
0 
0 
0 
0 
1.251152394656718 
0 
0 
0 
0 
0 
0 
0 
0 
0 
0 
0 
0.328133361508828 
0 
0 
0 
0 
0 
0 
0 
0 
0 
0 
0 
1.856547631215631 
0 
0 
0 
0 
0 
0 
0 
0.8514093344672458 
0 
0 
0 
0 
2.340015760808011 
0 
0 
0 
-1.409370166817679 
0 
0 
0 
0.4288741539042543 
0 
0 
0 
0 
0 
0 
0 
0 
0 
0 
0 
0 
1.717689953973119 
0 
0 
2.2281523630391 
0.962899406223877 
0 
0 
0 
0 
0 
0 
0 
0 
1.160688456157034 
0 
0 
0.6009540324051735 
0 
0 
0 
0 
0.5982617296651971 
0 
0 
0 
0 
0 
0 
0 
0 
-0.1358370455983436 
0 
0 
0 
0 
0 
0 
2.71584391146264 
0 
-0.09993767013882306 
0 
0 
0 
0 
0 
0 
0 
0 
0 
0 
0 
0 
0 
0 
0 
0 
0 
0 
0 
0 
0 
0 
0 
0 
0 
0 
0 
0 
0 
0 
0 
1.100567243518268 
0 
0 
0 
0 
0 
0 
0 
0 
0 
0 
0 
0 
0 
0 
0 
0 
0 
0 
0.7535144508203123 
0 
0 
0 
0 
0 
0 
0 
0 
0 
0 
0.5142795748930301 
0 
0 
0 
0 
0 
0 
0 
0 
0 
0 
0 
2.052740119131195 
0 
0 
0 
0 
0 
0 
0 
0 
0 
0 
0 
0 
0 
0 
0 
0 
0 
0 
1.447411109677765 
0 
0 
0 
0 
0 
0.969681121847923 
1.299108228736636 
0 
0 
0 
0.325036982227647 
0 
0 
0 
0 
0 
0 
0.2480769175612939 
0 
0 
0 
0 
0 
0 
0 
0 
0 
0 
0 
0 
0 
0 
0 
0 
0 
0 
0 
0 
0 
0 
0 
0 
0 
0 
0 
0 
0 
0 
0 
0 
0 
0 
0 
0 
0 
0 
0 
0 
0 
0 
0 
0 
0 
0 
0 
0 
0.3192632207379698 
0 
0 
0 
0 
0.4817806033757375 
0 
0 
0 
0 
0.2446655961872022 
0 
0 
0 
0 
0 
0 
0 
0 
0.8501466590625556 
0 
0 
0 
0 
0 
0 
0 
0 
0 
0 
0 
0 
0 
0 
0 
0 
0 
0 
0 
0 
0 
0 
0 
0 
2.089220759031494 
0 
0 
0 
0 
0 
0 
0 
1.219448294425031 
0 
0 
0 
0 
0 
0 
0 
0 
0 
0 
0 
0.1573360197735499 
0 
0 
0 
0 
0 
0 
0 
0 
0 
0 
0 
0 
0 
0 
0 
0 
0 
0 
0 
0 
0 
0 
0 
0 
0 
0 
0 
0 
0 
0 
0 
1.4475598922399 
0 
0 
0 
0 
0 
0 
0 
0 
0 
0 
0 
0 
0 
0 
0 
0 
0 
0 
0 
0 
0 
0 
0 
0 
0 
0 
0 
0 
0 
0 
0 
0 
0 
0 
0 
0 
0 
0 
0 
0 
0 
0 
0 
0 
0 
0 
1.471598336256103 
0 
0 
0 
0 
0 
0 
-0.6278298395345731 
0 
0 
0 
0 
0.6101695894530894 
0 
0 
0 
0 
0 
0 
0 
0 
0 
0 
0.5359356438120002 
0 
0 
0.5108261109789175 
0 
0 
0 
0 
0.8085152774311145 
0 
0 
0 
0 
0 
0.6570691348614546 
0 
0 
0 
0 
0 
0 
1.721962280996328 
0 
0 
0 
0 
0 
0 
2.626361864236348 
0 
0 
0 
0 
0 
0 
0 
0 
0 
0 
0 
0 
0 
0 
0 
0 
0 
0 
0 
0 
0.1809643344862941 
0 
0 
0 
0 
0 
0 
0 
0 
0 
0 
0 
0 
0 
0 
0 
0 
1.63981683148635 
0 
0 
0 
0 
0 
0 
0 
0 
0 
0 
0 
0 
0 
0 
0 
0 
0 
0.9582954401374272 
0 
0 
-0.01669534817573883 
0 
0 
0 
-0.1539651556256411 
0 
-0.6097837871257722 
0 
0 
0 
0 
-0.4363867878653364 
0 
0 
0 
0 
0 
0 
0 
0 
0 
0.4409744103787585 
0.9943389659051154 
0 
2.814146701973203 
0 
0 
0 
0 
0.3807177160994499 
0 
0 
0 
0 
0 
-0.3368666032428983 
0 
-0.009000210543594284 
0 
0 
0 
0 
0 
0 
0 
0 
0 
0 
0 
0 
0 
0 
0 
0 
0 
0 
0 
0.2342896280948413 
0 
0 
0 
0 
0 
0 
0.7718292849274759 
0 
0 
0 
0.7443005479181566 
0 
0 
1.930152655368914 
0 
0 
0 
1.495438238034994 
0 
0 
0 
0 
0 
0 
0 
0 
0 
0 
0 
0 
0 
0 
0 
0 
0 
0 
0 
0 
0 
0 
0 
0 
0 
0 
0 
0 
0 
1.0643033096003 
0 
0 
0 
1.444896533020553 
0 
0 
0 
0 
0 
0 
0 
0 
0 
0.05738117970722614 
0 
0 
-0.6020663883726552 
0 
0 
0 
0 
0 
0 
0 
1.716871433007453 
0 
0 
0 
0 
0 
0 
0 
0 
0 
0 
0 
0 
1.326860212496371 
-0.7483200397970062 
0 
0 
0 
0 
0 
0 
0 
0 
0 
0 
0 
0 
0 
0 
0 
0 
0 
0.5628971370344114 
0 
0 
0 
0 
0 
0 
0 
0 
0 
0 
0 
1.562172205362426 
0 
0 
0 
0 
0 
0 
0 
0 
0 
0 
1.730509609633453 
0 
1.024619018785062 
0 
0 
0 
0 
-0.496232737699808 
0 
2.01862985717713 
0 
0 
0 
0 
0.6909281485123205 
0 
0 
0 
0 
0 
0 
0 
0 
0 
0.2613611396194691 
0 
0 
0 
0 
0 
0 
0 
0 
0 
0 
0.3320909778984675 
0 
0 
2.749701374702394 
0 
0 
0 
0 
0 
-0.8742028161038455 
0.60442433752206 
0 
0 
0 
0 
0 
0 
0 
0.1817840488506663 
0 
0 
-0.301658424674401 
0 
0 
0 
-0.1489069574152568 
0 
1.319758662042832 
0 
0 
0 
-1.400962223654297 
0 
0 
0 
0 
0 
0 
0 
0 
0 
0 
0 
0 
0 
0 
0 
0 
0 
0 
0 
0 
0 
0 
0 
0 
-0.8611643640857315 
0 
0 
0 
-0.2979159008585528 
0 
0 
0 
0 
0 
1.583671765663276 
0 
0 
0 
0 
0 
0.05675317102785268 
-0.1576913361342249 
0 
0 
0 
0 
-0.3115301961823936 
0 
0 
0 
0 
0 
0 
0 
1.347253959733209 
0 
0 
0 
0 
0 
0 
0 
0 
0 
0 
0 
-3.776306123018525 
0 
0 
0 
0 
0 
0 
0 
0 
0 
0 
0 
0 
0.6210011588298185 
0 
0 
0 
0 
0 
0 
0 
0 
0 
0 
0 
0 
0 
0.2564227550325989 
0.7912942190019262 
0 
0 
0 
0 
0 
0 
0 
0 
0 
0 
0 
0 
0 
0 
0 
0 
0 
0 
0 
0 
0 
0 
0 
0 
0 
0 
0 
0 
0 
0 
0 
0 
0 
-0.5787837900033691 
0 
0 
0 
0.1293534795384491 
0 
0 
0 
0 
0 
0 
0 
-1.185664677713966 
0 
0 
0 
0 
0 
0 
0 
0 
0.03523539262824921 
-0.3478471360742948 
0 
0.1552486761662924 
0 
0.6902332071297824 
0 
0 
0 
0 
0 
0 
0 
0 
0 
0 
0 
0 
0 
0 
0 
0.1303242259208991 
0 
0 
0 
0 
0 
0.02403683596955494 
0 
0 
0 
0 
-0.006084014565524608 
0 
0 
0 
0.3706740769530639 
0 
0 
-0.5071840500157043 
0 
0 
0 
0 
0 
-0.1503707400096661 
0 
0 
0 
0 
0 
0 
0 
0 
0 
0 
0 
0 
0 
-1.647564702692521 
0 
0 
0 
0 
0 
0 
0 
0 
0 
1.18512793882358 
0 
0 
0 
0 
0 
1.732939438919177 
0 
0 
0 
0 
0 
0 
0 
0 
0 
0 
0 
0 
0 
0 
0 
0 
0 
0 
0 
0 
0 
0 
0.32476572868829 
-0.6590957356983195 
0 
0 
0 
0 
0 
0 
0 
0 
0 
0 
0 
0 
0 
0 
0 
0 
0 
0 
0 
0 
0 
0 
0 
0 
0 
0 
0 
0.1120128088228093 
0 
0 
0.05358580685691534 
0 
0 
0 
0 
0 
0 
0 
0 
0 
0 
0 
0 
0 
0 
0 
0 
1.810552402262231 
0 
0 
0 
0 
0 
0 
0 
0 
0 
0 
0 
0 
0.8512999910808823 
0 
0 
0 
0 
0 
0 
0 
0 
0.8027760802246403 
0 
0 
0 
0 
0 
0 
0 
0 
0 
0 
0.7060454847221729 
0 
0 
0 
0 
0 
0 
0 
0 
0 
0 
0 
0 
0 
0 
0 
0 
0 
0 
0 
0 
0 
0 
0 
0 
0 
0.2947286529557633 
0 
0 
0 
0 
0 
0 
0 
0 
0 
0 
0 
0 
0 
0 
0 
0 
0 
0 
0 
0.6594353507574477 
0.7958138883821407 
0 
0 
0 
0 
0 
0 
0 
0 
0 
0 
1.712796820591329 
0 
0 
0 
1.068521113997407 
0 
0 
-1.132023468404628 
0 
0 
-0.3974859951144014 
1.95261981187695 
0 
0 
0 
0 
0 
0 
0 
0 
0 
0 
0 
-3.057014712119902 
0 
0 
0 
1.773113876542284 
0 
0 
0 
0 
0 
0 
0.3806916409565395 
2.173665951146211 
0.5775509517501785 
0 
0 
0 
0 
0 
0 
0 
0 
0 
0 
0 
0 
0 
0 
0 
0.3675421378540124 
0 
0 
0 
0 
0 
0 
0 
0 
0 
0 
0 
0 
0 
0 
0 
0 
0 
0 
0 
0 
0 
0 
-0.8860623355651658 
0 
0 
0 
0 
1.152014256158811 
0 
0 
0 
-2.497535858196646 
0.004197413416268814 
0 
0 
1.980815072279521 
0 
0 
0 
0 
0 
0 
0 
0.9067528400285427 
0 
0 
-0.4343718615242517 
0 
0.822539501367509 
0 
0 
3.186932062619002 
0 
0 
0.5128730188649404 
0 
0 
0 
0 
0 
0 
0 
0 
0 
1.115594462685003 
1.05329386765373 
0 
2.031462580411509 
0 
0 
0 
0 
0 
-2.08559120861571 
0 
0 
0 
0 
0 
0 
0 
0 
0 
0 
0.03702622343815425 
1.007147026683035 
0 
0 
0.1063384550973144 
0 
0 
0 
0 
0 
0 
0 
1.572807222056332 
0 
0 
0 
0 
0 
0.381612542399589 
0.04020839281782638 
1.328937081755946 
0 
0 
0 
-0.08815311361091635 
0 
0.202338483574301 
1.012807299017363 
0 
0 
0 
0 
0 
0 
0.01148625468260614 
0 
0.1906733032306809 
0 
0 
0 
0 
0 
0 
0 
0 
0 
0 
1.442112205203503 
0 
0 
0 
0 
0 
0 
0 
0 
0 
0 
0 
-1.605894388902073 
0 
2.53677686491662 
1.730172658564957 
0 
-1.290483308970065 
0 
0 
0 
0 
0 
0 
0 
-1.642447425809947 
-0.374163889638536 
0 
0 
0 
0 
0 
-2.40954885802244 
0 
0 
0 
0 
0 
-1.293489692516196 
0 
0.5618067283662976 
0 
0 
0.4408686493926012 
1.379803274920034 
-0.1934025952976546 
0 
0 
0 
0 
0 
0 
0 
-0.2884237715641792 
0 
0 
0 
2.255700707594538 
0 
0 
0 
0 
0 
0 
0 
0 
0.2064599674017362 
0 
0 
0 
0.02057422268146293 
0 
0 
0 
0 
0 
0 
1.725712887161205 
0 
0 
0.3322641882415109 
0 
0 
-2.568125211946371 
0 
0 
0 
0 
0 
0 
0.7709694750771575 
0 
0 
0 
0 
0 
0 
0 
0 
0 
0 
0 
0 
0 
0 
0 
0 
0.4103560200285687 
0 
0 
0 
0 
0 
0 
0 
-0.1632567392635954 
0 
0.8978395817493452 
0 
0 
0 
0 
0 
0 
0 
0 
0 
0.6522455161945918 
0 
0.5664030636791098 
0.2365475206237858 
0 
0 
0 
0 
0 
0 
0 
0 
0 
0 
0 
0 
1.537117338853045 
0 
0.4366426355412907 
1.810141058762733 
0 
0.3636521860759599 
0 
0 
0.2882220780859866 
0 
0 
0 
0 
0.06642152855422551 
0 
0 
0 
0 
0 
0 
0 
0 
0 
0 
0 
0 
0 
0 
0 
-0.5324693851649563 
0 
0 
0 
0 
0 
0 
0 
0 
0 
0 
0 
0 
0 
0 
0 
0 
1.280236661089275 
0 
0 
1.356433815705131 
0 
0 
0 
0 
0 
0 
0 
0 
0 
0 
0 
0 
0 
0 
0 
0 
0 
-1.372775541233522 
0.4689342837566612 
0 
0 
0 
0 
0 
0 
0 
0 
0 
0 
0 
0 
0 
0 
0 
0.8609182517924813 
0.3078276833548588 
0 
0.0526744158812093 
0 
0 
0 
0 
0 
0 
0 
0 
0 
0 
0 
0 
0 
0 
1.790553199365568 
0 
0.7375577770259915 
0 
0 
0 
0 
0 
0.7289727838987365 
0 
0 
0.3178549593223303 
0 
0 
0 
0 
0 
0 
0 
0 
0 
0 
0 
0 
0 
0 
0 
0 
0 
0 
0 
0 
0 
0 
0 
0 
0 
0 
0 
0.6652689961994954 
0 
-1.705315531009754 
0 
0 
0 
0 
0 
0 
0 
0 
0 
0 
0 
0 
0 
0 
0 
0 
0 
0 
0 
0 
0 
0.7172201346480372 
0 
0 
0.1849906006493533 
0 
0 
0 
0 
0 
0 
0 
0 
0 
0.4637427273849644 
0 
0 
0 
0 
0 
0 
-0.09310842341105553 
0 
0 
0 
0 
0 
0 
0 
0 
0 
0.6063803285357683 
0 
2.250745827299411 
0 
0 
0 
0 
0 
0.7196084891142256 
0 
0 
0 
0 
0 
0 
0 
0 
0 
0 
0 
0 
0 
0.4753844542195882 
0 
0 
0 
0 
0 
-0.3836506561668807 
0 
0 
0 
0 
0 
-0.3480247005714038 
0 
1.252037387116218 
0 
0 
0 
0 
0 
0 
0 
0 
0 
0 
0 
1.720298600386883 
0 
0 
0 
0 
0 
0 
0 
0 
0 
0.1917609190920083 
0 
0 
0 
0 
0 
0 
0 
0 
-0.7398246969163909 
0 
0 
0 
0 
0 
0 
0 
0 
0 
0 
0 
0 
0 
0 
0 
0 
0 
0 
0 
0 
0 
0 
0.4443311710391312 
0 
0 
1.281551179976282 
0 
0 
0 
0 
0 
0 
0 
0 
0 
0 
0 
1.638427619747462 
0 
0 
0 
0 
0 
0 
0 
0.5993455828947243 
0 
0 
0 
-0.1937702045840027 
0 
1.19387242741891 
0 
0 
0 
0 
0 
0 
0 
0 
0.3896865371310564 
0 
0 
0 
0 
0 
0 
0 
0 
0 
0 
0.7244183403993357 
0 
1.669775994898483 
1.551519844881253 
0 
0 
0 
0 
0.8285994420330828 
0 
0.3524136963671293 
0 
0 
0 
0 
0 
0 
0 
0 
0.7029482050421269 
0 
0 
0 
0.02469284730696653 
0 
0 
0 
0 
0 
0 
0 
0 
0 
0 
0 
0 
0 
0.2353806249654136 
0 
0 
0 
0 
0 
0 
0 
0.03372765602707987 
0.05776796858135097 
0 
0.06845071367651231 
0 
0 
0 
0 
0 
0 
0 
0 
0 
0 
0 
0 
0 
0 
0 
0 
0 
0 
0 
0.3386033513541302 
0 
0 
0 
0 
0 
0 
0 
0 
0 
0 
0 
0 
0 
0 
0 
0 
0 
0 
0 
0 
0 
0 
0 
0 
0 
0 
0 
0 
0 
0 
0 
0 
0 
0 
0 
0.5158814989472972 
0 
0 
0 
0.4590572595876687 
0 
0 
0 
0 
0 
0 
-0.4224738700455342 
0.6281060140412477 
0 
0 
0 
0 
0 
2.249781227866668 
0 
0 
0 
0 
0 
-0.2103064546455141 
0 
0 
0 
0 
-0.7491002522408969 
0 
0 
0 
0 
0 
0 
0 
0 
0 
0 
0 
0 
0 
1.923698169711057 
0 
0 
0 
0 
0.8579259668747393 
0 
0 
0 
0 
0 
0 
0 
0 
0 
0 
0 
0 
0 
0 
0 
0 
0 
0 
0 
0 
0.8279802330747772 
1.389533255701126 
2.282598039631491 
0 
1.151521305564223 
0 
0 
-0.7025699199129579 
0 
0 
1.50925946199299 
0 
0 
0 
0 
0 
0 
0 
0 
0 
0 
0 
0 
0 
0 
0 
0 
0 
0 
0 
1.580770426885417 
0 
0 
0 
0 
0.3886665732336743 
0 
0 
1.800464249749445 
0 
0 
0 
0 
0 
0 
0 
0 
0 
0 
0 
0 
0 
0 
0 
1.885485305380298 
0 
0 
0 
2.001557577340104 
0 
0 
0 
0 
0 
0 
0 
0 
0 
0 
0 
0 
0 
0 
0 
0 
0 
1.017939646244308 
0 
0.1140586591988759 
0.3486868943868776 
0 
0 
0 
0 
-0.1120068050531055 
0 
0 
0 
0 
-0.1433476245349709 
0 
0.8138860270485023 
0 
0 
0.2162316562962137 
0 
0 
0 
0 
0 
0 
0 
0 
0 
0 
0 
1.126549727751605 
0 
-2.268377070363499 
0 
0 
0 
0 
0 
0 
0 
0 
0 
0 
0 
0 
0 
0 
0 
0 
0 
1.860118659899625 
0 
0 
0.7014311474524901 
0.3027280464843519 
1.208863789611006 
0.08111173524624787 
0 
0 
0 
0 
0 
0.4106161795587804 
0 
0 
0 
0 
0 
0 
1.467167352600641 
0 
0 
-0.392964937198617 
0.09464554318433931 
0 
0 
0 
0 
0 
0 
0.6365165706524768 
0 
0 
0 
0 
0 
0 
0 
0 
0.7436066191878341 
0 
0 
0 
0 
0 
0 
0 
0 
0 
0 
0 
0 
0 
0 
0 
1.322327954225604 
0 
0 
0 
0 
0 
0 
0 
0 
0 
3.518271193186413 
0 
0 
0 
0 
0 
0.5386859476636048 
0.1591806358030789 
0.9132812753381901 
0 
0 
0 
0 
0 
0 
0 
0 
0 
0 
0 
0 
0 
0 
0.3020371239638179 
0 
0 
0.4169608362222904 
0 
0 
0 
0 
0 
0 
0 
0 
0 
0.2635648751969163 
0 
0.1240678023102712 
0 
0.4894411466328877 
0.6508521466817219 
0 
0.4049188855115864 
0 
0 
0 
0 
0 
0 
0 
0 
0 
0 
0 
0 
0 
0 
0 
0.6067495704425553 
0 
0 
0 
0 
0 
0 
0 
0 
0 
0 
0 
0 
0 
0 
0 
0 
0 
0 
0.3055534195831902 
0 
0 
0 
0 
0 
-0.8909366499876965 
0 
0 
0 
0 
0 
0.9591216156760133 
-0.6169631712364191 
0 
0 
0 
0 
0 
0 
0 
1.398963048779128 
0 
0 
0 
0 
3.207924626057983 
0 
0 
0 
0 
0 
0 
0 
0 
0 
0 
0 
0 
0 
0 
0 
0.369498679144836 
0 
0 
0 
0 
2.173724048996387 
1.046959546592813 
0 
0 
0 
0 
0.6886642448711097 
0 
0 
0 
0 
0 
2.641039749027753 
0 
0 
0 
0 
0 
0 
0 
0 
0 
0 
0 
0 
0 
0 
0 
0 
0 
0 
0 
0.2917132439601753 
0 
0 
0 
0 
0 
0 
0 
0 
2.982464408665197 
1.046531023130624 
0 
0 
1.140841978671183 
-1.161247972756801 
0 
0 
0 
0 
0 
0 
0 
0 
0.4812476944642338 
0 
0 
0 
0 
0 
0 
1.723976631304693 
0 
0 
0 
-0.2723769035160902 
0 
2.019470136645224 
0 
-0.7278894037190918 
0 
0 
0 
0 
0 
0 
0.8446405035607804 
0 
0.5359309898134145 
0 
0 
0 
-1.57389779405732 
0.1960663062173189 
0 
0 
0 
0 
0.9118584800168571 
0 
0 
0 
0 
0 
0 
0 
0 
0 
0 
0 
0 
1.248918148388448 
0 
0 
1.131836674777478 
0 
0 
0 
0 
0 
0 
0.2793222772182876 
0 
0 
0 
0 
0 
0 
0 
0 
0.6478347929861633 
0 
0 
0 
0 
0 
0 
0 
0 
0 
0 
0 
0 
0 
0 
0 
0 
0 
0 
0 
0 
0 
0 
0 
0 
0 
0 
0 
0 
0 
0 
-0.8054762400695346 
0 
0 
0.966402073386914 
0 
0 
0 
0.26922926466482 
0 
0 
0 
0 
0 
0 
0.5859450808489227 
0 
0 
0 
0 
0 
0 
0 
0 
0 
0 
0 
0 
0 
0 
0 
0 
0.960161068423362 
-0.1029754632722927 
0 
0 
0 
0 
0 
0 
-0.1297753959692737 
0 
0 
0.6264697845102625 
0 
0 
0 
0 
0 
0 
0 
0 
0 
0 
0 
0 
0 
1.764863909024962 
0 
0 
0.9250263945915036 
0 
0 
0 
0 
0 
0 
0 
0 
0 
0 
0 
0 
0 
0 
0 
2.424942091784538 
0 
0 
0 
0 
0 
0 
0 
0 
0 
0 
0 
0.03306082933228423 
0 
0 
0 
0 
0 
0 
0 
0 
0 
0 
1.062197256539537 
0 
0 
0 
0 
0 
0 
2.038597112409498 
0 
0 
0 
0 
0 
0 
0 
0 
0 
0 
0 
0 
0 
0 
0 
0 
0 
0 
0 
0 
0 
-0.0283093659451277 
0 
0 
0 
0 
0 
0.6562050538313392 
0.03119909623048071 
0 
0 
0 
0 
0 
0 
0 
0 
0 
0.668812027023739 
2.905194812216354 
0 
0 
0.2547975325467634 
0 
0 
0 
-3.260740438643361 
0 
0 
0 
0 
0 
0 
0 
1.686494185598007 
2.200846507172279 
0 
0 
0 
0 
0 
1.339584261665358 
0 
-1.21395094323445 
0 
0 
0 
0 
0 
0 
0 
0 
0 
0 
0 
0 
-0.7383603719812083 
0 
0 
0 
0 
0 
0 
0 
0 
0 
1.6039149731013 
-1.190491520874774 
0 
0 
0.7886997023927029 
0.07433834877325869 
0 
0 
0 
0 
0 
1.458460619213869 
0 
0 
0 
0 
0 
0 
0 
0 
0 
0 
0 
0 
0 
0 
0 
0 
0 
0 
0 
0 
0 
0 
0 
0 
0 
0 
0 
0 
0.4418939869311876 
0 
0 
0 
0 
0 
0 
0 
0.3319231500286217 
0 
0 
0 
0 
0 
-0.647375889344759 
1.084727039541792 
0 
0 
0 
0 
0 
0 
0 
0 
0 
0 
0 
0 
0 
0 
0 
0 
0 
0 
0 
0 
0 
2.005466336283031 
0.8456145598618774 
0 
0 
0 
0 
0 
0 
0 
0 
0 
0 
0 
0 
0 
0 
0 
0 
0 
0 
0 
0 
0 
0 
0 
0 
0 
-0.1752931435676917 
0 
0 
0 
0 
-1.21862977728398 
0 
0 
0 
2.214710751473863 
0 
0 
0 
0 
0 
0 
0 
0 
0 
0 
0 
0 
0 
0 
0.5016322576621729 
0 
-0.2604743843482161 
0.06156467295530497 
0.1381776826444709 
0 
0 
0 
0 
0.9894468818978078 
0.3967137884750906 
0 
0 
0 
0 
-0.02749837760629148 
0.899661583888234 
0 
0 
0.1929652897507606 
0.6250245317443385 
-0.4885650654158513 
0.1456106250212697 
0 
0 
0 
0.6974985424132116 
0 
0 
-0.7464177766404133 
0 
-0.4537754890567532 
0 
0 
0 
0 
0 
0 
0 
0 
0 
1.35895206827061 
0 
0 
0 
0 
0.4050231483144058 
0.9616213513306605 
0.09919560131752075 
0 
0 
0 
0 
0 
0.5039326474104374 
0 
0 
0 
0 
0 
0 
0 
0 
0 
0 
0 
0 
0 
0 
0 
0 
0 
0 
0 
2.566476325814515 
0 
1.350008756719174 
0 
0.5170837109828074 
0 
0 
0 
0 
0 
-0.8112210420445639 
0 
0 
0 
0 
0 
0 
0 
0 
0.7513661135292107 
0 
0 
0 
0 
0 
0 
0 
1.004557296175641 
0 
-0.5713551308888324 
0 
0 
0 
0 
0.09886228306257988 
0 
0 
0 
1.831544481912422 
0 
0 
0 
0 
0 
0 
0 
0 
0 
0 
0 
0 
0 
0 
0 
0 
0 
0 
0 
0 
-0.1223543088484557 
0 
0 
0 
0 
0 
0 
0 
0 
0.8196051804964181 
3.061886892797254 
0 
0.7497627828280059 
0 
0 
0.7699263717456313 
0 
0 
0 
0 
0 
0.5079652067975301 
0 
0 
0 
0 
0 
0.5031449354978883 
0 
0 
0 
0 
0 
0 
0 
0 
0 
0 
0.8337304352339762 
0 
0 
0 
0 
0 
0 
-0.02067291047105865 
0 
0 
0 
0 
0 
0 
0 
1.153867187181884 
0 
0 
0 
0 
0 
0 
0 
0 
0 
0 
0 
0 
0 
0 
0 
0 
0 
0 
0 
0 
0 
0 
0 
-0.4906223877502099 
0 
0 
0 
0 
0 
0 
0 
0 
0 
0.01069394990791626 
0 
0 
0 
0 
0 
2.731497043947396 
0 
0 
0 
0 
0 
0 
0 
0 
0 
0 
0 
0 
0 
0 
0 
0 
0 
0 
0 
0 
0 
0 
-0.1834761798582525 
0 
0 
0 
0 
0 
0 
0 
0 
0 
0 
0 
0 
0 
0.1920719335396809 
0 
0 
0 
0 
0 
0 
0 
0 
0 
0 
0 
0 
0 
-1.824246196855686 
0 
0 
0 
0 
0 
0 
0 
0 
1.063583650166899 
0 
1.939751824484049 
0.3976674562405886 
0 
0 
0 
0 
0 
0 
0 
0 
1.867283162301319 
0 
0 
0.4306728489603003 
0 
0 
0 
0 
0 
2.238405172448418 
0 
0 
0 
0 
0 
0 
0 
0 
0 
0 
0 
2.413717133594658 
0 
0 
0 
0 
0 
0 
0 
0 
0 
0 
0 
1.880974146115375 
1.903922663622533 
0 
0 
0 
0 
0 
0 
0 
0 
1.033315127506111 
0 
0 
0 
2.239249269305472 
0 
0 
1.198475217441471 
0 
0 
0 
0 
0 
0 
0 
0 
0 
0.4765436855374552 
0 
0 
0 
0 
0 
0 
0.570590968471008 
0 
0 
0 
0 
0 
0 
0 
0 
0 
0 
0 
0 
0 
0 
0 
0 
0 
0 
0 
0 
0 
0 
0 
0 
0 
0 
0 
0 
0 
0 
0 
0 
2.194117296376981 
-2.071923310034781 
0 
0 
0 
0 
0 
0.5984806715248816 
0 
1.291335999495766 
0 
0 
0 
0 
-0.2826150630126534 
0 
1.386294361119891 
0 
0 
0 
0 
0 
0 
0 
0 
0 
0 
0 
0 
0 
0 
0 
0 
0 
0 
0 
0 
0 
0 
0 
0 
-0.4306241478163689 
0.2240162030847114 
0 
0 
-0.583163456842472 
0 
-0.187124267139036 
0 
0 
0 
0 
0.9035076793875768 
0 
0 
0 
0 
0 
0 
0 
0 
0 
0 
0 
0 
0 
0.3586006290093428 
0 
0 
0 
0 
0 
0 
0 
-0.07427093714431041 
0 
0 
0 
0 
0 
0 
0 
0 
0 
0 
0 
0 
0 
0 
0 
0 
0 
0 
-1.154317713759073 
0 
0.4294811832259893 
0 
0 
0 
0 
0 
0 
0 
0 
0 
0 
0 
0 
0 
0 
0.2100359155800369 
0 
1.743420434876338 
0 
0 
0 
0 
0 
0 
0 
0 
0 
0 
0 
0 
0 
0 
0 
2.466964845070263 
0 
0 
0.451936734106231 
2.357771373166305 
0 
0 
0 
0 
0 
0 
0 
0 
0.2710879367999814 
0 
0.2101006226430297 
0 
0 
0 
0 
0 
0 
0 
0 
0 
0.4153608111784478 
0 
0 
0 
0 
0 
0 
0 
0 
0 
0.04020538052514717 
0 
-0.02880658288320679 
0 
0 
0 
0 
0 
0 
0 
0 
0 
0 
0 
0 
0 
0 
0 
0.5131697011870923 
0 
0 
0 
0 
0 
0 
0 
0 
0 
0 
0 
0 
0 
-0.6337097871178914 
0 
0 
0 
0 
0.4440054681274124 
0 
0 
0.08413130915751113 
0 
-0.4057151857700929 
0 
1.455464125696903 
0 
0 
0 
0 
0 
0 
0 
0 
0 
0 
0 
0 
0 
0 
0 
0 
0 
0 
0 
0 
0 
0 
0 
0 
0 
0 
0 
0 
0 
0 
0 
0 
0 
0 
0 
0 
0 
0 
0 
0 
0 
0 
0 
0 
0 
0 
0 
0 
0 
0 
0 
0 
0 
0 
0 
0 
0 
0 
0 
0 
0 
0.7732285165015464 
0.3433641471005427 
0 
0 
0 
0 
0 
0 
0 
0.5004291985046839 
0 
0 
0 
0 
0 
0 
0 
0 
0 
0 
0 
0 
0 
0 
0 
0 
-1.678740051578092 
0 
0 
0 
0 
0 
0.2643358616562029 
0 
0 
0 
0 
0 
0 
0 
0 
0 
0 
0 
0 
0 
0 
0 
0 
0 
0 
0 
0.07679087999493907 
0 
0 
0 
0 
0 
0 
0 
0 
0 
0 
2.027646562520071 
0 
0 
0 
0 
0 
0 
0 
0 
0 
0 
0 
0 
1.27171157889658 
0 
0 
0 
-1.349909204468976 
0 
0 
0 
0 
0.3945928650840909 
0 
0 
0 
0 
0 
0 
0 
0 
1.415257891331754 
0 
0 
0 
0 
0 
0 
0 
0 
0 
0 
0 
0 
0 
0 
0 
0 
0 
0 
0 
0 
0 
0 
0 
0 
0 
0 
0 
0 
0 
0 
0 
0 
0 
0 
0 
0 
0 
0 
0 
-0.6777074509200692 
0 
0 
0 
0 
0 
0 
0.366452551314539 
0 
0 
0 
0 
0 
0.5878092329975416 
0 
0 
-0.1461803323856239 
0 
0 
0 
0 
0 
0 
0 
0 
0 
0 
0 
0 
0 
0 
0 
-2.305015556052256 
0 
0 
0 
0 
0 
0 
0 
0 
0 
0 
0 
0 
0 
0 
-2.055642900570671 
0 
0 
0 
0 
0 
0 
0.2911085403761974 
0 
2.673674808207426 
0 
0 
0 
0 
0 
0 
0 
0 
0 
0 
0 
0 
0.6490442806728505 
0 
0.6934476295980334 
0 
0 
0 
0 
0 
0 
0 
0 
0 
0 
0 
0 
0 
0 
0 
0 
0 
0 
0 
0 
0 
0 
0 
0 
1.655640499865223 
0 
0.3566132194395681 
0 
0 
0 
0 
0.007596172013388631 
1.919638487144245 
0 
0 
0 
0 
0 
0 
0 
0.5355060241136042 
0 
0 
0 
0 
0 
0 
0 
0 
1.436805538730714 
0 
0 
0 
0 
0 
0 
0 
0 
0 
0 
0 
0 
0 
0 
0 
0.2662976570421546 
0 
0 
0 
0 
0 
0 
0 
0 
0 
0 
0 
0 
0 
0 
0 
0 
0 
0 
0 
0 
0 
0 
0 
0.3000866188383003 
0 
0 
0 
0 
0 
1.022306387239731 
0 
0 
0 
0 
0.03459406204681037 
0 
0 
0 
0 
0 
0 
0 
0 
0 
0 
0 
0 
0 
0 
0 
0 
0 
0 
0 
0 
0 
0 
0 
0 
0 
0 
0 
0 
0 
0 
0 
0 
0 
0 
0 
0 
0 
0 
0 
0 
0 
0 
0 
0 
0.03675333548832269 
0 
0.4511849177871108 
0.3875634692972294 
0 
0 
2.921778698039573 
0 
0 
0 
0 
1.086436617248414 
0 
0 
0 
0 
0 
0 
0 
0.9174474658709851 
0 
1.511892240732182 
0 
0 
0 
0 
1.113251139984053 
0 
0 
0 
1.915950050966468 
0 
0 
0 
1.505097226979929 
0 
0 
0 
0 
0 
0 
0 
0 
0 
0 
0 
0 
0 
0 
0 
0 
0 
0 
0.4644216856090522 
0 
0.8102508141276609 
0 
0 
0 
0 
0 
0 
0 
0 
0 
0 
0 
0 
0.9497282662770623 
0 
0 
1.782514457647584 
0 
0 
0 
0 
0 
0 
0 
0 
0 
0 
0.4569209376791862 
0 
0.749755290377554 
0 
0 
1.03521545918336 
0 
0 
-0.2051581608001663 
0 
0 
0 
0 
0 
0 
0 
0 
0 
0 
0 
0 
0 
0 
0 
-0.3692187646005314 
0 
0 
0 
0 
1.721843795275477 
0.8640196475322897 
0 
1.090572378646378 
0 
0 
0 
0 
0 
0 
0 
0 
0 
0 
-1.394838142140759 
0 
0 
0 
0 
0 
0.118927901145786 
0 
0 
0 
0 
1.670278428642023 
0 
0.59607115521387 
0 
0 
0 
0 
2.250238927774451 
0 
0 
2.020626917545084 
0 
0 
0 
0 
0 
0 
0 
0.8638342179597805 
0 
0 
0 
0 
0 
0 
0 
0 
-0.7635939124569617 
0 
0 
0 
0 
0 
-1.775217874887611 
0 
0 
0 
0 
0 
0 
0 
0 
0 
0 
0 
0 
0 
0 
0 
0.7436894243358213 
0 
0 
0 
0 
0 
0 
0 
0 
0 
0 
0 
0 
0 
0 
0 
0 
0.07762941575931953 
0 
0 
0 
0 
0 
0 
0 
0 
0 
0 
0 
0 
0 
0 
0 
0 
0 
0 
0 
0 
0 
0 
0 
0 
0 
0 
0 
0 
0 
0 
0 
0 
0 
0 
0 
0 
0 
0 
0 
0 
0 
0 
0 
0 
0 
0 
-0.3116800483276407 
2.897236105149637 
0 
0 
0 
0 
0 
0 
0 
0 
0 
0 
0 
0 
0 
0 
0 
0 
0 
0 
0 
0 
0 
0 
0 
0 
1.386294361119891 
0 
0 
0 
0 
0 
0 
0 
0 
0 
0 
0 
0 
0.7579964289850099 
0.5215192525688189 
0.05696795152833756 
0.2094436883566917 
0 
0 
0 
-0.3218765744849537 
0 
0 
0 
0 
0 
0 
0 
0 
0 
0.7313423478238847 
0 
0 
0 
0 
0 
0 
0 
0 
0 
0 
0 
1.380809754927558 
0 
0 
0 
0 
0 
0 
0 
-1.949900712345914 
0 
0 
0 
0 
0 
0 
1.312251095111703 
1.601008444042862 
0 
0 
0 
0 
0 
-0.9626363977807258 
0 
0 
0 
0 
0 
0 
0 
0 
0 
0 
0 
0 
0 
0 
-0.341546986167794 
0 
0 
0 
0 
-0.3226685153853814 
0 
0 
0 
0 
0 
0 
0 
0 
1.386294361119891 
0 
0.6947441053756223 
0 
0 
0 
0 
0 
1.090699945994424 
0 
0 
0 
0 
0 
0 
0 
0 
0 
0.1654739109389481 
0 
0 
0 
0 
0.2321985449003073 
0 
0 
0 
0 
0 
0 
0 
0 
0 
0 
0 
1.261121112198477 
0 
0 
0 
0 
0 
0 
0 
0 
0.5057704716174702 
0 
0 
0 
0.9196921205872916 
0 
0 
0 
0 
0 
0 
0 
0 
0 
0 
0 
0 
0 
0 
0 
0 
0 
0 
0 
0 
0 
0 
0.7887134940743091 
0 
0 
0 
1.663758850076551 
0 
0 
0 
0 
0.2893108305312196 
1.39731130637102 
0 
0.3947378960966358 
0 
0 
0 
0 
0 
0 
0 
0 
0 
0 
0 
0 
1.128894545240237 
0 
0 
0 
0 
0 
0 
-2.643856231548003 
0 
0 
0 
0.8115875812788941 
0.5815135664007177 
0 
0 
0 
0 
0 
0 
0 
0 
0 
0.2893465162056153 
0 
0 
0 
0 
0 
0 
0 
0 
0 
0 
0 
0 
0 
0 
0 
0 
0.09790283520678426 
0 
0 
0 
0 
0 
1.926940139443633 
0 
0 
0 
0 
0 
0 
0 
-0.5524431498092908 
0 
0 
0 
0 
0 
2.252547097550641 
0 
0 
0 
0 
0 
0.6436857577242373 
0 
0 
0 
0 
0 
0 
0 
0 
0 
0 
0 
0 
0 
0 
0 
0 
0.9174268586381842 
-0.709787584349253 
0 
0 
0 
0 
1.551644923366533 
0.067179632144233 
0 
0 
0 
0 
0 
0 
0 
0 
0 
0.07813343639897836 
0 
0 
0 
-0.2246962244073503 
0 
0 
0 
0.8524360430112157 
-0.7541162491652353 
0 
0 
0 
0 
0 
0 
0 
0 
0 
0 
0 
0 
0 
0 
0 
0 
1.468985042200247 
0.6013404799782652 
0 
0 
0.2643298828847936 
0 
0 
0 
0 
0 
0 
0 
0 
0 
0 
0 
0 
0 
0 
0 
0 
0 
0 
0 
2.129479534845567 
0 
0 
0 
-1.274027537059047 
0 
0 
0 
0 
0 
0 
0 
0 
0 
0.7087263739755907 
0 
0.6388032771850696 
0 
0 
0 
0 
0 
0 
0 
0 
0 
0 
0 
0 
0 
0 
0 
0 
0 
0.2631777802322703 
0 
0 
0 
0 
0 
0 
0 
0 
0.4235999927687699 
0 
0.7803273383265625 
0 
0 
0 
0 
-1.643205210051311 
0 
0 
0 
0.9499672391088562 
0 
-0.7082531142428592 
0 
0 
0 
0 
0 
0 
0 
0 
0 
0 
0 
1.432441073664285 
0 
0 
0 
0 
0 
0 
0 
0 
0 
0 
0 
0.7254148659614964 
0 
0 
0 
0 
0 
0 
0 
0 
0 
0 
0 
0 
0 
0 
0 
0 
0 
0 
1.020618328661085 
0 
2.600022639179187 
0 
0 
0 
0 
0 
0 
0.1035385027042101 
0 
0 
0.6337122124277924 
-0.2899535790778194 
0 
0 
0 
0 
-1.110204847949217 
0 
0 
0 
0 
0 
0 
2.089211996147812 
0 
0 
0 
0 
0 
0 
0 
0 
0 
2.558389925153474 
0 
0 
0 
0 
0 
0 
0 
0 
0.7210696030692536 
0.2823135338040754 
0.9382392147995186 
0 
0 
0 
0 
0 
-2.771601640212604 
0 
0 
0 
0 
0.2361090884134948 
0 
0 
0.8721740339579723 
0.1142473478256157 
0 
0 
0 
0 
0 
0 
0 
0 
0 
1.002735570947108 
0 
0 
0 
0 
0 
0 
0 
0 
0 
0 
0 
-0.9504879970586965 
0 
0 
0 
0 
0.002890742999616917 
0 
0 
0 
0 
0 
0 
0 
0 
0 
0 
0.4518491529527619 
0 
0 
0 
0 
0 
0 
0 
0 
0 
0 
0 
0 
0 
0 
0 
-0.611765315615836 
0 
0 
0 
0 
1.005662164316387 
1.48531700979077 
0 
0 
0 
0 
0 
0 
0 
0 
0 
0 
0 
0 
0 
0 
0 
0 
0 
0 
0 
0 
0 
0 
-0.2046253311036759 
0 
0 
0 
0 
0 
0 
0 
-0.1198272218195048 
-0.2512854686598884 
0 
0 
0 
0 
0 
0 
0 
0 
0 
0 
0 
0 
0 
0.3842909893010549 
0 
0 
0.3021865282574683 
0 
0 
0 
0 
0 
-0.1084105160716168 
1.367765459684355 
0 
0 
0 
0 
0 
0 
0 
0.05625500508700357 
1.48377515091148 
0 
0.1088570146043848 
2.121616045928124 
0 
0 
0.9056515120606553 
0.9429959679980262 
0.6200060166079673 
0 
0 
0 
0 
0 
-0.9653446908704995 
0 
0 
0 
0 
0 
0 
0 
0 
0 
0 
0.1306598153598539 
0 
0 
0 
2.005113159683706 
0.4765904328052538 
0 
0 
0 
0 
0 
0 
0 
0 
0 
0 
0 
0 
0 
0.1349824193123123 
0 
0 
0 
0 
0 
0 
0 
0 
0 
0 
0 
0 
0 
0 
0 
0 
0 
0.8264284054231084 
0 
0 
0 
0 
0 
0 
0 
0 
0 
0 
0 
0 
0 
0 
0 
0 
0 
2.554822741447396 
0 
0 
0 
0 
0 
0 
0 
0 
0 
-3.154085343862331 
0 
0 
0 
0.8295973322190064 
0 
0 
0 
0 
0 
0 
0 
0 
0 
0.4751596295039329 
0 
0 
0 
0 
0 
0 
0 
0 
0 
0 
0.8741720085484165 
0 
0 
0 
0 
0 
0 
0 
0 
0 
0 
0 
-1.269909458453285 
0 
0 
0 
0 
0 
0 
0 
0 
0 
0 
2.361545342088351 
0 
0 
0 
0 
0 
0 
0 
0 
0 
0 
0 
0 
0 
0 
0 
0 
0 
0.2322932471801234 
0 
0 
0 
0 
0 
0 
0 
0 
0 
0 
0 
0 
0 
0 
-1.344509146338891 
0 
0 
0 
0 
0 
0 
2.153909018845594 
0 
0 
0 
0 
0 
0 
0 
1.611642300294892 
0 
0 
0 
0 
0 
0 
0 
0 
0 
0 
0 
0.8360774982529126 
0 
0 
0 
0 
0 
0 
0 
0 
0 
0 
0 
0 
0 
0 
0 
0 
0 
0 
0 
0 
0 
0 
0 
0 
0 
0 
0 
0 
0 
0 
0 
0 
0 
0 
0 
0 
0 
0 
0 
1.032906987005772 
0 
0 
0.8797541567466591 
0 
0 
0 
0 
0 
0 
0 
0 
0 
0 
0.6997670807996462 
0 
0 
0 
0 
0 
-0.7323007456838398 
0 
0.6716947914339143 
0 
0 
0 
0 
0 
0 
0 
0 
0 
0 
0 
0 
0.7189578556375642 
0 
0 
0 
0 
0 
0 
0 
0 
0 
0 
0 
0 
0 
0.8172180394416029 
0 
0 
0 
0 
0 
0 
0 
0 
0 
0 
0 
0 
0 
0 
0 
0 
1.989727229256665 
0 
0 
0 
0 
0 
0 
0 
0 
0 
0 
0.535320725376718 
0 
0 
0 
0 
0 
0 
0 
0 
0 
0 
0 
0 
0 
0 
0 
1.836104278159545 
0 
0 
0 
0 
0 
0 
0.1773754284727156 
0 
0 
0 
0.1041916340780949 
0 
0 
0.4044131103902748 
0 
0 
2.797835934940548 
0.05245180980357544 
0 
0 
0 
0.4669000554914188 
-1.377006185066293 
0 
0 
0 
0 
0 
0 
0 
0 
0 
0 
0 
0 
0 
0 
0 
0 
0 
0 
0 
0 
-0.1649684007460256 
0 
0 
0.08227564682290867 
0 
0 
0 
0 
0 
0 
0 
0 
0 
0 
0 
0 
0 
0 
0 
0 
0 
0 
0 
0 
0 
0 
0 
0 
0 
0 
0 
0 
0 
0.03151842647746445 
0 
0 
0 
0 
0 
2.23285834583016 
0 
0 
0 
0 
0 
0 
0 
0 
0 
0 
0 
0 
0 
0 
0 
0 
0 
0 
0 
0 
0 
0 
0 
0 
0 
-1.560010950348546 
0 
0 
0 
0.640125773523054 
0 
0 
0 
0 
0 
0 
0 
0 
0 
0 
0 
0 
0 
0.9638020820102499 
0 
0 
0 
0 
0 
0.9598421426199162 
0 
0.8344007603033955 
0.4668478970689436 
0 
0 
0 
0.5322915803576914 
0 
0 
0.1788383305680828 
0.2046618736716604 
0 
0 
2.108359589821757 
0 
0 
0 
0 
0 
0 
0 
-0.3806061915597961 
0 
0 
0 
0 
0 
0 
0 
0 
0 
0 
0 
0 
1.346003171746628 
0 
0 
0 
0 
0 
0 
-0.5391502044423001 
0 
0.4439033566677433 
0 
0 
0 
0 
0.5808522684835379 
0 
0 
0 
0 
0 
0 
0 
0 
0 
0 
0 
0 
0 
0 
0 
0 
0 
0 
1.567702166248584 
0 
0 
0 
0.4270330500245657 
0 
0 
0.9760817787945224 
-0.7070943293136674 
0 
0 
0 
0 
0 
0 
0 
0 
0 
0 
0 
0 
0 
0 
0 
0.7293980873634447 
-1.390920805151141 
0 
0 
0 
0 
0 
0 
0.5209745244397324 
0 
0 
0 
0 
0 
0 
0 
0 
0 
1.279754575011227 
0 
0 
0 
0 
0 
0 
0 
0 
0 
0 
0 
0 
0 
0 
0 
0 
0 
0 
0 
0 
0 
0 
0 
0 
0 
0.7394682212725979 
0 
0 
0 
0 
0 
0 
0 
0 
0 
0 
0 
0 
0 
0 
0 
1.081199731462615 
0 
0 
0.04228469569129979 
0 
-1.607550700121699 
0 
0 
0 
0 
0 
0 
0 
0 
0 
0 
0 
0 
0 
0 
0 
0 
0 
0 
0 
0 
0 
0 
0 
0 
0 
1.27403977430979 
0 
0 
-0.6407848855864932 
0 
0 
0 
0 
0 
0 
0 
0 
0 
0 
0 
-0.334305286241905 
0 
0 
0 
0 
0 
0 
0 
0 
0.01402269861928977 
0 
-1.488254500436051 
0 
0 
0 
0 
0 
0 
0 
0 
0.04395142302418622 
0.2487304157798946 
0 
0 
0 
0 
0 
0 
0 
1.033759018395178 
0 
0 
0 
0 
0 
0 
0 
0 
0 
0 
0 
1.352396089670891 
0 
0 
0 
0 
0 
0 
0 
0 
0 
0 
-1.063678097744831 
0 
0.636704588386843 
0 
0 
0 
0 
0 
0 
0 
0 
0 
0 
0 
0 
0 
0 
0 
0 
0 
0 
0 
0 
-0.2962823648456301 
0 
0 
0 
0 
0 
0 
0 
0 
0 
0 
0 
0 
0 
0 
0 
0 
1.071361992379899 
1.386294361119891 
0 
0 
0 
0 
0 
0 
0 
0.9894701199322329 
0 
0 
0 
0 
0 
0 
1.218459230367156 
0 
0 
0 
0 
0 
0 
0 
0 
0 
0 
0 
0 
0 
0 
0.7616715764977163 
0 
0 
0 
0 
0 
0 
0 
-0.379697416783873 
2.561329965253432 
0 
0 
0 
0 
0 
0 
0 
0 
0 
0 
0 
0 
0 
0 
0 
0 
0 
0 
0 
0 
0 
0 
0 
0 
0 
0 
0 
0 
0 
0 
0 
0 
0 
0 
0 
0 
0 
0 
0 
0 
1.658832570136896 
0 
0 
0 
0 
0 
0 
0 
0.7425149973496664 
0 
0 
0.8871313434900253 
0 
0 
0 
0 
0 
0 
0 
0 
0.001299797899723395 
0 
0 
0 
0 
0 
0 
0 
0 
0 
0.6420405912712163 
0 
0 
0 
0 
0 
0 
0 
0 
0 
0 
-1.760816667188628 
0 
0 
0 
0 
0 
0 
0 
0 
0.1275240020391247 
0 
0 
0 
0.9686141937085218 
0 
0 
0 
0.5406166413962893 
0 
0 
1.040161864258169 
-0.1142210536929834 
0 
0 
0 
0 
0 
0 
0 
0 
0 
0 
0 
0 
0 
0 
0 
0 
0 
2.112987504199236 
0 
0 
0 
0 
0 
0 
0 
0 
0 
0 
0.9618468259893582 
0 
0 
0 
0 
0 
0 
0 
0 
0 
0 
0 
0 
0 
0 
0 
0 
0 
0 
0 
0 
1.14588820619979 
-0.7936386415670295 
0 
0 
0 
0 
0 
0 
0 
0 
0 
0 
0 
0 
0 
0 
0 
0 
0 
0 
0 
0 
0 
0 
0 
0 
0 
0 
0 
0 
0 
0 
-1.292661434051446 
1.218162595949325 
1.573950160733942 
0 
0 
0.5652952525607952 
0 
0 
0 
0 
0 
0 
0 
0 
0 
0 
0 
0 
1.559026721529672 
0 
0 
0 
0 
0 
0 
0 
0 
0 
0 
0 
0 
0 
0 
0 
0 
0 
0 
0 
0 
0 
0 
0 
0 
0 
0 
0 
0 
0 
0 
0 
0 
0 
0 
0 
-1.115359487309703 
0 
0 
0 
0 
0 
0 
0 
0 
0 
0 
0 
0 
-1.16365393778154 
0 
0 
0 
0 
0 
0 
0 
0 
0 
0 
0 
0 
0 
0 
0 
0 
0 
0 
0 
0 
1.776434649760807 
0 
0 
0 
0 
0 
0 
0 
0 
0 
0 
0 
0 
0.3540988150480908 
0.002851422752714518 
0 
0 
0 
0 
0.3158063245436121 
0 
-1.479588951807865 
0 
0 
0 
0 
0 
0 
0 
0 
0 
0 
0 
0 
0 
0 
0 
0 
0 
2.408554010839461 
0 
0 
3.855221583954449 
0 
0 
0 
0 
0 
0 
0 
1.764411591437594 
-0.2801665553049439 
0.9653424697132804 
0 
0 
0.9619263531262489 
0 
0 
0 
-0.1208539462635345 
1.076673317676058 
0 
0 
0 
-0.6010698122281738 
0 
0 
0 
0 
0 
0 
0.4468104092914729 
0 
0.5996412800425976 
1.122488066587009 
0.3828215109672059 
0 
0.993955359187917 
0 
0 
0 
0 
0 
0 
0 
0 
0 
0 
0 
0 
0 
0 
0 
0 
0 
0 
-1.181648812579227 
0 
0 
0 
0 
0 
0 
0 
0 
0 
0 
0 
0 
0 
0 
0 
0 
1.827825195005962 
0 
0 
0 
0 
-0.5191774515431921 
0 
0 
0.1265693133430135 
0 
2.231343036779501 
0 
0 
0 
0 
0 
0 
0 
0 
0 
0 
0 
0 
0 
0 
0 
0 
0 
0 
0 
0 
0 
1.453283179051747 
0 
0 
0 
0 
0 
0 
0 
0 
0 
0 
0 
0 
0 
0 
0 
0 
0 
0 
0 
0 
0 
0 
0 
0 
0 
0.904816842851409 
0 
0 
0 
0 
0 
0 
0 
0 
0 
0 
0 
0 
0 
0 
0 
0 
0 
0 
0 
0 
0 
0 
0 
0 
0 
0 
0 
0 
0 
0 
0 
0 
-1.585533475358903 
0 
0 
0 
0 
0 
0 
0 
0 
0 
0 
0 
0 
0 
0 
0.3793959537758883 
0 
0 
0 
0 
0 
0 
0 
0 
0 
0 
0 
0 
0 
0 
0 
1.38811609292428 
0 
0 
0 
0 
0 
0 
0 
0 
0 
0 
0 
1.289393804564041 
0 
0 
0 
0 
0 
0 
0 
0 
0 
0 
0 
0 
0 
0 
0 
0 
0 
0 
0 
0 
0 
0 
0.8152761183805936 
0 
0 
0 
0 
0 
0 
0 
0 
0.3200981991434351 
0 
0 
0 
0 
0 
0 
0 
0 
0 
0 
0 
0 
0 
0 
0 
0 
0 
0 
0 
0 
0 
0 
0 
0 
0 
0.1906661987471694 
0 
-0.501632860854503 
1.257915153942759 
0 
0 
0 
0 
0 
0 
0 
0.0864162721132353 
0 
0 
0 
0 
0 
0 
0 
0 
0 
0 
0 
0 
0 
0 
0 
0 
0 
0.2460766868474671 
0 
0 
0 
0 
0 
0 
0 
0 
0 
-0.5883981484014417 
0 
0 
0 
0 
0 
0 
0 
0 
0 
0.7852085740551793 
0 
0 
0 
0 
-1.322116635758508 
-0.4092344629742723 
0 
0 
0 
0 
0 
0 
0 
0 
0 
0 
0 
0 
0 
0 
0 
0 
0 
0 
0 
0 
0 
0 
0 
0 
0 
0 
0 
0 
0 
0 
0 
0 
0 
-1.437960251414196 
0 
0 
0 
0 
0 
0 
0 
0 
0 
0 
0.3279783409034491 
0 
0 
0 
0 
0 
0 
0 
0 
0 
0 
0 
0 
0 
0.107742564589773 
1.385760630523855 
0 
0 
0 
0 
0 
0 
0 
0 
0 
0 
0 
0 
0 
0 
0 
0 
0 
0 
0 
0.02278611132301463 
0 
0.01058514843783275 
0 
0 
0 
0 
0 
0 
0 
0 
0 
0 
0 
0 
0.1202194501937026 
0 
0 
0 
0 
0 
0 
0 
0 
0 
0 
0 
0 
0 
0 
0 
0 
0 
0 
0 
0 
0 
0 
0 
0 
0 
0 
0 
0 
0 
0 
0 
0 
0 
0 
0 
0 
0 
0 
0 
0 
0 
0 
0 
0 
0 
0 
0 
0 
0 
0 
0 
0 
0 
0 
0 
0 
0 
0 
0 
0 
0 
0 
0 
0 
0 
0 
0 
0 
0 
0 
0 
0 
0 
0 
0 
0 
0 
0 
0 
0 
1.07830152311235 
0 
-1.111949605197366 
0 
0 
0 
0 
0 
0 
0 
0 
0 
0 
0 
0 
0 
0 
0 
0 
0 
0 
0 
0 
0 
0 
0 
0 
0 
0 
0 
0 
0 
0 
-1.038059437732813 
0 
0 
0 
0 
0 
0 
0 
0 
0 
0 
0 
0 
0 
0 
0 
0 
0 
0 
0 
0.7734329976899434 
0 
0 
0 
0 
0 
0 
0 
-0.08449515798980528 
0 
0 
0 
0 
1.174490233093559 
0 
0 
0 
0 
0 
0 
0 
0 
0 
0 
0 
0 
0.4723501927128068 
0 
0 
0 
0 
0 
0 
0 
0 
0 
0 
0 
0 
0 
2.255203108509633 
0 
0 
0 
0 
0 
0 
0 
0 
0 
-0.1862838071704984 
0 
0 
0 
0 
0 
0 
0 
0 
0 
0 
0 
1.206610100984252 
0 
0 
0 
0 
0 
0 
0 
0 
0 
0 
0 
2.139136960664745 
0.6782749016275761 
1.004759621042321 
0 
0 
0 
0 
0 
0 
0.8119743787159696 
0 
0 
0 
0 
0 
0 
0 
0 
0 
0 
0 
0 
0 
0 
0 
0 
0.1997223052972181 
0 
0 
0 
0 
0 
0 
1.219766822819132 
2.39339988440224 
0 
0 
0 
0 
0 
0 
0 
0 
0 
0 
0 
0 
0 
0 
0 
0 
0 
0 
0 
0 
0 
0 
0 
0 
0.04399106329455807 
0 
0 
0 
0 
0 
0 
0 
0 
0 
0 
0 
0 
0 
0 
0 
0 
0 
0 
0 
0 
1.327678434454084 
0 
0 
0 
0 
0 
0 
0 
0 
0 
0 
0 
0 
0 
0 
0 
0 
0 
0 
0 
1.237982015622866 
0 
0 
0 
0 
0 
0 
0 
0 
0 
0 
0 
0 
0 
0 
0 
0 
0 
0 
0 
0 
0 
0 
0 
0 
0 
0 
0 
0 
0 
0 
0 
0 
0 
0 
0 
0.4139096313473805 
0 
0 
0 
0 
-1.340251752680516 
0 
0 
0 
0 
0 
0 
0 
0 
0 
0 
0 
0 
0 
0 
0 
0 
0 
0 
0 
0 
0.3893487671076785 
0 
0 
0 
0 
0 
0 
0 
0 
0 
0 
0 
0 
0 
0.5782918937476742 
0 
0 
0 
0 
0 
0 
0 
0 
0 
0.1796976819602097 
0 
0 
0 
0 
0 
0 
0 
0 
0 
0 
0 
0 
0 
0 
1.482780826568261 
0 
0 
0 
0 
0 
0 
0 
0 
0 
-1.936160700189744 
0 
0 
0 
0 
0 
0 
0 
0 
2.215951762457073 
0 
1.256141812176943 
0 
0 
0 
0 
0 
0 
0 
0 
0 
0 
0 
0 
0 
0 
-1.01883757880823 
0 
0 
0 
0 
0 
0 
0 
0 
0 
0 
0 
0 
0 
0 
0 
0 
0 
-0.5989804094418395 
0 
0 
0 
0 
0 
0 
0 
0 
0 
0 
0 
0 
0 
0 
0 
0 
0 
0 
-0.2970542413643575 
0 
0 
0 
0 
0 
0 
0 
0 
0.1862020192218197 
0 
0.6819097863949376 
0 
0 
0 
0 
0 
0 
0 
0 
0 
0 
0 
0 
1.338855986620988 
0 
0 
0 
0 
0 
0 
0 
0 
0 
0 
0 
0 
0.8372588056874372 
0 
0 
0 
0 
0 
0 
0 
0 
0.1766135683619316 
0 
0 
0 
0 
0.1556289942128074 
0 
0 
0 
0 
0 
0 
-2.599776785759106 
0 
0 
0 
0 
0 
0 
0 
0 
0 
0 
0 
0 
0 
0.4965796387963217 
0 
0 
0 
0.1033474722576618 
0 
0 
0 
0 
0.503094596012581 
0 
0 
0 
0 
0 
0 
0 
0 
0 
0 
0 
0 
0 
0 
0 
0 
0 
0 
0 
0 
0 
0 
0 
0 
0 
0 
0 
0 
0 
0 
0 
0 
0 
0 
0 
0 
0 
0 
0 
0 
1.085798100617889 
0 
0 
0 
0 
0 
0 
0 
0 
0 
0 
0 
0.2473092029675938 
0 
0 
0 
0 
0 
0 
0 
0 
0 
0 
0 
0 
0 
0 
0 
0 
0 
0 
0 
0.9497297511628987 
0 
0 
0 
0 
0 
0 
0 
0 
0 
0 
0 
0 
0 
0 
0 
0 
0 
0 
0 
0 
0 
0.3021741689980451 
0 
0 
0 
0 
0.6711514495250394 
0 
0 
0 
0 
0 
-0.1314443212225074 
1.320195723273892 
0 
0 
0 
0 
0 
0 
0 
0 
0 
0 
0 
0.7962790794593816 
0 
0 
-0.4091867511423811 
0 
0 
0 
0 
0.02466922727247501 
0 
-1.376968195566752 
0 
0 
0 
0 
0 
0 
0 
0 
0 
0 
0 
0 
0 
0 
0 
0 
0 
0 
0 
0 
1.078815616845291 
0 
0 
0 
0 
0 
0 
0 
0 
0 
1.398844212215893 
0 
0 
0 
0 
0 
0 
0.02757421890939111 
0 
1.476347106569926 
0 
0 
0 
0 
0 
0 
0 
0 
0 
0 
0 
0 
0 
0 
0 
0.5484763798730847 
0 
0 
0 
0 
0 
0 
-0.03204051295007834 
0 
0 
0 
0 
0.2544743800634773 
0 
0 
0 
0 
-0.5223499877835309 
0 
0 
0 
0 
0 
0 
0 
1.475462187839869 
0 
0 
0 
0 
0 
1.636811285777655 
0 
0 
0 
0 
0 
0 
0 
0 
0 
0 
0 
0 
0 
-0.3774352905531255 
0.32126420770532 
0 
0 
0 
0 
0 
0 
0 
0 
0 
0 
-0.03410146655780255 
0 
0 
0 
0 
0 
0 
0 
0 
0 
0 
0 
0 
-0.3941724999348607 
0 
0 
0 
0.6337849329298523 
0 
0 
0 
0 
0 
1.856471471159839 
0 
0 
0 
0 
0 
0 
0 
0 
0 
0 
0 
0 
0 
0 
0 
0 
0 
0 
1.384423048565576 
0.44265143234793 
0 
1.25581373844833 
0 
0 
0 
0 
0 
0 
0 
0 
0 
0.6930757368225039 
0 
0 
0 
0 
0 
0 
0 
0.56727836842012 
0 
0 
0 
0.2060664526896702 
0 
0.349419381709531 
0.6006575114312398 
0 
0 
0 
0 
0 
0 
0 
0 
0 
0 
0 
0 
0 
0 
0 
0 
0 
0 
0 
0 
0 
0 
0 
0 
0 
0 
0 
0.5968051697104937 
0 
0 
0.499241199858202 
0 
0 
0 
0 
0.8325749885910665 
0.771745763588102 
0.5873353822685472 
0 
0 
0 
-0.3571093800480823 
-1.40113831853868 
0 
0 
0 
0 
0 
0 
0 
-0.05961185165291974 
0 
0 
0 
0 
0 
0 
0 
0 
0 
0 
0 
0 
0 
0 
0 
-0.464915832857263 
0 
0 
0 
0 
0 
0 
-0.5562515582518345 
0 
0 
0.04989043056006861 
0 
0.9153319071344879 
0 
0 
0 
0 
0 
0 
0 
0 
0 
0 
0 
0 
0 
0 
0 
0 
0 
0 
0 
0 
0 
0 
0 
0 
0 
0 
0 
0 
0 
0 
0 
0 
0 
0 
0 
0 
-0.06469611294715992 
0.6828293428314267 
-0.2143528064858967 
0 
0 
0 
0 
0 
0 
0 
0 
0 
1.085398467178302 
0.4567529387031774 
0 
0 
0 
0 
0 
0 
0 
0 
0 
0 
0.8005705681922975 
0.8973891315922642 
0 
0.8491368210493619 
0 
0 
0 
0 
0 
0.8330543129937843 
0 
0 
0 
0 
0 
0 
0 
0.6584294539404151 
0 
0 
0 
0 
0 
0 
0 
0 
0 
0 
0 
0 
0 
0 
0 
0 
0 
-1.16359333141983 
0 
1.28605979047413 
0 
0 
0 
0 
0 
0 
0 
-0.9384864813547839 
0 
0 
0 
0 
0 
0 
0 
0 
0 
0 
0 
0 
0 
0 
0 
0 
0 
0 
0 
0 
0 
0 
0 
0 
0 
0 
0 
0 
0 
0 
0 
0 
0.9530352742851362 
0 
0 
0 
0 
-1.098297370807256 
0 
0 
0 
0 
0 
2.515845676849252 
0 
0 
0 
0 
1.563972793142922 
0 
0 
-0.1624547736359387 
0 
0 
0 
0 
0 
0 
0 
0 
0 
0 
0 
0 
0 
0 
0 
0 
0 
0 
0.4134268342672587 
0.1970273481397908 
0 
0 
0 
0 
0 
0 
0 
0 
0 
0 
3.490216271035089 
0 
0 
0 
0 
0 
0 
0.9506388611462943 
0 
-0.4427126688339176 
0 
0 
0 
0 
0 
0 
0 
0 
0 
0 
0 
-1.417477957794753 
0.8422004565882812 
0 
0 
0 
0 
0 
0 
0 
0 
0 
0 
0 
0 
0 
0 
1.458096758391949 
0 
0 
0 
0 
0 
0 
0 
0 
0 
0 
0 
0 
0 
0.4357277703522999 
0 
0 
0 
0 
0 
0 
0 
0.2286691869117614 
0 
0 
0 
0 
0 
0 
0 
0 
0 
0 
0 
0 
0 
0 
0 
0 
0 
0 
0 
0 
0 
0 
0 
0.3156380849804051 
0 
0 
0 
0 
0 
0 
0 
0 
-0.9935392713241487 
0 
0 
0 
0 
0 
0 
-1.026919633023259 
0 
0 
0 
0 
0 
0 
0 
0 
0 
0 
0 
0 
0 
0 
0 
0 
0 
0 
0 
0 
0 
0 
0 
0 
0 
0 
0 
0 
0 
0 
0 
0 
0 
0 
0 
0 
0 
0 
0 
0 
0 
0 
0 
0 
0 
0 
0 
0 
-0.440911603747526 
0 
0 
0 
0 
0 
0 
0 
0 
0 
0 
0 
0 
0 
0 
0 
0 
0 
0 
0 
0 
0 
0 
0 
0 
0 
0 
0 
0 
0 
0 
0 
0 
0 
0 
0 
0 
0 
0 
0 
0 
0 
0 
0 
0 
0 
0 
0.4417271513726921 
0 
0 
0 
0 
0 
0 
0 
0 
0 
0 
0 
0 
0 
0 
0 
-3.694955704438794 
0 
0 
0 
0.7354442512063605 
0 
0 
0 
0 
0 
0 
0 
0 
0 
0 
0 
0 
0 
0 
0 
0 
0 
0 
0 
0 
0 
0 
0.08221177127753856 
0 
0 
0 
0 
0 
0 
0 
0 
0 
0 
0 
0 
0 
0 
0 
0 
0.5643404430564257 
0 
0 
0 
0 
0 
0 
0 
0 
0 
0 
0.7190166818568412 
0.2436139445008927 
0 
0 
0 
0 
0 
0 
0 
0 
0 
0 
0 
0 
0 
0 
0.9825225380506861 
0 
0 
0 
2.164633338226182 
0 
0 
0 
0 
0 
0 
0 
0 
0 
0.8527812557385146 
0 
0 
0 
1.295278231340557 
0 
0 
0 
0 
0 
0 
0 
0 
0 
0 
0 
0 
0 
0 
0 
0 
0 
0 
0.7370212072243667 
0 
-0.6851538152136781 
0 
0 
0 
0 
0 
-0.221041962092395 
0 
0 
0 
0 
0 
0 
0 
0 
0 
0 
0 
0 
0 
0 
0 
0 
0 
0 
0 
0 
0 
0 
0 
0 
0 
0 
0 
0 
0 
0 
0 
0 
0 
0.3703419601459189 
0 
0 
0 
2.163054448570132 
0 
0 
0 
0 
0 
0 
0 
0 
0 
0 
0 
1.419594480042843 
1.825077571138799 
0 
0 
0 
0 
0 
0 
0 
0 
0 
2.09248212020008 
0.3819263557743378 
0 
0 
0 
1.526646002522054 
0 
0 
1.367672347048287 
0 
0 
0 
0 
0 
0 
0 
0 
0 
0 
0 
0 
0 
0 
0 
0 
0 
0 
0 
0 
0 
0 
0 
0 
0 
0 
1.162367773276248 
0 
0 
0 
0 
0 
0 
0 
0 
0 
-1.68070807397778 
0 
0 
0 
0 
0 
0 
0 
0 
0 
0 
0 
0 
0 
0 
0 
0 
0 
0 
0 
0 
0 
0 
0 
0 
0 
0 
0 
0 
0 
0 
0 
0 
0.8910617650266287 
1.949149085390919 
-1.453916489297732 
0 
0 
0 
0 
0 
0 
0 
0 
0 
0 
0 
0 
0 
0 
0 
0 
0 
0 
0 
0 
0 
0 
0 
0 
0 
0.2066863812129009 
0 
0 
0 
0 
0 
0 
0 
0 
0.458487798896888 
0 
0 
0 
0 
0 
0 
0 
0 
0 
0 
0 
0 
0 
0 
0 
1.523199454027582 
0 
0 
0 
0 
0 
0 
0 
0 
0 
0 
0 
0 
0 
0 
0 
0 
0 
0 
0 
0 
0 
0 
0 
0 
0 
0 
0 
0 
0 
0 
0 
0 
1.661851836275541 
0 
0 
0 
0 
0 
0 
0 
0 
0 
0 
-2.372452420157149 
0 
0 
0 
0 
0 
0 
0 
0 
-1.037529287957046 
0.03433574547328138 
0 
0 
0 
0 
0 
0 
0 
0 
0 
0 
0 
0 
0 
0 
0 
0 
0 
1.321768178089772 
1.853830856413878 
0.05728286334624504 
1.328518265363414 
0 
0 
0 
0 
0 
0 
0 
0 
0 
0 
0 
0 
0 
0 
0 
0 
0 
0 
0 
0 
0 
0 
0 
0 
0 
0 
0 
0 
0 
0 
0 
0 
0 
0 
0 
0 
0 
0 
0 
0 
0 
0 
0 
0 
1.969149627231042 
0 
0 
0 
0 
0 
0 
0 
0 
0 
0 
0 
0 
0 
0 
0 
0 
0 
0 
0 
0 
0 
0 
0 
0 
0 
0 
0 
0 
0 
0 
0 
0 
0 
0 
0 
0 
0 
0 
1.42551009321857 
0 
0 
0 
0 
0 
0 
0 
2.487137487695618 
0 
0 
0 
0 
0 
0 
0 
0 
0 
0 
0.7856032368370537 
0 
0 
0 
0 
0.6818842874633981 
0 
0 
0 
0 
0 
0 
0 
0 
0 
0 
0 
0 
0 
0 
0 
0 
0 
0 
0 
0 
0 
0 
0 
0 
0 
0 
0 
0 
0 
1.754314274623222 
0 
0 
0 
0 
0 
0 
0 
0 
0 
0 
0 
0 
0 
0 
0 
1.386294361119891 
1.19999999999904 
0.1769319851884173 
0.009362375932433541 
0 
0 
0 
0 
0 
0 
0 
1.601219399960824 
0 
0 
0 
0 
0 
0 
0 
0 
0 
0 
0 
0 
0 
0 
0 
0 
0 
0 
0 
0 
0 
0 
0 
0 
0 
0.1211901180634126 
0 
0 
0 
0 
0 
0 
0 
0 
0 
0 
0 
0 
0 
2.067129600051862 
0.1584925267215401 
0 
0 
0 
0 
0 
-0.2490089127986512 
0 
0 
0 
0 
0 
0 
0 
0 
0 
0 
0 
0 
0 
0 
0 
0 
0 
0 
0 
0 
0 
0.9011405226138933 
0 
0 
0 
0 
0 
0 
0 
0 
0 
0 
0 
0.1917401445075912 
0 
0.2457711755097362 
0 
-0.9116957283599486 
0.5098987603101947 
0 
0 
0 
0 
0.618178847926023 
1.386294361119891 
0 
2.344543419179159 
0 
0 
0 
1.386294361119891 
0 
0 
0 
0 
0 
0 
0 
0 
0 
0 
0 
0 
0 
0 
0 
0 
0 
0 
0 
0 
0 
0 
0 
0 
0 
0 
0 
0 
0 
0 
0.2857552200651037 
0 
0 
0 
0 
0 
0 
0 
0 
0 
0 
0 
0 
0 
0 
0 
0 
0 
0 
0 
0 
0 
0 
0 
0 
0 
0 
0 
0 
0 
0 
0 
0 
0 
0 
-0.7513590282132429 
0 
0 
0 
0 
0 
0 
0 
0 
0 
0 
0 
0 
0 
0 
0 
0 
0 
0 
0 
0 
0 
0 
0 
0 
0 
0.3650424251011092 
0 
0 
0 
0 
0 
0 
0 
0 
0 
0 
0 
0 
0 
0 
0 
0 
0 
0 
0 
0 
0 
0 
0 
0 
0 
0 
0 
-0.1775167610620564 
0 
0 
0 
0 
0 
0 
0 
0 
0 
0 
-0.349855455627126 
0 
0 
0 
0 
0 
0 
0 
0 
0 
0 
0 
0 
0 
0 
0 
0 
0.0770923880203067 
0 
0 
0 
0 
0 
0 
0 
0 
0 
0 
0 
0 
0 
0 
0 
0 
0 
0 
0 
0 
0 
0 
0 
0 
0 
0 
0 
0 
0 
0 
0 
0 
0 
0 
0 
0 
0 
0 
0 
0 
0 
0 
0 
0 
0 
0 
0 
0.3110191556764177 
0 
0 
0 
0 
0 
0 
0 
0 
0 
0 
0 
0 
0 
0 
0 
0 
0 
0 
0 
0 
0 
0 
0 
0 
0 
0 
0 
0 
0.7257064423942705 
0 
0 
0 
0 
0 
0 
0 
0 
0 
0 
0 
0 
0 
0 
0 
0 
0 
0 
0 
0 
0 
0 
0 
0 
0 
0 
0 
0 
0 
0 
0 
0 
0 
0 
1.128580465088669 
-0.05058374785177527 
-1.805429840250913 
0.4503142044782125 
0.7024023856820931 
-0.9965602385665854 
0.4374805842380531 
0 
0.9431506367551985 
0.5845435035970499 
1.035180137225362 
-0.2961685890381286 
0 
-0.3754773839672595 
0.1638670496254489 
-2.093272718491702 
0 
0.1529283614382574 
1.502065293963194 
0 
0 
0 
0 
0 
0 
0 
0 
0 
1.382386264997284 
0 
0 
0 
0 
0 
0 
0 
0 
0 
0 
-0.3084468237909154 
0 
0 
0 
0 
0 
1.268278709813201 
0 
0 
0 
0 
0 
0.2390694847616185 
0 
0 
-0.7616401161648106 
0 
0 
0 
0 
0 
0 
0 
0 
0 
0 
0 
0 
0 
0 
0 
0 
0 
0 
0 
0 
0 
0 
0 
0 
1.507655059143658 
0 
0 
0 
0 
0 
0 
0 
0 
0 
0 
0 
0 
0 
0 
-0.1280768600622604 
0 
0 
0 
0 
0 
1.222198319116596 
0 
0 
0 
0 
0 
0 
0 
0 
0 
0 
0 
0 
0 
0 
0 
0 
0 
0 
0 
0 
0 
0 
-0.2328396360705594 
0 
0 
0 
0 
0 
0 
0 
0 
-0.07599663010498238 
0 
0 
0 
0 
0 
0 
0 
0 
0 
0 
0 
0 
0 
0 
0 
0 
0 
0 
0 
0 
0 
0 
0 
1.764347917533678 
0 
0 
0 
0 
0 
0 
0 
0 
0.752420152168127 
0 
1.971004718160072 
0 
0 
0 
0.1079568670623599 
0 
0 
0 
0 
0 
0 
0 
0 
0 
0 
0 
0.5388129750425165 
0 
0 
0 
0 
0 
0 
0 
-0.7336691048141634 
0 
0 
0 
0 
0 
0 
0 
0 
0 
0 
0 
0 
0 
0 
0 
0 
0 
0 
0 
0 
0 
0 
0 
0 
0 
1.306423513590189 
0 
0 
0 
-0.007969996759214637 
0 
0 
0 
0 
0 
0 
0 
0 
0 
0 
0 
0 
0 
0 
0 
0 
0 
0 
0 
0 
0 
0 
0 
0 
0 
0 
0 
0 
0 
0 
0 
0 
0 
0 
0 
0 
0 
0 
0 
0 
0 
0 
0 
0 
0 
0 
0 
0 
0 
0 
0 
0 
0 
0 
0 
0 
0 
0 
0 
0 
0 
0 
0 
0 
0 
0 
0 
0 
0 
0 
0 
0 
-0.1170831449195279 
0 
0 
0 
-0.4493516077377916 
0 
0 
0 
0 
0 
0 
0 
0 
0 
0 
0 
0 
0 
0 
0 
0 
0 
0 
0 
0 
0 
0 
0 
0 
0 
0 
0 
0 
0 
0 
0 
0 
0 
0 
0 
0 
0 
0 
0 
0 
0 
0 
0 
0 
0 
0 
0 
0 
0 
0 
0 
0 
1.05027046089434 
0 
0 
0 
0 
0 
0 
-0.3257818419437601 
0 
0 
0 
0 
0 
0 
0 
0 
0 
0 
0 
0.09001792504279302 
0 
0 
0 
0 
0 
0 
2.630568088024565 
0 
0 
0.02716479425275411 
0 
0 
0 
0 
0 
0 
0 
0.6908440953202084 
0 
0 
0.5984546194346386 
0 
0 
0 
0 
1.2174319028672 
0 
0 
0 
0 
0 
-0.3251856174651229 
0 
0 
0 
0 
0 
0 
0 
0 
0 
0 
0 
0 
0 
0 
0 
0 
0 
0 
0 
0.3382113307762773 
0 
0 
0 
0 
0 
0.1696028413140275 
-1.135580941557692 
0 
-0.3428332352086255 
0 
0 
0 
0 
0 
0 
0 
0 
0 
0 
0 
0 
0 
0 
0 
0 
0 
0 
0.3440432036763627 
0 
0 
0.5483826235206294 
0 
0 
0 
0 
0 
0 
0 
1.642432196252346 
0 
0 
0 
0 
0 
1.337807602857801 
0 
0 
0 
0 
0 
1.043247138005219 
0 
0 
0.103278760160547 
0 
0 
0 
0 
0 
0 
0 
0 
0 
0 
0 
0 
0 
0 
0 
0 
0 
0 
0 
0.04273319516458939 
0 
0 
0 
0 
0 
0 
0 
0 
0 
0 
0 
0 
0 
0 
0 
0 
0 
0 
0 
0 
0 
0 
0 
0 
0 
0 
0 
0 
0 
0 
0 
0 
0 
0 
0 
0 
0 
0 
0 
0 
0 
0 
0 
0 
0 
0 
0 
0 
0 
0 
0 
0 
0 
0 
0 
0 
0 
0 
0 
0 
0 
0 
0 
0 
0 
0 
0 
0 
0 
0 
0 
0 
0 
0 
0 
0 
0 
0 
0 
0 
0 
0 
0 
0 
0 
0 
0 
0 
0 
0 
0 
0 
0 
0 
0 
0 
0 
0 
0 
0 
0 
0 
0.07602048929605691 
0 
0 
0 
0 
0 
0 
0 
0 
0 
0 
0 
0 
-1.243399837310406 
0 
0 
0 
0 
0 
0 
0 
0 
0 
0 
0 
0 
0 
0 
0 
0 
0 
0 
0 
0 
0 
0 
0 
0 
0 
0 
0 
0 
0 
0 
0 
0 
0 
0 
0 
0.1291135346066702 
0 
0 
0 
0 
0 
0 
0 
0 
0 
0 
0 
0 
0 
0 
0 
0 
0 
0 
0 
0 
0 
0 
0 
0 
0.06472553688487687 
1.019455791236578 
0 
0 
0 
0 
2.815292190709714 
0 
0 
0 
0 
0 
0 
0 
0 
0 
0 
0 
0 
0 
0 
0 
-0.02114912354752802 
0.1561849578523606 
0.08584232427457653 
0 
0 
0 
0 
0 
0.1793080759948905 
0 
0 
0 
0 
0 
0 
-1.507760842633082 
0 
0 
0 
0 
0 
0 
0 
0 
0 
0 
0 
0 
0 
0 
0 
0.6107571439012283 
0 
0 
0 
0 
-0.2392434010468946 
0 
0 
3.255520448970992 
0 
-2.699235886313786 
0 
0 
0 
0 
1.851917152643203 
0 
0 
0 
0 
0 
0 
0 
0 
0 
0 
0.4924561893569643 
0 
0 
0 
0 
0.9775179197449581 
0 
0 
0 
1.47485240493019 
0 
0 
0 
0 
0 
0 
0 
0 
0 
0 
-3.145011011521308 
0 
0 
0 
0 
0 
0.5173241855772791 
0 
0 
0 
0 
1.533081371252049 
0 
0 
0 
0 
0 
0 
0 
2.688472002923023 
0 
0 
0 
0 
0 
0 
0 
0 
0 
0 
0 
0 
0.03115945671557244 
0 
0 
0 
0 
0 
0 
0 
0 
0 
0 
0 
0 
0 
0 
0 
0 
0 
0 
0 
0 
0 
0 
0 
1.009084384968988 
0.9931019053711349 
0 
0 
0.8698831682100805 
0 
0 
0 
0 
0 
1.041002594980917 
0 
2.612848739100798 
0 
0 
0 
0 
0 
0 
0 
0 
0 
0 
0 
0 
0.05142311993982437 
0 
0 
0 
0 
0.570779754350054 
0 
0 
0 
0 
0 
0 
0 
0 
0 
1.110927050345374 
0 
0 
0 
0 
0 
0 
0 
0 
0 
0.006872179492859567 
0 
0 
0 
0 
0 
0 
0 
0 
0 
0 
0 
0 
0 
0 
0 
0 
0.3413918893556805 
0 
0 
0 
0 
0 
0 
0 
0 
0 
0 
0 
0.0485658802264426 
0 
0 
0 
0 
0 
0 
0 
0 
0 
0 
0 
0 
0 
0 
0 
0 
0 
0 
0 
0 
0 
0 
0 
0 
0 
0 
-0.6982717418527535 
0 
0 
0 
0 
0 
0 
0 
0 
0 
0 
0 
0 
0 
0 
0 
0 
0 
0 
0 
0 
0 
0 
0 
0 
0 
0 
0 
0 
0 
0 
0 
0 
0 
0 
0 
2.111720554021399 
0 
0 
0 
0 
0 
0 
0 
0.8773574914303368 
0 
0 
0 
0 
0 
0 
0 
0 
0 
0 
0 
1.825751989554867 
0 
0 
0 
0 
0.394157681848657 
0 
0 
0 
0 
0 
0 
0 
0 
0 
0 
0 
0 
0 
0 
0 
0 
0 
0 
0 
0 
0 
0 
0 
0 
0 
0 
0 
0 
0 
0 
0 
0 
0 
0 
0 
0 
0 
0 
0 
0 
0 
0 
0 
0 
0 
0 
0 
0.1910435023702686 
0.9716640713445539 
0 
2.607109469591996 
0 
0 
0 
0 
0 
0 
0 
0 
0 
0 
0 
0 
0 
0 
0 
0 
0 
0 
0 
0 
0 
0 
0 
0 
-0.03952438677095891 
0 
0 
0 
0 
0 
0 
0 
0 
0 
0 
0 
-3.856232941465899 
0 
0 
0 
0 
0 
0 
0 
0 
0 
0 
0 
0 
0 
0 
0 
0 
0 
-0.9788818119665001 
0 
0 
0 
0 
0 
0 
0.6991934451061487 
0 
0 
0 
0 
0 
0 
0 
0 
0 
0 
0 
0 
0.8589062982756556 
0 
0 
0 
0.8113007713308839 
0.7672334126608655 
0 
0 
-0.09353083745292946 
0 
0 
0 
0 
0 
0 
0 
0 
0 
0 
0 
0 
0 
0 
0 
0 
-0.6385498275220534 
0 
0 
0 
0 
0 
0 
0 
0 
0 
0 
0 
0.8931241799381411 
0 
0 
0 
0 
0 
1.829631074540055 
0 
0 
0 
0 
0 
0 
0 
0 
0 
0 
0 
0 
0 
0 
0 
0 
2.448997028468043 
0 
0 
0 
0 
0 
0 
0 
0 
0 
0 
0 
0 
0 
0.9085774330181986 
0 
0 
0 
0 
-0.0894625674370761 
0 
0.2923075114690946 
0 
0 
0 
0 
0 
0 
0 
0 
0 
0 
0 
0 
0 
0 
0 
0 
0 
0.5804482674371404 
0 
0 
0 
0 
0 
0 
0 
0 
0 
0 
0 
0 
0 
0 
0 
0 
0 
0 
0 
0 
0 
0 
0 
0 
0 
0 
0 
0 
0 
0 
0 
0 
0 
0 
0 
0 
0 
0 
0 
0 
0 
0 
0 
0 
0 
0 
0 
1.580051271543806 
0 
0 
0 
0 
0 
0 
0 
0 
0 
0 
0 
0 
0 
-1.919565535782608 
3.495583933045548 
0 
0 
0 
0 
0 
0 
0 
0 
0 
0 
0 
-0.6209346604025944 
0 
0 
0 
0 
0 
0 
0 
0.4898673569590094 
0 
0 
0 
0 
0 
0 
0 
0 
0 
0 
0 
0 
0 
0 
-1.513080667646599 
0 
0 
0 
0 
0 
0 
0 
0 
0 
0 
0 
0 
0 
0 
0.8977476434311932 
0 
0 
1.595596922072502 
0.1956311521282891 
0 
0 
0 
0 
0 
0 
0 
0 
0 
0 
0 
0 
0.1206532460954355 
0 
0 
0 
0 
0 
0 
0 
0 
0 
0 
0 
0 
0 
0 
0 
0 
0 
0 
0.7189117981781248 
0 
0 
0 
1.591000600590268 
0 
0 
0 
0 
0 
0 
0 
0 
0 
0 
0 
0 
0 
0 
1.82334728589075 
0 
0 
0 
0 
1.666894362138511 
0 
0.1587715368142061 
1.968146520913272 
0 
0 
0 
1.87571473461111 
0 
0 
0 
0 
0 
0 
0 
0 
0 
2.137208085553654 
0 
0 
1.244107482761757 
0 
0 
0 
0 
0 
0 
0 
0 
0 
0 
0 
-0.05537716154104731 
0 
0 
0 
0 
0 
0 
0 
0 
0 
0 
0 
0 
0 
0 
0 
0 
0 
0 
0 
0 
0 
0.07619013397163515 
1.446763400809847 
0 
0 
0 
0 
0 
0 
0 
0 
1.437391153656718 
0 
0 
0 
0 
0 
0.1192897058811824 
0 
0 
0 
0 
0 
0 
0 
0 
0 
0 
0 
0 
0 
0 
0 
0 
1.138893649317495 
0.4432371107363421 
0 
0 
0 
0 
0 
0 
0 
0.3809996272540358 
0 
0 
0 
0 
0 
0 
0 
0 
0 
0 
0 
0 
0 
1.039119632954536 
0 
0 
0 
0 
0 
0 
0 
0 
0 
0 
0 
0 
0 
0 
0 
0 
0 
0 
0 
0 
0 
0 
0 
0 
0 
0 
0.8253271279468174 
0.8931263747564714 
0 
0 
0 
0 
0 
0 
0 
1.119464743198036 
0 
0 
0 
0 
0 
0 
0 
0 
0 
0 
0 
0 
0 
0 
0 
0 
0 
0 
0 
-0.3054704382241549 
0 
0 
0 
0 
0 
0 
0 
0 
0 
0 
0 
0 
0 
0 
0 
0 
0 
0 
0 
0 
0 
0 
0 
0 
0 
0 
0 
0 
0 
0 
0 
0 
0 
0 
0 
0 
0 
0 
0 
0 
0 
0 
0 
0 
0 
0 
0 
0 
0 
0 
0 
0 
0 
0 
0 
0 
0 
0 
0 
0 
0 
0 
0 
0 
-0.8508019002469503 
2.70354968763319 
0 
0 
0 
0 
0 
0 
0 
0 
0 
0 
0 
0 
0 
3.597845714317994 
0 
0 
0 
0 
0 
0 
0 
0 
0 
0 
0 
0 
-0.5923286689605717 
0 
0 
0 
0 
0 
0 
0 
0 
0 
0 
0 
0 
0 
0 
0 
0 
0 
0 
0 
0 
0 
0 
0 
0 
0 
0 
0 
0 
0 
0 
0 
0 
0 
0 
0 
0 
0 
0 
0 
0 
0 
0 
0 
0 
0 
0 
0 
0 
0 
0 
0 
0 
0 
0 
0 
0 
0 
0 
0 
0 
0 
0 
0 
0 
0 
0 
0 
0 
0 
0 
0 
0 
0 
0 
0 
0 
0 
0 
0 
0 
0 
0 
0 
0 
0.6358007894411059 
0 
0 
0 
0 
0 
0 
0 
0 
0 
0 
0 
0 
0 
0 
0 
0 
0 
0 
0 
0 
0 
0 
0 
0 
0 
0 
0 
0 
0 
0 
0 
0 
0.6504304757268176 
0 
0 
0 
0.2903177852204347 
0 
0 
0 
0 
0 
0 
0 
0 
0 
0 
0 
0 
0 
0 
0 
0 
0 
0 
0 
0 
0 
0 
0 
1.613064165820729 
0 
0 
0 
0 
0 
0 
0 
0 
0 
0 
0 
0 
0 
0 
0 
1.55679518658774 
0 
0 
0 
0 
0 
0 
0 
0 
0 
0 
0 
0 
0 
0 
0 
0 
0 
0 
0 
0 
0 
0 
0 
0 
0 
0 
0 
0 
0 
0 
0 
0 
0 
0 
0 
0 
0 
0 
0 
0 
0 
0 
0 
0 
0 
0 
1.748055514402179 
0 
0 
0 
0 
0 
0 
0 
0.1172993878677969 
0 
0 
0 
1.321462381340375 
0 
0 
0 
0 
0 
0 
0 
0 
0 
0 
0 
0 
0 
0 
0 
0 
0 
0 
0 
0 
0 
0 
0 
0 
0 
0 
0 
0 
0 
0 
0 
0 
0 
0 
0 
0 
0 
0 
0 
0 
0 
0 
0 
0 
0 
0 
0 
0 
0 
0 
0 
0 
0 
0 
0 
0 
0 
0 
0 
0 
0 
0 
0 
0 
0 
0 
0 
0 
0 
0.65410362549691 
0 
0 
0 
0 
0 
0 
0 
0 
0 
0 
0.7421253181630989 
0 
0 
0 
0 
0 
0 
0 
0 
0 
0 
0 
0 
0 
0 
0 
0 
1.12172684926225 
0 
0 
0 
0 
0 
0 
0 
0 
0 
0 
2.12348138268462 
0 
0 
0 
0 
0 
0 
0 
0 
0 
0 
0 
0 
0 
0 
0 
0 
0 
0 
0 
0 
0 
0 
0 
0 
0 
0 
0 
0 
0 
0 
0 
0 
-1.313533822666997 
0 
0.3183865297985574 
0 
0 
0 
0 
0 
0 
0 
0 
0 
0 
-2.189914922686452 
0 
0 
0 
0 
0 
0 
0 
0 
2.153728089958522 
0 
0 
0 
0 
0 
0 
0 
0 
0 
0 
0 
0 
0 
0 
0 
0 
0 
0 
0 
0 
0 
0 
0 
0 
0 
0 
0 
0 
0 
0 
0 
0 
0 
0 
0 
0 
0 
0 
0 
0 
0 
0 
1.672821276773551 
0 
0 
0 
0 
0 
-3.060703636478118 
0 
0 
0 
0 
0.4704517486617067 
0 
0 
0 
0 
0 
0 
0 
0.635914494050058 
0 
0 
0 
0 
0 
0 
0 
2.262722207492414 
0 
0 
0 
0 
0 
0 
0 
0 
0 
0 
0 
0 
0 
0 
0 
0 
0 
0 
0 
0 
0 
0.07571907896116263 
0 
0 
0 
0 
2.71305434933963 
0 
0 
0 
0 
0 
0 
0 
0 
0 
0.8408963648292763 
0 
0 
0 
0 
0 
0 
0 
0 
0 
0 
0 
0 
0 
0.4697852152967429 
0 
0 
0 
0 
0 
0 
0 
0 
0 
0 
0.7599711051541111 
0 
0 
0 
0 
0 
0 
0 
0.2804220526760137 
0 
0 
0 
0 
0 
0 
0 
0 
0 
0 
0 
0 
0 
0 
0 
0 
-0.3532492777361078 
0 
0 
0 
0.06856492168296618 
0 
0 
0 
-0.09338561331021061 
0 
0 
0 
0 
0 
0 
0 
0 
0.8263447802204118 
1.477653345544127 
-0.1717202243632046 
0 
0 
0 
0.03741518589573146 
0 
1.543712375332022 
0.7105330411446169 
0 
0 
0 
0 
0 
0 
1.940990731130954 
0 
0 
0 
0 
0 
0 
0 
0 
0 
0 
0 
0 
0 
0 
0 
0 
0 
0 
0 
0 
0 
0 
0 
0 
0 
0 
0 
0 
0 
0 
0 
0 
0 
0 
0 
0 
0 
0 
0 
0 
0 
0 
0 
0 
0 
0 
0 
0 
0 
0 
0 
0 
0 
0 
0 
0 
0 
0 
3.564939663666193 
0 
0 
0 
0 
0 
0 
0 
0 
0 
0 
0 
0 
0 
0 
0 
0 
0 
0 
0 
0.2165801085438536 
0 
0 
0 
0 
0 
0.599255354684133 
0 
0 
0 
0 
0.5479325658374843 
0 
0 
0 
0 
0 
0 
0 
0 
0 
0 
0 
0 
0 
0 
0 
0 
0 
0.3752313445036051 
0.2059380040512049 
0 
0 
0 
0 
0 
0 
0 
0 
0 
0 
0 
0 
0 
0 
0.7719732651388319 
0 
0 
0 
-1.023583441569887 
0 
1.462938760033261 
0 
0 
0 
0 
0 
0 
0 
0 
0 
0 
0 
0 
0 
0 
0 
0 
0 
0 
0 
0 
0 
0 
0 
0 
0 
0 
0 
0 
0 
0 
0 
0 
0 
0 
0 
0 
0 
0 
0 
0 
0 
0.5088913831338603 
0 
0 
0 
0 
0 
0 
0 
0 
1.198570092858827 
0 
0 
0 
0 
0 
0 
0 
0.3194868938027115 
0 
0 
0 
-0.8965565141814041 
0 
0 
0 
0 
0 
0 
0 
0.9950071472061478 
0 
0 
0 
0 
0 
0 
0 
0 
0 
0 
0 
0 
0 
0 
0 
0 
0 
0 
0 
2.100785567912319 
0 
0 
0 
0 
0 
0 
0 
0 
0 
0 
0 
2.356211712694762 
0 
0 
0 
0 
0 
0 
1.936674523038587 
0 
0 
0 
0 
0 
0 
0 
0 
0 
0 
0 
0 
0 
0 
0 
0 
0 
0 
0 
0 
0 
0 
0 
0 
0 
0.6285652319644505 
0 
0 
0 
0 
0 
0 
-0.715315124109709 
0 
0 
0 
0 
0 
0 
0.5551705625175054 
0 
0 
0 
-1.115537254798955 
0 
0 
0 
0 
0 
0 
0 
0 
0 
0 
0 
0 
0 
0 
0 
0 
0 
0 
2.321659639611012 
0 
0 
0 
0 
0 
0 
0 
0 
0 
0 
0 
0 
0 
0 
0 
0 
0 
0 
0 
0 
0 
0 
0 
0 
0.05546231178305699 
0 
0 
0 
1.32433503404232 
0 
0 
1.634617019295141 
0 
0 
0 
0 
0 
0 
0 
0 
0 
0 
0 
0 
0 
0 
0 
0 
0 
0 
0 
0 
0 
0 
0 
0 
0 
0 
0 
0 
0 
0 
0 
0 
0 
0 
0 
0 
0 
0 
0 
0 
0 
0 
-0.4225131235057626 
0 
0 
0 
1.229740104334049 
0 
0 
0 
0 
0 
0 
0 
0 
0 
0 
0 
0 
0 
0 
0 
0 
0 
0 
0 
0 
0 
0 
0 
0 
0 
0 
0 
0 
0.5325409935847103 
0.4465257272203006 
0 
0 
0 
0 
0 
0 
0 
0 
0 
0 
0 
0 
0 
0 
0.4222555332676559 
0 
0 
0 
0 
0 
0 
0 
0 
0 
0 
0 
0 
0 
0 
0 
0 
-0.9989031228578563 
0 
0 
0 
0 
0 
0 
0 
0 
0 
0 
0 
0 
0 
0 
0 
0 
2.436683256378317 
0 
0 
0 
0 
0 
0 
0 
0 
0 
0 
0 
0 
0 
0 
0 
0 
0 
0 
0 
0 
0 
0 
0 
0 
0 
0 
0 
0 
0 
0 
0 
0 
0 
0 
0 
0 
0 
0 
0 
0 
0 
0 
0 
0 
0 
0 
0 
0 
0 
0 
0 
0 
0 
0 
0 
-0.1008726461265896 
0 
0 
0 
0 
0 
0 
0 
0 
0 
0 
0 
0 
0 
0 
0 
0 
0 
0 
0 
0 
0 
0 
0 
0 
0 
1.160011725562633 
0 
0 
0 
0 
0 
0 
-1.210072438580639 
0 
0 
0 
0 
0 
0 
0 
0 
0 
0 
0 
0 
0 
0 
0 
0 
0 
0 
0 
1.649962641088238 
0 
2.49057690853401 
0 
0 
0 
0 
0 
0 
0 
0 
0 
0 
0 
0 
0 
0 
0 
0 
0 
0 
0 
0 
0 
0 
0 
0 
0 
0 
0 
0 
0 
0 
0 
0 
0 
0 
0.05689052034540233 
0 
0 
0 
0 
0 
0 
0 
0 
0 
0 
0 
0 
0 
0 
0 
0 
0 
0 
0 
0 
0 
0 
0 
0 
0 
0 
0 
0 
0 
0 
0 
0 
0 
0 
0 
0 
0 
0 
0 
0 
0 
0 
0 
0 
0 
0 
0 
0 
0 
0.6488841884034917 
0 
0 
0 
0 
0 
0 
0 
0 
0.3606031974187272 
0 
0 
0 
0 
0 
0 
0 
0 
0 
0 
0 
0 
0 
0 
-0.3747834211950582 
0 
0 
0 
0 
0 
0 
0 
0.6261788523436668 
0 
0 
0 
0 
0 
0 
0 
0 
0 
0 
0 
0 
0 
0 
0 
0 
0 
0 
0 
0 
0 
0 
0 
0 
0 
0 
0 
0 
0 
0 
0 
0 
0 
0 
0 
0 
0 
0 
0 
0 
0 
0 
0 
0 
0 
0 
0 
0 
0 
0 
0 
0 
0.2702213298371929 
0 
0 
0 
-0.8848171300374083 
0 
0 
0 
0 
0 
0 
0 
0 
0 
0 
0 
0 
0 
0 
0 
0 
0 
0 
0 
0 
0 
0 
0 
0 
0 
0 
0 
0 
0 
0 
0 
0 
0 
0 
0 
0 
0 
0 
0 
0 
0 
0 
0 
0 
0 
0 
0 
0 
1.720000606530936 
0 
0 
0 
0 
0 
0 
0 
0 
0 
0 
0 
0 
0 
0 
0 
0 
0 
0 
0 
0 
0 
0 
0 
0 
0 
0.3754019101401424 
0 
0.04860489463675535 
0 
0 
0 
0 
0 
0 
0 
0 
0 
0 
0 
0 
0 
0 
0 
0 
0 
0 
0 
0 
0 
0 
0 
0 
0 
0 
0 
0 
0 
0 
0 
0 
0 
-0.4179961899147528 
0 
0 
0 
0 
0 
0 
0 
0 
0 
0 
0 
0 
0 
0 
0 
0 
0 
0 
0 
0 
0 
0 
0 
0 
0 
0 
0 
0 
0 
0 
0 
0 
0 
0 
0 
0 
0 
0.3181467221535131 
0 
0 
0 
0 
0 
0 
0 
0 
0 
0 
1.857666611051024 
0 
0 
0 
0 
0 
0 
0 
0 
0 
0 
0 
0 
0 
0 
0 
0 
0 
0 
0 
0 
0 
0 
0.8918546780968895 
0 
0 
0 
0 
0 
0 
0 
0 
0 
0 
0 
0 
0 
0 
0 
0 
2.724347643105006 
0 
0 
0 
0 
0 
0 
0 
0 
0 
0 
0 
0.7565784187643713 
0 
0 
0 
0 
0 
0 
0 
0 
0 
0 
0 
0 
0 
0 
0 
0 
0 
0 
0 
0 
0 
0 
0 
0 
0 
0 
0.1016800626150658 
0 
0 
0.3597282249903871 
0 
0 
0 
1.479713014930063 
0 
0 
0 
0 
0 
0 
0 
0 
0 
0 
0 
0 
0 
0 
0 
0 
0 
0 
0 
0 
0.163223004410499 
0 
0 
0 
0 
0 
0 
0 
0 
0 
0 
0 
0 
0 
0 
0 
0 
0 
0 
0 
0 
0 
0 
0 
0 
0 
0 
0 
0 
0 
0 
0 
0 
0 
0 
0 
0 
0 
0 
0 
0 
0 
0 
0 
0 
0 
0 
0 
0 
0 
0 
0 
0 
0 
0 
0 
0 
0 
0 
0 
0 
0 
0 
1.412256691553048 
0 
0 
0 
0 
0 
0 
0 
0 
0 
0 
0 
0 
0 
0 
0 
0 
0 
0 
0 
0 
0 
0 
0 
0 
0 
0 
0 
0 
0 
0 
0 
0 
0 
0 
0 
0 
0 
0 
0 
0 
0 
0 
0 
0 
0 
0 
0 
0 
0 
0 
0 
0 
0 
0 
0 
0 
0 
0 
0 
0 
0 
0 
0 
0 
0 
0 
0 
0 
0 
0 
0 
0 
0 
0 
0 
0 
0.9257191415845847 
0 
0 
0 
0 
0 
0 
0 
0 
0 
0 
0 
0 
0 
0 
0 
0 
0 
0 
0 
0 
0 
0 
0 
0 
0 
0 
0.1985161939722361 
0 
0 
0 
0 
0 
0 
0 
0 
0 
0 
0 
0 
0 
0 
0 
0.8133398038021585 
0 
0 
0 
0 
0 
0 
0 
0 
0 
0 
0 
0 
0 
0 
0 
0 
0 
0 
0 
0 
0 
0 
0 
0 
0 
0 
0 
0 
0 
0 
0 
0 
0 
0 
0 
0 
0 
0 
0 
0 
0 
0.9914551342132213 
0 
0 
0 
0 
0 
0 
0 
0 
0 
0 
0 
0 
0 
0 
0 
0 
0 
0 
0 
0 
0 
0 
0 
0 
0 
0 
0 
0 
0 
0 
0 
0 
0 
0 
0 
0 
0 
0 
0 
0 
0 
0 
0 
0 
0 
0 
0 
0 
0 
0 
0 
0 
0 
0 
0 
0 
0 
0 
0 
0 
0 
0 
0 
0 
0 
0 
0 
0 
0 
0 
0 
0 
0 
0 
0 
1.161168000336033 
0 
0 
0 
0 
0 
0 
0 
0 
0 
0 
0 
0 
0 
0 
0 
0 
0 
0 
0 
0 
0.2595064292127676 
0 
0 
0 
0 
0 
0 
0 
0 
0 
0 
0 
0 
0 
0 
0 
0 
0 
0 
0 
0 
0 
0 
0 
0 
0 
0 
0 
0 
0 
3.00497260470721 
1.705358241273895 
0 
0 
0 
0 
0 
0 
0 
0 
0 
0 
0 
0 
0 
0 
0 
0 
0 
0 
0 
0 
0 
0 
0 
0 
0 
0 
0 
0 
0 
0 
0 
-0.01102693988339519 
0 
0 
0 
0 
0 
1.041338879828923 
0 
0 
0.981334248909515 
0 
0.7909589355654773 
0 
0 
0 
0.5479820532837718 
0 
0 
0 
0 
0 
0 
0 
0 
0 
0 
0 
0 
0 
0 
0 
0 
0 
0 
0 
0.572513668447217 
0 
0 
0 
0 
0 
0 
0.6675327665546462 
0 
0 
0.5152999091094057 
0 
0 
0 
3.273894175204967 
0 
0 
0 
0 
0 
0 
0 
0 
0 
0 
0 
0 
0 
0 
0 
0 
0 
0 
0 
0 
0 
0 
0 
0 
-0.3689046505370859 
0 
0 
0.2759896295627957 
0 
0 
0 
0 
0 
0 
0 
0 
0 
0 
0 
0 
0 
0 
0 
0 
0 
-0.1538405079010102 
0 
0 
0 
0 
0 
0 
0 
0 
0 
0 
0 
0 
0 
0 
2.29841229649689 
0 
0 
0 
2.975080200191372 
0 
0 
0 
0 
0 
0 
0 
0 
0 
0 
0 
0 
0 
0 
0 
0 
0 
0 
0 
0 
0 
0 
0 
0 
0 
0 
0 
0 
0 
0 
0 
0 
0.0002965845462934865 
0 
0 
0 
0 
0 
0 
0 
0 
0 
0 
0 
0 
0 
0 
0 
0 
0 
0 
0 
2.007627014961415 
0 
0 
0 
0 
0 
0 
0 
0 
0 
0 
0 
0 
0 
0.4616202275209606 
0 
0 
0 
0 
0 
0 
0 
1.019096240167056 
0 
0 
0 
0 
0 
0 
0 
0 
0 
0 
0 
0 
0 
0 
0 
0 
0 
0 
0 
0 
0 
0 
0 
0 
0 
0 
0 
0 
0 
0 
0 
0 
0 
0 
0 
0 
0 
0 
0 
0 
0 
0 
0 
0 
0 
0 
0.3462234664594024 
0.01179913228669512 
0 
0 
0 
0 
0 
0 
0 
0 
0 
0 
0 
0 
0 
0 
0 
0 
0 
0 
0 
0 
0 
0 
0 
0 
0 
0 
0.8120209284902646 
0 
0 
0 
0 
0 
0 
0 
0 
0 
0 
0 
0 
0 
0 
0 
0 
0 
0 
0 
0 
0 
0 
0 
-0.4061486544757225 
0 
0 
0 
0 
0 
0 
0 
0 
0 
0.8292504643673467 
0 
0 
0 
0 
0 
0 
0 
1.028868497056009 
-0.6542790475834755 
0 
0 
0 
0 
0 
0 
0 
0 
0 
0 
0 
0 
0 
0 
0 
0 
0 
0 
0 
0 
0 
1.387724101616217 
0 
0 
0 
0 
0 
0 
0 
0 
0 
0 
0 
0 
0 
0 
0 
0.1318894736761606 
0 
0 
0 
0 
0 
0 
0 
0 
0 
2.047234626036146 
0 
0 
0.6997301888961777 
-0.08688529275842521 
0 
0 
0 
1.511871901538028 
0 
0 
0 
0 
0 
0 
0 
0 
0 
0 
0 
0 
0.7758337844307155 
0 
0 
0 
0 
0 
0 
0 
0 
1.108827665151517 
0 
0 
0 
0 
0 
0 
0 
0 
0 
-1.871993960341473 
0 
3.273932347734956 
0 
-1.978000007752648 
0 
0 
0 
0 
0 
0 
0 
0 
0 
0 
0 
0 
0 
0 
0 
0 
0 
0 
0 
0 
0 
0 
0 
0 
0 
0 
0 
0 
0.8635277651408503 
0 
0 
0 
0 
0 
0 
0 
0 
0 
0 
0 
0 
0 
0 
-0.4443312599996393 
0 
0 
0 
0 
0 
0 
0 
0 
0 
0 
0 
0 
0 
0 
0 
0 
0 
0 
0 
0 
0 
0 
0 
0 
0 
0 
0 
0 
0 
0 
0 
0 
0 
1.26121732547963 
0 
0 
1.573712564330088 
0 
0 
0 
0 
0 
0 
0 
1.586308290394335 
0 
0 
0 
0 
0 
0 
0 
0 
0 
0 
0 
0 
0.1118453637069746 
0 
0 
0 
0 
0 
0 
0 
0.3500949033941728 
0 
0 
0 
0 
0 
0 
0 
0 
0 
